{"model_data": {"model": "SimpleRNN", "input_size": 2, "skip": 1, "output_size": 1, "unit_type": "LSTM", "num_layers": 1, "hidden_size": 16, "bias_fl": true}, "state_dict": {"rec.weight_ih_l0": [[0.05619334429502487, -0.05894435569643974], [0.0410509891808033, -0.5932199358940125], [-0.02522028237581253, -0.39009222388267517], [0.024118563160300255, -0.0029870844446122646], [0.23411674797534943, -0.29886752367019653], [0.2345413863658905, -0.5147228837013245], [-0.12675237655639648, 1.9801645278930664], [-0.03199624642729759, -0.08900078386068344], [0.20644907653331757, -0.0748489648103714], [-0.1625422239303589, 0.49671927094459534], [-0.08434300124645233, 0.49699094891548157], [-0.00928490050137043, -0.05870487913489342], [-0.8067611455917358, -0.6248101592063904], [-0.06831522285938263, 0.3298252522945404], [0.00845993310213089, -0.4697524309158325], [0.5610040426254272, -0.6412720680236816], [0.033587004989385605, 0.12972292304039001], [-0.003270880552008748, 0.42348942160606384], [-0.03592867776751518, 0.039867013692855835], [0.10062751919031143, 0.130978062748909], [0.20463885366916656, 0.40792331099510193], [0.16733385622501373, 0.4363207221031189], [0.1875833421945572, 0.4450458288192749], [-0.009888816624879837, -0.40274062752723694], [0.3616833984851837, -0.09025174379348755], [-0.07850434631109238, 0.35189321637153625], [-0.06254507601261139, 0.3097442090511322], [0.14084407687187195, 0.3110812306404114], [-0.36442795395851135, 0.5427718758583069], [-0.22744305431842804, 0.26252496242523193], [-0.09975431114435196, 0.6571522951126099], [0.06716062873601913, 0.9130803346633911], [-0.8262559175491333, -0.035133905708789825], [0.03801245987415314, -0.02553490176796913], [-0.2028842270374298, -0.2961932420730591], [-0.7180914282798767, 0.030157970264554024], [0.2868718206882477, 0.02728428691625595], [-0.025226958096027374, -0.0030317397322505713], [0.160429447889328, -0.14815686643123627], [-0.5125044584274292, -0.4156132936477661], [-0.9084429144859314, 0.11027897894382477], [-3.6715335845947266, -0.16337652504444122], [-0.3111317753791809, -0.049588996917009354], [-0.802216112613678, 0.25951191782951355], [0.07816627621650696, 0.11901554465293884], [0.10841094702482224, 0.008569411933422089], [-0.25942400097846985, -0.0318954773247242], [-0.24624896049499512, -0.06897436827421188], [0.14426785707473755, -0.1603139340877533], [-0.12526634335517883, 0.37339869141578674], [0.017700735479593277, 1.2401342391967773], [0.05812211334705353, 0.3668099343776703], [0.12412805110216141, 0.3185505270957947], [0.05902569741010666, 0.048343539237976074], [0.06267035752534866, -0.6601788997650146], [-0.026167701929807663, 0.0825934186577797], [0.3202441930770874, 0.07664040476083755], [-0.0015755658969283104, 0.43800079822540283], [-0.15254974365234375, -0.5917526483535767], [0.020018642768263817, 0.12975206971168518], [-0.2014470249414444, -0.017995771020650864], [0.2446439564228058, -0.037456169724464417], [-0.039741165935993195, 0.5588787794113159], [-0.10127297788858414, 0.31439101696014404]], "rec.weight_hh_l0": [[0.11401917040348053, 0.08443157374858856, -0.08313387632369995, 0.08983596414327621, -0.049326345324516296, -0.15275777876377106, 0.01718493364751339, 0.06546276807785034, 0.019618019461631775, -0.0404977910220623, 0.232424795627594, 0.022089717909693718, 0.05197901278734207, -0.08187474310398102, -0.11015811562538147, -0.05543481931090355], [-0.09468445926904678, -0.025519292801618576, -0.8090347647666931, -0.0007597820949740708, 0.15645651519298553, -0.20371024310588837, 0.2424069195985794, -0.3353872001171112, 0.4320531189441681, -0.19379258155822754, -0.15028786659240723, 0.16647735238075256, -0.03553934022784233, -0.4189421832561493, -0.1341409981250763, 0.03748566657304764], [-0.0018120243912562728, 0.1349746435880661, 0.1520611047744751, 0.18106403946876526, -0.23989230394363403, -0.013311455026268959, 0.27620163559913635, 0.5308344960212708, -0.19889459013938904, -0.0551283024251461, 0.1740598827600479, -0.333972692489624, 0.2592686116695404, 0.1260010004043579, -0.041408322751522064, -0.22981105744838715], [-0.038284119218587875, 0.1436348408460617, -0.1961180716753006, 0.21827182173728943, -0.3660847544670105, 0.11629457026720047, -0.03640221431851387, 0.18786779046058655, -0.18491080403327942, -0.06342338025569916, -0.0009232929442077875, -0.17027181386947632, 0.18644428253173828, -0.229030042886734, -0.0226117055863142, 0.3170211613178253], [0.2279249131679535, -0.17311325669288635, -0.6155093908309937, -0.27673646807670593, 0.027876708656549454, -0.23952144384384155, 0.14619289338588715, -0.005678233224898577, -0.04253162816166878, -0.35349905490875244, -0.22958484292030334, 0.42069241404533386, 0.13274849951267242, -0.2664428949356079, 0.037223804742097855, 0.24621057510375977], [-0.01129662524908781, -0.22619761526584625, -0.9266774654388428, -0.008469581604003906, 0.3293214738368988, 0.12817852199077606, 0.2894315719604492, -0.2805402874946594, 0.3973734378814697, -0.2332073152065277, -0.37172526121139526, 0.251013845205307, -0.4370058476924896, -0.4159024953842163, 0.045871417969465256, -0.12000532448291779], [0.11578741669654846, -0.016805114224553108, -0.18573640286922455, 0.7626901865005493, -0.00023560783301945776, 0.06924063712358475, -0.4249992072582245, -0.8438833355903625, 0.03200535103678703, 0.09609565883874893, -0.5971717834472656, 0.1217634454369545, -0.02431320957839489, -0.7580205202102661, 0.17160680890083313, -0.10103997588157654], [-0.13671013712882996, 0.17351767420768738, 0.31338703632354736, -0.1427999883890152, 0.1494380682706833, 0.05775641277432442, -0.46215763688087463, 0.055038806051015854, -0.06879734247922897, -0.006995439063757658, 0.16890212893486023, 0.0634351447224617, 0.07948534190654755, 0.19971317052841187, 0.11686767637729645, 0.2555689513683319], [0.42690354585647583, -0.07052341103553772, 0.04128175601363182, -0.046225406229496, 0.01642698422074318, -0.08026746660470963, -0.08976425230503082, 0.031946491450071335, -0.012141070328652859, 0.13003751635551453, -0.07372715324163437, -0.05435098707675934, 0.047963663935661316, 0.16544516384601593, -0.13299880921840668, 0.08620993047952652], [-0.27671492099761963, -0.26200172305107117, 0.6433096528053284, -0.1022394597530365, -0.8127185106277466, -0.5737091302871704, -0.3173990845680237, -0.43206271529197693, 0.18440310657024384, 0.06677446514368057, -0.043373532593250275, -0.015492475591599941, 1.5645172595977783, -0.059780314564704895, 0.03205568343400955, 0.8051179051399231], [0.7638995051383972, 0.2358848750591278, -0.3223060369491577, -0.3855029046535492, -0.3167833089828491, 0.07975059747695923, 0.5289607644081116, -0.09992823004722595, 0.4333705008029938, -0.08690440654754639, 0.7359644770622253, 0.2318444699048996, -0.03740367293357849, 0.8601018190383911, -0.14084313809871674, -0.06815121322870255], [-0.14294371008872986, 0.24836039543151855, 0.23880831897258759, -0.25154608488082886, -0.10971671342849731, 0.05091987922787666, -0.332180917263031, -0.18259455263614655, 0.1544625461101532, -0.03541841357946396, 0.18980467319488525, 0.08717186748981476, -0.07139433175325394, 0.19901162385940552, -0.08344252407550812, 0.46103882789611816], [0.0602591298520565, -0.09084365516901016, -1.0622013807296753, 0.7407277226448059, -0.42868462204933167, 0.15734142065048218, 0.027402855455875397, -0.16980187594890594, 0.6892114877700806, -0.16683915257453918, 0.09812398999929428, 0.11997788399457932, 0.05509578809142113, -0.1796010136604309, -0.2955920696258545, -0.5525705814361572], [-0.007537206169217825, -0.08555889874696732, 0.06803221255540848, 0.009656781330704689, 0.006646446883678436, 0.11689183861017227, 0.00024219817714765668, 0.08908649533987045, 0.21940705180168152, 0.11814718693494797, 0.13609470427036285, -0.1913532167673111, -0.06449615210294724, 0.28032249212265015, 0.045301634818315506, 0.06199101731181145], [-0.1162637397646904, -0.07712655514478683, -0.4030967652797699, 0.03216772899031639, -0.028237026184797287, -0.31614434719085693, 0.010553769767284393, -0.06627411395311356, 0.609150767326355, -0.3029998242855072, 0.14498047530651093, -0.1052737683057785, 0.26434165239334106, -0.08114020526409149, -0.12144120782613754, 0.15761150419712067], [-0.1375962197780609, -0.16203176975250244, -0.6912786364555359, -0.4856325089931488, 0.4998709261417389, 0.1188320592045784, 0.26635125279426575, -0.3218785524368286, 0.5179308652877808, -0.5688719153404236, -0.47287529706954956, -0.030359342694282532, -0.9513262510299683, -0.39192575216293335, 0.023112433031201363, -0.1675986796617508], [0.019362300634384155, 0.29513198137283325, 0.2543210983276367, 0.08299410343170166, 0.08475340902805328, 0.027089344337582588, -0.1845339983701706, 0.14581654965877533, 0.11879544705152512, 0.04149525240063667, 0.5240278840065002, -0.09691494703292847, 0.005466301925480366, 0.17055360972881317, -0.008868022821843624, -0.1702137440443039], [-0.3089718222618103, 0.13013742864131927, 0.9375678896903992, 0.1896749883890152, 0.20164687931537628, -0.15846481919288635, -0.2884351909160614, 0.07363405078649521, -0.888410747051239, 0.199067160487175, 0.2047380805015564, -0.04710659757256508, 0.16110728681087494, 0.6176628470420837, -0.2636134624481201, -0.16996964812278748], [0.11971145868301392, 0.05802125483751297, 0.2911336123943329, -0.08001965284347534, -0.027299344539642334, 0.0008101594285108149, -0.009556518867611885, 0.46048909425735474, -0.20352698862552643, -0.34679755568504333, 0.0004991427413187921, -0.19572213292121887, -0.0805596187710762, 0.1716642677783966, -0.049686234444379807, 0.016701195389032364], [0.12000812590122223, -0.07350414246320724, 0.6366366744041443, 0.125253826379776, 0.0541682243347168, -0.027203403413295746, -0.3842514157295227, 0.40490227937698364, -0.36114001274108887, -0.08282482624053955, 0.4881599545478821, -0.31874486804008484, 0.12510249018669128, 0.44166645407676697, -0.01280877087265253, -0.021122751757502556], [-0.16463682055473328, 0.1845257431268692, 0.41498449444770813, -0.22084268927574158, 0.05475015193223953, 0.08726732432842255, 0.050325438380241394, 0.18165285885334015, -0.2812719941139221, 0.13439610600471497, 0.7173382043838501, -0.1510535031557083, -0.35142096877098083, 0.6116277575492859, -0.16093380749225616, 0.053501028567552567], [0.09122458100318909, 0.13051068782806396, 1.048707365989685, 0.13282011449337006, -0.11932206898927689, 0.11864205449819565, -0.3243124186992645, 0.035038650035858154, -0.439056396484375, 0.14145620167255402, 0.6634343862533569, -0.33484476804733276, 0.32644590735435486, 0.597144603729248, 0.19143854081630707, -0.1462429314851761], [0.18979844450950623, 0.10116645693778992, 0.3427705764770508, -0.09492319822311401, -0.2941005527973175, 0.284441739320755, -0.10540202260017395, -0.5432633757591248, -0.1323961317539215, -0.010337147861719131, -0.026028886437416077, -0.02691708691418171, -0.36339691281318665, -0.03994116559624672, 0.01986510306596756, -0.3123490512371063], [-0.040221698582172394, 0.02506023645401001, 0.2804083526134491, -0.29885953664779663, 0.0946863517165184, -0.00224964483641088, -0.2157202810049057, 0.03239171952009201, 0.05113552510738373, -0.012908347882330418, -0.0701112449169159, 0.019536813721060753, -0.2200741022825241, 0.05115285888314247, 0.14919324219226837, 0.2879200875759125], [0.45297548174858093, -0.10677459836006165, 0.030526980757713318, -0.19731438159942627, 0.25789138674736023, 0.022930458188056946, -0.034416791051626205, -0.020462682470679283, 0.11986862868070602, 0.04474806785583496, 0.19806498289108276, -0.02990073338150978, -0.1469806581735611, 0.037864718586206436, -0.17769820988178253, -0.1410641223192215], [-0.040372904390096664, -0.13535462319850922, 0.1595134437084198, -0.07211102545261383, -0.38985905051231384, -0.12320281565189362, -0.15200866758823395, -0.021365368738770485, 0.00875475537031889, 0.36443811655044556, -0.0024708544369786978, -0.13193745911121368, 0.6438453793525696, -0.0033734284806996584, 0.0360003300011158, 0.5347607135772705], [0.2760743498802185, 0.18831771612167358, 0.14365112781524658, -0.07408285140991211, -0.0199491735547781, 0.058141522109508514, -0.09594844281673431, 0.14596416056156158, 0.1828729659318924, 0.0107275927439332, 1.310945987701416, -0.2099783569574356, -0.061707012355327606, 0.8207714557647705, -0.00872779730707407, -0.017929576337337494], [0.3625176250934601, 0.20129191875457764, 0.07847923785448074, -0.1367950290441513, 0.1858801692724228, 0.06006758660078049, -0.4073813855648041, -0.31146904826164246, 0.12093648314476013, -0.007365508005023003, 0.11100887507200241, 0.1002689003944397, -0.23459473252296448, -0.16988518834114075, -0.06342394649982452, 0.13955414295196533], [0.08808540552854538, 0.17757369577884674, 0.9123221039772034, 0.3723011016845703, -0.7104187607765198, -0.007022568956017494, -0.6232548356056213, -0.3574102520942688, -0.3391013741493225, 0.0523986741900444, -0.1439688801765442, -0.13772249221801758, -0.02032521180808544, 0.45790985226631165, 0.021314678713679314, 0.18551421165466309], [0.11241892725229263, 0.0885467529296875, 0.23326025903224945, -0.19570250809192657, -0.2653360962867737, -0.0071320682764053345, -0.12450169026851654, 0.5288633704185486, 0.16520579159259796, 0.03164088353514671, 0.9005686640739441, -0.385397732257843, -0.050658661872148514, 0.7998912334442139, 0.06770463287830353, 0.16823351383209229], [0.05811631307005882, 0.34561243653297424, 1.0406345129013062, 0.004328054375946522, 0.016838300973176956, 0.03008538857102394, 0.02795359119772911, 0.2047579437494278, -0.7064379453659058, 0.26434317231178284, 0.1703299731016159, 0.05196649953722954, -0.3085331618785858, 0.49049630761146545, -0.0021197833120822906, 0.04966646060347557], [0.19153179228305817, -0.02522418648004532, 0.9678456783294678, 0.4931417405605316, 0.013144124299287796, -0.2548298239707947, -0.22283625602722168, -0.30484136939048767, -0.7758899331092834, 0.4145908057689667, 0.5146640539169312, -0.35042431950569153, 0.7653031945228577, 0.4265440106391907, 0.08369690179824829, 0.013001068495213985], [0.19982539117336273, -0.04693961143493652, -0.20099852979183197, -0.8247337937355042, 0.017005153000354767, -0.13806968927383423, -0.006101337261497974, 0.09497930109500885, 0.7183085083961487, 0.15590998530387878, -0.31974005699157715, -0.5933447480201721, 0.1556737720966339, -0.44430747628211975, 0.039124831557273865, -0.39234158396720886], [-0.1644367128610611, 0.4621848464012146, -0.2026122659444809, 0.25240325927734375, -0.05459045246243477, -0.23486728966236115, 0.21308942139148712, 0.30539390444755554, 0.012394262477755547, -0.03832124546170235, -0.00033556442940607667, -0.10806631296873093, 0.08101257681846619, -0.008481932803988457, -0.9754425287246704, -0.24467846751213074], [0.13848556578159332, 0.17271117866039276, 0.07540546357631683, -0.2899859845638275, -0.26471778750419617, 0.09576525539159775, -0.2710976302623749, 0.4877840578556061, -0.10638933628797531, -1.0957342386245728, 0.11819197982549667, -0.06768167018890381, -0.22921444475650787, -0.03225502744317055, 0.011263782158493996, 0.9254510402679443], [0.48310762643814087, 0.29371097683906555, 0.1242404654622078, 0.10593079775571823, 0.5399430394172668, -0.000762829149607569, -0.14548762142658234, 0.042145293205976486, -0.03910244628787041, 0.7536075115203857, -0.35111498832702637, -0.275352418422699, 0.4261747896671295, 0.24680504202842712, -0.12324178963899612, -0.4556448757648468], [-0.07775523513555527, 0.20787881314754486, -0.0666632205247879, -0.45292261242866516, 0.1376534104347229, 0.29047566652297974, -0.7374263405799866, -0.3341637849807739, -0.06286241859197617, 0.16452880203723907, -0.19743318855762482, 0.15854968130588531, -0.34156113862991333, 0.17858684062957764, -0.06195872277021408, 0.04249892383813858], [0.31174418330192566, -0.2647565007209778, -0.19938170909881592, 0.23356445133686066, -0.2236126959323883, 0.1800144910812378, 0.27182990312576294, 0.43440258502960205, -0.18615178763866425, 0.0535220243036747, 0.14860279858112335, -0.26850444078445435, 0.03280182182788849, -0.10365131497383118, 0.5654130578041077, -0.5049887299537659], [0.1331995278596878, 0.0005806208355352283, -0.4808851182460785, 1.381119966506958, -0.32789215445518494, 0.0008761290810070932, 1.1779427528381348, 0.6002721190452576, -0.24125097692012787, 0.7651790380477905, 0.2518410384654999, -0.44888725876808167, 0.17299962043762207, 0.05629291757941246, -0.060739196836948395, -0.9323136210441589], [0.25288286805152893, -0.05260266736149788, -0.46234849095344543, 0.34987643361091614, 0.836703896522522, -0.04608869180083275, 0.29653504490852356, 0.18181544542312622, 0.038017742335796356, -0.7934376001358032, -0.17534266412258148, -0.47669658064842224, 0.2382366955280304, 0.09992219507694244, -0.018707865849137306, 0.35356929898262024], [-0.39926138520240784, 0.16237303614616394, 0.026014449074864388, -0.6035143136978149, -0.1475622057914734, 0.41288718581199646, -0.08680065721273422, -0.605404794216156, 0.050770483911037445, 0.07641929388046265, 0.6763537526130676, -0.47721782326698303, -0.24155840277671814, -0.11137819290161133, 0.0652286559343338, -0.2536065876483917], [-0.08924185484647751, 0.015966201201081276, 0.0205195564776659, -0.055977653712034225, -0.039470963180065155, 0.01772039756178856, -0.025491813197731972, -0.04837566614151001, 0.042753495275974274, 0.44712963700294495, 0.00793243944644928, 0.08976776152849197, 0.12757337093353271, -0.04000185430049896, -0.0057122851721942425, -0.740021824836731], [-0.2920726537704468, -0.39465200901031494, 0.020658696070313454, 0.651523768901825, 1.058249592781067, -0.31439366936683655, 0.27843794226646423, 0.8131424188613892, -0.5253576040267944, -0.5373125076293945, 0.11291804164648056, 0.11374082416296005, 0.5019291043281555, -0.5431840419769287, 0.20708201825618744, 0.38461756706237793], [0.5009050369262695, 0.10329011082649231, 0.3745744228363037, -0.14836210012435913, 0.08358985185623169, -0.011390634812414646, -0.07981729507446289, 0.5299704074859619, -0.015841972082853317, -0.972024142742157, -0.42066848278045654, -0.009466808289289474, -0.0883696898818016, 0.10172225534915924, -0.1165006011724472, 0.33243757486343384], [-0.1189328283071518, -0.27631324529647827, 0.1270340383052826, -0.32094746828079224, -0.13291248679161072, -0.2421732395887375, -0.31808751821517944, -0.6288121938705444, -0.024231385439634323, -0.4625452160835266, -0.029526572674512863, 0.23246030509471893, 0.22189027070999146, 0.02750823274254799, 0.03585457801818848, -0.16068856418132782], [0.7704046368598938, 0.40577077865600586, -0.0011693021515384316, -0.7875463962554932, -0.6330706477165222, 0.3531191945075989, 0.07288575172424316, -0.06549619138240814, 0.034617915749549866, 0.5775938034057617, -0.9592950940132141, 0.22613540291786194, -0.18455080687999725, 0.23113827407360077, -0.2894054055213928, -0.26070547103881836], [-0.38205191493034363, 0.7180530428886414, -0.0709589347243309, 0.027565259486436844, 0.01877889409661293, -0.4173775613307953, -0.03358945995569229, -0.039556834846735, -0.12645317614078522, -0.11386283487081528, -0.2553079426288605, -0.07955384999513626, 0.038842905312776566, 0.32446274161338806, 0.24190738797187805, -0.02299404889345169], [0.0790661871433258, 0.27787795662879944, -0.12540768086910248, 0.4162476062774658, -0.37307995557785034, 0.48305538296699524, -0.028761228546500206, -0.020843110978603363, 0.009763124398887157, 0.5199419856071472, 0.02027735486626625, -0.06645328551530838, -0.13540232181549072, 0.05854418873786926, -0.02450481802225113, 0.31293389201164246], [0.13263893127441406, 0.0845215693116188, -0.0923546627163887, -0.009102393873035908, -0.13022738695144653, -0.1897934079170227, 0.2032061517238617, 0.010679470375180244, -0.17851993441581726, -0.0057932063937187195, -0.11341211944818497, 0.048510584980249405, -0.07461967319250107, -0.6035110354423523, -0.20785784721374512, 0.04363473132252693], [-0.3571694791316986, 0.3151586651802063, -0.17993363738059998, 0.09868243336677551, -0.012689768336713314, 0.31597569584846497, 0.0606306828558445, 0.22523614764213562, -0.017843080684542656, 0.026880662888288498, -0.3565842807292938, 0.05802513286471367, -0.23970063030719757, -0.0839918851852417, -0.040323466062545776, 0.07199113070964813], [0.47589972615242004, -0.08864107728004456, 0.6680833697319031, 0.6255109906196594, -0.3721639811992645, -0.10066259652376175, -0.3114403486251831, -0.20302897691726685, -0.02393587864935398, -0.22770661115646362, 0.24142560362815857, -0.2496347427368164, 0.9457893967628479, -0.4995814859867096, 0.18977577984333038, 0.05762077495455742], [-0.18809252977371216, 0.12027263641357422, 0.1569521129131317, 0.012365270406007767, -0.03500228375196457, 0.10978744924068451, -0.1879885494709015, -0.014707107096910477, -0.165766641497612, -0.06657152622938156, 0.24568408727645874, -0.04376605153083801, 0.047095123678445816, 0.2777244746685028, 0.01606817916035652, 0.11703085154294968], [-0.002117925090715289, 0.077234648168087, 0.33808109164237976, -0.3366878628730774, 0.1589849442243576, -0.012782118283212185, 0.2087649255990982, 0.03517762944102287, -0.14693939685821533, 0.018033595755696297, 0.1958412081003189, 0.23194465041160583, -0.05907014012336731, 0.08294019848108292, -0.006180469412356615, 0.031973544508218765], [-0.1473102569580078, 0.03190736845135689, -0.24679593741893768, 0.29138991236686707, -0.028104372322559357, 0.503291666507721, -0.03909190744161606, 0.030295051634311676, 0.03832235932350159, 0.11167681217193604, -0.16257870197296143, -0.24262364208698273, -0.029224244877696037, 0.0038489545695483685, -0.043785493820905685, -0.16232439875602722], [-0.35001683235168457, -0.13030828535556793, 0.056497521698474884, -0.25031962990760803, -0.20377959311008453, -0.02837008237838745, -0.7122044563293457, 0.0630025565624237, 0.08843758702278137, -0.056666627526283264, 0.6684853434562683, -0.22633448243141174, 0.1786976456642151, 0.39781051874160767, -0.04198170080780983, 0.2263863980770111], [0.016022436320781708, 0.14122486114501953, 0.34987133741378784, -0.14919987320899963, 0.07394315302371979, 0.06237402558326721, -0.323458194732666, 0.04189733415842056, -0.03659604489803314, -0.05040536820888519, 0.18650434911251068, 0.08752799034118652, 0.0240589901804924, 0.40403035283088684, 0.08751830458641052, 0.20378512144088745], [0.3810053765773773, -0.023565979674458504, 0.06309324502944946, 0.04963916912674904, 0.2720005214214325, -0.06552884727716446, -0.15588349103927612, 0.16495291888713837, -0.24410486221313477, 0.2180454134941101, -0.1619109809398651, -0.0909264087677002, 0.032568708062171936, 0.20370742678642273, -0.13979025185108185, -0.08579079806804657], [-0.07475913316011429, 0.15833580493927002, 0.4221078157424927, 0.4488333761692047, -0.3444996476173401, 0.01623329147696495, 0.18036368489265442, 0.22756652534008026, -0.15282747149467468, 0.3160732686519623, 0.2692529857158661, -0.4802767038345337, 0.8524402379989624, 0.07300607860088348, 0.0985434427857399, 0.19227230548858643], [0.5579612851142883, 0.38091278076171875, -0.04221401363611221, -0.7140582799911499, -0.8027801513671875, 0.1706901639699936, 0.06627511978149414, -0.0949808731675148, 0.368474543094635, 0.07861766964197159, 0.9460723996162415, -0.09515678137540817, -0.1512477546930313, 1.8157544136047363, -0.06875639408826828, 0.17227457463741302], [-0.1284007728099823, 0.19940893352031708, 0.25887301564216614, -0.17497508227825165, 0.0032692027743905783, 0.04001946002244949, -0.2460281401872635, -0.11846189200878143, -0.029410505667328835, -0.08831650018692017, 0.23327471315860748, 0.13938920199871063, -0.05249323695898056, 0.27865463495254517, -0.06554259359836578, 0.32287734746932983], [0.05094195157289505, 0.12966550886631012, 0.1542033851146698, 0.01888715662062168, -0.20558756589889526, 0.2741085886955261, -0.07440068572759628, 0.052469633519649506, 0.1403408646583557, 0.020816246047616005, 0.23551976680755615, -0.16869623959064484, -0.35397303104400635, 0.2051965743303299, 0.1259375810623169, 0.43199533224105835], [0.20653136074543, 0.2375335991382599, 0.024122098460793495, -0.4289230406284332, 0.056594368070364, -0.269210547208786, 0.14560946822166443, 0.4257913827896118, 0.19884026050567627, 0.008928376249969006, 0.7699071168899536, -0.235402449965477, -0.17449644207954407, 0.2332521677017212, -0.5351567268371582, -0.4242653548717499], [-0.053144726902246475, 0.22201944887638092, 0.16880570352077484, 0.20800721645355225, -0.07533818483352661, 0.240627259016037, 0.005432595033198595, 0.0067225256934762, -0.19050481915473938, -0.08913787454366684, 0.15158669650554657, 0.006794530898332596, 0.16867822408676147, 0.07872412353754044, -0.05082688480615616, 0.07531625032424927], [0.031195344403386116, 0.04833388701081276, 0.197982519865036, 0.20919650793075562, -0.18563494086265564, 0.04279759153723717, -0.33645954728126526, -0.25569677352905273, -0.0749102383852005, 0.059698574244976044, 0.30734553933143616, -0.2786071002483368, -0.10302708297967911, 0.3099672496318817, 0.045253537595272064, -0.6375612616539001]], "rec.bias_ih_l0": [0.1607012301683426, -1.0509392023086548, 0.16753946244716644, -0.1189442053437233, -0.526556670665741, -0.9231094717979431, -0.014390910044312477, 0.36243510246276855, 0.15044847130775452, -0.4604107439517975, -0.3531389832496643, 0.052100278437137604, -0.7550991177558899, -0.0011705326614901423, -1.290461778640747, -0.8853548765182495, 0.3767493665218353, 1.5292136669158936, 0.3166557848453522, 0.3272995054721832, 0.7457209229469299, 1.4754873514175415, 0.26030969619750977, 0.12322845309972763, 0.1691783368587494, 0.06262895464897156, 0.3258897066116333, 0.13366542756557465, 1.1632872819900513, 0.3875369131565094, 1.609504222869873, 1.0249767303466797, 0.3174813985824585, 0.13889046013355255, 0.27391180396080017, -0.15456333756446838, -0.024276986718177795, 0.10550929605960846, 0.10594384372234344, 0.12179630994796753, -0.22103740274906158, -0.01828378438949585, 0.23822245001792908, -0.343704491853714, -0.13354673981666565, 0.2129109799861908, -0.18537172675132751, 0.08586964756250381, 0.26142624020576477, 0.0649045929312706, 0.4867261052131653, 0.5635003447532654, 0.22005298733711243, -0.03723856434226036, -0.25651535391807556, 0.454814076423645, 0.18355412781238556, 0.25593996047973633, -0.14633046090602875, 0.18429778516292572, 0.3409276008605957, 0.1372959315776825, 0.061597876250743866, 0.3202853798866272], "rec.bias_hh_l0": [0.1850406974554062, -1.1865770816802979, 0.3413674533367157, -0.18405508995056152, -0.6053379774093628, -0.9260713458061218, 0.06546125560998917, 0.34556156396865845, 0.2955251932144165, -0.3508390188217163, -0.34010472893714905, 0.0044339667074382305, -0.8321954607963562, -0.01583639532327652, -1.2764685153961182, -0.9183735251426697, 0.43069252371788025, 1.5304497480392456, 0.42284685373306274, 0.4302985966205597, 0.8602004647254944, 1.5428417921066284, 0.44281724095344543, 0.16959364712238312, 0.030580807477235794, 0.21322119235992432, 0.14523780345916748, 0.12299465388059616, 1.2067135572433472, 0.427094429731369, 1.607027292251587, 1.1167147159576416, 0.11754998564720154, 0.061845846474170685, 0.26229533553123474, -0.07082141935825348, -0.07267356663942337, 0.08586302399635315, 0.06664096564054489, 0.3888605535030365, -0.21312442421913147, 0.07868539541959763, 0.20677712559700012, 0.057135920971632004, 0.16864827275276184, 0.14747220277786255, 0.09164296835660934, -0.09987436980009079, 0.20461124181747437, 0.08234773576259613, 0.27761250734329224, 0.5634650588035583, 0.3122951090335846, 0.057923298329114914, -0.19606254994869232, 0.4756351113319397, 0.18720464408397675, 0.25999724864959717, -0.22308389842510223, 0.22350738942623138, 0.2590513825416565, 0.12227991223335266, 0.06515690684318542, 0.2922150194644928], "lin.weight": [[0.7811097502708435, -0.5091606378555298, 0.13057009875774384, 0.3179297149181366, -0.12478453665971756, 0.20230795443058014, 0.008186038583517075, 0.15302887558937073, 0.42412039637565613, 0.13539370894432068, 0.23138763010501862, 0.4359288513660431, -0.09430446475744247, -0.2687254548072815, 1.3067939281463623, 0.1608913242816925]], "lin.bias": [0.13076648116111755]}}