{
    "in_shape": [
        null,
        null,
        2
    ],
    "layers": [
        {
            "type": "lstm",
            "activation": "",
            "shape": [
                null,
                null,
                16
            ],
            "weights": [
                [
                    [
                        0.05619334429502487,
                        0.0410509891808033,
                        -0.02522028237581253,
                        0.024118563160300255,
                        0.23411674797534943,
                        0.2345413863658905,
                        -0.12675237655639648,
                        -0.03199624642729759,
                        0.20644907653331757,
                        -0.1625422239303589,
                        -0.08434300124645233,
                        -0.00928490050137043,
                        -0.8067611455917358,
                        -0.06831522285938263,
                        0.00845993310213089,
                        0.5610040426254272,
                        0.033587004989385605,
                        -0.003270880552008748,
                        -0.03592867776751518,
                        0.10062751919031143,
                        0.20463885366916656,
                        0.16733385622501373,
                        0.1875833421945572,
                        -0.009888816624879837,
                        0.3616833984851837,
                        -0.07850434631109238,
                        -0.06254507601261139,
                        0.14084407687187195,
                        -0.36442795395851135,
                        -0.22744305431842804,
                        -0.09975431114435196,
                        0.06716062873601913,
                        -0.8262559175491333,
                        0.03801245987415314,
                        -0.2028842270374298,
                        -0.7180914282798767,
                        0.2868718206882477,
                        -0.025226958096027374,
                        0.160429447889328,
                        -0.5125044584274292,
                        -0.9084429144859314,
                        -3.6715335845947266,
                        -0.3111317753791809,
                        -0.802216112613678,
                        0.07816627621650696,
                        0.10841094702482224,
                        -0.25942400097846985,
                        -0.24624896049499512,
                        0.14426785707473755,
                        -0.12526634335517883,
                        0.017700735479593277,
                        0.05812211334705353,
                        0.12412805110216141,
                        0.05902569741010666,
                        0.06267035752534866,
                        -0.026167701929807663,
                        0.3202441930770874,
                        -0.0015755658969283104,
                        -0.15254974365234375,
                        0.020018642768263817,
                        -0.2014470249414444,
                        0.2446439564228058,
                        -0.039741165935993195,
                        -0.10127297788858414
                    ],
                    [
                        -0.05894435569643974,
                        -0.5932199358940125,
                        -0.39009222388267517,
                        -0.0029870844446122646,
                        -0.29886752367019653,
                        -0.5147228837013245,
                        1.9801645278930664,
                        -0.08900078386068344,
                        -0.0748489648103714,
                        0.49671927094459534,
                        0.49699094891548157,
                        -0.05870487913489342,
                        -0.6248101592063904,
                        0.3298252522945404,
                        -0.4697524309158325,
                        -0.6412720680236816,
                        0.12972292304039001,
                        0.42348942160606384,
                        0.039867013692855835,
                        0.130978062748909,
                        0.40792331099510193,
                        0.4363207221031189,
                        0.4450458288192749,
                        -0.40274062752723694,
                        -0.09025174379348755,
                        0.35189321637153625,
                        0.3097442090511322,
                        0.3110812306404114,
                        0.5427718758583069,
                        0.26252496242523193,
                        0.6571522951126099,
                        0.9130803346633911,
                        -0.035133905708789825,
                        -0.02553490176796913,
                        -0.2961932420730591,
                        0.030157970264554024,
                        0.02728428691625595,
                        -0.0030317397322505713,
                        -0.14815686643123627,
                        -0.4156132936477661,
                        0.11027897894382477,
                        -0.16337652504444122,
                        -0.049588996917009354,
                        0.25951191782951355,
                        0.11901554465293884,
                        0.008569411933422089,
                        -0.0318954773247242,
                        -0.06897436827421188,
                        -0.1603139340877533,
                        0.37339869141578674,
                        1.2401342391967773,
                        0.3668099343776703,
                        0.3185505270957947,
                        0.048343539237976074,
                        -0.6601788997650146,
                        0.0825934186577797,
                        0.07664040476083755,
                        0.43800079822540283,
                        -0.5917526483535767,
                        0.12975206971168518,
                        -0.017995771020650864,
                        -0.037456169724464417,
                        0.5588787794113159,
                        0.31439101696014404
                    ]
                ],
                [
                    [
                        0.11401917040348053,
                        -0.09468445926904678,
                        -0.0018120243912562728,
                        -0.038284119218587875,
                        0.2279249131679535,
                        -0.01129662524908781,
                        0.11578741669654846,
                        -0.13671013712882996,
                        0.42690354585647583,
                        -0.27671492099761963,
                        0.7638995051383972,
                        -0.14294371008872986,
                        0.0602591298520565,
                        -0.007537206169217825,
                        -0.1162637397646904,
                        -0.1375962197780609,
                        0.019362300634384155,
                        -0.3089718222618103,
                        0.11971145868301392,
                        0.12000812590122223,
                        -0.16463682055473328,
                        0.09122458100318909,
                        0.18979844450950623,
                        -0.040221698582172394,
                        0.45297548174858093,
                        -0.040372904390096664,
                        0.2760743498802185,
                        0.3625176250934601,
                        0.08808540552854538,
                        0.11241892725229263,
                        0.05811631307005882,
                        0.19153179228305817,
                        0.19982539117336273,
                        -0.1644367128610611,
                        0.13848556578159332,
                        0.48310762643814087,
                        -0.07775523513555527,
                        0.31174418330192566,
                        0.1331995278596878,
                        0.25288286805152893,
                        -0.39926138520240784,
                        -0.08924185484647751,
                        -0.2920726537704468,
                        0.5009050369262695,
                        -0.1189328283071518,
                        0.7704046368598938,
                        -0.38205191493034363,
                        0.0790661871433258,
                        0.13263893127441406,
                        -0.3571694791316986,
                        0.47589972615242004,
                        -0.18809252977371216,
                        -0.002117925090715289,
                        -0.1473102569580078,
                        -0.35001683235168457,
                        0.016022436320781708,
                        0.3810053765773773,
                        -0.07475913316011429,
                        0.5579612851142883,
                        -0.1284007728099823,
                        0.05094195157289505,
                        0.20653136074543,
                        -0.053144726902246475,
                        0.031195344403386116
                    ],
                    [
                        0.08443157374858856,
                        -0.025519292801618576,
                        0.1349746435880661,
                        0.1436348408460617,
                        -0.17311325669288635,
                        -0.22619761526584625,
                        -0.016805114224553108,
                        0.17351767420768738,
                        -0.07052341103553772,
                        -0.26200172305107117,
                        0.2358848750591278,
                        0.24836039543151855,
                        -0.09084365516901016,
                        -0.08555889874696732,
                        -0.07712655514478683,
                        -0.16203176975250244,
                        0.29513198137283325,
                        0.13013742864131927,
                        0.05802125483751297,
                        -0.07350414246320724,
                        0.1845257431268692,
                        0.13051068782806396,
                        0.10116645693778992,
                        0.02506023645401001,
                        -0.10677459836006165,
                        -0.13535462319850922,
                        0.18831771612167358,
                        0.20129191875457764,
                        0.17757369577884674,
                        0.0885467529296875,
                        0.34561243653297424,
                        -0.02522418648004532,
                        -0.04693961143493652,
                        0.4621848464012146,
                        0.17271117866039276,
                        0.29371097683906555,
                        0.20787881314754486,
                        -0.2647565007209778,
                        0.0005806208355352283,
                        -0.05260266736149788,
                        0.16237303614616394,
                        0.015966201201081276,
                        -0.39465200901031494,
                        0.10329011082649231,
                        -0.27631324529647827,
                        0.40577077865600586,
                        0.7180530428886414,
                        0.27787795662879944,
                        0.0845215693116188,
                        0.3151586651802063,
                        -0.08864107728004456,
                        0.12027263641357422,
                        0.077234648168087,
                        0.03190736845135689,
                        -0.13030828535556793,
                        0.14122486114501953,
                        -0.023565979674458504,
                        0.15833580493927002,
                        0.38091278076171875,
                        0.19940893352031708,
                        0.12966550886631012,
                        0.2375335991382599,
                        0.22201944887638092,
                        0.04833388701081276
                    ],
                    [
                        -0.08313387632369995,
                        -0.8090347647666931,
                        0.1520611047744751,
                        -0.1961180716753006,
                        -0.6155093908309937,
                        -0.9266774654388428,
                        -0.18573640286922455,
                        0.31338703632354736,
                        0.04128175601363182,
                        0.6433096528053284,
                        -0.3223060369491577,
                        0.23880831897258759,
                        -1.0622013807296753,
                        0.06803221255540848,
                        -0.4030967652797699,
                        -0.6912786364555359,
                        0.2543210983276367,
                        0.9375678896903992,
                        0.2911336123943329,
                        0.6366366744041443,
                        0.41498449444770813,
                        1.048707365989685,
                        0.3427705764770508,
                        0.2804083526134491,
                        0.030526980757713318,
                        0.1595134437084198,
                        0.14365112781524658,
                        0.07847923785448074,
                        0.9123221039772034,
                        0.23326025903224945,
                        1.0406345129013062,
                        0.9678456783294678,
                        -0.20099852979183197,
                        -0.2026122659444809,
                        0.07540546357631683,
                        0.1242404654622078,
                        -0.0666632205247879,
                        -0.19938170909881592,
                        -0.4808851182460785,
                        -0.46234849095344543,
                        0.026014449074864388,
                        0.0205195564776659,
                        0.020658696070313454,
                        0.3745744228363037,
                        0.1270340383052826,
                        -0.0011693021515384316,
                        -0.0709589347243309,
                        -0.12540768086910248,
                        -0.0923546627163887,
                        -0.17993363738059998,
                        0.6680833697319031,
                        0.1569521129131317,
                        0.33808109164237976,
                        -0.24679593741893768,
                        0.056497521698474884,
                        0.34987133741378784,
                        0.06309324502944946,
                        0.4221078157424927,
                        -0.04221401363611221,
                        0.25887301564216614,
                        0.1542033851146698,
                        0.024122098460793495,
                        0.16880570352077484,
                        0.197982519865036
                    ],
                    [
                        0.08983596414327621,
                        -0.0007597820949740708,
                        0.18106403946876526,
                        0.21827182173728943,
                        -0.27673646807670593,
                        -0.008469581604003906,
                        0.7626901865005493,
                        -0.1427999883890152,
                        -0.046225406229496,
                        -0.1022394597530365,
                        -0.3855029046535492,
                        -0.25154608488082886,
                        0.7407277226448059,
                        0.009656781330704689,
                        0.03216772899031639,
                        -0.4856325089931488,
                        0.08299410343170166,
                        0.1896749883890152,
                        -0.08001965284347534,
                        0.125253826379776,
                        -0.22084268927574158,
                        0.13282011449337006,
                        -0.09492319822311401,
                        -0.29885953664779663,
                        -0.19731438159942627,
                        -0.07211102545261383,
                        -0.07408285140991211,
                        -0.1367950290441513,
                        0.3723011016845703,
                        -0.19570250809192657,
                        0.004328054375946522,
                        0.4931417405605316,
                        -0.8247337937355042,
                        0.25240325927734375,
                        -0.2899859845638275,
                        0.10593079775571823,
                        -0.45292261242866516,
                        0.23356445133686066,
                        1.381119966506958,
                        0.34987643361091614,
                        -0.6035143136978149,
                        -0.055977653712034225,
                        0.651523768901825,
                        -0.14836210012435913,
                        -0.32094746828079224,
                        -0.7875463962554932,
                        0.027565259486436844,
                        0.4162476062774658,
                        -0.009102393873035908,
                        0.09868243336677551,
                        0.6255109906196594,
                        0.012365270406007767,
                        -0.3366878628730774,
                        0.29138991236686707,
                        -0.25031962990760803,
                        -0.14919987320899963,
                        0.04963916912674904,
                        0.4488333761692047,
                        -0.7140582799911499,
                        -0.17497508227825165,
                        0.01888715662062168,
                        -0.4289230406284332,
                        0.20800721645355225,
                        0.20919650793075562
                    ],
                    [
                        -0.049326345324516296,
                        0.15645651519298553,
                        -0.23989230394363403,
                        -0.3660847544670105,
                        0.027876708656549454,
                        0.3293214738368988,
                        -0.00023560783301945776,
                        0.1494380682706833,
                        0.01642698422074318,
                        -0.8127185106277466,
                        -0.3167833089828491,
                        -0.10971671342849731,
                        -0.42868462204933167,
                        0.006646446883678436,
                        -0.028237026184797287,
                        0.4998709261417389,
                        0.08475340902805328,
                        0.20164687931537628,
                        -0.027299344539642334,
                        0.0541682243347168,
                        0.05475015193223953,
                        -0.11932206898927689,
                        -0.2941005527973175,
                        0.0946863517165184,
                        0.25789138674736023,
                        -0.38985905051231384,
                        -0.0199491735547781,
                        0.1858801692724228,
                        -0.7104187607765198,
                        -0.2653360962867737,
                        0.016838300973176956,
                        0.013144124299287796,
                        0.017005153000354767,
                        -0.05459045246243477,
                        -0.26471778750419617,
                        0.5399430394172668,
                        0.1376534104347229,
                        -0.2236126959323883,
                        -0.32789215445518494,
                        0.836703896522522,
                        -0.1475622057914734,
                        -0.039470963180065155,
                        1.058249592781067,
                        0.08358985185623169,
                        -0.13291248679161072,
                        -0.6330706477165222,
                        0.01877889409661293,
                        -0.37307995557785034,
                        -0.13022738695144653,
                        -0.012689768336713314,
                        -0.3721639811992645,
                        -0.03500228375196457,
                        0.1589849442243576,
                        -0.028104372322559357,
                        -0.20377959311008453,
                        0.07394315302371979,
                        0.2720005214214325,
                        -0.3444996476173401,
                        -0.8027801513671875,
                        0.0032692027743905783,
                        -0.20558756589889526,
                        0.056594368070364,
                        -0.07533818483352661,
                        -0.18563494086265564
                    ],
                    [
                        -0.15275777876377106,
                        -0.20371024310588837,
                        -0.013311455026268959,
                        0.11629457026720047,
                        -0.23952144384384155,
                        0.12817852199077606,
                        0.06924063712358475,
                        0.05775641277432442,
                        -0.08026746660470963,
                        -0.5737091302871704,
                        0.07975059747695923,
                        0.05091987922787666,
                        0.15734142065048218,
                        0.11689183861017227,
                        -0.31614434719085693,
                        0.1188320592045784,
                        0.027089344337582588,
                        -0.15846481919288635,
                        0.0008101594285108149,
                        -0.027203403413295746,
                        0.08726732432842255,
                        0.11864205449819565,
                        0.284441739320755,
                        -0.00224964483641088,
                        0.022930458188056946,
                        -0.12320281565189362,
                        0.058141522109508514,
                        0.06006758660078049,
                        -0.007022568956017494,
                        -0.0071320682764053345,
                        0.03008538857102394,
                        -0.2548298239707947,
                        -0.13806968927383423,
                        -0.23486728966236115,
                        0.09576525539159775,
                        -0.000762829149607569,
                        0.29047566652297974,
                        0.1800144910812378,
                        0.0008761290810070932,
                        -0.04608869180083275,
                        0.41288718581199646,
                        0.01772039756178856,
                        -0.31439366936683655,
                        -0.011390634812414646,
                        -0.2421732395887375,
                        0.3531191945075989,
                        -0.4173775613307953,
                        0.48305538296699524,
                        -0.1897934079170227,
                        0.31597569584846497,
                        -0.10066259652376175,
                        0.10978744924068451,
                        -0.012782118283212185,
                        0.503291666507721,
                        -0.02837008237838745,
                        0.06237402558326721,
                        -0.06552884727716446,
                        0.01623329147696495,
                        0.1706901639699936,
                        0.04001946002244949,
                        0.2741085886955261,
                        -0.269210547208786,
                        0.240627259016037,
                        0.04279759153723717
                    ],
                    [
                        0.01718493364751339,
                        0.2424069195985794,
                        0.27620163559913635,
                        -0.03640221431851387,
                        0.14619289338588715,
                        0.2894315719604492,
                        -0.4249992072582245,
                        -0.46215763688087463,
                        -0.08976425230503082,
                        -0.3173990845680237,
                        0.5289607644081116,
                        -0.332180917263031,
                        0.027402855455875397,
                        0.00024219817714765668,
                        0.010553769767284393,
                        0.26635125279426575,
                        -0.1845339983701706,
                        -0.2884351909160614,
                        -0.009556518867611885,
                        -0.3842514157295227,
                        0.050325438380241394,
                        -0.3243124186992645,
                        -0.10540202260017395,
                        -0.2157202810049057,
                        -0.034416791051626205,
                        -0.15200866758823395,
                        -0.09594844281673431,
                        -0.4073813855648041,
                        -0.6232548356056213,
                        -0.12450169026851654,
                        0.02795359119772911,
                        -0.22283625602722168,
                        -0.006101337261497974,
                        0.21308942139148712,
                        -0.2710976302623749,
                        -0.14548762142658234,
                        -0.7374263405799866,
                        0.27182990312576294,
                        1.1779427528381348,
                        0.29653504490852356,
                        -0.08680065721273422,
                        -0.025491813197731972,
                        0.27843794226646423,
                        -0.07981729507446289,
                        -0.31808751821517944,
                        0.07288575172424316,
                        -0.03358945995569229,
                        -0.028761228546500206,
                        0.2032061517238617,
                        0.0606306828558445,
                        -0.3114403486251831,
                        -0.1879885494709015,
                        0.2087649255990982,
                        -0.03909190744161606,
                        -0.7122044563293457,
                        -0.323458194732666,
                        -0.15588349103927612,
                        0.18036368489265442,
                        0.06627511978149414,
                        -0.2460281401872635,
                        -0.07440068572759628,
                        0.14560946822166443,
                        0.005432595033198595,
                        -0.33645954728126526
                    ],
                    [
                        0.06546276807785034,
                        -0.3353872001171112,
                        0.5308344960212708,
                        0.18786779046058655,
                        -0.005678233224898577,
                        -0.2805402874946594,
                        -0.8438833355903625,
                        0.055038806051015854,
                        0.031946491450071335,
                        -0.43206271529197693,
                        -0.09992823004722595,
                        -0.18259455263614655,
                        -0.16980187594890594,
                        0.08908649533987045,
                        -0.06627411395311356,
                        -0.3218785524368286,
                        0.14581654965877533,
                        0.07363405078649521,
                        0.46048909425735474,
                        0.40490227937698364,
                        0.18165285885334015,
                        0.035038650035858154,
                        -0.5432633757591248,
                        0.03239171952009201,
                        -0.020462682470679283,
                        -0.021365368738770485,
                        0.14596416056156158,
                        -0.31146904826164246,
                        -0.3574102520942688,
                        0.5288633704185486,
                        0.2047579437494278,
                        -0.30484136939048767,
                        0.09497930109500885,
                        0.30539390444755554,
                        0.4877840578556061,
                        0.042145293205976486,
                        -0.3341637849807739,
                        0.43440258502960205,
                        0.6002721190452576,
                        0.18181544542312622,
                        -0.605404794216156,
                        -0.04837566614151001,
                        0.8131424188613892,
                        0.5299704074859619,
                        -0.6288121938705444,
                        -0.06549619138240814,
                        -0.039556834846735,
                        -0.020843110978603363,
                        0.010679470375180244,
                        0.22523614764213562,
                        -0.20302897691726685,
                        -0.014707107096910477,
                        0.03517762944102287,
                        0.030295051634311676,
                        0.0630025565624237,
                        0.04189733415842056,
                        0.16495291888713837,
                        0.22756652534008026,
                        -0.0949808731675148,
                        -0.11846189200878143,
                        0.052469633519649506,
                        0.4257913827896118,
                        0.0067225256934762,
                        -0.25569677352905273
                    ],
                    [
                        0.019618019461631775,
                        0.4320531189441681,
                        -0.19889459013938904,
                        -0.18491080403327942,
                        -0.04253162816166878,
                        0.3973734378814697,
                        0.03200535103678703,
                        -0.06879734247922897,
                        -0.012141070328652859,
                        0.18440310657024384,
                        0.4333705008029938,
                        0.1544625461101532,
                        0.6892114877700806,
                        0.21940705180168152,
                        0.609150767326355,
                        0.5179308652877808,
                        0.11879544705152512,
                        -0.888410747051239,
                        -0.20352698862552643,
                        -0.36114001274108887,
                        -0.2812719941139221,
                        -0.439056396484375,
                        -0.1323961317539215,
                        0.05113552510738373,
                        0.11986862868070602,
                        0.00875475537031889,
                        0.1828729659318924,
                        0.12093648314476013,
                        -0.3391013741493225,
                        0.16520579159259796,
                        -0.7064379453659058,
                        -0.7758899331092834,
                        0.7183085083961487,
                        0.012394262477755547,
                        -0.10638933628797531,
                        -0.03910244628787041,
                        -0.06286241859197617,
                        -0.18615178763866425,
                        -0.24125097692012787,
                        0.038017742335796356,
                        0.050770483911037445,
                        0.042753495275974274,
                        -0.5253576040267944,
                        -0.015841972082853317,
                        -0.024231385439634323,
                        0.034617915749549866,
                        -0.12645317614078522,
                        0.009763124398887157,
                        -0.17851993441581726,
                        -0.017843080684542656,
                        -0.02393587864935398,
                        -0.165766641497612,
                        -0.14693939685821533,
                        0.03832235932350159,
                        0.08843758702278137,
                        -0.03659604489803314,
                        -0.24410486221313477,
                        -0.15282747149467468,
                        0.368474543094635,
                        -0.029410505667328835,
                        0.1403408646583557,
                        0.19884026050567627,
                        -0.19050481915473938,
                        -0.0749102383852005
                    ],
                    [
                        -0.0404977910220623,
                        -0.19379258155822754,
                        -0.0551283024251461,
                        -0.06342338025569916,
                        -0.35349905490875244,
                        -0.2332073152065277,
                        0.09609565883874893,
                        -0.006995439063757658,
                        0.13003751635551453,
                        0.06677446514368057,
                        -0.08690440654754639,
                        -0.03541841357946396,
                        -0.16683915257453918,
                        0.11814718693494797,
                        -0.3029998242855072,
                        -0.5688719153404236,
                        0.04149525240063667,
                        0.199067160487175,
                        -0.34679755568504333,
                        -0.08282482624053955,
                        0.13439610600471497,
                        0.14145620167255402,
                        -0.010337147861719131,
                        -0.012908347882330418,
                        0.04474806785583496,
                        0.36443811655044556,
                        0.0107275927439332,
                        -0.007365508005023003,
                        0.0523986741900444,
                        0.03164088353514671,
                        0.26434317231178284,
                        0.4145908057689667,
                        0.15590998530387878,
                        -0.03832124546170235,
                        -1.0957342386245728,
                        0.7536075115203857,
                        0.16452880203723907,
                        0.0535220243036747,
                        0.7651790380477905,
                        -0.7934376001358032,
                        0.07641929388046265,
                        0.44712963700294495,
                        -0.5373125076293945,
                        -0.972024142742157,
                        -0.4625452160835266,
                        0.5775938034057617,
                        -0.11386283487081528,
                        0.5199419856071472,
                        -0.0057932063937187195,
                        0.026880662888288498,
                        -0.22770661115646362,
                        -0.06657152622938156,
                        0.018033595755696297,
                        0.11167681217193604,
                        -0.056666627526283264,
                        -0.05040536820888519,
                        0.2180454134941101,
                        0.3160732686519623,
                        0.07861766964197159,
                        -0.08831650018692017,
                        0.020816246047616005,
                        0.008928376249969006,
                        -0.08913787454366684,
                        0.059698574244976044
                    ],
                    [
                        0.232424795627594,
                        -0.15028786659240723,
                        0.1740598827600479,
                        -0.0009232929442077875,
                        -0.22958484292030334,
                        -0.37172526121139526,
                        -0.5971717834472656,
                        0.16890212893486023,
                        -0.07372715324163437,
                        -0.043373532593250275,
                        0.7359644770622253,
                        0.18980467319488525,
                        0.09812398999929428,
                        0.13609470427036285,
                        0.14498047530651093,
                        -0.47287529706954956,
                        0.5240278840065002,
                        0.2047380805015564,
                        0.0004991427413187921,
                        0.4881599545478821,
                        0.7173382043838501,
                        0.6634343862533569,
                        -0.026028886437416077,
                        -0.0701112449169159,
                        0.19806498289108276,
                        -0.0024708544369786978,
                        1.310945987701416,
                        0.11100887507200241,
                        -0.1439688801765442,
                        0.9005686640739441,
                        0.1703299731016159,
                        0.5146640539169312,
                        -0.31974005699157715,
                        -0.00033556442940607667,
                        0.11819197982549667,
                        -0.35111498832702637,
                        -0.19743318855762482,
                        0.14860279858112335,
                        0.2518410384654999,
                        -0.17534266412258148,
                        0.6763537526130676,
                        0.00793243944644928,
                        0.11291804164648056,
                        -0.42066848278045654,
                        -0.029526572674512863,
                        -0.9592950940132141,
                        -0.2553079426288605,
                        0.02027735486626625,
                        -0.11341211944818497,
                        -0.3565842807292938,
                        0.24142560362815857,
                        0.24568408727645874,
                        0.1958412081003189,
                        -0.16257870197296143,
                        0.6684853434562683,
                        0.18650434911251068,
                        -0.1619109809398651,
                        0.2692529857158661,
                        0.9460723996162415,
                        0.23327471315860748,
                        0.23551976680755615,
                        0.7699071168899536,
                        0.15158669650554657,
                        0.30734553933143616
                    ],
                    [
                        0.022089717909693718,
                        0.16647735238075256,
                        -0.333972692489624,
                        -0.17027181386947632,
                        0.42069241404533386,
                        0.251013845205307,
                        0.1217634454369545,
                        0.0634351447224617,
                        -0.05435098707675934,
                        -0.015492475591599941,
                        0.2318444699048996,
                        0.08717186748981476,
                        0.11997788399457932,
                        -0.1913532167673111,
                        -0.1052737683057785,
                        -0.030359342694282532,
                        -0.09691494703292847,
                        -0.04710659757256508,
                        -0.19572213292121887,
                        -0.31874486804008484,
                        -0.1510535031557083,
                        -0.33484476804733276,
                        -0.02691708691418171,
                        0.019536813721060753,
                        -0.02990073338150978,
                        -0.13193745911121368,
                        -0.2099783569574356,
                        0.1002689003944397,
                        -0.13772249221801758,
                        -0.385397732257843,
                        0.05196649953722954,
                        -0.35042431950569153,
                        -0.5933447480201721,
                        -0.10806631296873093,
                        -0.06768167018890381,
                        -0.275352418422699,
                        0.15854968130588531,
                        -0.26850444078445435,
                        -0.44888725876808167,
                        -0.47669658064842224,
                        -0.47721782326698303,
                        0.08976776152849197,
                        0.11374082416296005,
                        -0.009466808289289474,
                        0.23246030509471893,
                        0.22613540291786194,
                        -0.07955384999513626,
                        -0.06645328551530838,
                        0.048510584980249405,
                        0.05802513286471367,
                        -0.2496347427368164,
                        -0.04376605153083801,
                        0.23194465041160583,
                        -0.24262364208698273,
                        -0.22633448243141174,
                        0.08752799034118652,
                        -0.0909264087677002,
                        -0.4802767038345337,
                        -0.09515678137540817,
                        0.13938920199871063,
                        -0.16869623959064484,
                        -0.235402449965477,
                        0.006794530898332596,
                        -0.2786071002483368
                    ],
                    [
                        0.05197901278734207,
                        -0.03553934022784233,
                        0.2592686116695404,
                        0.18644428253173828,
                        0.13274849951267242,
                        -0.4370058476924896,
                        -0.02431320957839489,
                        0.07948534190654755,
                        0.047963663935661316,
                        1.5645172595977783,
                        -0.03740367293357849,
                        -0.07139433175325394,
                        0.05509578809142113,
                        -0.06449615210294724,
                        0.26434165239334106,
                        -0.9513262510299683,
                        0.005466301925480366,
                        0.16110728681087494,
                        -0.0805596187710762,
                        0.12510249018669128,
                        -0.35142096877098083,
                        0.32644590735435486,
                        -0.36339691281318665,
                        -0.2200741022825241,
                        -0.1469806581735611,
                        0.6438453793525696,
                        -0.061707012355327606,
                        -0.23459473252296448,
                        -0.02032521180808544,
                        -0.050658661872148514,
                        -0.3085331618785858,
                        0.7653031945228577,
                        0.1556737720966339,
                        0.08101257681846619,
                        -0.22921444475650787,
                        0.4261747896671295,
                        -0.34156113862991333,
                        0.03280182182788849,
                        0.17299962043762207,
                        0.2382366955280304,
                        -0.24155840277671814,
                        0.12757337093353271,
                        0.5019291043281555,
                        -0.0883696898818016,
                        0.22189027070999146,
                        -0.18455080687999725,
                        0.038842905312776566,
                        -0.13540232181549072,
                        -0.07461967319250107,
                        -0.23970063030719757,
                        0.9457893967628479,
                        0.047095123678445816,
                        -0.05907014012336731,
                        -0.029224244877696037,
                        0.1786976456642151,
                        0.0240589901804924,
                        0.032568708062171936,
                        0.8524402379989624,
                        -0.1512477546930313,
                        -0.05249323695898056,
                        -0.35397303104400635,
                        -0.17449644207954407,
                        0.16867822408676147,
                        -0.10302708297967911
                    ],
                    [
                        -0.08187474310398102,
                        -0.4189421832561493,
                        0.1260010004043579,
                        -0.229030042886734,
                        -0.2664428949356079,
                        -0.4159024953842163,
                        -0.7580205202102661,
                        0.19971317052841187,
                        0.16544516384601593,
                        -0.059780314564704895,
                        0.8601018190383911,
                        0.19901162385940552,
                        -0.1796010136604309,
                        0.28032249212265015,
                        -0.08114020526409149,
                        -0.39192575216293335,
                        0.17055360972881317,
                        0.6176628470420837,
                        0.1716642677783966,
                        0.44166645407676697,
                        0.6116277575492859,
                        0.597144603729248,
                        -0.03994116559624672,
                        0.05115285888314247,
                        0.037864718586206436,
                        -0.0033734284806996584,
                        0.8207714557647705,
                        -0.16988518834114075,
                        0.45790985226631165,
                        0.7998912334442139,
                        0.49049630761146545,
                        0.4265440106391907,
                        -0.44430747628211975,
                        -0.008481932803988457,
                        -0.03225502744317055,
                        0.24680504202842712,
                        0.17858684062957764,
                        -0.10365131497383118,
                        0.05629291757941246,
                        0.09992219507694244,
                        -0.11137819290161133,
                        -0.04000185430049896,
                        -0.5431840419769287,
                        0.10172225534915924,
                        0.02750823274254799,
                        0.23113827407360077,
                        0.32446274161338806,
                        0.05854418873786926,
                        -0.6035110354423523,
                        -0.0839918851852417,
                        -0.4995814859867096,
                        0.2777244746685028,
                        0.08294019848108292,
                        0.0038489545695483685,
                        0.39781051874160767,
                        0.40403035283088684,
                        0.20370742678642273,
                        0.07300607860088348,
                        1.8157544136047363,
                        0.27865463495254517,
                        0.2051965743303299,
                        0.2332521677017212,
                        0.07872412353754044,
                        0.3099672496318817
                    ],
                    [
                        -0.11015811562538147,
                        -0.1341409981250763,
                        -0.041408322751522064,
                        -0.0226117055863142,
                        0.037223804742097855,
                        0.045871417969465256,
                        0.17160680890083313,
                        0.11686767637729645,
                        -0.13299880921840668,
                        0.03205568343400955,
                        -0.14084313809871674,
                        -0.08344252407550812,
                        -0.2955920696258545,
                        0.045301634818315506,
                        -0.12144120782613754,
                        0.023112433031201363,
                        -0.008868022821843624,
                        -0.2636134624481201,
                        -0.049686234444379807,
                        -0.01280877087265253,
                        -0.16093380749225616,
                        0.19143854081630707,
                        0.01986510306596756,
                        0.14919324219226837,
                        -0.17769820988178253,
                        0.0360003300011158,
                        -0.00872779730707407,
                        -0.06342394649982452,
                        0.021314678713679314,
                        0.06770463287830353,
                        -0.0021197833120822906,
                        0.08369690179824829,
                        0.039124831557273865,
                        -0.9754425287246704,
                        0.011263782158493996,
                        -0.12324178963899612,
                        -0.06195872277021408,
                        0.5654130578041077,
                        -0.060739196836948395,
                        -0.018707865849137306,
                        0.0652286559343338,
                        -0.0057122851721942425,
                        0.20708201825618744,
                        -0.1165006011724472,
                        0.03585457801818848,
                        -0.2894054055213928,
                        0.24190738797187805,
                        -0.02450481802225113,
                        -0.20785784721374512,
                        -0.040323466062545776,
                        0.18977577984333038,
                        0.01606817916035652,
                        -0.006180469412356615,
                        -0.043785493820905685,
                        -0.04198170080780983,
                        0.08751830458641052,
                        -0.13979025185108185,
                        0.0985434427857399,
                        -0.06875639408826828,
                        -0.06554259359836578,
                        0.1259375810623169,
                        -0.5351567268371582,
                        -0.05082688480615616,
                        0.045253537595272064
                    ],
                    [
                        -0.05543481931090355,
                        0.03748566657304764,
                        -0.22981105744838715,
                        0.3170211613178253,
                        0.24621057510375977,
                        -0.12000532448291779,
                        -0.10103997588157654,
                        0.2555689513683319,
                        0.08620993047952652,
                        0.8051179051399231,
                        -0.06815121322870255,
                        0.46103882789611816,
                        -0.5525705814361572,
                        0.06199101731181145,
                        0.15761150419712067,
                        -0.1675986796617508,
                        -0.1702137440443039,
                        -0.16996964812278748,
                        0.016701195389032364,
                        -0.021122751757502556,
                        0.053501028567552567,
                        -0.1462429314851761,
                        -0.3123490512371063,
                        0.2879200875759125,
                        -0.1410641223192215,
                        0.5347607135772705,
                        -0.017929576337337494,
                        0.13955414295196533,
                        0.18551421165466309,
                        0.16823351383209229,
                        0.04966646060347557,
                        0.013001068495213985,
                        -0.39234158396720886,
                        -0.24467846751213074,
                        0.9254510402679443,
                        -0.4556448757648468,
                        0.04249892383813858,
                        -0.5049887299537659,
                        -0.9323136210441589,
                        0.35356929898262024,
                        -0.2536065876483917,
                        -0.740021824836731,
                        0.38461756706237793,
                        0.33243757486343384,
                        -0.16068856418132782,
                        -0.26070547103881836,
                        -0.02299404889345169,
                        0.31293389201164246,
                        0.04363473132252693,
                        0.07199113070964813,
                        0.05762077495455742,
                        0.11703085154294968,
                        0.031973544508218765,
                        -0.16232439875602722,
                        0.2263863980770111,
                        0.20378512144088745,
                        -0.08579079806804657,
                        0.19227230548858643,
                        0.17227457463741302,
                        0.32287734746932983,
                        0.43199533224105835,
                        -0.4242653548717499,
                        0.07531625032424927,
                        -0.6375612616539001
                    ]
                ],
                [
                    0.3457419276237488,
                    -2.237516403198242,
                    0.508906900882721,
                    -0.3029992878437042,
                    -1.131894588470459,
                    -1.849180817604065,
                    0.05107034742832184,
                    0.707996666431427,
                    0.445973664522171,
                    -0.8112497329711914,
                    -0.6932437419891357,
                    0.05653424561023712,
                    -1.587294578552246,
                    -0.017006928101181984,
                    -2.5669302940368652,
                    -1.8037283420562744,
                    0.8074418902397156,
                    3.0596632957458496,
                    0.7395026683807373,
                    0.7575981020927429,
                    1.6059213876724243,
                    3.01832914352417,
                    0.7031269073486328,
                    0.29282209277153015,
                    0.19975914061069489,
                    0.2758501470088959,
                    0.4711275100708008,
                    0.2566600739955902,
                    2.3700008392333984,
                    0.8146313428878784,
                    3.21653151512146,
                    2.1416914463043213,
                    0.43503138422966003,
                    0.20073631405830383,
                    0.5362071394920349,
                    -0.22538475692272186,
                    -0.09695055335760117,
                    0.1913723200559616,
                    0.17258480191230774,
                    0.5106568336486816,
                    -0.43416184186935425,
                    0.060401611030101776,
                    0.4449995756149292,
                    -0.2865685820579529,
                    0.03510153293609619,
                    0.36038318276405334,
                    -0.09372875839471817,
                    -0.014004722237586975,
                    0.46603748202323914,
                    0.14725232124328613,
                    0.7643386125564575,
                    1.1269654035568237,
                    0.532348096370697,
                    0.020684733986854553,
                    -0.4525778889656067,
                    0.9304491877555847,
                    0.3707587718963623,
                    0.5159372091293335,
                    -0.369414359331131,
                    0.4078051745891571,
                    0.5999789834022522,
                    0.25957584381103516,
                    0.1267547905445099,
                    0.6125004291534424
                ]
            ]
        },
        {
            "type": "dense",
            "activation": "",
            "shape": [
                null,
                null,
                1
            ],
            "weights": [
                [
                    [
                        0.7811097502708435
                    ],
                    [
                        -0.5091606378555298
                    ],
                    [
                        0.13057009875774384
                    ],
                    [
                        0.3179297149181366
                    ],
                    [
                        -0.12478453665971756
                    ],
                    [
                        0.20230795443058014
                    ],
                    [
                        0.008186038583517075
                    ],
                    [
                        0.15302887558937073
                    ],
                    [
                        0.42412039637565613
                    ],
                    [
                        0.13539370894432068
                    ],
                    [
                        0.23138763010501862
                    ],
                    [
                        0.4359288513660431
                    ],
                    [
                        -0.09430446475744247
                    ],
                    [
                        -0.2687254548072815
                    ],
                    [
                        1.3067939281463623
                    ],
                    [
                        0.1608913242816925
                    ]
                ],
                [
                    0.13076648116111755
                ]
            ]
        }
    ]
}