{
    "in_shape": [
        null,
        null,
        1
    ],
    "in_skip": 1,
    "layers": [
        {
            "type": "lstm",
            "activation": "",
            "shape": [
                null,
                null,
                12
            ],
            "weights": [
                [
                    [
                        -0.005141264759004116,
                        -0.0822710245847702,
                        0.22562789916992188,
                        -0.014051423408091068,
                        0.021395191550254822,
                        -0.09511417895555496,
                        -0.07946446537971497,
                        0.13096509873867035,
                        -0.15609218180179596,
                        -0.010299613699316978,
                        -0.04098028689622879,
                        -0.0035205299500375986,
                        -0.06097377836704254,
                        -0.21769127249717712,
                        0.014466352760791779,
                        -0.010455639101564884,
                        0.04023604467511177,
                        -0.00577190238982439,
                        -0.10829541087150574,
                        -0.13321353495121002,
                        0.0031024578493088484,
                        -0.018858106806874275,
                        -0.01497921347618103,
                        -0.017205538228154182,
                        -3.653189182281494,
                        0.32110345363616943,
                        -0.5491265058517456,
                        0.503915011882782,
                        0.0354108102619648,
                        0.20669826865196228,
                        -0.09864193946123123,
                        -0.03888402134180069,
                        -0.10263380408287048,
                        0.018056660890579224,
                        -2.5934367179870605,
                        -0.0667768195271492,
                        0.022119127213954926,
                        -0.23021848499774933,
                        0.4951460361480713,
                        -0.07968107610940933,
                        0.021998539566993713,
                        -0.1201576367020607,
                        -0.12155541032552719,
                        0.1499486118555069,
                        -0.17111676931381226,
                        -0.08504536002874374,
                        -0.10087251663208008,
                        0.003491404466331005
                    ]
                ],
                [
                    [
                        -0.013091050088405609,
                        -0.04249012842774391,
                        -0.33376654982566833,
                        -0.0012553161941468716,
                        0.08919692784547806,
                        -0.2808988094329834,
                        -0.03522719070315361,
                        -0.2359747588634491,
                        0.2930300831794739,
                        0.017412075772881508,
                        0.003688914468511939,
                        0.0384797677397728,
                        0.07729585468769073,
                        -0.05195030942559242,
                        -0.009659000672399998,
                        0.18093933165073395,
                        0.05045861378312111,
                        -0.4032169282436371,
                        -0.02330075390636921,
                        0.18638825416564941,
                        -0.03330465778708458,
                        0.0362059660255909,
                        0.03906000405550003,
                        0.09113354980945587,
                        0.20977072417736053,
                        -0.13664551079273224,
                        0.15620072185993195,
                        0.27897128462791443,
                        0.23894675076007843,
                        0.7743843197822571,
                        0.6941516399383545,
                        -0.0019562854431569576,
                        0.10729213804006577,
                        -0.026638193055987358,
                        2.9445130825042725,
                        -0.17424003779888153,
                        -0.11380105465650558,
                        0.4023854732513428,
                        -0.5574538707733154,
                        0.04875922575592995,
                        0.06146669387817383,
                        -0.34322860836982727,
                        -0.012789472006261349,
                        -0.3441925346851349,
                        0.08846969157457352,
                        0.10464126616716385,
                        0.07733098417520523,
                        0.35875430703163147
                    ],
                    [
                        -0.15842391550540924,
                        0.239396333694458,
                        0.8841723203659058,
                        0.45984598994255066,
                        -0.006615284830331802,
                        0.40630772709846497,
                        -0.02015174739062786,
                        0.7900583148002625,
                        0.09078017622232437,
                        -0.10605951398611069,
                        -0.012710361741483212,
                        -0.14326713979244232,
                        0.4376314580440521,
                        -1.077582836151123,
                        -0.5008629560470581,
                        -0.6122297048568726,
                        -0.04718466475605965,
                        0.461569219827652,
                        -0.22853469848632812,
                        -0.9835655689239502,
                        -0.5136498808860779,
                        -0.2121187001466751,
                        0.43424421548843384,
                        -0.19473867118358612,
                        0.19900310039520264,
                        0.21003136038780212,
                        0.18689018487930298,
                        -0.12165214866399765,
                        -0.5271105170249939,
                        -0.11263804882764816,
                        -0.2644706964492798,
                        -0.18604150414466858,
                        -0.401020348072052,
                        0.1764647364616394,
                        -0.19804832339286804,
                        0.12312369793653488,
                        -0.1284683495759964,
                        -0.446815550327301,
                        0.1163773462176323,
                        -0.27446991205215454,
                        -0.06368640065193176,
                        0.29762503504753113,
                        -0.222283273935318,
                        -0.23743748664855957,
                        -0.2419622540473938,
                        -0.28363680839538574,
                        0.7847900986671448,
                        -0.10041483491659164
                    ],
                    [
                        0.4011257588863373,
                        0.5050303936004639,
                        -0.2027551829814911,
                        0.01813276670873165,
                        -0.1826695203781128,
                        0.28417325019836426,
                        0.1299087256193161,
                        -0.01662120781838894,
                        0.37923499941825867,
                        0.05660503730177879,
                        0.5480493307113647,
                        0.026524702087044716,
                        1.1133900880813599,
                        0.27886974811553955,
                        -0.1561945229768753,
                        0.14170953631401062,
                        -0.17033758759498596,
                        -0.10647434741258621,
                        0.3540896773338318,
                        -0.0675596222281456,
                        0.05971444025635719,
                        0.12395379692316055,
                        0.10213609039783478,
                        0.062217116355895996,
                        -0.6266619563102722,
                        0.3076992928981781,
                        0.3724920153617859,
                        -0.04832953214645386,
                        -0.41300272941589355,
                        0.221486434340477,
                        -0.16657599806785583,
                        -0.016621561720967293,
                        0.033719878643751144,
                        -0.08194560557603836,
                        -0.46637439727783203,
                        -0.02071988768875599,
                        0.42337566614151,
                        -0.018909702077507973,
                        -0.6848018169403076,
                        -0.12671414017677307,
                        -0.16517065465450287,
                        0.4617539346218109,
                        0.19108155369758606,
                        -0.36719202995300293,
                        0.21809862554073334,
                        0.2997981011867523,
                        0.9315176606178284,
                        0.050580110400915146
                    ],
                    [
                        0.06135268881917,
                        -0.18186162412166595,
                        0.21666941046714783,
                        -0.144663468003273,
                        0.01804322563111782,
                        -0.013017538003623486,
                        0.006662160623818636,
                        0.15690763294696808,
                        0.04848013073205948,
                        0.019152168184518814,
                        -0.01471862941980362,
                        0.008888506330549717,
                        0.2465413510799408,
                        -0.007939692586660385,
                        -0.057524941861629486,
                        0.08679673820734024,
                        0.03604885935783386,
                        0.03844383731484413,
                        -0.0016935687744989991,
                        0.11997445672750473,
                        -0.04141715168952942,
                        0.033948808908462524,
                        0.05301428958773613,
                        0.04383089020848274,
                        -0.0104956841096282,
                        0.052599214017391205,
                        -0.08222653716802597,
                        0.31713545322418213,
                        -0.20764149725437164,
                        -0.7246352434158325,
                        -0.4724155068397522,
                        0.4251466989517212,
                        -0.0778256356716156,
                        -0.031180569902062416,
                        -0.8163647651672363,
                        1.292788028717041,
                        0.08187742531299591,
                        -0.14447924494743347,
                        0.22150085866451263,
                        -0.0974745899438858,
                        0.011897430755198002,
                        0.0750618502497673,
                        -0.02281630039215088,
                        -0.016666414216160774,
                        0.01574533060193062,
                        0.06964936852455139,
                        -0.017243780195713043,
                        0.19794343411922455
                    ],
                    [
                        -0.12098211795091629,
                        -0.37339353561401367,
                        -0.149953693151474,
                        0.21174080669879913,
                        -0.011047282256186008,
                        0.09789987653493881,
                        0.08942200243473053,
                        -0.014774676412343979,
                        -0.05346187204122543,
                        -0.01573041081428528,
                        -0.2211969494819641,
                        -0.08555908501148224,
                        -0.27137425541877747,
                        0.09804734587669373,
                        -0.1704135537147522,
                        -0.03977793827652931,
                        0.0037383565213531256,
                        -0.05318000540137291,
                        -0.03412492200732231,
                        0.1897241473197937,
                        -0.13593906164169312,
                        -0.039985932409763336,
                        -0.11024626344442368,
                        -0.13782697916030884,
                        0.07203071564435959,
                        0.30979472398757935,
                        -0.22309346497058868,
                        -0.46763500571250916,
                        -0.027669087052345276,
                        -0.7287313342094421,
                        0.570771336555481,
                        -0.019541285932064056,
                        0.40823474526405334,
                        0.02050446905195713,
                        -0.1330665498971939,
                        -0.029747791588306427,
                        -0.17607609927654266,
                        -0.10304936021566391,
                        0.01449230220168829,
                        0.07895111292600632,
                        -0.012436849065124989,
                        -0.03581244498491287,
                        0.08064073324203491,
                        0.13052572309970856,
                        0.08929546177387238,
                        -0.032006509602069855,
                        -0.44110003113746643,
                        -0.13383781909942627
                    ],
                    [
                        -0.31372299790382385,
                        0.4765532314777374,
                        0.045877497643232346,
                        1.0301811695098877,
                        -0.07714153826236725,
                        0.035258129239082336,
                        0.09148170053958893,
                        1.1636732816696167,
                        0.3094179332256317,
                        -0.0521780326962471,
                        -0.2297435700893402,
                        -0.1498100459575653,
                        0.08330453932285309,
                        -0.8960710167884827,
                        -0.47132036089897156,
                        -0.6663687229156494,
                        -0.07277529686689377,
                        -0.2926083505153656,
                        -0.24043124914169312,
                        -0.5798392295837402,
                        -0.26390770077705383,
                        -0.13911566138267517,
                        0.2679085433483124,
                        -0.20924407243728638,
                        -0.1659056842327118,
                        0.4198887348175049,
                        -0.18724416196346283,
                        -0.41873085498809814,
                        0.45421817898750305,
                        0.13622824847698212,
                        0.2706173360347748,
                        -0.23530742526054382,
                        0.3990630507469177,
                        0.08018524944782257,
                        -0.21550822257995605,
                        0.14765934646129608,
                        -0.3703160583972931,
                        -0.41595426201820374,
                        -0.044604845345020294,
                        0.06281808763742447,
                        -0.11878826469182968,
                        -0.21085713803768158,
                        -0.07614576816558838,
                        0.04256785288453102,
                        -0.0027771552558988333,
                        -0.17209796607494354,
                        0.33092981576919556,
                        -0.14409001171588898
                    ],
                    [
                        -0.33511656522750854,
                        0.1352580338716507,
                        -0.08887528628110886,
                        -0.08668416738510132,
                        0.058738887310028076,
                        -0.138204425573349,
                        -0.008383087813854218,
                        0.14674465358257294,
                        0.047662682831287384,
                        -0.030374685302376747,
                        -0.30853360891342163,
                        0.013185995630919933,
                        -0.8009714484214783,
                        -0.1539904624223709,
                        -0.24353359639644623,
                        -0.08737797290086746,
                        0.0037887911312282085,
                        -0.30980613827705383,
                        -0.03644882142543793,
                        0.1204165667295456,
                        0.2448023110628128,
                        -0.06355547159910202,
                        0.04189867526292801,
                        -0.010351503267884254,
                        -0.3174310624599457,
                        -0.01937856152653694,
                        0.1855655461549759,
                        0.20068565011024475,
                        0.2858247458934784,
                        0.14505337178707123,
                        0.08129870891571045,
                        -0.22675909101963043,
                        0.17213721573352814,
                        0.04144533723592758,
                        -0.1471412181854248,
                        -0.11351460963487625,
                        -0.3806712031364441,
                        0.42944198846817017,
                        -0.2506532073020935,
                        0.04462973400950432,
                        0.05267605930566788,
                        -0.35874173045158386,
                        -0.05848977714776993,
                        -0.13157016038894653,
                        0.2187626212835312,
                        -0.07701917737722397,
                        -0.47518888115882874,
                        0.02606688067317009
                    ],
                    [
                        0.027584679424762726,
                        0.08850555121898651,
                        0.04690617695450783,
                        0.4375418722629547,
                        -0.17138656973838806,
                        -0.007728848606348038,
                        0.01129645574837923,
                        0.13027139008045197,
                        0.032971661537885666,
                        -0.008523947559297085,
                        -0.029944494366645813,
                        -0.07052590698003769,
                        0.0458269901573658,
                        0.025028301402926445,
                        -0.24012190103530884,
                        0.38732022047042847,
                        -0.18003025650978088,
                        0.0583517886698246,
                        0.035353805869817734,
                        0.003488237038254738,
                        -0.09201487898826599,
                        -0.023184530436992645,
                        -0.023943975567817688,
                        -0.09254919737577438,
                        -0.1382274627685547,
                        0.23517169058322906,
                        -0.19021569192409515,
                        -0.6486247181892395,
                        0.5277549028396606,
                        -0.5870356559753418,
                        0.008705632761120796,
                        0.509006917476654,
                        -0.13650992512702942,
                        0.010735114105045795,
                        -0.05805626139044762,
                        -0.35343873500823975,
                        0.041053082793951035,
                        -0.26418831944465637,
                        0.02109014242887497,
                        0.19542956352233887,
                        -0.18184350430965424,
                        -0.11616545170545578,
                        0.028750361874699593,
                        0.09457436203956604,
                        0.10915432870388031,
                        -0.038607049733400345,
                        -0.1578490436077118,
                        -0.22246302664279938
                    ],
                    [
                        -0.17313887178897858,
                        -0.11165349185466766,
                        0.08514775335788727,
                        0.008315591141581535,
                        -0.05071031302213669,
                        0.08526261895895004,
                        0.1987093687057495,
                        0.2493845373392105,
                        0.06922145932912827,
                        -0.03985794633626938,
                        -0.2055145800113678,
                        -0.004337372723966837,
                        -0.11181722581386566,
                        0.0913604199886322,
                        0.07287620007991791,
                        -0.22872096300125122,
                        -0.02629568986594677,
                        -0.1982349157333374,
                        0.005579219665378332,
                        -0.09619151055812836,
                        0.03323334828019142,
                        -0.0799100324511528,
                        -0.03283749520778656,
                        0.0379205159842968,
                        -0.44134828448295593,
                        -0.23211374878883362,
                        -0.2727513015270233,
                        -0.03128340095281601,
                        -0.02283974550664425,
                        -0.26078763604164124,
                        0.21262934803962708,
                        0.20375202596187592,
                        0.158653125166893,
                        0.058469679206609726,
                        -0.2935623824596405,
                        0.056862540543079376,
                        -0.21360543370246887,
                        0.42888107895851135,
                        -0.45606839656829834,
                        0.23825672268867493,
                        -0.018804050981998444,
                        -0.13668473064899445,
                        0.21667493879795074,
                        0.23486483097076416,
                        0.18968267738819122,
                        -0.11962025612592697,
                        -0.21177127957344055,
                        0.04804793372750282
                    ],
                    [
                        -0.6045359373092651,
                        0.510059118270874,
                        0.7111284732818604,
                        0.47154518961906433,
                        -0.04608680307865143,
                        0.10930638015270233,
                        0.05798593908548355,
                        0.6801415681838989,
                        0.17459708452224731,
                        -0.13382470607757568,
                        -0.3955148458480835,
                        -0.10278856009244919,
                        -0.016959426924586296,
                        -0.5620872974395752,
                        -0.8298758864402771,
                        -0.6740605235099792,
                        -0.0762546956539154,
                        0.027643848210573196,
                        -0.25391799211502075,
                        -0.8952517509460449,
                        -0.3295636773109436,
                        -0.2625071406364441,
                        0.39212340116500854,
                        -0.14011995494365692,
                        -0.03589818254113197,
                        0.027340320870280266,
                        0.037992723286151886,
                        0.029394477605819702,
                        0.008750942535698414,
                        0.12836453318595886,
                        -0.038241613656282425,
                        -0.007923208177089691,
                        0.07825008779764175,
                        0.19717912375926971,
                        -0.15056250989437103,
                        -0.09473937004804611,
                        -0.5719317197799683,
                        0.1147584617137909,
                        -0.1861467957496643,
                        -0.12990254163742065,
                        -0.10146643221378326,
                        -0.01531322579830885,
                        -0.15340013802051544,
                        -0.24041827023029327,
                        -0.16284477710723877,
                        -0.29525479674339294,
                        0.016029465943574905,
                        -0.030657684430480003
                    ],
                    [
                        0.04217720776796341,
                        -0.14168106019496918,
                        -0.6674445271492004,
                        0.283558189868927,
                        0.07927439361810684,
                        -0.1980951577425003,
                        0.0020310189574956894,
                        -0.3168749213218689,
                        0.15355655550956726,
                        -0.003639315953478217,
                        -0.05287017673254013,
                        -0.09203428030014038,
                        0.23406875133514404,
                        0.3416062593460083,
                        0.010066131129860878,
                        -0.10409080237150192,
                        0.07257631421089172,
                        -0.5453031063079834,
                        -0.00605683121830225,
                        0.14150133728981018,
                        -0.3875002861022949,
                        -0.01544308289885521,
                        -0.08800271898508072,
                        -0.1206381767988205,
                        -0.0996972844004631,
                        -0.17949728667736053,
                        0.6825149059295654,
                        0.25129178166389465,
                        0.47791430354118347,
                        0.46175867319107056,
                        -0.8896552324295044,
                        0.07384831458330154,
                        0.3220333755016327,
                        0.0028201639652252197,
                        0.5504055023193359,
                        -0.132353276014328,
                        -0.007094163913279772,
                        0.39750683307647705,
                        -0.6258994340896606,
                        0.05345364660024643,
                        0.08575014770030975,
                        -0.560102641582489,
                        0.1511773020029068,
                        -0.036620743572711945,
                        0.11587642133235931,
                        0.05541806295514107,
                        0.2140781134366989,
                        0.049702152609825134
                    ],
                    [
                        -0.16553895175457,
                        0.056009549647569656,
                        0.45913925766944885,
                        0.6218781471252441,
                        0.005978905595839024,
                        -0.29237255454063416,
                        0.06852731853723526,
                        0.773603618144989,
                        -0.1244107335805893,
                        -0.055982429534196854,
                        -0.1642332822084427,
                        -0.03742695227265358,
                        0.2831853926181793,
                        -0.409152626991272,
                        -0.13400743901729584,
                        -0.022494861856102943,
                        0.03831816092133522,
                        -0.16390755772590637,
                        -0.11034434288740158,
                        -0.5387457609176636,
                        -0.33857932686805725,
                        -0.12778234481811523,
                        0.1446547955274582,
                        -0.016496820375323296,
                        0.22186551988124847,
                        -0.06452620029449463,
                        0.02251138538122177,
                        0.044758349657058716,
                        -0.29046326875686646,
                        0.0844106525182724,
                        0.049657151103019714,
                        0.09949575364589691,
                        0.2657855749130249,
                        0.08462104201316833,
                        0.17169971764087677,
                        0.4059053957462311,
                        -0.1269034743309021,
                        0.11585774272680283,
                        0.16532664000988007,
                        0.1924384981393814,
                        -0.011637520976364613,
                        -0.22964270412921906,
                        -0.09094639122486115,
                        -0.49470874667167664,
                        -0.24945688247680664,
                        -0.27823084592819214,
                        -0.23771613836288452,
                        0.06214806064963341
                    ]
                ],
                [
                    1.682173252105713,
                    -1.2659807205200195,
                    -2.0172524452209473,
                    -2.4214844703674316,
                    -0.223011314868927,
                    0.23926161229610443,
                    -0.26409727334976196,
                    -2.2386727333068848,
                    -0.9221372604370117,
                    0.3448476493358612,
                    1.607709527015686,
                    0.3358735740184784,
                    -0.2092941403388977,
                    2.330305814743042,
                    3.0381836891174316,
                    3.6509881019592285,
                    0.10827980190515518,
                    0.3217746317386627,
                    0.9770091772079468,
                    3.1205995082855225,
                    1.0877809524536133,
                    0.7790554761886597,
                    -1.3281856775283813,
                    0.5095515251159668,
                    0.01980166882276535,
                    -0.005213525146245956,
                    0.045847825706005096,
                    -0.1485600471496582,
                    -0.09195750951766968,
                    -0.4250809848308563,
                    -0.02363550290465355,
                    -0.11641739308834076,
                    0.004464402794837952,
                    -0.6317296028137207,
                    -0.23001831769943237,
                    -0.2436988800764084,
                    1.606508731842041,
                    -0.06696053594350815,
                    0.240682452917099,
                    0.4013841152191162,
                    -0.0924903079867363,
                    0.6889423727989197,
                    0.22425085306167603,
                    -0.09136813133955002,
                    0.1651165783405304,
                    0.559126079082489,
                    0.7736473083496094,
                    -0.12670999765396118
                ]
            ]
        },
        {
            "type": "dense",
            "activation": "",
            "shape": [
                null,
                null,
                1
            ],
            "weights": [
                [
                    [
                        0.362824022769928
                    ],
                    [
                        -0.2550351917743683
                    ],
                    [
                        0.12039586156606674
                    ],
                    [
                        -0.019351307302713394
                    ],
                    [
                        0.1528320610523224
                    ],
                    [
                        0.4186220169067383
                    ],
                    [
                        -0.13897870481014252
                    ],
                    [
                        -0.5056965947151184
                    ],
                    [
                        0.19871123135089874
                    ],
                    [
                        -0.028014734387397766
                    ],
                    [
                        -0.6854674816131592
                    ],
                    [
                        -0.1031983271241188
                    ]
                ],
                [
                    0.02203260362148285
                ]
            ]
        }
    ]
}