{
    "in_shape": [
        null,
        null,
        1
    ],
    "in_skip": 1,
    "out_gain": 9,
    "layers": [
        {
            "type": "lstm",
            "activation": "",
            "shape": [
                null,
                null,
                12
            ],
            "weights": [
                [
                    [
                        0.048093490302562714,
                        0.0806475281715393,
                        -0.00016633578343316913,
                        0.06408058851957321,
                        0.07899225503206253,
                        -0.09501674026250839,
                        -0.13091884553432465,
                        -0.009028531610965729,
                        -0.051848527044057846,
                        0.025849172845482826,
                        0.105083167552948,
                        0.03856215626001358,
                        0.0033471377100795507,
                        0.02832307666540146,
                        -0.17079280316829681,
                        0.0707908421754837,
                        0.09558756649494171,
                        -0.1590735912322998,
                        -0.026839734986424446,
                        0.028009925037622452,
                        -0.10911766439676285,
                        0.0011351568391546607,
                        0.12149855494499207,
                        0.03055688552558422,
                        -0.8591490983963013,
                        -0.2384418100118637,
                        -0.4749402403831482,
                        -0.2379300594329834,
                        0.36692681908607483,
                        0.022095415741205215,
                        0.23811262845993042,
                        -1.5765100717544556,
                        0.6402980089187622,
                        0.3339363932609558,
                        -0.24444839358329773,
                        0.6136980056762695,
                        0.028581693768501282,
                        0.05200269818305969,
                        -0.06671582162380219,
                        0.051728855818510056,
                        -0.0008162505109794438,
                        -0.12002862244844437,
                        -0.08768526464700699,
                        -0.020192263647913933,
                        -0.07527969032526016,
                        0.021118612959980965,
                        0.09661998599767685,
                        0.03915539011359215
                    ]
                ],
                [
                    [
                        0.0511457622051239,
                        0.4787833094596863,
                        0.14639011025428772,
                        0.05638201907277107,
                        -0.14944814145565033,
                        -0.08039339631795883,
                        -0.18489496409893036,
                        0.11690270900726318,
                        0.10237116366624832,
                        0.19953316450119019,
                        0.13573242723941803,
                        0.060647472739219666,
                        0.0900053009390831,
                        0.09782345592975616,
                        0.08265917003154755,
                        -0.06209714710712433,
                        -0.35239794850349426,
                        -0.207406684756279,
                        -0.014225635677576065,
                        0.2473917305469513,
                        0.09124536067247391,
                        0.23774468898773193,
                        0.02034854330122471,
                        -0.033492740243673325,
                        0.3912346661090851,
                        -0.8548761606216431,
                        0.5181511044502258,
                        0.3127150535583496,
                        -0.6516755223274231,
                        0.48830318450927734,
                        -0.3143211007118225,
                        -0.00011583744344534352,
                        -0.38228073716163635,
                        0.2544575333595276,
                        -0.054264675825834274,
                        -0.6749560236930847,
                        0.09516661614179611,
                        0.2556266188621521,
                        0.12784981727600098,
                        0.022998102009296417,
                        0.0028033789712935686,
                        -0.05234365910291672,
                        -0.030445056036114693,
                        0.10072322189807892,
                        0.032328251749277115,
                        0.30698204040527344,
                        0.1074809581041336,
                        0.058552250266075134
                    ],
                    [
                        0.09809926897287369,
                        -0.5611576437950134,
                        -0.10228851437568665,
                        -0.1301364153623581,
                        0.02157362923026085,
                        0.22814464569091797,
                        0.09288884699344635,
                        -0.01575377769768238,
                        0.2104366421699524,
                        -0.1796789914369583,
                        -0.08673592656850815,
                        -0.044873278588056564,
                        -0.02047785371541977,
                        -0.1803065985441208,
                        0.15517814457416534,
                        0.1129409670829773,
                        0.585563600063324,
                        0.1263967603445053,
                        -0.2276543527841568,
                        -0.12225179374217987,
                        0.17331182956695557,
                        -0.26344677805900574,
                        0.06339475512504578,
                        0.1752743124961853,
                        -0.058145035058259964,
                        0.6797001957893372,
                        -0.119905486702919,
                        -0.35327965021133423,
                        -0.6167802214622498,
                        -0.32022297382354736,
                        0.11733796447515488,
                        0.22221040725708008,
                        -0.17359277606010437,
                        0.03817422315478325,
                        -0.3640318810939789,
                        -0.07137639075517654,
                        -0.008233781903982162,
                        -0.24932155013084412,
                        -0.13576632738113403,
                        -0.05744187533855438,
                        0.08986964821815491,
                        0.31094738841056824,
                        -0.1030304953455925,
                        -0.07057376950979233,
                        0.23113369941711426,
                        -0.14872945845127106,
                        -0.11490900814533234,
                        -0.023480389267206192
                    ],
                    [
                        -0.04537956789135933,
                        0.2571747601032257,
                        0.09978348761796951,
                        -0.025188688188791275,
                        -0.17531928420066833,
                        0.027094412595033646,
                        0.10467696934938431,
                        -0.037580233067274094,
                        -0.036601077765226364,
                        0.11891461908817291,
                        -0.05933920294046402,
                        -0.0013259031111374497,
                        -0.030893245711922646,
                        -0.31863945722579956,
                        0.1691369116306305,
                        -0.3112240731716156,
                        -0.43221116065979004,
                        0.02314143441617489,
                        -0.07218556851148605,
                        0.07689443230628967,
                        -0.06326286494731903,
                        0.1008407473564148,
                        -0.20265765488147736,
                        -0.0788387730717659,
                        -0.27405864000320435,
                        0.5162622332572937,
                        0.32230907678604126,
                        0.07835286110639572,
                        0.7111530900001526,
                        -0.4660479426383972,
                        0.15392261743545532,
                        -0.28851765394210815,
                        -0.02506927214562893,
                        0.8014556169509888,
                        -0.353831946849823,
                        -0.12813691794872284,
                        -0.0033582497853785753,
                        -0.08850470185279846,
                        0.24187511205673218,
                        -0.0010706557659432292,
                        -0.3452509343624115,
                        0.0929935872554779,
                        0.0829756036400795,
                        -0.00902570877224207,
                        6.446482439059764e-05,
                        0.2649289071559906,
                        -0.0017969101900234818,
                        -0.017029354348778725
                    ],
                    [
                        -0.11995716392993927,
                        -0.14764709770679474,
                        0.04851488396525383,
                        -0.0918859913945198,
                        -0.12986969947814941,
                        0.103954017162323,
                        -0.057717278599739075,
                        0.043076444417238235,
                        0.030972158536314964,
                        -0.04822060093283653,
                        -0.0071508814580738544,
                        -0.05303902551531792,
                        -0.12729866802692413,
                        0.0409899540245533,
                        0.30781954526901245,
                        0.07967927306890488,
                        -0.051881883293390274,
                        0.005674705374985933,
                        -0.020659439265727997,
                        0.028414782136678696,
                        0.23985649645328522,
                        -0.0431283637881279,
                        0.008684758096933365,
                        -0.04793255776166916,
                        -0.7724538445472717,
                        -0.11558996140956879,
                        0.7365880608558655,
                        -0.1881481111049652,
                        0.9489502906799316,
                        0.2269064337015152,
                        -0.12732736766338348,
                        -0.08093206584453583,
                        0.05023058131337166,
                        -0.14617186784744263,
                        -1.1528948545455933,
                        0.11249133199453354,
                        -0.10822758078575134,
                        -0.07739285379648209,
                        0.09946359694004059,
                        -0.05301789194345474,
                        0.001167532172985375,
                        0.03990825638175011,
                        0.1699279546737671,
                        0.07819733768701553,
                        0.05163197219371796,
                        -0.2032073587179184,
                        -0.05325260013341904,
                        -0.048831645399332047
                    ],
                    [
                        -0.025312231853604317,
                        0.2594113349914551,
                        0.032447729259729385,
                        -0.0522468201816082,
                        -0.22081820666790009,
                        -0.3210977613925934,
                        0.12969449162483215,
                        -0.018902722746133804,
                        -0.005405275616794825,
                        0.08077726513147354,
                        -0.22178013622760773,
                        -0.07990013062953949,
                        -0.03795168921351433,
                        0.0651780366897583,
                        -0.17959007620811462,
                        0.029092339798808098,
                        -0.3317178785800934,
                        0.03870656341314316,
                        0.2815035283565521,
                        0.2552412748336792,
                        -0.340788334608078,
                        0.07041759043931961,
                        -0.21542459726333618,
                        -0.13527406752109528,
                        -0.014350922778248787,
                        0.11852716654539108,
                        0.16905362904071808,
                        -0.433523029088974,
                        0.6073653697967529,
                        -0.11763426661491394,
                        0.10246846079826355,
                        0.2677402198314667,
                        -0.09126880019903183,
                        -0.2160678505897522,
                        -0.16065596044063568,
                        -0.05870683118700981,
                        0.08193386346101761,
                        0.06559881567955017,
                        0.1530723124742508,
                        0.08694019913673401,
                        -0.06411883234977722,
                        0.0073543391190469265,
                        -0.14693106710910797,
                        -0.18654696643352509,
                        -0.010687259957194328,
                        0.5238173007965088,
                        -0.12284279614686966,
                        -0.09811971336603165
                    ],
                    [
                        0.021668603643774986,
                        0.1912103295326233,
                        0.2167367786169052,
                        -0.22077275812625885,
                        0.43470266461372375,
                        0.0642465353012085,
                        -0.02735014259815216,
                        -0.019087472930550575,
                        -0.39197206497192383,
                        -0.010255121625959873,
                        -0.12349920719861984,
                        -0.008416681550443172,
                        0.0697021633386612,
                        0.10106080770492554,
                        0.4031687080860138,
                        0.1857450306415558,
                        0.35401657223701477,
                        0.23266249895095825,
                        0.1318092942237854,
                        0.17738395929336548,
                        -0.2948155999183655,
                        -0.019376583397388458,
                        0.011025572195649147,
                        0.16000361740589142,
                        -0.10828038305044174,
                        -0.21250152587890625,
                        0.145966038107872,
                        -0.03316137194633484,
                        0.6793764233589172,
                        0.4356051981449127,
                        0.5653433799743652,
                        0.07316494733095169,
                        -0.5089778900146484,
                        0.3293999135494232,
                        0.02821780927479267,
                        0.09105280786752701,
                        -0.03183034062385559,
                        0.12227250635623932,
                        0.234561949968338,
                        -0.09220070391893387,
                        0.4418259561061859,
                        -0.061654865741729736,
                        0.022741610184311867,
                        0.03254126012325287,
                        -0.3258492648601532,
                        -0.024634484201669693,
                        -0.0609675757586956,
                        -0.0411929190158844
                    ],
                    [
                        -0.1157892718911171,
                        0.0772927850484848,
                        0.04135174676775932,
                        -0.18221628665924072,
                        -0.20546071231365204,
                        -0.13779082894325256,
                        0.06094988062977791,
                        0.09337560832500458,
                        0.11239203810691833,
                        -0.216337189078331,
                        -0.16713012754917145,
                        -0.029543695971369743,
                        -0.12770646810531616,
                        0.23216821253299713,
                        0.12515167891979218,
                        -0.015785114839673042,
                        -0.11337978392839432,
                        -0.07401011139154434,
                        0.3191431164741516,
                        0.3402232527732849,
                        -0.07321921736001968,
                        -0.21798934042453766,
                        -0.14782527089118958,
                        0.10028133541345596,
                        0.13275869190692902,
                        0.19858813285827637,
                        -0.2085350900888443,
                        0.49770545959472656,
                        -0.07448601722717285,
                        0.1620873361825943,
                        0.43435630202293396,
                        -0.3087274134159088,
                        0.5522016882896423,
                        -0.23489007353782654,
                        0.13743388652801514,
                        -0.1399325579404831,
                        -0.022959869354963303,
                        0.06949178129434586,
                        0.020120156928896904,
                        -0.11497928202152252,
                        0.33434370160102844,
                        0.04952746257185936,
                        0.057149384170770645,
                        0.07981481403112411,
                        0.03526942804455757,
                        -0.2396213710308075,
                        -0.14059960842132568,
                        -0.01370692066848278
                    ],
                    [
                        -0.04372413828969002,
                        -0.2288084328174591,
                        -0.07613585889339447,
                        -0.03164101764559746,
                        0.12524308264255524,
                        0.09146907925605774,
                        0.14458002150058746,
                        -0.08318585157394409,
                        -0.080744668841362,
                        0.012022506445646286,
                        -0.11064057797193527,
                        -0.048142362385988235,
                        -0.047862112522125244,
                        -0.07993665337562561,
                        -0.03819132223725319,
                        -0.008520771749317646,
                        0.1682807207107544,
                        0.2485477179288864,
                        -0.049792177975177765,
                        -0.13281825184822083,
                        -0.08343639969825745,
                        -0.05040324851870537,
                        -0.04862932488322258,
                        0.03754211217164993,
                        -0.41454505920410156,
                        0.25304269790649414,
                        0.13810212910175323,
                        0.24475526809692383,
                        -0.4538189172744751,
                        0.2543514370918274,
                        -0.05674600228667259,
                        -0.20580995082855225,
                        -0.2415863573551178,
                        0.01856793276965618,
                        0.4505131244659424,
                        -1.209923505783081,
                        -0.055313557386398315,
                        -0.18122100830078125,
                        -0.054545383900403976,
                        -0.04655478522181511,
                        0.05307973548769951,
                        0.07318341732025146,
                        -0.04646333307027817,
                        -0.11439016461372375,
                        -0.04200904443860054,
                        0.1424684077501297,
                        -0.08948493748903275,
                        -0.0494866743683815
                    ],
                    [
                        0.025916695594787598,
                        0.09065824002027512,
                        0.010904790833592415,
                        0.04920513927936554,
                        -0.3432285189628601,
                        -0.13441060483455658,
                        -0.1096491739153862,
                        -0.027917323634028435,
                        0.042051516473293304,
                        0.16031287610530853,
                        0.09807178378105164,
                        -0.08769555389881134,
                        0.06368724256753922,
                        -0.10673461854457855,
                        -0.0048881531693041325,
                        -0.017393700778484344,
                        -0.2041458636522293,
                        -0.07190178334712982,
                        -0.10852304846048355,
                        -0.13943588733673096,
                        0.022254545241594315,
                        0.22412100434303284,
                        -0.056266844272613525,
                        -0.23547355830669403,
                        0.17802980542182922,
                        -0.2037041187286377,
                        -0.24235597252845764,
                        -0.32728785276412964,
                        0.18266861140727997,
                        0.17891162633895874,
                        0.03816548362374306,
                        0.14212696254253387,
                        0.46370840072631836,
                        -0.331902414560318,
                        0.005558721721172333,
                        -0.3797665536403656,
                        -0.02327960915863514,
                        0.12348908185958862,
                        -0.009314055554568768,
                        -0.030290398746728897,
                        -0.123378224670887,
                        -0.13740108907222748,
                        -0.18518923223018646,
                        -0.03343513607978821,
                        0.05749700218439102,
                        0.20237702131271362,
                        0.08723951876163483,
                        -0.07552924752235413
                    ],
                    [
                        0.021051635965704918,
                        0.13536496460437775,
                        0.09309148788452148,
                        0.18870039284229279,
                        0.13344141840934753,
                        0.1910824328660965,
                        -0.09421077370643616,
                        -0.17564168572425842,
                        -0.1025439202785492,
                        0.11727487295866013,
                        0.06823056936264038,
                        -0.004686235450208187,
                        -0.07972683757543564,
                        -0.31115761399269104,
                        0.024131258949637413,
                        -0.024424167349934578,
                        0.05058826878666878,
                        0.0009468890493735671,
                        -0.3673737645149231,
                        -0.07353564351797104,
                        -0.21439146995544434,
                        0.024289030581712723,
                        -0.002868262119591236,
                        0.14702069759368896,
                        0.1046825721859932,
                        0.2834278643131256,
                        0.031752005219459534,
                        -0.4156973361968994,
                        -0.0891181230545044,
                        0.07577773928642273,
                        0.0042612431570887566,
                        0.43230125308036804,
                        -0.1075732409954071,
                        0.10830733925104141,
                        -0.5151818990707397,
                        -0.11681970953941345,
                        -0.14176446199417114,
                        -0.1309879869222641,
                        0.1342158168554306,
                        0.03060661070048809,
                        -0.09227784723043442,
                        -0.010944785550236702,
                        -0.25372540950775146,
                        -0.15960676968097687,
                        -0.11817896366119385,
                        0.06398405134677887,
                        0.048328787088394165,
                        -0.05037304386496544
                    ],
                    [
                        -0.10885399580001831,
                        0.3819955289363861,
                        0.02418631501495838,
                        -0.0735049694776535,
                        0.2956380546092987,
                        -0.19172877073287964,
                        0.17589673399925232,
                        -0.02430657297372818,
                        -0.08827861398458481,
                        0.013627341948449612,
                        0.01558398175984621,
                        0.0776214450597763,
                        0.050645917654037476,
                        0.21693618595600128,
                        -0.16095514595508575,
                        -0.10969001054763794,
                        -0.02657499350607395,
                        -0.04303747043013573,
                        0.3746756315231323,
                        -0.05155745893716812,
                        -0.07706295698881149,
                        -0.031191498041152954,
                        0.10949630290269852,
                        0.03922969102859497,
                        -0.05179576575756073,
                        -0.8928198218345642,
                        0.38461002707481384,
                        0.09535756707191467,
                        -0.09730755537748337,
                        0.6623007655143738,
                        -0.484134703874588,
                        0.14484933018684387,
                        -0.1327410787343979,
                        0.4583648443222046,
                        0.08242766559123993,
                        0.11003310233354568,
                        0.018791144713759422,
                        0.21355223655700684,
                        -0.1039147600531578,
                        -0.024666639044880867,
                        -0.17776530981063843,
                        -0.1527145802974701,
                        0.22989553213119507,
                        -0.05892080068588257,
                        -0.1331517994403839,
                        0.038653239607810974,
                        -0.03742312267422676,
                        0.069022998213768
                    ],
                    [
                        0.0009233691962435842,
                        -0.2291688323020935,
                        -0.0577247217297554,
                        -0.0845327079296112,
                        0.013023662380874157,
                        -0.04366794601082802,
                        -0.19737866520881653,
                        -0.08508770912885666,
                        -0.13036201894283295,
                        0.047573260962963104,
                        0.023753609508275986,
                        0.030917782336473465,
                        -0.08006910234689713,
                        -0.0941300317645073,
                        -0.07894179224967957,
                        -0.030421743169426918,
                        -0.0265103317797184,
                        -0.10143010318279266,
                        -0.08933641761541367,
                        -0.05101479962468147,
                        -0.026544960215687752,
                        0.041859447956085205,
                        0.1818031370639801,
                        0.06780854612588882,
                        0.5518950819969177,
                        0.028707848861813545,
                        -0.13323068618774414,
                        -0.71258145570755,
                        0.5034481287002563,
                        -0.42249852418899536,
                        0.003700602101162076,
                        0.7808780074119568,
                        0.09830192476511002,
                        0.04369250684976578,
                        0.17177589237689972,
                        -0.22104254364967346,
                        0.03451257571578026,
                        -0.03621886298060417,
                        -0.0658712387084961,
                        -0.0395563580095768,
                        -0.19305916130542755,
                        -0.16887935996055603,
                        -0.08779265731573105,
                        -0.06266254186630249,
                        -0.1460343897342682,
                        -0.14808708429336548,
                        0.044198475778102875,
                        0.030178293585777283
                    ]
                ],
                [
                    0.6658031940460205,
                    0.49152272939682007,
                    0.6067328453063965,
                    0.8078237771987915,
                    0.8378890156745911,
                    0.5314302444458008,
                    -0.07628383487462997,
                    1.0000693798065186,
                    0.08820343017578125,
                    0.033151134848594666,
                    0.9544106721878052,
                    1.1178154945373535,
                    0.9904564023017883,
                    0.2833164930343628,
                    0.4285470247268677,
                    0.5193674564361572,
                    0.30115383863449097,
                    0.690069317817688,
                    0.8387265205383301,
                    -0.15212847292423248,
                    0.379524290561676,
                    0.6280212998390198,
                    0.4414962828159332,
                    0.07236231118440628,
                    0.02294100821018219,
                    0.1463286131620407,
                    -0.06277743726968765,
                    -0.08478519320487976,
                    -0.06935471296310425,
                    0.01197129301726818,
                    -0.004677858203649521,
                    0.017575711011886597,
                    -0.04236218333244324,
                    -0.2938113510608673,
                    -0.024502985179424286,
                    -0.09159795194864273,
                    1.3364906311035156,
                    0.6862584352493286,
                    0.7793054580688477,
                    1.3663430213928223,
                    0.19389821588993073,
                    0.8543378114700317,
                    0.5599216818809509,
                    1.1369911432266235,
                    0.40705740451812744,
                    0.11895222961902618,
                    1.3376896381378174,
                    1.2250761985778809
                ]
            ]
        },
        {
            "type": "dense",
            "activation": "",
            "shape": [
                null,
                null,
                1
            ],
            "weights": [
                [
                    [
                        0.14473018050193787
                    ],
                    [
                        -0.03951980918645859
                    ],
                    [
                        0.06629370152950287
                    ],
                    [
                        0.07253280282020569
                    ],
                    [
                        0.3399137854576111
                    ],
                    [
                        -0.03466232866048813
                    ],
                    [
                        -0.16805922985076904
                    ],
                    [
                        0.7777361273765564
                    ],
                    [
                        -0.17639605700969696
                    ],
                    [
                        -0.403925359249115
                    ],
                    [
                        -0.26352357864379883
                    ],
                    [
                        -0.3033103048801422
                    ]
                ],
                [
                    -0.016386885195970535
                ]
            ]
        }
    ],
    "samplerate": "48000",
    "author": "Aida DSP",
    "esr": 0.03936827555298805
}
