{
    "in_shape": [
        null,
        null,
        1
    ],
    "layers": [
        {
            "type": "lstm",
            "activation": "",
            "shape": [
                null,
                null,
                12
            ],
            "weights": [
                [
                    [
                        -0.012845750898122787,
                        -0.07589765638113022,
                        -0.10942976921796799,
                        -0.004796931985765696,
                        -0.008358821272850037,
                        -0.156962588429451,
                        0.009422526694834232,
                        -0.0006672986201010644,
                        0.0758090540766716,
                        -0.006007482297718525,
                        0.008422923274338245,
                        -0.07570488005876541,
                        -0.04270344227552414,
                        -0.02300352230668068,
                        -0.1155824363231659,
                        0.05791199952363968,
                        -0.023549268022179604,
                        -0.1706303507089615,
                        0.03170839324593544,
                        0.0991423949599266,
                        0.009928736835718155,
                        -0.04094480350613594,
                        0.017466623336076736,
                        -0.09218316525220871,
                        1.2647924423217773,
                        -0.31303730607032776,
                        -0.012978628277778625,
                        0.10758604109287262,
                        0.5145926475524902,
                        0.8207963109016418,
                        -0.24723730981349945,
                        0.0948123037815094,
                        -0.1507730782032013,
                        -0.5042361617088318,
                        0.6523948311805725,
                        0.24964483082294464,
                        -0.02043084427714348,
                        -0.12785762548446655,
                        -0.09781263023614883,
                        -0.004205318167805672,
                        0.03984503075480461,
                        -0.14982624351978302,
                        0.07008663564920425,
                        0.037648241966962814,
                        -0.02918795496225357,
                        -0.11362965404987335,
                        0.01544253621250391,
                        -0.07497995346784592
                    ]
                ],
                [
                    [
                        0.06748603284358978,
                        -0.0021756296046078205,
                        -0.13515140116214752,
                        0.04665724188089371,
                        0.0679740458726883,
                        -0.018536478281021118,
                        -0.08813519775867462,
                        -0.039615292102098465,
                        0.07693225145339966,
                        -0.07955510169267654,
                        0.023686952888965607,
                        0.03000671975314617,
                        0.046591129153966904,
                        0.1462228149175644,
                        0.29331958293914795,
                        0.16082070767879486,
                        0.07068687677383423,
                        0.07074278593063354,
                        -0.18970590829849243,
                        0.1720784306526184,
                        0.06678123027086258,
                        -0.0718732550740242,
                        -0.017044808715581894,
                        0.022823192179203033,
                        0.051592886447906494,
                        -0.5105979442596436,
                        0.16394160687923431,
                        0.44829657673835754,
                        -1.0765159130096436,
                        -0.3608890771865845,
                        -0.006966990884393454,
                        -0.5046170949935913,
                        0.3076992630958557,
                        -0.16368095576763153,
                        1.3214024305343628,
                        -0.17388680577278137,
                        0.10216467827558517,
                        0.10804775357246399,
                        0.029247907921671867,
                        0.056314632296562195,
                        0.11264673620462418,
                        -0.014459091238677502,
                        -0.10182453691959381,
                        0.060817837715148926,
                        0.12937165796756744,
                        -0.027016500011086464,
                        0.020564356818795204,
                        0.03687744215130806
                    ],
                    [
                        -0.09239520132541656,
                        0.16168604791164398,
                        -0.1399235725402832,
                        0.12320325523614883,
                        -0.08520779758691788,
                        -0.17258378863334656,
                        0.053597621619701385,
                        0.08618679642677307,
                        -0.2092493176460266,
                        0.09150870144367218,
                        -0.12513825297355652,
                        0.022401701658964157,
                        -0.030285246670246124,
                        0.0935429185628891,
                        -0.4366661310195923,
                        -0.013241608627140522,
                        0.13867470622062683,
                        -0.4054340720176697,
                        0.08920954912900925,
                        -0.3956339657306671,
                        -0.2662210166454315,
                        0.15467478334903717,
                        -0.10724995285272598,
                        0.06408168375492096,
                        0.7628160715103149,
                        0.6020932197570801,
                        -0.11145691573619843,
                        0.1094546839594841,
                        0.010784225538372993,
                        -0.00606077304109931,
                        -0.0006729658925905824,
                        -0.12785789370536804,
                        0.3683723509311676,
                        -0.18277783691883087,
                        0.08998505771160126,
                        -0.40071943402290344,
                        -0.08961587399244308,
                        -0.057334840297698975,
                        -0.43909603357315063,
                        -0.1585732251405716,
                        0.5024234652519226,
                        -0.11241278052330017,
                        0.08668497204780579,
                        -0.07027053833007812,
                        -0.029939470812678337,
                        0.20387035608291626,
                        -0.12440367788076401,
                        0.023697899654507637
                    ],
                    [
                        0.03621596843004227,
                        0.3765028119087219,
                        0.04263754561543465,
                        0.00884077325463295,
                        0.07100732624530792,
                        0.1051473617553711,
                        -0.18036511540412903,
                        0.03396349400281906,
                        0.25655636191368103,
                        -0.28275424242019653,
                        0.05169939249753952,
                        0.03437589108943939,
                        0.049134884029626846,
                        0.5592628717422485,
                        -0.009347361512482166,
                        0.12140334397554398,
                        0.05808842182159424,
                        0.25097373127937317,
                        -0.3250831961631775,
                        0.36919552087783813,
                        0.3190820813179016,
                        -0.5242655873298645,
                        0.1129031553864479,
                        -0.007567708380520344,
                        0.06035471335053444,
                        -0.02651211991906166,
                        0.6086347103118896,
                        -0.09498278051614761,
                        0.21107901632785797,
                        0.2983551621437073,
                        0.20076489448547363,
                        -0.07880453765392303,
                        0.4410628080368042,
                        -0.07952066510915756,
                        -0.3347495496273041,
                        -0.0481652207672596,
                        0.03539710491895676,
                        0.4496520161628723,
                        0.12380024045705795,
                        -0.021912306547164917,
                        -0.3186432421207428,
                        0.05479764938354492,
                        -0.20547744631767273,
                        0.13724705576896667,
                        0.10933708399534225,
                        -0.35126590728759766,
                        0.04787227883934975,
                        0.03903578966856003
                    ],
                    [
                        0.10633371770381927,
                        -0.30145856738090515,
                        -0.5788657069206238,
                        -0.09760957956314087,
                        0.17070740461349487,
                        -0.12217755615711212,
                        -0.1342589110136032,
                        -0.4723895490169525,
                        -0.22142766416072845,
                        0.04093848168849945,
                        0.11257179826498032,
                        0.010822855867445469,
                        -0.0044164955615997314,
                        0.1995377093553543,
                        0.7537002563476562,
                        -0.23937766253948212,
                        0.0720161721110344,
                        -0.11480092257261276,
                        -0.11967707425355911,
                        0.3388057053089142,
                        0.39191949367523193,
                        0.32717257738113403,
                        0.045793160796165466,
                        -0.040585245937108994,
                        -0.6007670164108276,
                        0.08535051345825195,
                        -0.6769394278526306,
                        0.4871399402618408,
                        0.14008483290672302,
                        0.05748888477683067,
                        -0.24077178537845612,
                        -0.024031465873122215,
                        0.027150459587574005,
                        -0.6854336857795715,
                        -0.5358172655105591,
                        -0.08065839856863022,
                        0.10382141917943954,
                        -0.04066482558846474,
                        -0.052070483565330505,
                        -0.10742418467998505,
                        0.3239923417568207,
                        0.015590904280543327,
                        -0.09586820751428604,
                        0.026072438806295395,
                        0.0987422838807106,
                        0.1039353609085083,
                        0.1117049977183342,
                        0.017712363973259926
                    ],
                    [
                        -4.164567872066982e-05,
                        0.0051436410285532475,
                        0.2380671352148056,
                        -0.03768336400389671,
                        -0.05195649340748787,
                        0.12012260407209396,
                        0.2079651802778244,
                        0.06444210559129715,
                        0.2777467370033264,
                        -0.02995549887418747,
                        -0.03692271560430527,
                        -0.04159613326191902,
                        0.05189012363553047,
                        -0.05812274292111397,
                        -0.09250562638044357,
                        0.10111065208911896,
                        -0.029667504131793976,
                        -0.0074775428511202335,
                        0.3803555965423584,
                        0.14921922981739044,
                        0.021997986361384392,
                        -0.21511855721473694,
                        -0.12425845861434937,
                        0.0360618457198143,
                        0.09245266765356064,
                        0.06435580551624298,
                        -0.20748871564865112,
                        -0.22834844887256622,
                        0.9025762677192688,
                        -0.12900839745998383,
                        -0.065758116543293,
                        -0.15360364317893982,
                        0.5028658509254456,
                        0.02455785684287548,
                        0.1219116672873497,
                        -0.14429958164691925,
                        -0.029757466167211533,
                        0.08688223361968994,
                        -0.011109712533652782,
                        -0.07878664880990982,
                        -0.03999828174710274,
                        0.1085626482963562,
                        0.15338757634162903,
                        -0.20033839344978333,
                        -0.06234700232744217,
                        0.016054188832640648,
                        -0.004824926145374775,
                        -0.08928975462913513
                    ],
                    [
                        -0.10182160139083862,
                        0.026308860629796982,
                        -0.2964235246181488,
                        -0.11644439399242401,
                        -0.053723663091659546,
                        -0.02867400273680687,
                        0.06812234967947006,
                        -0.25426584482192993,
                        -0.0931711494922638,
                        -0.07140874117612839,
                        0.017525412142276764,
                        -0.05749677121639252,
                        -0.1463574469089508,
                        0.16556000709533691,
                        0.06461741030216217,
                        0.10595453530550003,
                        -0.07964441180229187,
                        -0.07816819101572037,
                        0.25125566124916077,
                        0.03131289780139923,
                        -0.07998155802488327,
                        -0.07902545481920242,
                        0.049847811460494995,
                        -0.08095435798168182,
                        -0.6198441982269287,
                        -0.47394078969955444,
                        0.0005156403058208525,
                        0.17375755310058594,
                        1.110800862312317,
                        0.4879317879676819,
                        0.27054595947265625,
                        -0.2677402198314667,
                        0.10593064874410629,
                        -0.12381491810083389,
                        0.366351842880249,
                        -0.6271699666976929,
                        -0.12697818875312805,
                        0.07901358604431152,
                        -0.10560561716556549,
                        -0.08969194442033768,
                        -0.10066629946231842,
                        -0.0306021086871624,
                        0.15192173421382904,
                        -0.1005227193236351,
                        -0.23595812916755676,
                        -0.047446466982364655,
                        0.01589265465736389,
                        -0.07000366598367691
                    ],
                    [
                        -0.07595198601484299,
                        0.12573735415935516,
                        0.4752594828605652,
                        0.2501600980758667,
                        -0.047830864787101746,
                        -0.0122664924710989,
                        -0.1188991591334343,
                        0.0004302736488170922,
                        0.12210270762443542,
                        0.028259634971618652,
                        -0.08569112420082092,
                        -0.06856440007686615,
                        -0.0009736199281178415,
                        -0.1942729502916336,
                        -0.5717663168907166,
                        0.135378897190094,
                        0.14618223905563354,
                        0.07831618934869766,
                        -0.23075056076049805,
                        -0.6652230620384216,
                        -0.376972496509552,
                        -0.1304282695055008,
                        0.038699060678482056,
                        -0.0920490100979805,
                        -0.32784727215766907,
                        0.3285231292247772,
                        0.04123947396874428,
                        -0.3049907088279724,
                        0.2906914949417114,
                        0.09596581012010574,
                        0.12207882106304169,
                        -0.3247937262058258,
                        -0.09588927775621414,
                        0.1346089243888855,
                        -0.26661214232444763,
                        0.006040630396455526,
                        -0.07238709181547165,
                        0.04271988943219185,
                        0.04615545645356178,
                        0.1315978616476059,
                        -0.07498815655708313,
                        -0.051269419491291046,
                        -0.20693545043468475,
                        -0.19613701105117798,
                        -0.10188443213701248,
                        0.021619467064738274,
                        -0.08928588777780533,
                        -0.07034040242433548
                    ],
                    [
                        -0.05131452530622482,
                        0.20744463801383972,
                        0.46842169761657715,
                        -0.11872576922178268,
                        -0.03328647464513779,
                        -0.014042362570762634,
                        0.3600906431674957,
                        0.16745510697364807,
                        -0.090372234582901,
                        0.0009226506808772683,
                        -0.023385893553495407,
                        0.07322216778993607,
                        -0.06359340250492096,
                        0.028550248593091965,
                        0.04622718319296837,
                        -0.2300853431224823,
                        -0.05109955370426178,
                        -0.19133684039115906,
                        0.5886549353599548,
                        -0.23286116123199463,
                        -0.07744163274765015,
                        -0.03803813084959984,
                        -0.03991717845201492,
                        0.12696871161460876,
                        0.16161459684371948,
                        0.2671354413032532,
                        0.04863603040575981,
                        -0.3693256676197052,
                        0.43149107694625854,
                        0.05508975684642792,
                        -0.387328177690506,
                        0.6045143008232117,
                        0.1829986274242401,
                        -0.156063973903656,
                        0.17576812207698822,
                        0.21752463281154633,
                        -0.052069518715143204,
                        0.008634253405034542,
                        0.0984673947095871,
                        -0.09750821441411972,
                        3.737024826477864e-06,
                        -0.016226215288043022,
                        0.4116174876689911,
                        -0.06063462048768997,
                        -0.01043208409100771,
                        -0.03281739726662636,
                        -0.026317652314901352,
                        0.07083942741155624
                    ],
                    [
                        0.06846009939908981,
                        0.04310673847794533,
                        -0.1357293277978897,
                        -0.267461895942688,
                        0.10701776295900345,
                        0.18926677107810974,
                        0.016079260036349297,
                        -0.37635913491249084,
                        0.003401985624805093,
                        0.12770597636699677,
                        0.023870928213000298,
                        0.05880212411284447,
                        0.05267040804028511,
                        0.24334609508514404,
                        0.08604104816913605,
                        -0.3323577046394348,
                        -0.048579417169094086,
                        0.08307822048664093,
                        0.08633769303560257,
                        -0.11632578074932098,
                        -0.13201475143432617,
                        0.14622020721435547,
                        -0.0858275294303894,
                        0.11585145443677902,
                        -0.0832267701625824,
                        -0.2404518574476242,
                        0.41369372606277466,
                        0.23901590704917908,
                        -0.18766264617443085,
                        -0.3102185130119324,
                        -0.12577921152114868,
                        0.11836709082126617,
                        0.5058926939964294,
                        -0.20285658538341522,
                        -0.05426504835486412,
                        -0.10664233565330505,
                        0.07529757916927338,
                        0.1404622495174408,
                        0.06011360511183739,
                        -0.36955979466438293,
                        0.023524953052401543,
                        0.14924918115139008,
                        0.08275213092565536,
                        -0.16957636177539825,
                        -0.05315399169921875,
                        0.033662427216768265,
                        0.02947857975959778,
                        0.06326690316200256
                    ],
                    [
                        -0.10237938165664673,
                        0.016031906008720398,
                        0.08892343938350677,
                        -0.07405922561883926,
                        0.03790329024195671,
                        0.07990638166666031,
                        -0.10254219174385071,
                        -0.010486209765076637,
                        0.16138756275177002,
                        -0.45755550265312195,
                        -0.10041754692792892,
                        -0.08544042706489563,
                        -0.037277158349752426,
                        -0.1543126106262207,
                        -0.47122880816459656,
                        -0.2909596264362335,
                        0.14155174791812897,
                        0.16473524272441864,
                        -0.2296246439218521,
                        -0.257769912481308,
                        -0.08456381410360336,
                        -0.7045497894287109,
                        -0.06535820662975311,
                        -0.07438557595014572,
                        0.23897944390773773,
                        0.16137473285198212,
                        0.19682250916957855,
                        -0.37068289518356323,
                        -0.2956292927265167,
                        -0.05992747098207474,
                        -0.05240946635603905,
                        0.008664092049002647,
                        -0.46928420662879944,
                        0.4356845021247864,
                        -0.06366998702287674,
                        -0.08538839966058731,
                        -0.09703538566827774,
                        -0.01846635714173317,
                        -0.08429006487131119,
                        -0.17507781088352203,
                        -0.05256370082497597,
                        -0.0817413181066513,
                        -0.14869099855422974,
                        -0.24462273716926575,
                        -0.004808475729078054,
                        -0.48809292912483215,
                        -0.10164032131433487,
                        -0.08596589416265488
                    ],
                    [
                        -0.051966533064842224,
                        0.04684706777334213,
                        -0.1200568750500679,
                        0.010950123891234398,
                        -0.006050093565136194,
                        -0.019273582845926285,
                        0.1848466396331787,
                        0.07708980143070221,
                        0.05947936698794365,
                        0.08796868473291397,
                        -0.030242593958973885,
                        0.004314547870308161,
                        -0.12556791305541992,
                        0.00976689625531435,
                        0.006514649838209152,
                        0.09356068819761276,
                        -0.10971497744321823,
                        -0.12494008988142014,
                        0.36406007409095764,
                        0.068355493247509,
                        -0.06927286088466644,
                        0.07958301156759262,
                        -0.12710124254226685,
                        0.05529289320111275,
                        -0.8142050504684448,
                        0.2811894416809082,
                        0.4439198672771454,
                        0.5894441604614258,
                        -1.2120448350906372,
                        0.8490495681762695,
                        -0.05863776430487633,
                        0.23326396942138672,
                        -0.4928419888019562,
                        0.11032804101705551,
                        0.08616997301578522,
                        0.1722605675458908,
                        -0.0586666539311409,
                        0.05496784299612045,
                        -0.1285296529531479,
                        0.018679985776543617,
                        0.0516582690179348,
                        -0.07018064707517624,
                        0.2511040270328522,
                        -0.02108321711421013,
                        0.046283554285764694,
                        0.0082315718755126,
                        -0.02312045358121395,
                        0.01277573686093092
                    ],
                    [
                        0.012294786982238293,
                        0.0028264622669667006,
                        0.040912702679634094,
                        -0.0540713332593441,
                        -0.0014511363115161657,
                        0.04893805831670761,
                        -0.07388915121555328,
                        0.22005458176136017,
                        -0.018747936934232712,
                        -0.006817023269832134,
                        0.01728454977273941,
                        -0.005633950233459473,
                        0.004818699788302183,
                        0.0017037828220054507,
                        -0.04810686409473419,
                        -0.09922540932893753,
                        -0.0253199003636837,
                        0.12596452236175537,
                        -0.11295370757579803,
                        0.15776965022087097,
                        -0.05987979844212532,
                        -0.014304382726550102,
                        0.037534650415182114,
                        -0.033032938838005066,
                        0.5056551694869995,
                        -0.1299818903207779,
                        0.022364504635334015,
                        -0.12935049831867218,
                        -0.06025335565209389,
                        0.026395447552204132,
                        0.2501208186149597,
                        -0.020617110654711723,
                        0.03381459042429924,
                        -0.3181593418121338,
                        -0.052192430943250656,
                        0.016891347244381905,
                        0.026157721877098083,
                        0.07002460956573486,
                        0.07846326380968094,
                        -0.03247541934251785,
                        -0.1399027556180954,
                        0.008048471063375473,
                        -0.051428936421871185,
                        0.12973259389400482,
                        -0.03310485929250717,
                        0.029333705082535744,
                        0.011613923124969006,
                        0.010343783535063267
                    ]
                ],
                [
                    1.2945636510849,
                    -0.4555591940879822,
                    -1.7525670528411865,
                    -0.7719516754150391,
                    1.5707712173461914,
                    0.332459956407547,
                    -0.4649989902973175,
                    -1.5357743501663208,
                    -0.8825117349624634,
                    -0.15666091442108154,
                    1.095900297164917,
                    0.408039391040802,
                    0.2805745601654053,
                    1.590808391571045,
                    2.4757165908813477,
                    1.526222825050354,
                    -0.3802579641342163,
                    0.7923523187637329,
                    0.3999326825141907,
                    2.2450294494628906,
                    1.2537281513214111,
                    0.7981559038162231,
                    0.43683385848999023,
                    0.012595772743225098,
                    0.2299346923828125,
                    0.08188129216432571,
                    0.14813309907913208,
                    0.09093548357486725,
                    0.006882995367050171,
                    0.027706168591976166,
                    -0.242597758769989,
                    -0.04657140374183655,
                    -0.00035178661346435547,
                    0.04515964537858963,
                    0.04303488880395889,
                    -0.007017186377197504,
                    1.314483880996704,
                    0.11916931718587875,
                    -0.20102781057357788,
                    -0.22039562463760376,
                    0.3391907811164856,
                    0.7422475814819336,
                    -0.1417953073978424,
                    -0.03233068436384201,
                    -0.18229785561561584,
                    0.04151934012770653,
                    1.2189314365386963,
                    0.4302949607372284
                ]
            ]
        },
        {
            "type": "dense",
            "activation": "",
            "shape": [
                null,
                null,
                1
            ],
            "weights": [
                [
                    [
                        0.36056214570999146
                    ],
                    [
                        0.2645728290081024
                    ],
                    [
                        -0.05133109539747238
                    ],
                    [
                        0.050692368298769
                    ],
                    [
                        0.7585245966911316
                    ],
                    [
                        -0.023028679192066193
                    ],
                    [
                        0.1506613940000534
                    ],
                    [
                        0.17658531665802002
                    ],
                    [
                        -0.5212990641593933
                    ],
                    [
                        -0.2894192636013031
                    ],
                    [
                        -0.0135171078145504
                    ],
                    [
                        0.40404289960861206
                    ]
                ],
                [
                    0.02905990183353424
                ]
            ]
        }
    ]
}