{
    "in_shape": [
        null,
        null,
        1
    ],
    "in_skip": 1,
    "layers": [
        {
            "type": "lstm",
            "activation": "",
            "shape": [
                null,
                null,
                12
            ],
            "weights": [
                [
                    [
                        -0.018991604447364807,
                        0.04335944354534149,
                        -0.022344309836626053,
                        0.04455569013953209,
                        0.01388296764343977,
                        0.02335595153272152,
                        0.012653714045882225,
                        0.01623779907822609,
                        -0.03126870095729828,
                        -0.013778206892311573,
                        -0.023654349148273468,
                        -0.06864763051271439,
                        0.028670167550444603,
                        0.0538189671933651,
                        0.008891149424016476,
                        -0.023551812395453453,
                        -0.019899839535355568,
                        0.04039962217211723,
                        -0.1155533641576767,
                        0.003697897307574749,
                        -0.009854895994067192,
                        -0.03261328488588333,
                        -0.0009509115479886532,
                        -0.0616711750626564,
                        0.22385704517364502,
                        -0.10484898090362549,
                        -0.35715413093566895,
                        -0.07069837301969528,
                        -0.29570895433425903,
                        -0.5152889490127563,
                        -0.09854548424482346,
                        0.14679266512393951,
                        0.3062407970428467,
                        0.09912624955177307,
                        2.0267930030822754,
                        -0.07194849848747253,
                        0.02464209869503975,
                        0.006545115727931261,
                        -0.019308052957057953,
                        0.029803425073623657,
                        0.05346747860312462,
                        0.026802808046340942,
                        -0.051885370165109634,
                        0.007167897652834654,
                        -0.02146388776600361,
                        -0.005280466750264168,
                        0.044707443565130234,
                        -0.06495123356580734
                    ]
                ],
                [
                    [
                        0.14601564407348633,
                        -0.12215866148471832,
                        0.4264819025993347,
                        0.09776216000318527,
                        -0.2162877470254898,
                        -0.03665595501661301,
                        0.27614447474479675,
                        -0.16138991713523865,
                        -0.23199774324893951,
                        -0.17208020389080048,
                        0.11933399736881256,
                        -0.06344906240701675,
                        0.141719788312912,
                        -0.14133621752262115,
                        0.5085088610649109,
                        0.27851709723472595,
                        -0.27310484647750854,
                        -0.08400900661945343,
                        0.16481973230838776,
                        -0.17905089259147644,
                        -0.48348090052604675,
                        -0.10138336569070816,
                        0.22315365076065063,
                        -0.08308708667755127,
                        0.2970314025878906,
                        -0.01945539005100727,
                        0.05048070102930069,
                        0.15390148758888245,
                        -0.008433850482106209,
                        0.3340739607810974,
                        -0.5135317444801331,
                        0.2670271694660187,
                        -0.20181666314601898,
                        0.03611479699611664,
                        0.08321581035852432,
                        -0.24267172813415527,
                        0.1898023933172226,
                        -0.4228115975856781,
                        0.24167749285697937,
                        -0.012247170321643353,
                        -0.2166604846715927,
                        -0.05537405610084534,
                        0.23889458179473877,
                        -0.1377919465303421,
                        -0.19898445904254913,
                        -0.18182973563671112,
                        0.11286187171936035,
                        -0.05168226733803749
                    ],
                    [
                        0.23885945975780487,
                        -0.18261191248893738,
                        -0.06247902289032936,
                        -0.09482938051223755,
                        -0.026564210653305054,
                        -0.012042438611388206,
                        -0.1366448998451233,
                        0.04263414815068245,
                        0.00792098417878151,
                        -0.2208559811115265,
                        -0.009096524678170681,
                        -0.00887122843414545,
                        0.18523427844047546,
                        0.058660198003053665,
                        0.1778959482908249,
                        0.22473615407943726,
                        0.1702934354543686,
                        -0.012326261959969997,
                        0.050932627171278,
                        0.09836828708648682,
                        -0.07857821881771088,
                        -0.08580837398767471,
                        -0.21351061761379242,
                        -0.0735088512301445,
                        0.44490760564804077,
                        0.8894069790840149,
                        -0.11484863609075546,
                        -0.06918695569038391,
                        -0.5068424940109253,
                        0.3578431010246277,
                        0.28161174058914185,
                        -0.36442214250564575,
                        0.13009582459926605,
                        0.6109895706176758,
                        0.20291206240653992,
                        -0.02825865149497986,
                        0.2068951278924942,
                        0.15708741545677185,
                        0.01370217651128769,
                        -0.10983764380216599,
                        -0.08954230695962906,
                        -0.0737074464559555,
                        0.05203929916024208,
                        -0.017444973811507225,
                        0.09306164085865021,
                        -0.24935735762119293,
                        -0.16473618149757385,
                        0.004735766444355249
                    ],
                    [
                        0.4573041796684265,
                        0.1407068967819214,
                        -0.22652673721313477,
                        -0.2692360579967499,
                        -0.04743282496929169,
                        0.0694347620010376,
                        0.12107578665018082,
                        -0.22245816886425018,
                        0.062117718160152435,
                        -0.10426071286201477,
                        -0.010052950121462345,
                        0.1263902485370636,
                        0.5250212550163269,
                        0.14363159239292145,
                        0.2145811766386032,
                        0.7288684248924255,
                        -0.14186441898345947,
                        -0.04605835676193237,
                        -0.05094408988952637,
                        -0.2623977065086365,
                        0.16041570901870728,
                        -0.05960908532142639,
                        -0.0737181007862091,
                        0.19428513944149017,
                        0.6398323178291321,
                        -0.3548475205898285,
                        0.5781636834144592,
                        0.1170930340886116,
                        -0.2762657403945923,
                        -0.16903646290302277,
                        0.3438374698162079,
                        -0.30025461316108704,
                        0.2751939296722412,
                        0.844161868095398,
                        -0.25109386444091797,
                        -0.3269002437591553,
                        0.4918493628501892,
                        0.00807878002524376,
                        0.10512402653694153,
                        0.10135485976934433,
                        -0.08490332216024399,
                        0.0808052197098732,
                        -0.04228469729423523,
                        -0.18398362398147583,
                        0.07579538971185684,
                        -0.08789238333702087,
                        0.0623774453997612,
                        0.15917418897151947
                    ],
                    [
                        -0.11490689963102341,
                        -0.08224663138389587,
                        0.2575089633464813,
                        0.005365041550248861,
                        0.12264536321163177,
                        -0.010464745573699474,
                        0.11796372383832932,
                        -0.1763104647397995,
                        -0.07387083023786545,
                        -0.06455738097429276,
                        -0.11215881258249283,
                        0.4443780183792114,
                        -0.08293735235929489,
                        -0.017953578382730484,
                        0.03441131114959717,
                        -0.429582417011261,
                        0.13269966840744019,
                        -0.0014328006654977798,
                        -0.0254332534968853,
                        -0.2566719055175781,
                        -0.06287438422441483,
                        -0.0006342153646983206,
                        -0.11977513134479523,
                        0.5955860018730164,
                        0.007788337767124176,
                        -0.3817368745803833,
                        0.054412130266427994,
                        0.5970567464828491,
                        -0.2661363482475281,
                        -0.184724360704422,
                        0.306403785943985,
                        -0.5083688497543335,
                        0.2678372859954834,
                        -0.49310287833213806,
                        0.0085354158654809,
                        0.6672711372375488,
                        -0.09046797454357147,
                        -0.1677887737751007,
                        0.13933472335338593,
                        -0.037902336567640305,
                        0.10238416492938995,
                        -0.012249876745045185,
                        0.15248382091522217,
                        -0.16939477622509003,
                        -0.1076473668217659,
                        -0.06552254408597946,
                        -0.05890871584415436,
                        0.5192039608955383
                    ],
                    [
                        -0.2611008286476135,
                        0.018200065940618515,
                        0.3145405054092407,
                        0.20274518430233002,
                        -0.13522697985172272,
                        -0.026102082803845406,
                        0.10911555588245392,
                        0.10667713731527328,
                        -0.12080949544906616,
                        0.021228644996881485,
                        0.029145581647753716,
                        -0.15751919150352478,
                        -0.24839627742767334,
                        -0.1810372918844223,
                        0.14645959436893463,
                        -0.13176390528678894,
                        -0.21463146805763245,
                        -0.0761503055691719,
                        0.12582086026668549,
                        0.09977922588586807,
                        -0.09724678099155426,
                        -0.048718154430389404,
                        0.15394745767116547,
                        -0.17352639138698578,
                        -0.02255930006504059,
                        -0.2979300916194916,
                        -0.056613557040691376,
                        -0.17524610459804535,
                        0.15087467432022095,
                        -0.016292864456772804,
                        0.5221228003501892,
                        0.08137892931699753,
                        -0.026170777156949043,
                        -0.09646780788898468,
                        -0.5523044466972351,
                        -0.15393291413784027,
                        -0.21087247133255005,
                        -0.2965579926967621,
                        0.1877581775188446,
                        0.13504378497600555,
                        -0.100513756275177,
                        -0.005149349104613066,
                        0.11805831640958786,
                        0.11839903891086578,
                        -0.09457792341709137,
                        0.062075573951005936,
                        0.02834485098719597,
                        -0.14936381578445435
                    ],
                    [
                        -0.05941721424460411,
                        -0.1346990317106247,
                        0.03380846232175827,
                        -0.08749157190322876,
                        0.10188561677932739,
                        0.049893468618392944,
                        0.15504223108291626,
                        -0.013350180350244045,
                        0.01055162027478218,
                        0.16992178559303284,
                        -0.04567424952983856,
                        -0.0312570258975029,
                        -0.08317745476961136,
                        -0.13856911659240723,
                        0.22369588911533356,
                        0.10177014768123627,
                        0.09820965677499771,
                        0.15321649610996246,
                        0.03801963850855827,
                        0.07722919434309006,
                        -0.09975813329219818,
                        0.12889030575752258,
                        -0.10817243903875351,
                        -0.0076037137769162655,
                        -0.38228440284729004,
                        -1.1445188522338867,
                        0.0268105361610651,
                        -0.10462749004364014,
                        -0.2155088633298874,
                        -0.3095496594905853,
                        0.2182391881942749,
                        0.4050236642360687,
                        -0.0648372545838356,
                        -0.12308305501937866,
                        -0.6255812644958496,
                        -0.10444231331348419,
                        -0.10412061959505081,
                        -0.1563403159379959,
                        0.055119529366493225,
                        0.05356694757938385,
                        0.061636365950107574,
                        0.045478224754333496,
                        0.011514260433614254,
                        0.015444781631231308,
                        -0.05909719318151474,
                        0.12781094014644623,
                        0.09087216854095459,
                        -0.02650371380150318
                    ],
                    [
                        -0.21895556151866913,
                        0.10251594334840775,
                        -0.20798608660697937,
                        -0.5084574818611145,
                        0.05905064195394516,
                        0.08132527768611908,
                        0.06245107203722,
                        0.03708235174417496,
                        -0.13447785377502441,
                        -0.011340494267642498,
                        0.033996131271123886,
                        -0.022203858941793442,
                        -0.17643216252326965,
                        -0.037579745054244995,
                        0.12967975437641144,
                        0.4876401424407959,
                        0.04985494166612625,
                        0.010655812919139862,
                        0.3658997714519501,
                        0.06608069688081741,
                        0.0953376442193985,
                        -0.0021902539301663637,
                        -0.2024223506450653,
                        0.09551367163658142,
                        0.17479917407035828,
                        0.468002051115036,
                        -0.6082911491394043,
                        0.24816665053367615,
                        -0.3266965448856354,
                        -0.19181296229362488,
                        0.30515217781066895,
                        -0.47754183411598206,
                        0.5001102089881897,
                        0.2791415750980377,
                        -0.19649462401866913,
                        -0.038698602467775345,
                        -0.20913083851337433,
                        -0.20964521169662476,
                        0.07661262899637222,
                        -0.03113940730690956,
                        0.10173386335372925,
                        0.0886121392250061,
                        0.07624969631433487,
                        0.0958065614104271,
                        -0.047712307423353195,
                        0.040016718208789825,
                        0.008965065702795982,
                        0.02249740995466709
                    ],
                    [
                        -0.11313682794570923,
                        -0.10321400314569473,
                        0.2898348569869995,
                        0.42317211627960205,
                        -0.03904905542731285,
                        -0.016543123871088028,
                        0.2646024227142334,
                        0.16616050899028778,
                        -0.12257053703069687,
                        0.11712107807397842,
                        -0.06473124027252197,
                        -0.1669258326292038,
                        -0.1289922147989273,
                        -0.48024260997772217,
                        0.26981958746910095,
                        0.251251220703125,
                        -0.14804765582084656,
                        -0.004858797416090965,
                        0.13069960474967957,
                        0.23091238737106323,
                        -0.1902414858341217,
                        0.0454786978662014,
                        -0.22817464172840118,
                        -0.19550135731697083,
                        0.1346626877784729,
                        0.004783530719578266,
                        -0.056525278836488724,
                        -0.18280650675296783,
                        0.18031065165996552,
                        -0.25411710143089294,
                        0.09095625579357147,
                        0.28189143538475037,
                        0.4342421293258667,
                        0.13883183896541595,
                        0.0119310412555933,
                        0.10811703652143478,
                        -0.08220963925123215,
                        -0.32766762375831604,
                        0.10808409005403519,
                        0.5253108739852905,
                        -0.039372023195028305,
                        0.003872731700539589,
                        0.08503725379705429,
                        0.191104456782341,
                        -0.09255826473236084,
                        0.12870463728904724,
                        -0.005012327805161476,
                        -0.16755744814872742
                    ],
                    [
                        0.15797311067581177,
                        0.10451312363147736,
                        -0.03002268075942993,
                        -0.2492845356464386,
                        0.009727612137794495,
                        -0.014814279042184353,
                        -0.06039955094456673,
                        -0.07041121274232864,
                        0.05040182173252106,
                        0.013490273617208004,
                        -0.082753024995327,
                        0.022124309092760086,
                        0.08945436775684357,
                        -0.041599467396736145,
                        -0.03829007223248482,
                        -0.10975566506385803,
                        0.031590912491083145,
                        -0.08197908848524094,
                        -0.045550137758255005,
                        -0.07465914636850357,
                        0.10398037731647491,
                        -0.04641835764050484,
                        -0.1822790801525116,
                        0.071805439889431,
                        0.004415108822286129,
                        0.4011387228965759,
                        -0.2677237391471863,
                        0.15477168560028076,
                        -0.059529513120651245,
                        0.12279363721609116,
                        -0.5138940215110779,
                        -0.06538961827754974,
                        0.7694503664970398,
                        0.08661028742790222,
                        0.14092475175857544,
                        0.06715510040521622,
                        0.18318934738636017,
                        -0.030913082882761955,
                        -0.16994644701480865,
                        0.10927573591470718,
                        0.02738809771835804,
                        -0.026322757825255394,
                        -0.1413501799106598,
                        -0.04532478377223015,
                        0.02485157735645771,
                        -0.02700011059641838,
                        -0.019242340698838234,
                        0.023043930530548096
                    ],
                    [
                        0.30231574177742004,
                        0.014752396382391453,
                        -0.3958090841770172,
                        -0.07082933932542801,
                        0.04992610961198807,
                        0.024456771090626717,
                        -0.10329706221818924,
                        -0.08453724533319473,
                        0.1619100719690323,
                        -0.04713302478194237,
                        -0.0793694481253624,
                        0.008516433648765087,
                        0.30360379815101624,
                        0.10992053896188736,
                        -0.445186972618103,
                        0.10404890030622482,
                        0.11331972479820251,
                        0.06489947438240051,
                        -0.23061558604240417,
                        -0.08977701514959335,
                        0.14744244515895844,
                        -0.011303454637527466,
                        -0.24704815447330475,
                        -0.04044528678059578,
                        0.23381848633289337,
                        0.36130642890930176,
                        0.1532692015171051,
                        -0.11732710897922516,
                        -0.36949610710144043,
                        0.02972370572388172,
                        -0.33325955271720886,
                        -0.07568519562482834,
                        -0.0019154761685058475,
                        -0.060805678367614746,
                        -0.07651998847723007,
                        -0.09560811519622803,
                        0.2622130513191223,
                        0.37558019161224365,
                        -0.24931350350379944,
                        0.025921275839209557,
                        0.005839931778609753,
                        0.014777780510485172,
                        -0.16023433208465576,
                        -0.09052756428718567,
                        0.15198126435279846,
                        -0.1014179065823555,
                        -0.0662703588604927,
                        -0.016586914658546448
                    ],
                    [
                        -0.17085838317871094,
                        -0.05030817911028862,
                        -0.040639664977788925,
                        0.33846864104270935,
                        0.05588119104504585,
                        0.04594607278704643,
                        0.27853524684906006,
                        0.11574648320674896,
                        -0.05194905027747154,
                        0.14202655851840973,
                        -0.12292461842298508,
                        -0.027578480541706085,
                        -0.10394570231437683,
                        -0.07907441258430481,
                        -0.10311639308929443,
                        -0.06030577793717384,
                        0.001440647291019559,
                        0.13745401799678802,
                        0.03611626848578453,
                        0.13184292614459991,
                        0.008159094490110874,
                        0.09027495980262756,
                        -0.13288670778274536,
                        0.022631097584962845,
                        -0.09303136169910431,
                        -0.9047610759735107,
                        0.37924087047576904,
                        0.03238046541810036,
                        0.3675418198108673,
                        1.1383168697357178,
                        0.13465195894241333,
                        0.5380075573921204,
                        -0.48335978388786316,
                        0.00757477106526494,
                        0.834069550037384,
                        -0.30803021788597107,
                        -0.13839389383792877,
                        -0.14641323685646057,
                        -0.04000655934214592,
                        0.16801242530345917,
                        0.08557789027690887,
                        0.04731658473610878,
                        -0.1151539757847786,
                        0.10877486318349838,
                        -0.09452298283576965,
                        0.1670958548784256,
                        0.06705386191606522,
                        -0.03463927283883095
                    ],
                    [
                        -0.15031948685646057,
                        -0.09628774970769882,
                        -0.1306004673242569,
                        0.13328403234481812,
                        -0.03586184233427048,
                        0.00176598213147372,
                        -0.06957439333200455,
                        -0.08567553013563156,
                        -0.09059394896030426,
                        0.026418128982186317,
                        0.03627574443817139,
                        0.2561528980731964,
                        -0.17069807648658752,
                        -0.0033022554125636816,
                        0.027059707790613174,
                        0.669704258441925,
                        0.001950551988556981,
                        0.02249627746641636,
                        0.010472397319972515,
                        -0.05666745826601982,
                        -0.12830910086631775,
                        0.08798875659704208,
                        0.0793418437242508,
                        0.439606636762619,
                        0.013451439328491688,
                        0.1672763079404831,
                        -0.039066098630428314,
                        0.25308436155319214,
                        -0.017327139154076576,
                        0.24174270033836365,
                        -0.3164327144622803,
                        0.014146191999316216,
                        -0.2303265929222107,
                        -0.1675867885351181,
                        0.2040291726589203,
                        0.38153284788131714,
                        -0.163844496011734,
                        -0.12272711843252182,
                        -0.0021912152878940105,
                        0.2718633711338043,
                        -0.005012807436287403,
                        -0.006135864183306694,
                        0.07111405581235886,
                        -0.07491736859083176,
                        -0.10974538326263428,
                        0.05873788893222809,
                        -0.017040405422449112,
                        0.32101672887802124
                    ]
                ],
                [
                    -0.17540258169174194,
                    1.1511880159378052,
                    -1.014474630355835,
                    -1.8484020233154297,
                    -0.25645801424980164,
                    1.0509142875671387,
                    -0.42591941356658936,
                    -0.5253874659538269,
                    0.16827431321144104,
                    -0.3250274658203125,
                    1.454407811164856,
                    -0.29859334230422974,
                    0.5091878175735474,
                    0.5114602446556091,
                    1.9908535480499268,
                    2.7905712127685547,
                    0.4683647155761719,
                    0.11537493765354156,
                    1.217360019683838,
                    0.574510931968689,
                    1.2463467121124268,
                    0.487954318523407,
                    0.011452216655015945,
                    0.7553618550300598,
                    -0.11349500715732574,
                    -0.07084681838750839,
                    0.11985771358013153,
                    -0.06199140101671219,
                    0.058123305439949036,
                    0.04728250578045845,
                    0.10541713237762451,
                    0.006496898829936981,
                    -0.0816657692193985,
                    -0.12492738664150238,
                    0.03495067358016968,
                    0.029963213950395584,
                    -0.0030436618253588676,
                    -0.1477912813425064,
                    0.41477954387664795,
                    -0.09686067700386047,
                    0.09723677486181259,
                    1.076587438583374,
                    0.17589136958122253,
                    -0.03658454120159149,
                    0.35947319865226746,
                    -0.16255299746990204,
                    1.3605438470840454,
                    -0.11435471475124359
                ]
            ]
        },
        {
            "type": "dense",
            "activation": "",
            "shape": [
                null,
                null,
                1
            ],
            "weights": [
                [
                    [
                        -0.3223414719104767
                    ],
                    [
                        0.12018267065286636
                    ],
                    [
                        0.20574036240577698
                    ],
                    [
                        0.14530442655086517
                    ],
                    [
                        0.40302443504333496
                    ],
                    [
                        -0.33325862884521484
                    ],
                    [
                        -0.20865169167518616
                    ],
                    [
                        0.12781107425689697
                    ],
                    [
                        0.01418931782245636
                    ],
                    [
                        -0.3690739572048187
                    ],
                    [
                        -0.2436128407716751
                    ],
                    [
                        -0.09556067734956741
                    ]
                ],
                [
                    0.01914287358522415
                ]
            ]
        }
    ]
}