{
    "in_shape": [
        null,
        null,
        1
    ],
    "in_skip": 1,
    "layers": [
        {
            "type": "lstm",
            "activation": "",
            "shape": [
                null,
                null,
                16
            ],
            "weights": [
                [
                    [
                        0.07231937348842621,
                        0.2283165156841278,
                        0.5020946264266968,
                        -0.10136900097131729,
                        -0.5513178110122681,
                        -0.0829218402504921,
                        -0.06923043727874756,
                        -0.4327053129673004,
                        0.010954721830785275,
                        0.09141641855239868,
                        -0.07237005233764648,
                        0.27269116044044495,
                        0.1802598536014557,
                        -0.11175709962844849,
                        0.16539505124092102,
                        0.03159008175134659,
                        0.2755429744720459,
                        0.20794616639614105,
                        0.8625280261039734,
                        -0.11990997940301895,
                        -0.5734050869941711,
                        -0.2757306694984436,
                        -0.029017578810453415,
                        -0.3094191551208496,
                        0.013792851939797401,
                        -0.06259966641664505,
                        -0.33111733198165894,
                        0.46940484642982483,
                        0.21046480536460876,
                        -0.107449471950531,
                        0.19772446155548096,
                        0.007873139344155788,
                        0.03827977553009987,
                        0.7785184979438782,
                        0.694721519947052,
                        -0.22333423793315887,
                        -0.5992298126220703,
                        -4.118901252746582,
                        0.010083205997943878,
                        -0.27594706416130066,
                        0.24541164934635162,
                        -0.30986714363098145,
                        2.627338409423828,
                        -0.5290263891220093,
                        0.8508053421974182,
                        0.28539443016052246,
                        -0.11605849862098694,
                        -0.09140472114086151,
                        0.19876490533351898,
                        0.2409145087003708,
                        0.39615845680236816,
                        -0.1160680279135704,
                        -0.11473038792610168,
                        0.07388610392808914,
                        -0.17381152510643005,
                        -0.29533320665359497,
                        -0.024068474769592285,
                        0.2438780516386032,
                        -0.06329583376646042,
                        0.18070757389068604,
                        0.2494543045759201,
                        0.08427605032920837,
                        0.06195950135588646,
                        0.013347595930099487
                    ]
                ],
                [
                    [
                        -0.23757222294807434,
                        -1.3712029457092285,
                        -0.4058353900909424,
                        0.3475874364376068,
                        -0.09368079155683517,
                        0.013614400289952755,
                        0.26885995268821716,
                        0.22372041642665863,
                        0.3622239828109741,
                        -0.11548978090286255,
                        -0.10104088485240936,
                        0.21653304994106293,
                        0.18113967776298523,
                        -0.01815687119960785,
                        0.0762321949005127,
                        0.13873009383678436,
                        0.10801060497760773,
                        -0.23367252945899963,
                        -0.0312696248292923,
                        0.47879233956336975,
                        -0.08090344071388245,
                        -0.2227502167224884,
                        0.5478421449661255,
                        0.006983008701354265,
                        -0.23074845969676971,
                        0.2485419511795044,
                        -0.07413580268621445,
                        -0.09142367541790009,
                        0.01623539626598358,
                        -0.20349594950675964,
                        -0.010296380147337914,
                        -0.11278299987316132,
                        0.958803653717041,
                        1.343519926071167,
                        -0.012350636534392834,
                        -0.004820183385163546,
                        0.1170596182346344,
                        0.0861259326338768,
                        0.3918929696083069,
                        -0.2763013243675232,
                        -0.92070072889328,
                        -0.7670483589172363,
                        0.09970958530902863,
                        -0.04546305909752846,
                        -0.2686127722263336,
                        -0.12966899573802948,
                        0.4459834694862366,
                        0.05789349600672722,
                        0.18523716926574707,
                        0.00473428750410676,
                        0.11399973183870316,
                        0.6749283671379089,
                        0.08026545494794846,
                        -0.0005536993849091232,
                        0.565792977809906,
                        -0.1925952136516571,
                        -1.3145278692245483,
                        -1.1437475681304932,
                        -0.2701663672924042,
                        0.021671926602721214,
                        0.006211643107235432,
                        -0.6958017349243164,
                        0.3512841761112213,
                        0.8049605488777161
                    ],
                    [
                        -0.07542499899864197,
                        -0.30904173851013184,
                        0.3431018888950348,
                        0.04456986114382744,
                        0.3259669244289398,
                        0.013741637580096722,
                        0.687684953212738,
                        0.2518705427646637,
                        0.1400393694639206,
                        0.32416585087776184,
                        -0.16639374196529388,
                        0.3002732992172241,
                        0.14893564581871033,
                        0.22839422523975372,
                        0.23746395111083984,
                        -0.11210831999778748,
                        0.07167559862136841,
                        -0.21805274486541748,
                        0.09374932944774628,
                        -0.23405759036540985,
                        -0.3633858263492584,
                        0.18426202237606049,
                        0.008720068261027336,
                        -0.40522149205207825,
                        -0.20550616085529327,
                        0.29069486260414124,
                        0.20180782675743103,
                        -0.449705570936203,
                        0.08318280428647995,
                        0.5672811269760132,
                        -0.0787225067615509,
                        0.13612940907478333,
                        0.45766305923461914,
                        1.347025990486145,
                        0.11859811842441559,
                        0.38688668608665466,
                        -0.1698719710111618,
                        -0.12371541559696198,
                        0.07838370651006699,
                        0.20676171779632568,
                        -1.126167893409729,
                        1.1353250741958618,
                        -0.20228946208953857,
                        -0.18963253498077393,
                        0.06847177445888519,
                        0.18421731889247894,
                        -0.1825518012046814,
                        -0.01278719212859869,
                        -0.5032321214675903,
                        0.49059659242630005,
                        0.15914949774742126,
                        0.21471187472343445,
                        0.20619134604930878,
                        0.19747106730937958,
                        0.10837043821811676,
                        -0.09659546613693237,
                        -0.9971425533294678,
                        -0.3529050648212433,
                        -0.06324972212314606,
                        0.07159813493490219,
                        -0.4131336808204651,
                        -0.06203615292906761,
                        -0.007924551144242287,
                        0.46687838435173035
                    ],
                    [
                        -0.11697584390640259,
                        0.3068203032016754,
                        -0.28874385356903076,
                        0.5159481763839722,
                        0.11193060129880905,
                        -1.359062910079956,
                        0.15262459218502045,
                        -0.024957865476608276,
                        0.047918517142534256,
                        -0.16543519496917725,
                        -0.3013359010219574,
                        0.037911538034677505,
                        -0.1389094889163971,
                        -0.37673234939575195,
                        -0.4788857400417328,
                        0.15240982174873352,
                        0.17573805153369904,
                        0.11024494469165802,
                        0.4297071397304535,
                        0.5997021198272705,
                        -0.06606046855449677,
                        -0.6130126714706421,
                        -0.5842353105545044,
                        -0.7008252143859863,
                        -0.08825840055942535,
                        -0.38357746601104736,
                        0.13691064715385437,
                        0.007463520392775536,
                        -0.30643460154533386,
                        -0.22017885744571686,
                        -0.2340582311153412,
                        -0.22133640944957733,
                        -0.6458015441894531,
                        0.0563654825091362,
                        0.5740700364112854,
                        -0.5861115455627441,
                        0.2842021584510803,
                        -0.3381497263908386,
                        -0.06578858196735382,
                        -0.25645971298217773,
                        0.17369608581066132,
                        0.019487733021378517,
                        -0.9618244767189026,
                        0.4846673607826233,
                        -0.36324477195739746,
                        0.5846127867698669,
                        -0.06711789965629578,
                        -0.26537439227104187,
                        -0.2766430377960205,
                        0.16548393666744232,
                        0.26179376244544983,
                        0.362032413482666,
                        0.07844091951847076,
                        -1.18667733669281,
                        -0.03130990266799927,
                        -0.363158255815506,
                        -0.014731391333043575,
                        -0.23733152449131012,
                        -0.6062248945236206,
                        -0.766950786113739,
                        -0.27825239300727844,
                        0.36280879378318787,
                        -0.8469717502593994,
                        -0.09012630581855774
                    ],
                    [
                        -0.07739167660474777,
                        -0.24591651558876038,
                        -0.18650197982788086,
                        -0.21021133661270142,
                        0.0369778573513031,
                        0.8668117523193359,
                        0.025210877880454063,
                        -0.08377648890018463,
                        -0.1393214464187622,
                        0.17631155252456665,
                        0.3446308970451355,
                        0.35960447788238525,
                        -0.10016266256570816,
                        0.31064462661743164,
                        0.01995779387652874,
                        -0.049528077244758606,
                        0.051665280014276505,
                        -0.16909314692020416,
                        -0.5180357098579407,
                        -0.19904127717018127,
                        -0.045290809124708176,
                        0.12468530982732773,
                        0.016812440007925034,
                        -0.4111289083957672,
                        0.06609222292900085,
                        -0.0785812959074974,
                        -0.09461741894483566,
                        -0.6949012875556946,
                        0.3118065297603607,
                        0.3363606631755829,
                        -0.12429964542388916,
                        -0.020721837878227234,
                        -0.14347714185714722,
                        0.16733072698116302,
                        -0.1061074435710907,
                        -0.2130628526210785,
                        -0.31867003440856934,
                        -0.024132417514920235,
                        -0.4223650395870209,
                        -0.5458782911300659,
                        -0.14610761404037476,
                        0.22744299471378326,
                        -0.06845010817050934,
                        -0.02064571902155876,
                        0.02252105623483658,
                        0.05308069661259651,
                        -0.02252669259905815,
                        0.8292871117591858,
                        -0.07389897108078003,
                        -0.35047248005867004,
                        0.03447001054883003,
                        -0.4575973451137543,
                        0.16573993861675262,
                        0.3215617537498474,
                        -0.3665415346622467,
                        -0.17202593386173248,
                        -0.28155526518821716,
                        0.5327339768409729,
                        0.2468494474887848,
                        -0.06292259693145752,
                        0.019935209304094315,
                        -0.27051717042922974,
                        0.051315486431121826,
                        -0.018928976729512215
                    ],
                    [
                        0.20310929417610168,
                        -0.010513758286833763,
                        -0.5755440592765808,
                        0.3200252950191498,
                        -0.639768660068512,
                        -1.6529557704925537,
                        -0.3883392810821533,
                        -0.036742448806762695,
                        0.22109684348106384,
                        0.2145121991634369,
                        -0.25282201170921326,
                        -0.5906636714935303,
                        -0.08217515051364899,
                        -0.0990460142493248,
                        0.12612834572792053,
                        0.24222154915332794,
                        -0.18801984190940857,
                        -0.057566434144973755,
                        -0.5150837898254395,
                        0.7932108640670776,
                        0.12431207299232483,
                        -0.7259348034858704,
                        -0.20326244831085205,
                        0.40415316820144653,
                        -0.009751741774380207,
                        0.11290501803159714,
                        -0.3470713794231415,
                        0.13395264744758606,
                        -0.016002370044589043,
                        -0.4963509142398834,
                        0.2938396632671356,
                        -0.07600695639848709,
                        -0.5384284257888794,
                        0.033596765249967575,
                        0.12383512407541275,
                        -0.3904168903827667,
                        0.4298133850097656,
                        -0.19486676156520844,
                        -0.26928019523620605,
                        0.5034988522529602,
                        0.025902248919010162,
                        0.5982829332351685,
                        0.10078859329223633,
                        -0.2787802219390869,
                        -0.24187301099300385,
                        -0.3757893443107605,
                        -0.3135449290275574,
                        0.2833051085472107,
                        -0.250814825296402,
                        0.22804738581180573,
                        -0.3752881586551666,
                        0.6750537157058716,
                        0.8576500415802002,
                        -0.19560378789901733,
                        -0.07923451066017151,
                        0.6174299120903015,
                        -0.04349496215581894,
                        0.22712093591690063,
                        -0.23982129991054535,
                        -0.7324437499046326,
                        0.0722079798579216,
                        0.4377762973308563,
                        0.2460607886314392,
                        0.16103236377239227
                    ],
                    [
                        0.11860963702201843,
                        -0.15574899315834045,
                        0.4390241503715515,
                        -0.16824500262737274,
                        -0.5331813097000122,
                        0.7863690257072449,
                        -0.3333207368850708,
                        -0.5416765213012695,
                        0.18492020666599274,
                        0.04611649364233017,
                        0.012890045531094074,
                        -0.5333727598190308,
                        -0.10333825647830963,
                        0.18007792532444,
                        -0.34916144609451294,
                        -0.08189823478460312,
                        -0.2504897117614746,
                        -0.26019906997680664,
                        0.597027599811554,
                        -0.043396156281232834,
                        0.5657495260238647,
                        0.16489094495773315,
                        0.11008226871490479,
                        0.2141566276550293,
                        0.10976515710353851,
                        0.4040774703025818,
                        -0.01269560120999813,
                        -0.23264601826667786,
                        -0.06534475088119507,
                        0.18713271617889404,
                        -0.29284822940826416,
                        0.1379779577255249,
                        0.010819055140018463,
                        0.03316961228847504,
                        -0.1092446893453598,
                        -0.06509897112846375,
                        0.44961845874786377,
                        -0.21069832146167755,
                        0.246409609913826,
                        0.07296367734670639,
                        -0.2748449146747589,
                        -0.6207402944564819,
                        -0.9576048851013184,
                        0.6959864497184753,
                        -0.06656055897474289,
                        1.3024455308914185,
                        0.20910963416099548,
                        0.011805332265794277,
                        0.13752232491970062,
                        0.022447150200605392,
                        0.6597198247909546,
                        -0.09447788447141647,
                        -0.30071157217025757,
                        0.671754777431488,
                        0.13060621917247772,
                        -0.06928344070911407,
                        0.18479029834270477,
                        -0.12466950714588165,
                        0.34990692138671875,
                        0.3230889141559601,
                        -0.3234809339046478,
                        0.27008071541786194,
                        -0.47648584842681885,
                        0.03176948055624962
                    ],
                    [
                        -0.23650752007961273,
                        -0.19783824682235718,
                        -0.14855068922042847,
                        -0.026277856901288033,
                        -0.23813052475452423,
                        -0.11996381729841232,
                        0.25592824816703796,
                        -0.22966304421424866,
                        0.07495547086000443,
                        -0.10112202912569046,
                        -0.2842874526977539,
                        0.12547197937965393,
                        0.18478672206401825,
                        -0.42122459411621094,
                        -0.40599754452705383,
                        -0.06280671060085297,
                        0.3003772497177124,
                        -0.2809222638607025,
                        0.020188946276903152,
                        0.07605913281440735,
                        0.32395485043525696,
                        -0.1705079972743988,
                        0.31021174788475037,
                        -0.12053658813238144,
                        0.27279531955718994,
                        0.6097133159637451,
                        0.03548393398523331,
                        0.3895252048969269,
                        -0.1336711049079895,
                        -0.26067793369293213,
                        -0.4150840640068054,
                        -0.22493183612823486,
                        0.3528575301170349,
                        0.17020538449287415,
                        0.20376285910606384,
                        -0.16140156984329224,
                        0.2926328480243683,
                        0.039268240332603455,
                        0.4795573353767395,
                        0.14918391406536102,
                        -0.26954764127731323,
                        -0.14841897785663605,
                        0.31959256529808044,
                        -0.25301286578178406,
                        0.34325191378593445,
                        0.1549886167049408,
                        0.15066154301166534,
                        1.5730472803115845,
                        0.4101681709289551,
                        -0.3023907542228699,
                        -0.0722503587603569,
                        0.04476341977715492,
                        -0.4545845091342926,
                        -0.04857947304844856,
                        -0.07357800006866455,
                        -0.531426191329956,
                        -0.24449105560779572,
                        -0.5248115658760071,
                        -0.41753366589546204,
                        -0.11999647319316864,
                        0.03064984269440174,
                        -0.5298505425453186,
                        -0.2242564707994461,
                        -0.014218160882592201
                    ],
                    [
                        0.046671733260154724,
                        0.057745933532714844,
                        0.07426171004772186,
                        0.4715549945831299,
                        -0.3720710575580597,
                        -1.1726620197296143,
                        -0.43005356192588806,
                        -0.22924691438674927,
                        0.03497378155589104,
                        0.03863287344574928,
                        -0.16549333930015564,
                        -0.2151525914669037,
                        0.009047066792845726,
                        0.15793468058109283,
                        0.08267506957054138,
                        -0.055747661739587784,
                        -0.3417814075946808,
                        -0.07266218215227127,
                        -0.19195789098739624,
                        0.5954855680465698,
                        0.16273395717144012,
                        -0.18063415586948395,
                        -0.18922686576843262,
                        0.5480115413665771,
                        0.28942716121673584,
                        0.14807946979999542,
                        -0.40251412987709045,
                        0.2725833058357239,
                        0.0029551757033914328,
                        -0.4125271141529083,
                        -0.06032247096300125,
                        0.05869045853614807,
                        -0.1393640786409378,
                        -0.017042754217982292,
                        -0.15279516577720642,
                        -0.6717478036880493,
                        0.17596788704395294,
                        0.3109399378299713,
                        0.4846605956554413,
                        -0.10880986601114273,
                        -0.26444315910339355,
                        0.18635517358779907,
                        0.41430050134658813,
                        -0.21387094259262085,
                        0.4231565594673157,
                        -0.4173007309436798,
                        0.05626830831170082,
                        -0.08004606515169144,
                        -0.30948927998542786,
                        0.3019227385520935,
                        0.26357659697532654,
                        0.40914756059646606,
                        0.6249677538871765,
                        0.37055230140686035,
                        -0.05929189547896385,
                        0.5246284604072571,
                        0.24947863817214966,
                        0.13766202330589294,
                        -0.08264835923910141,
                        0.32122787833213806,
                        0.0888349860906601,
                        0.17668595910072327,
                        -0.07927236706018448,
                        0.0036960789002478123
                    ],
                    [
                        -0.12292405962944031,
                        -0.545421302318573,
                        -0.148536816239357,
                        -0.1812906712293625,
                        0.016398882493376732,
                        0.16829931735992432,
                        -0.2613919973373413,
                        -0.1338690221309662,
                        0.3521895408630371,
                        -0.296489953994751,
                        -0.11798221617937088,
                        0.033819399774074554,
                        -0.12392186373472214,
                        -0.01074562594294548,
                        0.32037967443466187,
                        0.006017327308654785,
                        -0.4074863791465759,
                        0.16370192170143127,
                        0.08967858552932739,
                        0.08099948614835739,
                        -0.6117648482322693,
                        -0.08024120330810547,
                        -0.337701678276062,
                        -0.0476224385201931,
                        0.11262217909097672,
                        -0.05274822190403938,
                        0.17224179208278656,
                        0.7538263201713562,
                        -0.6014370918273926,
                        0.03829612955451012,
                        0.1737091988325119,
                        -0.9014657735824585,
                        0.24128717184066772,
                        -0.08473791182041168,
                        -0.14971208572387695,
                        0.09165307879447937,
                        -0.10071491450071335,
                        -0.056263841688632965,
                        0.363884299993515,
                        0.10518518835306168,
                        -0.2370939552783966,
                        0.12860789895057678,
                        -0.08770294487476349,
                        -0.18435201048851013,
                        -0.3749080300331116,
                        0.05203162506222725,
                        0.04425935819745064,
                        1.1905982494354248,
                        -0.8243260979652405,
                        -0.07685836404561996,
                        0.010142962448298931,
                        -0.16733571887016296,
                        0.010882427915930748,
                        -0.16623549163341522,
                        -0.23955222964286804,
                        0.2393416166305542,
                        -0.5978193283081055,
                        -0.5433654189109802,
                        -0.39503559470176697,
                        -0.0175572969019413,
                        0.1727953404188156,
                        0.1005220115184784,
                        -0.3256412744522095,
                        0.18078254163265228
                    ],
                    [
                        -0.0625053271651268,
                        0.3077053129673004,
                        -0.22233344614505768,
                        0.40097707509994507,
                        -0.13142548501491547,
                        -0.2703702747821808,
                        -0.025879641994833946,
                        -0.2466229647397995,
                        0.2573176920413971,
                        0.11978717893362045,
                        0.05836978182196617,
                        -0.10736594349145889,
                        -0.9072124361991882,
                        -0.04703332111239433,
                        0.027686644345521927,
                        -0.1033543199300766,
                        -0.07266683131456375,
                        0.4306400418281555,
                        -0.3032533526420593,
                        -0.0256392452865839,
                        0.07640772312879562,
                        -0.18385493755340576,
                        0.05162683129310608,
                        -0.39562270045280457,
                        0.9047167301177979,
                        0.04519764333963394,
                        0.3306407332420349,
                        0.024552952498197556,
                        -0.2397555410861969,
                        -0.09638610482215881,
                        0.11303354799747467,
                        -0.4642893970012665,
                        -1.7233902215957642,
                        -1.594158411026001,
                        -0.2763291001319885,
                        0.17639556527137756,
                        -0.08190528303384781,
                        0.029395969584584236,
                        0.1682698279619217,
                        0.18858924508094788,
                        -0.248342826962471,
                        -0.2856208384037018,
                        -0.344711571931839,
                        0.06221694499254227,
                        0.2756158411502838,
                        -0.4139721691608429,
                        0.20381499826908112,
                        1.2159537076950073,
                        -0.8799887895584106,
                        0.3792862892150879,
                        0.04404409974813461,
                        -0.09249060600996017,
                        -0.03847617283463478,
                        0.5254367589950562,
                        -0.3753090500831604,
                        0.1804782599210739,
                        -1.1097612380981445,
                        0.7973227500915527,
                        -0.006770639680325985,
                        0.6981369256973267,
                        0.49050408601760864,
                        0.9783377051353455,
                        0.7843143939971924,
                        0.07584390789270401
                    ],
                    [
                        -0.4033117890357971,
                        -0.6191453337669373,
                        1.2428478002548218,
                        -0.04384450614452362,
                        0.457680344581604,
                        0.031636498868465424,
                        -0.18068385124206543,
                        0.140976220369339,
                        0.24172623455524445,
                        -0.2453766018152237,
                        -0.3468339741230011,
                        -0.2754041254520416,
                        0.12038624286651611,
                        0.08511810004711151,
                        0.10907348245382309,
                        -0.2157449722290039,
                        0.3624541461467743,
                        0.36805012822151184,
                        -0.5650574564933777,
                        -0.3379822075366974,
                        -1.1240429878234863,
                        -0.04201884940266609,
                        0.23342210054397583,
                        -0.4903118312358856,
                        0.12402531504631042,
                        0.32448825240135193,
                        -0.09655385464429855,
                        -0.5458189845085144,
                        -0.4254494607448578,
                        -0.22826766967773438,
                        0.19898724555969238,
                        -0.203081876039505,
                        -0.03926397114992142,
                        0.2683667838573456,
                        -0.08463579416275024,
                        0.0625726729631424,
                        -0.3341597020626068,
                        -0.05793847516179085,
                        -0.01902247779071331,
                        0.11920348554849625,
                        0.1653670072555542,
                        1.3959825038909912,
                        -0.2422139197587967,
                        -0.5148248076438904,
                        -0.6938057541847229,
                        -0.7212601900100708,
                        0.725020706653595,
                        -0.5556296706199646,
                        -0.34984540939331055,
                        -0.013778166845440865,
                        0.0773361548781395,
                        -0.09172757714986801,
                        -0.56303870677948,
                        0.012581227347254753,
                        0.0009528888040222228,
                        -0.39096614718437195,
                        -0.6876076459884644,
                        -0.38824522495269775,
                        -0.6265175938606262,
                        -0.3261740207672119,
                        0.5810187458992004,
                        -0.2387605458498001,
                        0.36572951078414917,
                        -0.06148340180516243
                    ],
                    [
                        0.10358688980340958,
                        -0.010651686228811741,
                        0.5108093619346619,
                        0.2813332974910736,
                        0.8642578721046448,
                        -0.2572779655456543,
                        0.27901047468185425,
                        0.6464239954948425,
                        0.1582823246717453,
                        -0.2510957419872284,
                        -0.4198454022407532,
                        -0.2723252773284912,
                        -0.05439141392707825,
                        -0.5010929703712463,
                        -0.05094496160745621,
                        -0.23628225922584534,
                        0.26900091767311096,
                        0.2722017168998718,
                        -1.1336767673492432,
                        0.05627325922250748,
                        -0.02260596491396427,
                        -0.010120021179318428,
                        0.05537163093686104,
                        -0.21463607251644135,
                        0.18607275187969208,
                        -0.292137086391449,
                        -0.02679738774895668,
                        -0.8884891867637634,
                        -0.45734503865242004,
                        -0.5002414584159851,
                        -0.31243109703063965,
                        -0.21542122960090637,
                        -0.22579139471054077,
                        0.5082647204399109,
                        -0.00963462796062231,
                        -0.09264824539422989,
                        0.11863311380147934,
                        0.19042536616325378,
                        -0.19532150030136108,
                        -0.16634604334831238,
                        0.29796960949897766,
                        0.3737565279006958,
                        0.44256433844566345,
                        0.4903643727302551,
                        -0.05809054523706436,
                        -0.05617981031537056,
                        0.12303197383880615,
                        -0.09894812107086182,
                        -0.22308799624443054,
                        0.4207526445388794,
                        -0.36037546396255493,
                        0.18036600947380066,
                        0.04755837842822075,
                        -0.6384319067001343,
                        0.2192540466785431,
                        0.10849279910326004,
                        0.18852928280830383,
                        -0.5705167651176453,
                        -0.33808428049087524,
                        -0.4392315447330475,
                        -0.26919281482696533,
                        -0.21240676939487457,
                        -0.26646584272384644,
                        -0.20327287912368774
                    ],
                    [
                        0.14171749353408813,
                        0.040081147104501724,
                        -0.39538273215293884,
                        -0.28838446736335754,
                        -0.6136900782585144,
                        0.1057814359664917,
                        -0.2544337809085846,
                        -0.370688796043396,
                        -0.12276260554790497,
                        0.2551160454750061,
                        0.23121321201324463,
                        -0.247817263007164,
                        0.12509670853614807,
                        0.2816495895385742,
                        -0.05521061643958092,
                        0.06342249363660812,
                        -0.26565325260162354,
                        -0.31877538561820984,
                        1.147260308265686,
                        -0.17411822080612183,
                        0.6456947326660156,
                        -0.005633425433188677,
                        0.243577778339386,
                        0.5297244191169739,
                        -0.004691495560109615,
                        -0.10478773713111877,
                        0.3140963017940521,
                        0.2055370956659317,
                        0.27020734548568726,
                        0.2912980318069458,
                        0.06599552184343338,
                        -0.20497485995292664,
                        0.19301043450832367,
                        0.0475192554295063,
                        -0.2697097957134247,
                        0.06716039776802063,
                        0.061310794204473495,
                        0.02947080135345459,
                        0.030587825924158096,
                        -0.17858345806598663,
                        0.2983338236808777,
                        0.14904825389385223,
                        -0.14421319961547852,
                        -0.035106487572193146,
                        -0.2360629141330719,
                        -0.40353843569755554,
                        0.22223976254463196,
                        0.6420110464096069,
                        -0.4702579081058502,
                        0.10517434030771255,
                        0.2530895173549652,
                        -0.07936304807662964,
                        0.18438896536827087,
                        0.3130389451980591,
                        0.18264950811862946,
                        0.034108005464076996,
                        0.09388197213411331,
                        0.38834744691848755,
                        0.4293573200702667,
                        0.15815886855125427,
                        0.22987627983093262,
                        0.13045021891593933,
                        -0.1598796248435974,
                        -0.23170779645442963
                    ],
                    [
                        -0.5719462633132935,
                        -0.1615941971540451,
                        -0.22447946667671204,
                        0.04149782285094261,
                        1.4411698579788208,
                        0.07008026540279388,
                        0.30212271213531494,
                        0.768311083316803,
                        0.9290809631347656,
                        -0.38866159319877625,
                        -0.13130520284175873,
                        0.01734660565853119,
                        -0.06891290843486786,
                        0.034102633595466614,
                        -0.2178066372871399,
                        0.0031331083737313747,
                        0.07402145117521286,
                        -0.03401565924286842,
                        -1.0880186557769775,
                        -0.05964508280158043,
                        0.26396074891090393,
                        0.0833626538515091,
                        -0.01785920560359955,
                        0.05861242860555649,
                        0.25160568952560425,
                        0.21151196956634521,
                        -0.397326797246933,
                        -0.4428834617137909,
                        -0.3328169584274292,
                        -0.39534977078437805,
                        0.13997207581996918,
                        -0.05110738426446915,
                        -1.7306592464447021,
                        0.3578774929046631,
                        -0.25968649983406067,
                        0.23443132638931274,
                        0.2807234525680542,
                        -0.121494360268116,
                        -0.21015839278697968,
                        0.46722835302352905,
                        -0.28360581398010254,
                        0.6298573017120361,
                        0.40309545397758484,
                        -0.3572659194469452,
                        -0.11001274734735489,
                        0.7670336365699768,
                        -0.802946150302887,
                        0.09329324960708618,
                        -0.42092424631118774,
                        0.08642654120922089,
                        0.04568781703710556,
                        -0.30368223786354065,
                        0.4254703223705292,
                        0.7083198428153992,
                        0.6740245223045349,
                        0.6601927876472473,
                        0.18121971189975739,
                        -0.5742648243904114,
                        -0.20802041888237,
                        0.07021864503622055,
                        0.4175105690956116,
                        0.018917709589004517,
                        -0.2263370007276535,
                        0.1500793695449829
                    ],
                    [
                        -0.3303406238555908,
                        -0.2664063572883606,
                        1.1397520303726196,
                        0.4550158977508545,
                        0.6634198427200317,
                        -0.49999192357063293,
                        0.18613098561763763,
                        0.5751286149024963,
                        -0.08500133454799652,
                        -0.4216703474521637,
                        -0.3815983533859253,
                        0.33078980445861816,
                        0.2255234569311142,
                        -0.36123377084732056,
                        -0.02649737522006035,
                        -0.3764694035053253,
                        0.12386687099933624,
                        -0.12346767634153366,
                        -1.5296515226364136,
                        -0.07757867872714996,
                        -1.2029320001602173,
                        -0.3541118800640106,
                        0.12667062878608704,
                        -0.5641974210739136,
                        -0.20354695618152618,
                        0.19998127222061157,
                        0.17139184474945068,
                        -0.6704314947128296,
                        0.0799260064959526,
                        -0.8136733174324036,
                        -0.05229389667510986,
                        -0.2913893759250641,
                        0.31961044669151306,
                        0.19365499913692474,
                        0.14438924193382263,
                        -0.12506110966205597,
                        -0.033600419759750366,
                        0.035935454070568085,
                        0.2206692397594452,
                        0.11163157969713211,
                        -0.09879507124423981,
                        -0.24113205075263977,
                        0.2458205670118332,
                        0.636051595211029,
                        0.09617049247026443,
                        0.2833809554576874,
                        -0.01962209679186344,
                        0.8478260636329651,
                        0.25845664739608765,
                        -0.18141032755374908,
                        -0.3880981206893921,
                        0.17511272430419922,
                        -0.3425399959087372,
                        -0.6094401478767395,
                        -0.09516780078411102,
                        -0.19212959706783295,
                        -0.34916284680366516,
                        -0.479013592004776,
                        -0.34958580136299133,
                        0.001758884871378541,
                        0.061911217868328094,
                        -0.45795938372612,
                        -0.25662511587142944,
                        -0.20876751840114594
                    ],
                    [
                        -0.4454399049282074,
                        0.2364891767501831,
                        0.11225263774394989,
                        -0.06363341212272644,
                        0.035387296229600906,
                        -0.20800237357616425,
                        -0.672815203666687,
                        -0.1494385451078415,
                        -0.2693987190723419,
                        -0.2330513894557953,
                        -0.13996170461177826,
                        -0.3405575454235077,
                        0.18833550810813904,
                        0.05157040059566498,
                        -0.34482815861701965,
                        -0.24624678492546082,
                        -0.15024122595787048,
                        0.09106051921844482,
                        -0.16620032489299774,
                        -0.2035950869321823,
                        0.15608149766921997,
                        0.0609503909945488,
                        -0.2827092707157135,
                        0.2788377106189728,
                        0.8277909755706787,
                        0.15212474763393402,
                        -0.16194631159305573,
                        -0.12448016554117203,
                        0.11420746892690659,
                        0.037331756204366684,
                        -0.22044244408607483,
                        -2.208678960800171,
                        0.0762912854552269,
                        -0.13111218810081482,
                        0.15111161768436432,
                        -0.3004119396209717,
                        0.029783008620142937,
                        0.035362549126148224,
                        -0.3484429717063904,
                        -0.11192222684621811,
                        0.5398833751678467,
                        -0.16053694486618042,
                        0.05912364274263382,
                        0.275444358587265,
                        0.451121062040329,
                        0.04667875915765762,
                        -0.23388852179050446,
                        -0.6796350479125977,
                        0.7786079049110413,
                        -0.1003786027431488,
                        -0.022377096116542816,
                        -0.1274632066488266,
                        -0.167439803481102,
                        0.015681998804211617,
                        -1.155340552330017,
                        -0.12556101381778717,
                        -0.1410951316356659,
                        0.21615485846996307,
                        -0.8320029973983765,
                        -0.03141593933105469,
                        0.6667633652687073,
                        -0.15910005569458008,
                        0.24692417681217194,
                        -1.2572799921035767
                    ]
                ],
                [
                    0.9414661526679993,
                    0.15425312519073486,
                    -2.0600171089172363,
                    -0.8949631452560425,
                    -1.7014743089675903,
                    0.8788270950317383,
                    -0.5331622362136841,
                    -1.3381166458129883,
                    0.5042837858200073,
                    1.1970984935760498,
                    1.3900781869888306,
                    -0.34558790922164917,
                    -0.037268854677677155,
                    0.5801526308059692,
                    -0.1790691316127777,
                    1.55263352394104,
                    0.7582093477249146,
                    -0.32467785477638245,
                    2.5807299613952637,
                    0.6831787824630737,
                    2.598843812942505,
                    0.4782330393791199,
                    1.2318657636642456,
                    1.2609643936157227,
                    0.5341768264770508,
                    0.7064465284347534,
                    0.31645679473876953,
                    0.8287562131881714,
                    0.43372830748558044,
                    0.9262791275978088,
                    0.6675782203674316,
                    -0.32003629207611084,
                    0.16957317292690277,
                    0.1827695518732071,
                    -0.004097254015505314,
                    0.02139211818575859,
                    0.03833729028701782,
                    0.23490609228610992,
                    0.07990793883800507,
                    -0.14791515469551086,
                    -0.5909467935562134,
                    0.1933264136314392,
                    -0.06080736964941025,
                    0.08536522090435028,
                    0.28194084763526917,
                    0.16964474320411682,
                    -0.40821677446365356,
                    0.15871930122375488,
                    0.07130409777164459,
                    0.21619409322738647,
                    0.6632156372070312,
                    0.09151837974786758,
                    0.3990291953086853,
                    1.0162423849105835,
                    0.08864103257656097,
                    -0.1685364842414856,
                    -0.8893569707870483,
                    0.8331611156463623,
                    1.384361982345581,
                    0.28627312183380127,
                    -0.06970712542533875,
                    1.1258845329284668,
                    0.5937222242355347,
                    1.1466230154037476
                ]
            ]
        },
        {
            "type": "dense",
            "activation": "",
            "shape": [
                null,
                null,
                1
            ],
            "weights": [
                [
                    [
                        -0.0028115471359342337
                    ],
                    [
                        0.022940635681152344
                    ],
                    [
                        -0.3781260550022125
                    ],
                    [
                        0.014327676966786385
                    ],
                    [
                        0.015205063857138157
                    ],
                    [
                        -0.23047269880771637
                    ],
                    [
                        0.12904265522956848
                    ],
                    [
                        0.21173128485679626
                    ],
                    [
                        -0.13861243426799774
                    ],
                    [
                        -0.046906620264053345
                    ],
                    [
                        -0.4345589578151703
                    ],
                    [
                        0.17675688862800598
                    ],
                    [
                        -0.6129322052001953
                    ],
                    [
                        0.05350060388445854
                    ],
                    [
                        0.08571374416351318
                    ],
                    [
                        0.22524437308311462
                    ]
                ],
                [
                    0.07231364399194717
                ]
            ]
        }
    ]
}