{
    "in_shape": [
        null,
        null,
        1
    ],
    "in_skip": 1,
    "layers": [
        {
            "type": "lstm",
            "activation": "",
            "shape": [
                null,
                null,
                16
            ],
            "weights": [
                [
                    [
                        -0.08938121795654297,
                        0.041403066366910934,
                        0.1187969371676445,
                        0.3499602675437927,
                        0.13389356434345245,
                        0.13667432963848114,
                        0.15032027661800385,
                        -0.1408623307943344,
                        0.15737809240818024,
                        0.09864690154790878,
                        0.12333978712558746,
                        0.468909353017807,
                        -0.027034427970647812,
                        0.0923323929309845,
                        -0.06625373661518097,
                        -0.07378573715686798,
                        -0.21333318948745728,
                        -0.10486577451229095,
                        0.503025472164154,
                        0.3163275718688965,
                        0.12325146794319153,
                        -0.01096852496266365,
                        -0.07583022117614746,
                        -0.28301364183425903,
                        0.3292321264743805,
                        0.06739848107099533,
                        -0.23618900775909424,
                        -0.23032082617282867,
                        -0.537480890750885,
                        0.2405208796262741,
                        0.037130001932382584,
                        -0.047741860151290894,
                        0.41720497608184814,
                        -0.32695361971855164,
                        1.0252479314804077,
                        -1.427205204963684,
                        -1.0999538898468018,
                        0.3293667435646057,
                        0.7302165031433105,
                        -0.015118350274860859,
                        0.0629040077328682,
                        -2.584263801574707,
                        -0.35791489481925964,
                        -0.09795641899108887,
                        0.8245856165885925,
                        -0.4462229311466217,
                        -2.712509870529175,
                        0.2990892231464386,
                        -0.04162897914648056,
                        -0.025111818686127663,
                        0.7003166079521179,
                        0.28929242491722107,
                        0.09876343607902527,
                        -0.0281401127576828,
                        0.05206090211868286,
                        -0.0609268881380558,
                        0.2776053547859192,
                        -0.02594730257987976,
                        -0.3218219578266144,
                        0.12571141123771667,
                        -0.4663137197494507,
                        0.08215576410293579,
                        0.030002297833561897,
                        -0.09197163581848145
                    ]
                ],
                [
                    [
                        0.019756797701120377,
                        -0.006125838495790958,
                        -0.1281939297914505,
                        0.0007385820499621332,
                        -0.35396310687065125,
                        0.20777879655361176,
                        0.12158454209566116,
                        -0.19340379536151886,
                        -0.03296549618244171,
                        -0.03284984081983566,
                        0.21775126457214355,
                        0.2093650847673416,
                        0.09095305949449539,
                        -0.014126308262348175,
                        0.11925913393497467,
                        0.05710449069738388,
                        -0.30144771933555603,
                        0.1162201464176178,
                        -0.23819148540496826,
                        -0.040290333330631256,
                        -0.19338536262512207,
                        0.41673076152801514,
                        -0.005492883268743753,
                        -0.25818318128585815,
                        0.048763323575258255,
                        0.22050690650939941,
                        0.4073869287967682,
                        -0.6087862253189087,
                        -0.4804137349128723,
                        0.16258706152439117,
                        -0.08369862288236618,
                        -0.6030425429344177,
                        -0.20390376448631287,
                        0.153702050447464,
                        -0.010364524088799953,
                        -0.14819422364234924,
                        0.35913604497909546,
                        0.04350324347615242,
                        0.24814888834953308,
                        -0.39529988169670105,
                        -0.3620453476905823,
                        0.12212841957807541,
                        1.2985376119613647,
                        -0.2787894606590271,
                        0.26005640625953674,
                        -0.0981079488992691,
                        -0.11210697144269943,
                        0.06430204957723618,
                        -0.4790865480899811,
                        0.49587658047676086,
                        0.15035328269004822,
                        0.039163216948509216,
                        -0.36808866262435913,
                        0.3223912715911865,
                        0.12049126625061035,
                        -0.23840060830116272,
                        -0.3327690064907074,
                        -0.4658782184123993,
                        0.08636690676212311,
                        0.05996721237897873,
                        -0.2316940873861313,
                        -0.013989587314426899,
                        -0.22550365328788757,
                        -0.26284000277519226
                    ],
                    [
                        -0.007156768813729286,
                        -0.24714691936969757,
                        0.4710747003555298,
                        0.29644545912742615,
                        0.2001802772283554,
                        -0.09913653880357742,
                        0.1572347730398178,
                        -0.09851954877376556,
                        0.6029740571975708,
                        -0.008499238640069962,
                        0.8123010396957397,
                        0.4085262417793274,
                        0.3262667655944824,
                        -0.15532360970973969,
                        -0.3044043481349945,
                        0.3908432424068451,
                        0.04652317985892296,
                        -1.397842526435852,
                        0.6386974453926086,
                        -0.04241074249148369,
                        -0.12859947979450226,
                        -0.14800892770290375,
                        0.12158147245645523,
                        0.2875780463218689,
                        0.027633214369416237,
                        -0.10996293276548386,
                        0.3434830605983734,
                        -0.6806700825691223,
                        -0.1905706226825714,
                        -0.010064232163131237,
                        0.06876804679632187,
                        -0.610739529132843,
                        0.19091613590717316,
                        0.8659648299217224,
                        0.33152249455451965,
                        0.035241007804870605,
                        -0.14242272078990936,
                        -0.16948315501213074,
                        0.21367758512496948,
                        0.6613984704017639,
                        -0.13884617388248444,
                        -0.051836658269166946,
                        -0.08267830312252045,
                        -0.01585375890135765,
                        0.0014446002896875143,
                        0.16813428699970245,
                        0.20517125725746155,
                        0.026775550097227097,
                        -0.19104671478271484,
                        -0.2898932099342346,
                        0.037191931158304214,
                        -0.23709824681282043,
                        -0.04138962924480438,
                        -0.05611070990562439,
                        0.09290222078561783,
                        0.1244671493768692,
                        -0.47980445623397827,
                        -0.06300178915262222,
                        -0.10062874853610992,
                        -0.06438543647527695,
                        -0.3335184156894684,
                        -0.12472721934318542,
                        0.05994671583175659,
                        -0.08375426381826401
                    ],
                    [
                        -0.04035442695021629,
                        0.49756988883018494,
                        0.0009192820289172232,
                        -0.11212742328643799,
                        -0.0331256277859211,
                        -0.10303004086017609,
                        0.05378386005759239,
                        0.2302866280078888,
                        -0.19604580104351044,
                        0.040190886706113815,
                        0.6459696888923645,
                        -0.26487091183662415,
                        -0.6274296045303345,
                        0.14496350288391113,
                        0.15383847057819366,
                        -0.9659866690635681,
                        0.17827607691287994,
                        0.376486212015152,
                        0.12217587232589722,
                        0.13756147027015686,
                        -0.19447721540927887,
                        0.08160229027271271,
                        -0.011162513867020607,
                        -0.05724453553557396,
                        0.09856340289115906,
                        0.15033182501792908,
                        -0.39261242747306824,
                        0.9758432507514954,
                        0.26283466815948486,
                        0.021216033026576042,
                        0.08690065890550613,
                        1.072649359703064,
                        -0.18352144956588745,
                        -1.2051905393600464,
                        -0.1265822798013687,
                        -0.13062706589698792,
                        0.3360237181186676,
                        0.41096678376197815,
                        -0.15218445658683777,
                        -0.7862977981567383,
                        0.2595255374908447,
                        0.07334648817777634,
                        0.01965325139462948,
                        0.08379650861024857,
                        -0.03335730731487274,
                        -0.21716773509979248,
                        -0.26565563678741455,
                        0.04129566624760628,
                        0.4544616937637329,
                        -0.09686683863401413,
                        0.17179535329341888,
                        0.24171826243400574,
                        0.22384843230247498,
                        0.1426307111978531,
                        0.316116064786911,
                        0.37945762276649475,
                        -0.09689795970916748,
                        0.05425224453210831,
                        -0.5664454102516174,
                        0.4456516206264496,
                        0.4357844293117523,
                        0.3661739230155945,
                        0.6493914723396301,
                        0.35894832015037537
                    ],
                    [
                        -0.02994910255074501,
                        -0.037282008677721024,
                        0.08085798472166061,
                        -0.2703421115875244,
                        -0.25467154383659363,
                        -0.3220563530921936,
                        0.04999407380819321,
                        0.021613214164972305,
                        -0.09843297302722931,
                        -0.11537601053714752,
                        0.008603356778621674,
                        -0.2557936906814575,
                        -0.29411616921424866,
                        -0.2695697546005249,
                        -0.016911467537283897,
                        -0.5798388123512268,
                        0.06587078422307968,
                        -0.10124476999044418,
                        0.20050637423992157,
                        -0.24400438368320465,
                        -0.1466669738292694,
                        0.18482424318790436,
                        0.12436164170503616,
                        0.21309354901313782,
                        0.18596747517585754,
                        0.1674291491508484,
                        0.4909062087535858,
                        -0.5984042286872864,
                        -0.26880553364753723,
                        0.13910682499408722,
                        0.21674370765686035,
                        -0.8689048290252686,
                        -0.10807815939188004,
                        -0.1650950014591217,
                        0.31839656829833984,
                        0.011671439744532108,
                        -0.3454676568508148,
                        -0.28111448884010315,
                        -0.28953903913497925,
                        0.0011002864921465516,
                        -0.4735053479671478,
                        0.31109553575515747,
                        -0.5067415833473206,
                        -0.29951488971710205,
                        -0.474592387676239,
                        -0.09006942063570023,
                        -0.27755510807037354,
                        0.0867108404636383,
                        -0.10273825377225876,
                        -0.12157830595970154,
                        -0.008257863111793995,
                        -0.3621180057525635,
                        -0.27984991669654846,
                        -0.3841682970523834,
                        -0.10309766232967377,
                        0.02802269719541073,
                        0.2162730097770691,
                        -0.08621030300855637,
                        -0.1702427864074707,
                        -0.3559530973434448,
                        -0.22433556616306305,
                        -0.1389155387878418,
                        -0.002838725224137306,
                        -0.2668920159339905
                    ],
                    [
                        0.18119534850120544,
                        -0.07865249365568161,
                        0.2619265615940094,
                        -0.10909279435873032,
                        -0.04692671447992325,
                        -0.11611906439065933,
                        -0.22841447591781616,
                        -0.05930456146597862,
                        -0.21128563582897186,
                        -0.07233455777168274,
                        0.12250619381666183,
                        0.5555369853973389,
                        0.6540630459785461,
                        -0.07850629836320877,
                        0.13497893512248993,
                        0.9683322310447693,
                        -0.0929856225848198,
                        0.0173408892005682,
                        -0.03452278673648834,
                        0.014276615343987942,
                        0.0035745962522923946,
                        0.10102345049381256,
                        -0.11399725824594498,
                        0.1310558319091797,
                        -0.47539517283439636,
                        -0.30781233310699463,
                        -0.36350318789482117,
                        -0.44454023241996765,
                        -0.3871731758117676,
                        -0.2766408324241638,
                        -0.11005635559558868,
                        -1.0080320835113525,
                        0.001313514425419271,
                        0.5877743363380432,
                        0.00644800765439868,
                        -0.1696220487356186,
                        -0.06275825202465057,
                        0.051376573741436005,
                        -0.17988967895507812,
                        0.61048823595047,
                        -0.1414688676595688,
                        0.3924412727355957,
                        1.0481648445129395,
                        -0.1887233704328537,
                        -0.07552043348550797,
                        0.4343258738517761,
                        -0.25018081068992615,
                        0.14139032363891602,
                        -0.231221005320549,
                        -0.25521713495254517,
                        -0.3405209183692932,
                        -0.005551283247768879,
                        -0.19289860129356384,
                        0.2728712856769562,
                        -0.13241417706012726,
                        -0.13672345876693726,
                        -0.6460197567939758,
                        -0.3851012885570526,
                        0.6133632063865662,
                        -0.018437668681144714,
                        -0.06993958353996277,
                        -0.21587839722633362,
                        -0.19653046131134033,
                        -0.376880407333374
                    ],
                    [
                        -0.12377329170703888,
                        -0.1153315082192421,
                        0.051446326076984406,
                        -0.20130862295627594,
                        0.042667970061302185,
                        -0.8253697156906128,
                        -0.14926885068416595,
                        -0.1130383089184761,
                        0.34126514196395874,
                        -0.3512037694454193,
                        0.26105454564094543,
                        0.4334952235221863,
                        0.39111417531967163,
                        -0.1924077868461609,
                        0.08432630449533463,
                        1.0496324300765991,
                        -0.054290760308504105,
                        0.07858245819807053,
                        0.05628751963376999,
                        0.13069428503513336,
                        0.22753843665122986,
                        -0.36161381006240845,
                        -0.11974868178367615,
                        -0.4421481192111969,
                        0.5503441095352173,
                        -0.08839131146669388,
                        -0.16144821047782898,
                        -0.173858180642128,
                        -0.1767716109752655,
                        0.015949474647641182,
                        -0.6392410397529602,
                        -0.7812941074371338,
                        0.7393714189529419,
                        -0.5936444401741028,
                        -0.15163113176822662,
                        0.1181928813457489,
                        0.4175260066986084,
                        0.31513381004333496,
                        0.0512203611433506,
                        0.3259802758693695,
                        0.6864262819290161,
                        0.04825342819094658,
                        0.9467116594314575,
                        0.18062569200992584,
                        -0.14656327664852142,
                        -0.09487336128950119,
                        -0.133070707321167,
                        0.1272696703672409,
                        -0.23261697590351105,
                        0.1715690940618515,
                        -0.20739415287971497,
                        0.08486301451921463,
                        -0.09069788455963135,
                        -1.0421180725097656,
                        0.07416655123233795,
                        -0.18610244989395142,
                        0.3597363829612732,
                        -0.34165486693382263,
                        0.5419061779975891,
                        -0.30675074458122253,
                        -0.03725970908999443,
                        -0.14709119498729706,
                        -0.17576448619365692,
                        -0.34674420952796936
                    ],
                    [
                        -0.15880410373210907,
                        -0.1427203267812729,
                        0.05004338547587395,
                        0.1823907047510147,
                        0.6755537390708923,
                        0.06009432673454285,
                        -0.08708108961582184,
                        0.021143890917301178,
                        -0.2917739748954773,
                        -0.16422587633132935,
                        0.1131076067686081,
                        -0.009263756684958935,
                        0.08829659223556519,
                        0.005661298520863056,
                        -0.12202409654855728,
                        0.28161048889160156,
                        -0.1103115901350975,
                        -0.3317054808139801,
                        0.07157155126333237,
                        0.2892199754714966,
                        0.3099784851074219,
                        -0.5991930365562439,
                        -0.08553280681371689,
                        -0.002470161998644471,
                        -0.21200016140937805,
                        -0.22792601585388184,
                        -0.979948103427887,
                        0.02132909744977951,
                        0.09005870670080185,
                        0.29407790303230286,
                        -0.13535232841968536,
                        0.5869548320770264,
                        -0.016833720728754997,
                        -0.0796065628528595,
                        0.04379430413246155,
                        -0.3002876341342926,
                        0.15082459151744843,
                        0.9157208204269409,
                        -0.35954296588897705,
                        -0.08361542224884033,
                        0.5866072773933411,
                        -0.20865651965141296,
                        -0.15730425715446472,
                        0.06302622705698013,
                        0.11959128081798553,
                        -0.330717533826828,
                        0.08536511659622192,
                        0.21138101816177368,
                        -0.14578108489513397,
                        -0.10707437247037888,
                        0.317006379365921,
                        0.29700997471809387,
                        0.4880954623222351,
                        0.1342051476240158,
                        0.43163150548934937,
                        -0.11507979035377502,
                        -0.311766117811203,
                        0.022774413228034973,
                        -0.08902322500944138,
                        -0.12299785017967224,
                        -0.028640909120440483,
                        0.15222987532615662,
                        0.07252029329538345,
                        -0.1445923000574112
                    ],
                    [
                        0.08230704814195633,
                        0.10618741065263748,
                        0.1472848355770111,
                        -0.5565628409385681,
                        0.004583263304084539,
                        -0.6779627799987793,
                        -0.21932972967624664,
                        -0.054941676557064056,
                        -0.01678493060171604,
                        -0.07121799141168594,
                        0.18160594999790192,
                        -0.6137780547142029,
                        0.021797649562358856,
                        0.18687765300273895,
                        -0.0003137626335956156,
                        0.10228683054447174,
                        0.25853821635246277,
                        -0.22087611258029938,
                        0.008218522183597088,
                        -0.3176657259464264,
                        0.16694195568561554,
                        0.03225468844175339,
                        -0.3638187348842621,
                        -0.3001476526260376,
                        0.29910901188850403,
                        -0.0111071253195405,
                        0.42414456605911255,
                        0.35778024792671204,
                        0.42331236600875854,
                        -0.19166961312294006,
                        -0.18370699882507324,
                        0.07383354008197784,
                        0.1814420521259308,
                        -0.6718167662620544,
                        0.584574282169342,
                        -0.10128742456436157,
                        -0.1907685250043869,
                        -0.6377734541893005,
                        -0.5625312924385071,
                        -0.3289969563484192,
                        -0.26045748591423035,
                        -0.03917175903916359,
                        0.6970873475074768,
                        0.08391842246055603,
                        -0.09850233048200607,
                        -0.28433313965797424,
                        -0.14919854700565338,
                        -0.04071557894349098,
                        -0.05721501260995865,
                        0.3971323072910309,
                        0.8894984126091003,
                        -0.25469347834587097,
                        0.22170324623584747,
                        -0.8167110085487366,
                        -0.12428030371665955,
                        0.2728492021560669,
                        0.5130298137664795,
                        0.31697916984558105,
                        0.5057812333106995,
                        0.2951165437698364,
                        0.5896453857421875,
                        0.1514454036951065,
                        -0.0008501578704454005,
                        0.003355237888172269
                    ],
                    [
                        -0.06644079834222794,
                        0.13359932601451874,
                        -0.001660690177232027,
                        -0.3211679756641388,
                        -0.2976508140563965,
                        0.6639575362205505,
                        -0.03141624480485916,
                        0.1434376984834671,
                        0.46248623728752136,
                        0.013203389011323452,
                        0.18701450526714325,
                        0.07408434897661209,
                        -0.10005108267068863,
                        -0.0853651762008667,
                        0.305416464805603,
                        -0.4141717851161957,
                        -0.5078453421592712,
                        0.3979629874229431,
                        0.03734486177563667,
                        0.05942439287900925,
                        0.04024437442421913,
                        1.098078966140747,
                        0.4013742208480835,
                        0.3231050968170166,
                        0.5354151129722595,
                        0.04653056338429451,
                        -0.17345687747001648,
                        0.7989150881767273,
                        0.2877840995788574,
                        0.286045640707016,
                        0.32968851923942566,
                        0.5376323461532593,
                        0.3762744963169098,
                        -0.1987314075231552,
                        -0.04872559383511543,
                        -0.14314822852611542,
                        0.07142119109630585,
                        0.47470080852508545,
                        -0.3739662766456604,
                        0.12520422041416168,
                        0.5551652908325195,
                        -0.07818741351366043,
                        1.140257477760315,
                        0.17012536525726318,
                        -0.09312567859888077,
                        -0.10335707664489746,
                        -0.004101569298654795,
                        0.27217230200767517,
                        -0.329039990901947,
                        -0.07057210803031921,
                        0.05576587840914726,
                        0.0038565730210393667,
                        -0.0751192718744278,
                        0.6360329389572144,
                        0.1739477515220642,
                        -0.027031291276216507,
                        0.3960064947605133,
                        0.11992372572422028,
                        0.3325507640838623,
                        0.14458498358726501,
                        0.2445608228445053,
                        0.11447999626398087,
                        -0.00561293913051486,
                        0.3510904908180237
                    ],
                    [
                        0.20598411560058594,
                        -0.29731935262680054,
                        -0.04334337264299393,
                        -0.13031750917434692,
                        0.15769857168197632,
                        -0.2138613909482956,
                        -0.30312636494636536,
                        -0.08343300968408585,
                        0.09145785868167877,
                        0.02762240171432495,
                        -0.37882381677627563,
                        0.7411028742790222,
                        0.6938793659210205,
                        -0.15436841547489166,
                        0.18672186136245728,
                        1.166947364807129,
                        0.10685886442661285,
                        0.061482664197683334,
                        0.04452817514538765,
                        -0.40876930952072144,
                        -0.2446085512638092,
                        -0.10444735735654831,
                        -0.2604946792125702,
                        0.25024932622909546,
                        -0.2185286283493042,
                        -0.38171759247779846,
                        -0.7813592553138733,
                        -0.7092323899269104,
                        -0.7921229600906372,
                        -0.8854949474334717,
                        -0.10929723083972931,
                        -1.2325351238250732,
                        -0.257829487323761,
                        0.025825288146734238,
                        -0.09348402172327042,
                        0.24899788200855255,
                        0.2858271300792694,
                        -0.13777214288711548,
                        -0.8585277795791626,
                        0.12382148206233978,
                        -0.15620900690555573,
                        0.21508750319480896,
                        -0.14205041527748108,
                        0.000554637226741761,
                        -0.37389326095581055,
                        0.4025227129459381,
                        -0.4350985586643219,
                        -0.20202387869358063,
                        0.24206531047821045,
                        0.11741262674331665,
                        -0.30940520763397217,
                        -0.2079857438802719,
                        -0.2609490752220154,
                        -0.1281808316707611,
                        -0.36907073855400085,
                        0.047871433198451996,
                        0.1425265669822693,
                        -0.41103121638298035,
                        -0.4277600049972534,
                        0.2125176042318344,
                        -0.08578765392303467,
                        -0.2995997667312622,
                        -0.16582699120044708,
                        0.09402956068515778
                    ],
                    [
                        0.34891268610954285,
                        0.2240075170993805,
                        0.12361770123243332,
                        0.013224288821220398,
                        -0.15265333652496338,
                        -0.049310050904750824,
                        0.08468791842460632,
                        -0.11137901246547699,
                        0.06418619304895401,
                        0.08282061666250229,
                        0.8203591108322144,
                        -0.34214654564857483,
                        -0.2585306167602539,
                        -0.00650067301467061,
                        0.09079454094171524,
                        0.16067317128181458,
                        0.18090666830539703,
                        -0.7508147358894348,
                        0.01439695805311203,
                        0.07549922168254852,
                        -0.026311475783586502,
                        0.48389506340026855,
                        0.36335867643356323,
                        0.12735821306705475,
                        -0.17313030362129211,
                        -0.0664554238319397,
                        0.8254096508026123,
                        0.5115256309509277,
                        0.344491183757782,
                        -0.07911349833011627,
                        0.1890752762556076,
                        0.1401178240776062,
                        -0.03985460847616196,
                        2.6216630935668945,
                        -0.014354375191032887,
                        0.21474094688892365,
                        -0.008968423120677471,
                        -0.0425785593688488,
                        -0.020409932360053062,
                        -0.37486642599105835,
                        0.07416170090436935,
                        -0.023186232894659042,
                        0.5626185536384583,
                        0.07501155883073807,
                        0.037772927433252335,
                        -0.05024140700697899,
                        -0.0710025280714035,
                        0.05813117325305939,
                        -0.3174390494823456,
                        -0.6885543465614319,
                        -0.1438639909029007,
                        0.0832756981253624,
                        0.03842674568295479,
                        -0.03385600447654724,
                        0.015232310630381107,
                        0.0963955745100975,
                        -0.865584671497345,
                        -0.038851961493492126,
                        0.6008238196372986,
                        0.08138570189476013,
                        0.27448657155036926,
                        -0.08950325846672058,
                        -0.13211609423160553,
                        0.14045819640159607
                    ],
                    [
                        0.2154800444841385,
                        0.06036659702658653,
                        -0.07282432168722153,
                        -0.15520626306533813,
                        0.42584770917892456,
                        -0.6033450961112976,
                        -0.053859684616327286,
                        0.015847081318497658,
                        0.13379667699337006,
                        -0.9029288291931152,
                        0.014007586985826492,
                        0.06663788855075836,
                        0.3580232858657837,
                        -0.3672337234020233,
                        -0.3552361726760864,
                        0.40581923723220825,
                        0.4872398376464844,
                        0.0526953861117363,
                        0.029702097177505493,
                        -0.2717657685279846,
                        0.5392875075340271,
                        -0.6837309002876282,
                        -0.06442419439554214,
                        -0.13622573018074036,
                        0.06638946384191513,
                        -0.5568989515304565,
                        0.20954565703868866,
                        -0.12156461179256439,
                        -0.6031274795532227,
                        0.16226767003536224,
                        -0.2908724546432495,
                        0.032392483204603195,
                        -0.5157158970832825,
                        0.2678581476211548,
                        -0.2001500427722931,
                        0.12675949931144714,
                        0.06524153798818588,
                        -0.34665554761886597,
                        0.307621031999588,
                        -0.2258138209581375,
                        -0.1467432677745819,
                        -0.7203602194786072,
                        -0.48407095670700073,
                        0.146869495511055,
                        -0.2076503336429596,
                        0.35660117864608765,
                        0.6857538819313049,
                        0.4285047650337219,
                        0.3358211815357208,
                        0.08517859131097794,
                        -0.3816697895526886,
                        0.07157235592603683,
                        0.4226047396659851,
                        -1.0343570709228516,
                        0.23635095357894897,
                        0.10903234779834747,
                        0.4322793483734131,
                        -0.6787164211273193,
                        -0.031191658228635788,
                        0.31545335054397583,
                        0.1792519986629486,
                        -0.14429496228694916,
                        -0.0016498866025358438,
                        0.7090584635734558
                    ],
                    [
                        -0.3026082515716553,
                        0.10605823248624802,
                        -0.06013956665992737,
                        0.5076292753219604,
                        -0.469621479511261,
                        0.7651044726371765,
                        0.029738934710621834,
                        -0.14270921051502228,
                        -0.10926536470651627,
                        0.3790103495121002,
                        0.3418983221054077,
                        -0.41118115186691284,
                        -0.5990463495254517,
                        0.22658833861351013,
                        0.04491693153977394,
                        -0.7659366726875305,
                        -0.6375940442085266,
                        0.15129320323467255,
                        -0.20574022829532623,
                        0.48871472477912903,
                        -0.3582054376602173,
                        0.8101328611373901,
                        -0.03613196685910225,
                        -0.14369843900203705,
                        0.00797849427908659,
                        0.4547433853149414,
                        0.021582409739494324,
                        0.3299170732498169,
                        0.41025450825691223,
                        0.4495668411254883,
                        0.01378513965755701,
                        1.09215247631073,
                        0.03286128491163254,
                        -0.2454003095626831,
                        -0.0284502562135458,
                        -0.2798460125923157,
                        0.46340516209602356,
                        -0.4091097116470337,
                        0.1425895392894745,
                        -0.18930645287036896,
                        0.07364670187234879,
                        0.39925244450569153,
                        -0.17608173191547394,
                        -0.38431665301322937,
                        0.0042737796902656555,
                        0.29550299048423767,
                        0.8986530900001526,
                        0.16746661067008972,
                        -0.40160685777664185,
                        0.16240660846233368,
                        0.07362698018550873,
                        0.3721732199192047,
                        -0.3450621962547302,
                        0.8482834100723267,
                        -0.17104077339172363,
                        -0.21957731246948242,
                        -0.012968187220394611,
                        0.20977844297885895,
                        -0.04895820468664169,
                        0.1848953515291214,
                        -0.17602737247943878,
                        0.10776657611131668,
                        0.03083311952650547,
                        0.1734684705734253
                    ],
                    [
                        -0.17558778822422028,
                        -0.19515039026737213,
                        -0.16462430357933044,
                        -0.2798352837562561,
                        -0.002430401276797056,
                        -0.16277390718460083,
                        -0.515910267829895,
                        -0.12079837918281555,
                        -0.029133135452866554,
                        -0.5540585517883301,
                        -0.06211116537451744,
                        -0.156932070851326,
                        0.18152309954166412,
                        -0.2776167392730713,
                        -0.06144041195511818,
                        0.05961649864912033,
                        -0.1793154776096344,
                        0.12812000513076782,
                        0.01237423811107874,
                        -0.15839029848575592,
                        0.2423170506954193,
                        0.10186678916215897,
                        -0.21943792700767517,
                        0.23709627985954285,
                        0.03547277674078941,
                        -0.8215585350990295,
                        -0.2037416398525238,
                        -0.7015131115913391,
                        -0.16408085823059082,
                        -0.0046772719360888,
                        0.009066819213330746,
                        -0.5281124711036682,
                        -0.16014881432056427,
                        -0.3217453360557556,
                        -0.09497600048780441,
                        0.18712735176086426,
                        0.05971774458885193,
                        0.6045373678207397,
                        -0.5171701312065125,
                        0.0458669476211071,
                        -0.31735873222351074,
                        0.5294842720031738,
                        -0.07322735339403152,
                        -0.1833735555410385,
                        0.15619899332523346,
                        -0.06466392427682877,
                        -1.0932469367980957,
                        -0.14950037002563477,
                        -0.18180900812149048,
                        -0.07133945822715759,
                        -0.22792240977287292,
                        -0.2723815143108368,
                        -0.007713863160461187,
                        -0.16631227731704712,
                        -0.3014869689941406,
                        -0.11284791678190231,
                        0.03024551086127758,
                        -0.16530707478523254,
                        -0.32263827323913574,
                        0.0676991418004036,
                        0.5732574462890625,
                        -0.24146674573421478,
                        0.010062322951853275,
                        0.6610738635063171
                    ],
                    [
                        0.07244528084993362,
                        -0.21779055893421173,
                        0.15624991059303284,
                        0.010462213307619095,
                        0.022693466395139694,
                        0.8289592266082764,
                        0.13599376380443573,
                        0.09064226597547531,
                        -0.09176670014858246,
                        -0.5083909034729004,
                        -0.46140313148498535,
                        1.0284876823425293,
                        0.6415269374847412,
                        -0.4581035375595093,
                        0.011021253652870655,
                        0.20751026272773743,
                        0.11254861950874329,
                        -0.18464787304401398,
                        0.1324261724948883,
                        -0.20861676335334778,
                        -0.3152501583099365,
                        -0.44532492756843567,
                        0.40867066383361816,
                        0.32635506987571716,
                        -0.8047891855239868,
                        -0.13036847114562988,
                        -0.9251603484153748,
                        -0.7885081768035889,
                        -0.42801570892333984,
                        -0.0567079521715641,
                        0.20907029509544373,
                        -0.7019528150558472,
                        -0.10955768823623657,
                        -0.007309550419449806,
                        0.5096325874328613,
                        -0.010100893676280975,
                        0.1673060953617096,
                        1.5504076480865479,
                        0.550209105014801,
                        -0.9561376571655273,
                        0.4909832775592804,
                        0.3714539706707001,
                        -0.7709321975708008,
                        -0.22067511081695557,
                        -0.14817944169044495,
                        0.7343741059303284,
                        -0.21703624725341797,
                        0.18142445385456085,
                        -0.04771311581134796,
                        0.13437260687351227,
                        0.03557734563946724,
                        -0.15568894147872925,
                        -0.13705845177173615,
                        0.35417696833610535,
                        0.21822892129421234,
                        -0.21551670134067535,
                        -0.7159209847450256,
                        -0.45517390966415405,
                        0.2274770885705948,
                        -0.12816590070724487,
                        0.1569865494966507,
                        -0.266076922416687,
                        -0.0516374371945858,
                        -0.2541836202144623
                    ],
                    [
                        -0.005701293703168631,
                        0.0876535177230835,
                        0.09981986880302429,
                        -0.08677921444177628,
                        -0.0674179270863533,
                        -0.1944197416305542,
                        0.12095781415700912,
                        0.033500075340270996,
                        0.2920829653739929,
                        -0.5930255651473999,
                        0.22615444660186768,
                        0.3772791028022766,
                        0.1677076369524002,
                        -0.2941637337207794,
                        -0.33447983860969543,
                        -0.3358111083507538,
                        -0.024979999288916588,
                        0.04104753956198692,
                        -0.09467344731092453,
                        -0.07054226845502853,
                        -0.10154549777507782,
                        0.07209539413452148,
                        0.05613109469413757,
                        0.08784907311201096,
                        0.16046613454818726,
                        -0.490084707736969,
                        0.17411981523036957,
                        0.09045402705669403,
                        -0.01709938608109951,
                        0.5237297415733337,
                        -0.08611847460269928,
                        -0.8599848747253418,
                        -0.17556904256343842,
                        -0.1138458326458931,
                        -0.05331161245703697,
                        0.3243105411529541,
                        0.20061129331588745,
                        -0.3706366717815399,
                        -0.054750021547079086,
                        0.1729682981967926,
                        -0.5783735513687134,
                        0.31449514627456665,
                        -0.39629796147346497,
                        0.44097211956977844,
                        -0.00021713893511332572,
                        0.23004183173179626,
                        -0.3211256265640259,
                        0.3348604142665863,
                        -0.19526107609272003,
                        0.06986862421035767,
                        -0.10360319912433624,
                        0.03725416585803032,
                        -0.12037602812051773,
                        -0.5114186406135559,
                        0.07457031309604645,
                        0.0317351333796978,
                        0.4012537896633148,
                        -0.4524381756782532,
                        -0.1699024736881256,
                        -0.1579350382089615,
                        0.023443564772605896,
                        -0.16342107951641083,
                        -0.005824544001370668,
                        -0.3618204593658447
                    ]
                ],
                [
                    -0.14765574038028717,
                    1.7798573970794678,
                    0.5441997647285461,
                    -0.6560558676719666,
                    0.13834629952907562,
                    0.0808517336845398,
                    -0.1110149547457695,
                    1.393507480621338,
                    -0.07492118328809738,
                    0.5865920782089233,
                    1.0408852100372314,
                    -2.1253786087036133,
                    -1.2766072750091553,
                    0.32573023438453674,
                    1.621537685394287,
                    -1.670814037322998,
                    0.2260511815547943,
                    0.42506319284439087,
                    0.4847366511821747,
                    0.22639378905296326,
                    0.15480999648571014,
                    0.853246808052063,
                    0.37598276138305664,
                    -0.3331447243690491,
                    0.1571619212627411,
                    0.6524043679237366,
                    0.5730054378509521,
                    2.2970800399780273,
                    1.9243171215057373,
                    -0.2915163040161133,
                    0.5122759342193604,
                    2.1236438751220703,
                    -0.1112963929772377,
                    -0.03873195871710777,
                    0.6017457246780396,
                    0.14545463025569916,
                    -0.19463947415351868,
                    -0.04309692233800888,
                    -0.17834654450416565,
                    0.6226401329040527,
                    0.0815695971250534,
                    -0.03882409632205963,
                    0.2279563993215561,
                    -0.12337915599346161,
                    -0.020946700125932693,
                    0.275095134973526,
                    -0.2197819948196411,
                    -0.01855073869228363,
                    0.25089195370674133,
                    -0.3524034917354584,
                    0.7537112832069397,
                    0.2835578918457031,
                    0.7731713056564331,
                    0.12658651173114777,
                    0.6752216815948486,
                    1.5559167861938477,
                    0.5838202238082886,
                    1.1781963109970093,
                    0.4091496467590332,
                    0.8373472690582275,
                    0.8611332178115845,
                    0.9293311834335327,
                    1.9449994564056396,
                    -0.18025082349777222
                ]
            ]
        },
        {
            "type": "dense",
            "activation": "",
            "shape": [
                null,
                null,
                1
            ],
            "weights": [
                [
                    [
                        0.04615286365151405
                    ],
                    [
                        0.10742105543613434
                    ],
                    [
                        -0.3059597313404083
                    ],
                    [
                        0.12510940432548523
                    ],
                    [
                        -0.0770992785692215
                    ],
                    [
                        -0.05312342941761017
                    ],
                    [
                        0.05417180061340332
                    ],
                    [
                        0.4169556200504303
                    ],
                    [
                        -0.006205831654369831
                    ],
                    [
                        0.027334921061992645
                    ],
                    [
                        0.04922781139612198
                    ],
                    [
                        -0.2772986888885498
                    ],
                    [
                        -0.24233925342559814
                    ],
                    [
                        0.2252633422613144
                    ],
                    [
                        0.41639867424964905
                    ],
                    [
                        0.081397645175457
                    ]
                ],
                [
                    0.1936040222644806
                ]
            ]
        }
    ],
    "samplerate": "48000",
    "author": "Aida DSP",
    "esr": 0.08318173885345459
}