{
    "in_shape": [
        null,
        null,
        1
    ],
    "in_skip": 1,
    "layers": [
        {
            "type": "lstm",
            "activation": "",
            "shape": [
                null,
                null,
                12
            ],
            "weights": [
                [
                    [
                        0.022357523441314697,
                        -0.022804541513323784,
                        -0.23930737376213074,
                        -0.052429039031267166,
                        0.014825258404016495,
                        -0.004562521819025278,
                        -0.005698298569768667,
                        -0.3681645393371582,
                        0.00909784808754921,
                        -0.006098894402384758,
                        -0.09818828105926514,
                        0.209186851978302,
                        0.062027376145124435,
                        -0.07275168597698212,
                        0.026670407503843307,
                        -0.24538107216358185,
                        0.02114589512348175,
                        0.11720079183578491,
                        -0.021407943218946457,
                        -0.42705434560775757,
                        0.023904142901301384,
                        0.034847479313611984,
                        0.027082519605755806,
                        0.00301935663446784,
                        -0.14824968576431274,
                        0.2375868558883667,
                        0.07102402299642563,
                        0.4756561517715454,
                        -0.008690819144248962,
                        3.816657781600952,
                        0.05581514537334442,
                        0.582582414150238,
                        -0.010157797485589981,
                        0.10424017161130905,
                        -0.550661563873291,
                        0.01895424909889698,
                        -0.054927758872509,
                        0.011614685878157616,
                        -0.18903180956840515,
                        -0.19795438647270203,
                        0.09792695939540863,
                        0.10515183210372925,
                        -0.11655358225107193,
                        -0.29178711771965027,
                        -0.017820468172430992,
                        -0.04396326094865799,
                        -0.0023767254315316677,
                        0.095657579600811
                    ]
                ],
                [
                    [
                        0.11372309178113937,
                        0.08797705918550491,
                        -0.34941622614860535,
                        -0.13880033791065216,
                        0.14027035236358643,
                        0.2270030975341797,
                        0.11186279356479645,
                        0.09551684558391571,
                        0.07412368059158325,
                        -0.05233297124505043,
                        -0.5344556570053101,
                        -0.7398046255111694,
                        0.21110676229000092,
                        0.15260827541351318,
                        1.040816307067871,
                        0.25984668731689453,
                        0.343226820230484,
                        0.2284788340330124,
                        0.3031194508075714,
                        0.022951064631342888,
                        0.19028006494045258,
                        0.32091009616851807,
                        0.9947711825370789,
                        1.1247034072875977,
                        0.33599403500556946,
                        -0.24195490777492523,
                        0.08932602405548096,
                        0.3357885479927063,
                        -0.3836471736431122,
                        0.0046556247398257256,
                        -0.3008684813976288,
                        0.03074728697538376,
                        -0.1029924675822258,
                        -0.30174219608306885,
                        0.2180284708738327,
                        -0.1321224570274353,
                        0.24686673283576965,
                        0.18809710443019867,
                        0.29015856981277466,
                        0.1439393013715744,
                        0.2216988056898117,
                        0.36353471875190735,
                        0.31026503443717957,
                        0.18745467066764832,
                        0.09637365490198135,
                        0.1945950984954834,
                        0.18135838210582733,
                        0.30642765760421753
                    ],
                    [
                        -0.07612282037734985,
                        -0.11160926520824432,
                        0.7545881271362305,
                        0.3275524377822876,
                        -0.04234541952610016,
                        -0.18594807386398315,
                        -0.06727363169193268,
                        -0.04577646031975746,
                        -0.06674249470233917,
                        0.2328643500804901,
                        0.49874868988990784,
                        0.923025906085968,
                        -0.15705297887325287,
                        -0.20010802149772644,
                        -1.045046329498291,
                        -0.01888621598482132,
                        -0.021265190094709396,
                        0.10303296148777008,
                        -0.19109709560871124,
                        -0.11159824579954147,
                        -0.16531483829021454,
                        -0.1012381836771965,
                        -0.8498470187187195,
                        -0.9961124062538147,
                        -0.011387315578758717,
                        0.04800048843026161,
                        -0.04798281937837601,
                        -0.15432515740394592,
                        -0.06413613259792328,
                        -0.144256129860878,
                        0.025783497840166092,
                        -0.19282105565071106,
                        0.10400228947401047,
                        0.04840075224637985,
                        0.22646556794643402,
                        -0.17759694159030914,
                        -0.22885997593402863,
                        -0.375861793756485,
                        -0.11728927493095398,
                        -0.03638423606753349,
                        -0.01003752276301384,
                        -0.27235928177833557,
                        -0.22931347787380219,
                        -0.1379237174987793,
                        -0.08026300370693207,
                        -0.052025921642780304,
                        -0.2723313868045807,
                        -0.1890278160572052
                    ],
                    [
                        -0.01992962136864662,
                        -0.0597328320145607,
                        -0.20446926355361938,
                        -0.019106615334749222,
                        -0.00012015667743980885,
                        0.2249867022037506,
                        0.03279248625040054,
                        -0.025487758219242096,
                        -0.011626559309661388,
                        0.04198167100548744,
                        -0.143600732088089,
                        0.23651123046875,
                        0.013323617167770863,
                        -0.09827399998903275,
                        -0.0860801562666893,
                        -0.05833792686462402,
                        -0.001947488752193749,
                        0.21247150003910065,
                        0.05642200633883476,
                        0.011677170172333717,
                        -0.025186622515320778,
                        0.09489507228136063,
                        -0.05814410746097565,
                        -0.13686689734458923,
                        -0.005718204192817211,
                        0.28270605206489563,
                        0.48294007778167725,
                        -0.2077103853225708,
                        0.00935034267604351,
                        -0.41019266843795776,
                        -0.09764471650123596,
                        0.15705271065235138,
                        0.017968064174056053,
                        0.1503380388021469,
                        -0.5283564329147339,
                        0.07016690075397491,
                        -0.058840058743953705,
                        0.024197563529014587,
                        -0.37501803040504456,
                        -0.024795202538371086,
                        0.055147770792245865,
                        0.15198464691638947,
                        -0.1264837384223938,
                        -0.03745456412434578,
                        0.1520402878522873,
                        -0.01102458219975233,
                        -0.03875252604484558,
                        -0.023259734734892845
                    ],
                    [
                        -0.031676921993494034,
                        -0.037568099796772,
                        -0.11009201407432556,
                        0.055527061223983765,
                        -0.028445234522223473,
                        -0.2785160541534424,
                        -0.0060659972950816154,
                        0.534860372543335,
                        -0.005546194035559893,
                        -0.0009653243469074368,
                        0.09792089462280273,
                        -0.3917100429534912,
                        -0.19641807675361633,
                        -0.07842496782541275,
                        -0.07765565067529678,
                        0.08477389812469482,
                        -0.08714593201875687,
                        0.2549114525318146,
                        -0.003392629325389862,
                        0.4209194779396057,
                        -0.005752454977482557,
                        -0.022352274507284164,
                        -0.03195740282535553,
                        0.053221285343170166,
                        -0.09903058409690857,
                        -0.046892452985048294,
                        0.39275306463241577,
                        -0.2633402943611145,
                        0.09935270249843597,
                        0.42898720502853394,
                        -0.1152690127491951,
                        0.4025990664958954,
                        0.01399597804993391,
                        -0.4700075685977936,
                        -0.8948402404785156,
                        -0.39334529638290405,
                        -0.10569078475236893,
                        0.054163213819265366,
                        0.012482769787311554,
                        -0.10678798705339432,
                        -0.3962966799736023,
                        -0.39597827196121216,
                        0.2884981036186218,
                        0.3115764558315277,
                        0.15095749497413635,
                        -0.025427155196666718,
                        -0.024245981127023697,
                        -0.07022719830274582
                    ],
                    [
                        -0.15400052070617676,
                        -0.09631512314081192,
                        0.61492919921875,
                        0.17081455886363983,
                        -0.11052075773477554,
                        -0.3024345934391022,
                        -0.07893746346235275,
                        -0.0219622403383255,
                        -0.0754857212305069,
                        0.05455739423632622,
                        0.5197435021400452,
                        0.6290880441665649,
                        -0.3199484646320343,
                        -0.16477735340595245,
                        -0.5510202050209045,
                        -0.09063748270273209,
                        -0.3566742539405823,
                        -0.47748667001724243,
                        -0.26057490706443787,
                        -0.015911627560853958,
                        -0.17443318665027618,
                        -0.27456969022750854,
                        -0.734630823135376,
                        -1.0076152086257935,
                        -0.28559502959251404,
                        0.13022151589393616,
                        0.14564672112464905,
                        -0.3902033567428589,
                        0.23171110451221466,
                        -0.09172501415014267,
                        0.15535789728164673,
                        0.10663385689258575,
                        0.10887482762336731,
                        -0.037986110895872116,
                        -0.2876840829849243,
                        0.01436569169163704,
                        -0.42393508553504944,
                        -0.3675162196159363,
                        0.032140832394361496,
                        -0.07525680959224701,
                        -0.21671487390995026,
                        -0.3574695289134979,
                        -0.24949251115322113,
                        -0.15074428915977478,
                        -0.055351417511701584,
                        -0.17420457303524017,
                        -0.12793071568012238,
                        -0.25650858879089355
                    ],
                    [
                        0.03527601435780525,
                        -0.10648330301046371,
                        0.05126481503248215,
                        0.5403281450271606,
                        0.01012891624122858,
                        -0.03566357120871544,
                        0.03664717823266983,
                        -0.41960933804512024,
                        0.005149435251951218,
                        0.2905600070953369,
                        -0.008818325586616993,
                        0.8752026557922363,
                        0.21651187539100647,
                        -0.3562528192996979,
                        -0.14290012419223785,
                        -0.07465995848178864,
                        0.06155773997306824,
                        -0.18162791430950165,
                        0.05759473145008087,
                        -0.5480985045433044,
                        0.01637469418346882,
                        0.1516360491514206,
                        -0.050730712711811066,
                        -0.010829257778823376,
                        -0.3553858995437622,
                        0.6939855813980103,
                        0.43488726019859314,
                        -0.6882306933403015,
                        0.2044990509748459,
                        0.3859982490539551,
                        -0.1926960051059723,
                        0.9751763343811035,
                        -0.006161640863865614,
                        0.18876278400421143,
                        -0.3216571807861328,
                        0.7847678065299988,
                        -0.20553484559059143,
                        -0.27165934443473816,
                        -0.339314728975296,
                        0.0007667041500099003,
                        -0.548835813999176,
                        0.22081415355205536,
                        0.499806672334671,
                        -0.2617673873901367,
                        0.49935758113861084,
                        0.04171692579984665,
                        -0.03301103413105011,
                        0.26890164613723755
                    ],
                    [
                        -0.10822925716638565,
                        -0.0733688622713089,
                        0.6049057245254517,
                        0.08864343166351318,
                        -0.0993649885058403,
                        -0.1666496992111206,
                        -0.12200760096311569,
                        -0.020753690972924232,
                        -0.07886266708374023,
                        0.009129892103374004,
                        0.612759530544281,
                        0.7368364930152893,
                        -0.1681228131055832,
                        -0.10406409949064255,
                        -0.9148065447807312,
                        -0.2540452480316162,
                        -0.1997535228729248,
                        0.00876545812934637,
                        -0.32231664657592773,
                        0.13179033994674683,
                        -0.19522838294506073,
                        -0.31003841757774353,
                        -0.6706476211547852,
                        -1.0395559072494507,
                        -0.14952495694160461,
                        0.134552001953125,
                        -0.061865244060754776,
                        0.17085617780685425,
                        0.2236478626728058,
                        0.2294890284538269,
                        0.08531568944454193,
                        -0.2715355455875397,
                        0.1076446920633316,
                        0.033408284187316895,
                        -0.09072964638471603,
                        0.032464127987623215,
                        -0.25697168707847595,
                        -0.08699732273817062,
                        -0.17350736260414124,
                        -0.23256106674671173,
                        -0.08565140515565872,
                        -0.3013359010219574,
                        -0.1922743022441864,
                        -0.11562132090330124,
                        -0.2664239704608917,
                        -0.2007194310426712,
                        -0.07357693463563919,
                        -0.3496381938457489
                    ],
                    [
                        0.04562678188085556,
                        -0.0011190554359927773,
                        -0.09538468718528748,
                        -0.4632640480995178,
                        0.044055625796318054,
                        0.26634833216667175,
                        -0.023282911628484726,
                        -0.47021400928497314,
                        -0.002336130477488041,
                        -0.20619113743305206,
                        -0.11982940882444382,
                        0.2249116450548172,
                        0.09538248181343079,
                        -0.014846139587461948,
                        0.11157162487506866,
                        -0.2563228905200958,
                        0.08550500869750977,
                        0.6188940405845642,
                        -0.06563228368759155,
                        -0.48538434505462646,
                        -0.002851808676496148,
                        -0.08683095872402191,
                        0.07807638496160507,
                        0.05691688135266304,
                        -0.07297686487436295,
                        0.1277819275856018,
                        0.15284672379493713,
                        -0.5635039806365967,
                        -0.09452873468399048,
                        -0.5170208215713501,
                        0.23545801639556885,
                        0.13719165325164795,
                        0.0020699736196547747,
                        -0.21265359222888947,
                        -0.0561286099255085,
                        -0.27181974053382874,
                        0.1085350513458252,
                        -0.10004512220621109,
                        -0.03574634715914726,
                        -0.2868404686450958,
                        0.25062334537506104,
                        0.4267757534980774,
                        0.0026530222967267036,
                        -0.2986198663711548,
                        -0.02468922920525074,
                        -0.13924995064735413,
                        0.005855543073266745,
                        0.06540542840957642
                    ],
                    [
                        -0.10172790288925171,
                        -0.0897185206413269,
                        0.998779833316803,
                        0.20928727090358734,
                        -0.10284390300512314,
                        -0.17468158900737762,
                        -0.08500449359416962,
                        0.10214614868164062,
                        -0.09434821456670761,
                        0.048516206443309784,
                        0.49908822774887085,
                        0.7809007167816162,
                        -0.17761407792568207,
                        -0.003136228770017624,
                        -0.3640228509902954,
                        -0.3397315740585327,
                        -0.22551356256008148,
                        0.3275735676288605,
                        -0.2657417356967926,
                        0.14826880395412445,
                        -0.2143280804157257,
                        -0.26580390334129333,
                        -0.7002083659172058,
                        -1.010300636291504,
                        0.0042758844792842865,
                        0.14470303058624268,
                        0.09310007095336914,
                        0.24827203154563904,
                        0.01969221420586109,
                        0.20610372722148895,
                        0.14625906944274902,
                        0.2117955982685089,
                        0.147318497300148,
                        -0.4369542896747589,
                        0.17849592864513397,
                        -0.14429034292697906,
                        -0.18830153346061707,
                        -0.06810390204191208,
                        0.2593153417110443,
                        -0.1889670044183731,
                        -0.1539444774389267,
                        -0.26551249623298645,
                        -0.1241266280412674,
                        -0.044614650309085846,
                        -0.32725790143013,
                        -0.1828838288784027,
                        -0.14430783689022064,
                        -0.30694499611854553
                    ],
                    [
                        0.06761771440505981,
                        0.01031566597521305,
                        -0.004118451848626137,
                        0.23124845325946808,
                        0.0003959044406656176,
                        0.24248963594436646,
                        -0.05318731069564819,
                        -0.12225993722677231,
                        0.0028212955221533775,
                        0.06665603816509247,
                        -0.17923268675804138,
                        0.3422010540962219,
                        0.3363193869590759,
                        0.05382554233074188,
                        0.14772363007068634,
                        0.06323470175266266,
                        0.014799472875893116,
                        -0.11649894714355469,
                        -0.1465301811695099,
                        0.007054968271404505,
                        -0.0041215550154447556,
                        0.07534430921077728,
                        -0.13572382926940918,
                        -0.06832783669233322,
                        0.5737088322639465,
                        -0.06685247272253036,
                        -0.1828894168138504,
                        0.20403309166431427,
                        -0.008842285722494125,
                        -0.19999763369560242,
                        0.13323649764060974,
                        -0.058897219598293304,
                        -0.006537627894431353,
                        0.1732923984527588,
                        0.14798493683338165,
                        0.20578433573246002,
                        0.108472540974617,
                        -0.010244293138384819,
                        -0.11166363954544067,
                        0.03934866189956665,
                        0.3205299377441406,
                        0.2768351137638092,
                        -0.10146194696426392,
                        -0.11551700532436371,
                        -0.15106748044490814,
                        0.07764846831560135,
                        -0.0559239536523819,
                        0.07314398139715195
                    ],
                    [
                        0.016395265236496925,
                        0.026261068880558014,
                        -0.07644198089838028,
                        0.18678969144821167,
                        -0.009380816482007504,
                        0.1409093141555786,
                        0.11653154343366623,
                        0.09114702045917511,
                        -0.006184684112668037,
                        0.08037973940372467,
                        -0.021515438333153725,
                        0.062081947922706604,
                        0.055506154894828796,
                        0.045569851994514465,
                        -0.0938093364238739,
                        0.03415093943476677,
                        -0.02999943494796753,
                        0.033177562057971954,
                        0.34519103169441223,
                        -0.1665509194135666,
                        -0.005955285392701626,
                        0.17222602665424347,
                        0.24923570454120636,
                        -0.039578571915626526,
                        0.2654317319393158,
                        -0.0032119150273501873,
                        0.31809496879577637,
                        0.38380858302116394,
                        0.0590183325111866,
                        -0.020708398893475533,
                        -0.6161209344863892,
                        -0.2288358509540558,
                        0.010241905227303505,
                        -0.4737106263637543,
                        0.22988459467887878,
                        0.08351493626832962,
                        0.0035932085011154413,
                        0.029135651886463165,
                        0.05357404798269272,
                        0.07383854687213898,
                        -0.017380835488438606,
                        0.08988156914710999,
                        0.13588331639766693,
                        0.02132796123623848,
                        0.08236993849277496,
                        0.019242987036705017,
                        0.009294271469116211,
                        0.07901549339294434
                    ],
                    [
                        0.017698021605610847,
                        -0.010128568857908249,
                        -0.06400848180055618,
                        -0.13246437907218933,
                        0.007506864611059427,
                        -1.4055229425430298,
                        -0.11221342533826828,
                        -0.12730877101421356,
                        0.025506572797894478,
                        0.35617202520370483,
                        0.007047262042760849,
                        -0.15256108343601227,
                        0.04901841655373573,
                        -0.0887281596660614,
                        -0.04331211745738983,
                        0.2491827756166458,
                        -0.012665552087128162,
                        -0.9048071503639221,
                        -0.17588354647159576,
                        0.10696344077587128,
                        0.05673854425549507,
                        0.19008654356002808,
                        0.014127825386822224,
                        0.38389480113983154,
                        0.12197074294090271,
                        0.35425877571105957,
                        0.05694961175322533,
                        0.0253486055880785,
                        -0.03235669061541557,
                        -0.1465557962656021,
                        0.005105616524815559,
                        -0.27963030338287354,
                        -0.039568737149238586,
                        -0.013025963678956032,
                        -0.025706380605697632,
                        0.338227242231369,
                        -0.034602656960487366,
                        0.0737677812576294,
                        0.38024240732192993,
                        -0.059767358005046844,
                        -0.10244259983301163,
                        -0.8947739005088806,
                        -0.09139702469110489,
                        -0.028158672153949738,
                        -0.03827674686908722,
                        0.23253938555717468,
                        0.13536366820335388,
                        0.313312292098999
                    ]
                ],
                [
                    0.42741793394088745,
                    0.5088933706283569,
                    -1.3684005737304688,
                    0.15896952152252197,
                    0.22820718586444855,
                    0.9132863283157349,
                    0.16571688652038574,
                    -0.3412204384803772,
                    0.37128663063049316,
                    -0.2428765594959259,
                    -1.1116646528244019,
                    -2.1153931617736816,
                    0.7740890979766846,
                    0.517733633518219,
                    2.3207685947418213,
                    0.7856646776199341,
                    0.4930076003074646,
                    -0.3196038603782654,
                    0.7442136406898499,
                    -0.0103415846824646,
                    0.695102334022522,
                    0.6748909950256348,
                    1.794378638267517,
                    2.2194533348083496,
                    -0.07926290482282639,
                    -0.3037777543067932,
                    0.020574191585183144,
                    -0.2849791646003723,
                    -0.21228282153606415,
                    0.13764627277851105,
                    0.015810750424861908,
                    0.1401856243610382,
                    -0.6528379917144775,
                    -0.07954676449298859,
                    -0.18736639618873596,
                    -0.0097160954028368,
                    0.9225497245788574,
                    0.5246793031692505,
                    0.0009377747774124146,
                    0.865855872631073,
                    0.4940658211708069,
                    0.9204187393188477,
                    0.6494981050491333,
                    0.28665924072265625,
                    0.4148712456226349,
                    0.42660295963287354,
                    0.7118866443634033,
                    0.4751604199409485
                ]
            ]
        },
        {
            "type": "dense",
            "activation": "",
            "shape": [
                null,
                null,
                1
            ],
            "weights": [
                [
                    [
                        -0.18284909427165985
                    ],
                    [
                        -0.23730596899986267
                    ],
                    [
                        -0.369367778301239
                    ],
                    [
                        0.9435028433799744
                    ],
                    [
                        0.3247726261615753
                    ],
                    [
                        1.0417925119400024
                    ],
                    [
                        -0.20071512460708618
                    ],
                    [
                        0.022371213883161545
                    ],
                    [
                        -0.10061052441596985
                    ],
                    [
                        -0.2717301845550537
                    ],
                    [
                        0.06549612432718277
                    ],
                    [
                        -0.07466690242290497
                    ]
                ],
                [
                    -0.03800029307603836
                ]
            ]
        }
    ]
}