{
    "in_shape": [
        null,
        null,
        1
    ],
    "layers": [
        {
            "type": "lstm",
            "activation": "",
            "shape": [
                null,
                null,
                12
            ],
            "weights": [
                [
                    [
                        -0.0062154605984687805,
                        -0.017328176647424698,
                        -0.07916198670864105,
                        0.6028742790222168,
                        -0.07708314806222916,
                        -0.12351708114147186,
                        -0.01112996507436037,
                        0.052540697157382965,
                        0.04380907118320465,
                        -0.06664643436670303,
                        0.055576425045728683,
                        -0.03267782926559448,
                        0.001894580782391131,
                        -0.08259162306785583,
                        -0.10279938578605652,
                        0.01180274598300457,
                        -0.09140022099018097,
                        -0.15490375459194183,
                        0.002957179443910718,
                        0.044451676309108734,
                        -0.0009493413381278515,
                        -0.05422727391123772,
                        -0.10767988860607147,
                        -0.024295132607221603,
                        0.061549849808216095,
                        0.11577640473842621,
                        -0.18600764870643616,
                        0.17245586216449738,
                        0.17215001583099365,
                        0.346215158700943,
                        0.019532177597284317,
                        -4.392212390899658,
                        0.2737444043159485,
                        0.12925265729427338,
                        2.3361129760742188,
                        0.9143818020820618,
                        -0.01807425729930401,
                        -0.060245294123888016,
                        0.11642862856388092,
                        0.08348964154720306,
                        0.06595956534147263,
                        0.06425274908542633,
                        -0.008247444406151772,
                        0.08253811299800873,
                        -0.038919322192668915,
                        0.06181915104389191,
                        0.169453963637352,
                        -0.19775043427944183
                    ]
                ],
                [
                    [
                        0.3932609558105469,
                        1.0473663806915283,
                        0.022969925776124,
                        -0.07029422372579575,
                        -0.1203109547495842,
                        -0.27350032329559326,
                        -0.19769160449504852,
                        -0.5527377128601074,
                        -0.2312299758195877,
                        -0.2174413502216339,
                        -0.4660811424255371,
                        -0.22101545333862305,
                        0.9971040487289429,
                        -0.4427087604999542,
                        0.18090905249118805,
                        -0.4920712113380432,
                        -0.3163122832775116,
                        -0.21712982654571533,
                        0.16073383390903473,
                        0.3413718640804291,
                        0.20099012553691864,
                        0.007432286161929369,
                        0.06415214389562607,
                        0.19729602336883545,
                        0.22918297350406647,
                        -0.8178110718727112,
                        0.12575788795948029,
                        0.2115291804075241,
                        -0.1758815497159958,
                        -0.48967912793159485,
                        0.08607015013694763,
                        -0.06178317591547966,
                        -0.07487985491752625,
                        -0.22462041676044464,
                        -0.22652830183506012,
                        -0.09838075935840607,
                        0.45896783471107483,
                        -0.10379811376333237,
                        -0.4937930405139923,
                        0.024405594915151596,
                        0.26571547985076904,
                        0.21830694377422333,
                        0.20666493475437164,
                        -0.2763400375843048,
                        0.10473469644784927,
                        -0.21789349615573883,
                        0.6962698698043823,
                        0.14167016744613647
                    ],
                    [
                        -0.5467702746391296,
                        0.6408950090408325,
                        -0.3557724952697754,
                        -0.2558877766132355,
                        0.7284884452819824,
                        -0.06704985350370407,
                        -0.2547500431537628,
                        0.8364934325218201,
                        -0.3119756281375885,
                        0.020153025165200233,
                        0.798882246017456,
                        -0.13667915761470795,
                        -0.5167739391326904,
                        0.00836773868650198,
                        -0.5131807327270508,
                        0.44710931181907654,
                        -0.44498249888420105,
                        -0.5240656733512878,
                        0.22984819114208221,
                        0.25183263421058655,
                        0.39062488079071045,
                        0.055896446108818054,
                        0.5261996388435364,
                        0.33450767397880554,
                        -0.4787903428077698,
                        0.31244367361068726,
                        -1.3003637790679932,
                        -0.09418736398220062,
                        -1.0598204135894775,
                        -0.002543989336118102,
                        0.040928490459918976,
                        0.04187397286295891,
                        -0.024309756234288216,
                        0.1977849304676056,
                        0.31052666902542114,
                        -0.012698615901172161,
                        -0.19258317351341248,
                        0.18158553540706635,
                        0.8386316895484924,
                        0.13179825246334076,
                        0.563549280166626,
                        -0.6395087838172913,
                        0.06997483968734741,
                        0.850101888179779,
                        -0.012217807583510876,
                        -0.16481555998325348,
                        0.3316316604614258,
                        0.167826309800148
                    ],
                    [
                        -1.0405091047286987,
                        -0.9803751707077026,
                        -0.12664002180099487,
                        -0.2663443982601166,
                        0.22283124923706055,
                        0.06309192627668381,
                        -0.11355571448802948,
                        0.9573619961738586,
                        -0.0216812863945961,
                        -0.31167086958885193,
                        1.3000656366348267,
                        -0.3838416635990143,
                        -0.5083293914794922,
                        0.636946976184845,
                        -0.5495763421058655,
                        0.32621443271636963,
                        0.05563952028751373,
                        0.1589982509613037,
                        -0.0040822080336511135,
                        0.015149756334722042,
                        -0.1728094071149826,
                        -0.07261451333761215,
                        -0.18969771265983582,
                        0.3453182876110077,
                        -0.01599288359284401,
                        -0.16002091765403748,
                        0.28924551606178284,
                        0.14290855824947357,
                        2.2172656059265137,
                        0.1899556964635849,
                        -0.02375883422791958,
                        0.04997865483164787,
                        0.007792031392455101,
                        -0.14476720988750458,
                        0.005182984285056591,
                        0.017179882153868675,
                        -0.27949729561805725,
                        0.1764405518770218,
                        0.1458563357591629,
                        0.49779748916625977,
                        0.317334920167923,
                        1.1838500499725342,
                        0.18054378032684326,
                        0.47607189416885376,
                        0.12434916198253632,
                        0.33700838685035706,
                        1.8979085683822632,
                        0.02817481942474842
                    ],
                    [
                        -0.06305477023124695,
                        0.6887282729148865,
                        0.15240256488323212,
                        0.7108289003372192,
                        -0.4370531737804413,
                        0.059456855058670044,
                        0.1304871290922165,
                        -0.5119770169258118,
                        0.3163275718688965,
                        0.22882556915283203,
                        -0.37596645951271057,
                        -0.025116832926869392,
                        -0.180272176861763,
                        -0.614398181438446,
                        0.03908761963248253,
                        -0.3160988986492157,
                        -0.1764693558216095,
                        0.5199671983718872,
                        -0.3107185363769531,
                        0.02422069013118744,
                        -0.5474159717559814,
                        -0.019292008131742477,
                        -0.6686248183250427,
                        -0.05132683739066124,
                        -0.22308726608753204,
                        0.09399308264255524,
                        0.03506796434521675,
                        -0.10950906574726105,
                        0.7553678750991821,
                        -0.6224412322044373,
                        -0.04788263142108917,
                        -0.027492117136716843,
                        0.06809775531291962,
                        -0.03936147317290306,
                        -1.4212864637374878,
                        -0.05386567488312721,
                        -0.40763169527053833,
                        -0.2069193571805954,
                        -0.6067639589309692,
                        -0.16142433881759644,
                        -0.21891158819198608,
                        -0.10234677791595459,
                        -0.12988325953483582,
                        -0.37534135580062866,
                        -0.04554854333400726,
                        0.5197328329086304,
                        0.02179875411093235,
                        -0.6807640790939331
                    ],
                    [
                        -0.027169423177838326,
                        0.149212047457695,
                        0.144300639629364,
                        0.11904504150152206,
                        -1.0276869535446167,
                        1.0269229412078857,
                        -0.10774919390678406,
                        0.048395492136478424,
                        0.07129416614770889,
                        -0.32452017068862915,
                        0.5799395442008972,
                        0.11165747791528702,
                        0.5659773945808411,
                        -0.07468394935131073,
                        -0.15586356818675995,
                        0.0987136960029602,
                        0.20381736755371094,
                        0.10587386041879654,
                        0.14109687507152557,
                        0.029898447915911674,
                        0.2013636976480484,
                        -0.24646760523319244,
                        0.09445082396268845,
                        0.06578564643859863,
                        0.20239514112472534,
                        0.18324126303195953,
                        -0.07720962911844254,
                        -0.10563863068819046,
                        1.4255645275115967,
                        0.3661515712738037,
                        -0.12256339192390442,
                        0.01328197866678238,
                        0.16374154388904572,
                        0.22690024971961975,
                        0.07512881606817245,
                        0.022564074024558067,
                        0.15312346816062927,
                        -0.04756878688931465,
                        0.03229139372706413,
                        0.11626851558685303,
                        0.07730283588171005,
                        -0.23330442607402802,
                        0.12379775196313858,
                        0.182712584733963,
                        -0.04109844192862511,
                        0.38949427008628845,
                        0.11189456284046173,
                        -0.0020511022303253412
                    ],
                    [
                        -0.23659779131412506,
                        -1.519319772720337,
                        0.5515835881233215,
                        -0.7351500988006592,
                        -0.5366997718811035,
                        0.0027026094030588865,
                        -0.10930739343166351,
                        0.7058987617492676,
                        -0.1686335802078247,
                        0.4114481210708618,
                        -0.28180453181266785,
                        -0.3425975441932678,
                        -0.09279272705316544,
                        1.1792433261871338,
                        -0.08108312636613846,
                        0.2815604507923126,
                        0.19239136576652527,
                        -1.1312013864517212,
                        0.15766209363937378,
                        0.018251312896609306,
                        0.15214823186397552,
                        -0.06471659988164902,
                        -0.3367352783679962,
                        0.19044238328933716,
                        0.5452749729156494,
                        -0.189937025308609,
                        0.3146337568759918,
                        0.16071246564388275,
                        -2.296950578689575,
                        -0.37456297874450684,
                        0.05199181288480759,
                        -0.0763571709394455,
                        -0.05877024680376053,
                        0.105077363550663,
                        -0.3610874116420746,
                        -0.09758053719997406,
                        0.3857017755508423,
                        0.3212573230266571,
                        0.20330242812633514,
                        0.3989807069301605,
                        0.24960854649543762,
                        0.41476669907569885,
                        -0.037692535668611526,
                        0.8642901182174683,
                        0.22495557367801666,
                        -0.15897893905639648,
                        0.32184261083602905,
                        0.016602417454123497
                    ],
                    [
                        -0.07839620858430862,
                        0.054228343069553375,
                        -0.21679608523845673,
                        0.14089637994766235,
                        -0.1335601806640625,
                        0.24817875027656555,
                        -0.11570598930120468,
                        0.016699492931365967,
                        0.03669083118438721,
                        -0.2790251672267914,
                        -0.21157273650169373,
                        0.014620515517890453,
                        0.16572415828704834,
                        -0.18488775193691254,
                        -0.1358809918165207,
                        0.15838555991649628,
                        0.32316964864730835,
                        0.19534185528755188,
                        0.09447900950908661,
                        0.10144001990556717,
                        -0.034647755324840546,
                        -0.28120774030685425,
                        0.0051841712556779385,
                        0.14846700429916382,
                        -0.04284946620464325,
                        0.05741889029741287,
                        -0.027210542932152748,
                        -0.0769101157784462,
                        0.38527703285217285,
                        -0.114719457924366,
                        0.29459521174430847,
                        -0.0076791453175246716,
                        -0.3157522976398468,
                        0.13706424832344055,
                        -0.4788093864917755,
                        -0.10137932002544403,
                        0.018535029143095016,
                        -0.21778050065040588,
                        -0.05553756654262543,
                        0.11070889979600906,
                        0.15538999438285828,
                        0.10484056174755096,
                        -0.08236657828092575,
                        0.008120900020003319,
                        -0.009528121910989285,
                        -0.0820334404706955,
                        0.07015164941549301,
                        -0.03703796863555908
                    ],
                    [
                        -0.05403624475002289,
                        0.1739928126335144,
                        -0.3641994595527649,
                        -0.10942093282938004,
                        0.1651218980550766,
                        0.39522841572761536,
                        0.08466668426990509,
                        0.04105273261666298,
                        0.08529709279537201,
                        0.040032580494880676,
                        -0.1734418421983719,
                        0.11502961069345474,
                        0.19718493521213531,
                        -0.6490650773048401,
                        0.021892456337809563,
                        -0.07274316996335983,
                        0.17706358432769775,
                        0.29782986640930176,
                        -0.3018758296966553,
                        0.21118199825286865,
                        -0.47347190976142883,
                        -0.1458514928817749,
                        0.556419312953949,
                        -0.5249647498130798,
                        -0.44459763169288635,
                        -0.30770552158355713,
                        0.08294659107923508,
                        -0.7004380822181702,
                        -1.0378754138946533,
                        -1.547635555267334,
                        -0.2684423327445984,
                        -0.2159395068883896,
                        0.20294322073459625,
                        -0.15452848374843597,
                        -2.389051914215088,
                        -0.6858255863189697,
                        0.14196963608264923,
                        -0.48079541325569153,
                        0.5168695449829102,
                        -0.3745279908180237,
                        0.08409877866506577,
                        -0.016617711633443832,
                        -0.10761527717113495,
                        -0.017619004473090172,
                        -0.18949207663536072,
                        -0.6440519690513611,
                        -0.588344156742096,
                        -0.17196524143218994
                    ],
                    [
                        0.04024037718772888,
                        0.25422152876853943,
                        0.05778040364384651,
                        -0.24892841279506683,
                        0.11860145628452301,
                        0.17674888670444489,
                        -0.1477721482515335,
                        0.11843489855527878,
                        -0.02825302630662918,
                        0.0398254469037056,
                        0.19737431406974792,
                        0.08712150901556015,
                        -0.06505823880434036,
                        0.040231600403785706,
                        0.05006301775574684,
                        0.23857808113098145,
                        -0.08283171057701111,
                        -0.05156021565198898,
                        0.04449387267231941,
                        0.1781720519065857,
                        0.0009925708873197436,
                        0.12017084658145905,
                        0.22800767421722412,
                        0.01577932946383953,
                        -0.0774960070848465,
                        0.15111052989959717,
                        -0.03835858404636383,
                        -0.08928672969341278,
                        -0.46723872423171997,
                        0.013098955154418945,
                        0.7047638893127441,
                        0.15202882885932922,
                        0.7301864624023438,
                        0.038521960377693176,
                        0.08381929993629456,
                        -0.04686668515205383,
                        0.12028633058071136,
                        -0.22133107483386993,
                        0.26017361879348755,
                        -0.005644870921969414,
                        0.0582549050450325,
                        0.058695316314697266,
                        0.04126501455903053,
                        0.13162417709827423,
                        0.3266909122467041,
                        -0.1466943919658661,
                        0.008096369914710522,
                        0.07877155393362045
                    ],
                    [
                        -0.6723098158836365,
                        0.4241665303707123,
                        -0.10593605041503906,
                        0.43555977940559387,
                        -0.38572901487350464,
                        0.1587943583726883,
                        0.48564231395721436,
                        -0.2735426425933838,
                        0.4656437039375305,
                        -0.07681436836719513,
                        -0.030965646728873253,
                        0.11423374712467194,
                        -0.4261931777000427,
                        -0.7464391589164734,
                        -0.20595107972621918,
                        -0.6318349838256836,
                        -0.6891591548919678,
                        0.5021394491195679,
                        -0.8526875376701355,
                        -0.23276370763778687,
                        -1.1316956281661987,
                        -0.004955517128109932,
                        -0.12749648094177246,
                        -0.7291092872619629,
                        -0.13098831474781036,
                        0.017854057252407074,
                        -0.23491083085536957,
                        0.03592795133590698,
                        -0.11359585076570511,
                        0.15670323371887207,
                        -0.08213989436626434,
                        0.0597684346139431,
                        -0.2449943721294403,
                        -0.03237833082675934,
                        0.12128664553165436,
                        0.07951034605503082,
                        -0.5791080594062805,
                        -0.2660161256790161,
                        0.25578248500823975,
                        -0.44707733392715454,
                        0.11972475796937943,
                        -0.6348552703857422,
                        -0.23400142788887024,
                        -0.38709262013435364,
                        -0.30276188254356384,
                        -1.4747360944747925,
                        -0.16748152673244476,
                        -0.32360759377479553
                    ],
                    [
                        0.26859888434410095,
                        -0.21817487478256226,
                        -0.3170579969882965,
                        0.3875278830528259,
                        -0.9404883980751038,
                        -0.16717952489852905,
                        0.05933626741170883,
                        -0.047352079302072525,
                        0.24669760465621948,
                        0.08395066112279892,
                        -1.2096667289733887,
                        0.09039019048213959,
                        0.07311702519655228,
                        -0.1893632709980011,
                        -0.6360815763473511,
                        -0.3205890357494354,
                        0.16327637434005737,
                        0.2704073488712311,
                        -0.20577655732631683,
                        0.14772087335586548,
                        -0.13476186990737915,
                        0.0548698753118515,
                        0.40725424885749817,
                        0.09919730573892593,
                        0.737013041973114,
                        -0.27888572216033936,
                        -0.4857947528362274,
                        0.03316565603017807,
                        -4.626665115356445,
                        1.3896242380142212,
                        -0.019827228039503098,
                        0.2214733511209488,
                        0.031109798699617386,
                        0.11628620326519012,
                        0.9428479671478271,
                        0.2178359180688858,
                        0.2852490544319153,
                        -0.7379698753356934,
                        -0.6646036505699158,
                        -0.5560499429702759,
                        0.21506868302822113,
                        0.5878962278366089,
                        0.1004493311047554,
                        0.0830979123711586,
                        -0.27703097462654114,
                        0.49682754278182983,
                        -0.2832483649253845,
                        0.10368192195892334
                    ],
                    [
                        0.10142101347446442,
                        -0.5814025402069092,
                        -0.06531587988138199,
                        0.3921768069267273,
                        -0.011842581443488598,
                        0.09868097305297852,
                        -0.07554745674133301,
                        0.25673165917396545,
                        -0.038940951228141785,
                        -0.11325611174106598,
                        0.1420435905456543,
                        -0.5599204301834106,
                        0.23263871669769287,
                        0.5579572319984436,
                        0.20494666695594788,
                        0.2094927281141281,
                        -0.013230455107986927,
                        -0.3543680012226105,
                        0.21702221035957336,
                        0.20438402891159058,
                        0.17534352838993073,
                        -0.10654936730861664,
                        0.22269338369369507,
                        0.08967012166976929,
                        0.03296295925974846,
                        0.008246047422289848,
                        0.07506997883319855,
                        0.015889575704932213,
                        -0.043128661811351776,
                        -0.36833301186561584,
                        0.02605079673230648,
                        1.3452880382537842,
                        0.017535313963890076,
                        -0.09706470370292664,
                        -0.8922277092933655,
                        -0.10859489440917969,
                        0.19056779146194458,
                        -0.1292191445827484,
                        0.9169040322303772,
                        -0.28271016478538513,
                        0.16539224982261658,
                        0.2810823321342468,
                        -0.0026573219802230597,
                        0.33856236934661865,
                        0.06783552467823029,
                        -0.18977077305316925,
                        0.3164726495742798,
                        0.09325796365737915
                    ]
                ],
                [
                    -0.21383161842823029,
                    -1.742541790008545,
                    0.8696474432945251,
                    -2.1436872482299805,
                    1.4741346836090088,
                    0.9537956714630127,
                    -2.549893617630005,
                    0.9916938543319702,
                    -3.0122482776641846,
                    -0.42097434401512146,
                    1.0025861263275146,
                    -2.651510715484619,
                    0.4966752529144287,
                    2.7592082023620605,
                    1.434748888015747,
                    3.0579423904418945,
                    0.8022739887237549,
                    1.588896632194519,
                    3.215015172958374,
                    -0.27967244386672974,
                    3.4485836029052734,
                    0.9869586229324341,
                    0.7655076384544373,
                    3.6863481998443604,
                    -0.12987744808197021,
                    0.23195098340511322,
                    0.7293285131454468,
                    -0.2350962907075882,
                    -0.04534400999546051,
                    0.20993921160697937,
                    -0.15890689194202423,
                    -0.18852411210536957,
                    -0.06963187456130981,
                    -0.7527202367782593,
                    -0.4725826382637024,
                    0.09072865545749664,
                    0.8288239240646362,
                    0.5274516344070435,
                    1.1927473545074463,
                    0.9197406768798828,
                    0.00810178741812706,
                    1.5514873266220093,
                    1.0225255489349365,
                    1.3182909488677979,
                    -0.07909581810235977,
                    0.6593526601791382,
                    1.474574089050293,
                    1.6482124328613281
                ]
            ]
        },
        {
            "type": "dense",
            "activation": "",
            "shape": [
                null,
                null,
                1
            ],
            "weights": [
                [
                    [
                        -0.03699638694524765
                    ],
                    [
                        0.0001385742361890152
                    ],
                    [
                        -0.04528513550758362
                    ],
                    [
                        0.09682713449001312
                    ],
                    [
                        0.5234431028366089
                    ],
                    [
                        -0.05417129024863243
                    ],
                    [
                        -1.610919713973999
                    ],
                    [
                        0.2563339173793793
                    ],
                    [
                        -0.27509385347366333
                    ],
                    [
                        -1.113051414489746
                    ],
                    [
                        -0.017338337376713753
                    ],
                    [
                        0.11016283929347992
                    ]
                ],
                [
                    -0.5091887712478638
                ]
            ]
        }
    ]
}