{
    "in_shape": [
        null,
        null,
        1
    ],
    "layers": [
        {
            "type": "lstm",
            "activation": "",
            "shape": [
                null,
                null,
                12
            ],
            "weights": [
                [
                    [
                        -0.08580628782510757,
                        0.01979685015976429,
                        0.04636632278561592,
                        -0.008251500315964222,
                        -0.01902046799659729,
                        -0.006004735827445984,
                        0.08619049936532974,
                        0.011830114759504795,
                        -0.017598602920770645,
                        0.06975503265857697,
                        -0.07540328800678253,
                        0.08608648926019669,
                        -0.03627825528383255,
                        0.0537509024143219,
                        0.04900350421667099,
                        0.058883048593997955,
                        -0.007729061879217625,
                        -0.0074966708198189735,
                        0.09205633401870728,
                        -0.14055036008358002,
                        -0.07595319300889969,
                        0.036488644778728485,
                        -0.061924368143081665,
                        0.08218918740749359,
                        -0.32467883825302124,
                        -2.1505730152130127,
                        0.027783961966633797,
                        -0.547765851020813,
                        0.05548177659511566,
                        3.866007089614868,
                        0.498581200838089,
                        0.739665687084198,
                        0.17522339522838593,
                        0.46555814146995544,
                        -0.4628446400165558,
                        -0.4688678979873657,
                        0.05421394482254982,
                        0.023192279040813446,
                        0.06419060379266739,
                        0.0318477526307106,
                        0.0017688121879473329,
                        -0.02090459316968918,
                        0.016097649931907654,
                        -0.08866401761770248,
                        -0.07651197910308838,
                        0.055541668087244034,
                        -0.08601339161396027,
                        0.0652526244521141
                    ]
                ],
                [
                    [
                        -0.06457621604204178,
                        0.501169741153717,
                        -1.2296487092971802,
                        0.12027493864297867,
                        0.337559312582016,
                        0.6662063002586365,
                        -0.8012077212333679,
                        0.18631698191165924,
                        -0.7966905832290649,
                        -0.20858654379844666,
                        0.23557165265083313,
                        -0.8291152715682983,
                        0.053530968725681305,
                        -0.03432609885931015,
                        0.7446216344833374,
                        -0.004785448312759399,
                        0.3790885806083679,
                        0.192827969789505,
                        0.7265375852584839,
                        -0.005331937689334154,
                        0.6418924331665039,
                        0.25772273540496826,
                        0.14432381093502045,
                        0.8932169079780579,
                        0.4449540078639984,
                        -0.4015093445777893,
                        -0.035188160836696625,
                        -0.03215499967336655,
                        -0.459052175283432,
                        0.1335129737854004,
                        -0.33864590525627136,
                        0.42237743735313416,
                        -0.2211986482143402,
                        -0.033629171550273895,
                        -0.2970045208930969,
                        -0.13026216626167297,
                        -0.0518396832048893,
                        0.49590951204299927,
                        0.17090745270252228,
                        -0.0005142318550497293,
                        0.3240547478199005,
                        0.39492788910865784,
                        -0.016852179542183876,
                        0.08731245994567871,
                        0.11688199639320374,
                        0.1555774211883545,
                        0.2585235834121704,
                        0.22972849011421204
                    ],
                    [
                        -0.02391229197382927,
                        -0.0034143065568059683,
                        -0.19140644371509552,
                        -0.11264601349830627,
                        0.0029889065772295,
                        -0.10851946473121643,
                        0.17516222596168518,
                        0.07070647925138474,
                        0.01715610921382904,
                        0.12983880937099457,
                        -0.03585461527109146,
                        -0.07477213442325592,
                        0.12540625035762787,
                        -0.14400166273117065,
                        0.07685039192438126,
                        -0.26111510396003723,
                        0.025384804233908653,
                        -0.16694319248199463,
                        -0.054281797260046005,
                        -0.11328170448541641,
                        0.03987006098031998,
                        -0.056711141020059586,
                        -0.07747356593608856,
                        -0.048507530242204666,
                        0.11132212728261948,
                        -0.5659654140472412,
                        0.21902263164520264,
                        -0.008835863322019577,
                        -0.26943257451057434,
                        -1.6313934326171875,
                        0.26676875352859497,
                        -0.2900997996330261,
                        0.20499581098556519,
                        -0.43548235297203064,
                        0.72092604637146,
                        0.02121977135539055,
                        0.22844958305358887,
                        -0.005714503116905689,
                        0.043123405426740646,
                        0.06938763707876205,
                        -0.10716548562049866,
                        -0.2851780951023102,
                        -0.015549306757748127,
                        0.1363867223262787,
                        0.21547222137451172,
                        0.06476938724517822,
                        0.043254170566797256,
                        -0.07435702532529831
                    ],
                    [
                        0.05278864502906799,
                        -0.008093477226793766,
                        0.020790474489331245,
                        -0.0812707468867302,
                        -0.15315814316272736,
                        0.016947224736213684,
                        -0.09340221434831619,
                        0.09643343091011047,
                        -0.040060777217149734,
                        -0.12955458462238312,
                        0.057631369680166245,
                        9.536749712424353e-05,
                        0.09241215884685516,
                        0.009600615128874779,
                        -0.06544729322195053,
                        -0.06620751321315765,
                        -0.20023494958877563,
                        0.0859156921505928,
                        -0.06252841651439667,
                        0.1682356894016266,
                        -0.07926259189844131,
                        -0.20677876472473145,
                        0.07008250057697296,
                        0.10977877676486969,
                        0.00017442242824472487,
                        0.201115682721138,
                        0.6868380904197693,
                        0.026043657213449478,
                        0.07769438624382019,
                        0.4163112938404083,
                        0.14805081486701965,
                        -0.1637020856142044,
                        0.5265918374061584,
                        0.055994536727666855,
                        0.3411816656589508,
                        0.49877503514289856,
                        -0.2490408718585968,
                        -0.008383355103433132,
                        -0.05930300056934357,
                        -0.11336176842451096,
                        -0.15031658113002777,
                        0.03676680102944374,
                        0.08321873098611832,
                        0.1307256668806076,
                        -0.002806982956826687,
                        -0.06381599605083466,
                        0.07029899954795837,
                        -0.018379181623458862
                    ],
                    [
                        0.09970372170209885,
                        -0.21331089735031128,
                        0.35724449157714844,
                        0.14905700087547302,
                        -0.025975823402404785,
                        -0.17192579805850983,
                        -0.16473963856697083,
                        -0.17188194394111633,
                        0.25383517146110535,
                        -0.2481883317232132,
                        0.14264312386512756,
                        0.16293463110923767,
                        -0.4140051305294037,
                        0.23190468549728394,
                        -0.6101228594779968,
                        0.2571530342102051,
                        -0.00928540900349617,
                        0.10724771022796631,
                        -0.22480228543281555,
                        -0.042544130235910416,
                        -0.29848960041999817,
                        -0.4223269522190094,
                        0.2121933102607727,
                        -0.40887877345085144,
                        -0.49914079904556274,
                        0.2002970278263092,
                        0.003340064315125346,
                        -0.11503210663795471,
                        0.15115466713905334,
                        -0.04476173222064972,
                        -0.03733092546463013,
                        0.9888744950294495,
                        -0.11647049337625504,
                        -0.22116369009017944,
                        -0.06693965941667557,
                        -0.04118327051401138,
                        -0.041933439671993256,
                        -0.22646240890026093,
                        -0.45113518834114075,
                        0.20262709259986877,
                        -0.025337129831314087,
                        0.08813130110502243,
                        -0.038731858134269714,
                        -0.0783412829041481,
                        -0.2642323970794678,
                        -0.09574192017316818,
                        0.0872068703174591,
                        -0.1984184831380844
                    ],
                    [
                        -0.20024140179157257,
                        -0.23273932933807373,
                        0.4478048086166382,
                        -0.11768734455108643,
                        -0.14013217389583588,
                        -0.3545127809047699,
                        0.7670246362686157,
                        -0.02510666288435459,
                        0.32933947443962097,
                        0.21006284654140472,
                        -0.2566134035587311,
                        0.6114018559455872,
                        -0.20986205339431763,
                        -0.03265250846743584,
                        -0.02793809585273266,
                        -0.12804438173770905,
                        -0.11257059127092361,
                        0.037466149777173996,
                        -0.289515882730484,
                        0.09775424003601074,
                        -0.5277198553085327,
                        -0.06114831194281578,
                        -0.2286725789308548,
                        -0.0770832747220993,
                        -0.316585898399353,
                        -0.2614494562149048,
                        -0.0964166596531868,
                        0.1760396808385849,
                        0.159148171544075,
                        -0.27302491664886475,
                        0.30003196001052856,
                        0.26411470770835876,
                        -0.02306164987385273,
                        -0.14027148485183716,
                        -0.12005069106817245,
                        -0.08786346018314362,
                        -0.13268433511257172,
                        -0.2345036268234253,
                        -0.09911729395389557,
                        -0.04357378929853439,
                        -0.16169051826000214,
                        -0.3292921483516693,
                        0.0844121128320694,
                        0.12390556186437607,
                        -0.04626195505261421,
                        -0.059703707695007324,
                        -0.2656201422214508,
                        -0.037323854863643646
                    ],
                    [
                        -0.3191889822483063,
                        0.06777485460042953,
                        -0.1370442807674408,
                        -0.3993833065032959,
                        -0.0488743893802166,
                        -0.049346331506967545,
                        0.40561240911483765,
                        0.35708004236221313,
                        0.06500115990638733,
                        0.3030396103858948,
                        -0.3270474374294281,
                        -0.018803512677550316,
                        -0.03129474073648453,
                        -0.004943291191011667,
                        0.1524825394153595,
                        -0.13585464656352997,
                        -0.020867252722382545,
                        -0.2208343744277954,
                        -0.3203875422477722,
                        0.19889023900032043,
                        -0.15151764452457428,
                        -0.11596404761075974,
                        -0.28046056628227234,
                        -0.04436424374580383,
                        -0.33046022057533264,
                        0.8588584661483765,
                        -0.23133492469787598,
                        -1.1132968664169312,
                        0.5635414719581604,
                        1.2392146587371826,
                        0.326862096786499,
                        1.3441462516784668,
                        -0.430589884519577,
                        0.2507246136665344,
                        -0.7122381925582886,
                        0.01330108754336834,
                        -0.07401121407747269,
                        0.09998175501823425,
                        0.08870216459035873,
                        -0.43756526708602905,
                        -0.1647605001926422,
                        -0.004405931569635868,
                        -0.04307149723172188,
                        0.3693229556083679,
                        0.15922307968139648,
                        -0.04049136862158775,
                        -0.32661694288253784,
                        -0.012961367145180702
                    ],
                    [
                        -0.6475014686584473,
                        0.12335468083620071,
                        -0.1719626933336258,
                        0.11115007102489471,
                        -0.018599117174744606,
                        0.10478692501783371,
                        -0.17948713898658752,
                        0.06139650195837021,
                        -0.21771687269210815,
                        0.16895441710948944,
                        0.028174610808491707,
                        -0.14652694761753082,
                        -0.2362426519393921,
                        7.129053847165778e-05,
                        0.13881666958332062,
                        -0.1597481369972229,
                        -0.05011681094765663,
                        0.04544737935066223,
                        0.09650645405054092,
                        -0.0888449028134346,
                        -0.0008433812181465328,
                        0.15731242299079895,
                        0.10867023468017578,
                        0.3983537554740906,
                        -0.41681739687919617,
                        0.04796714708209038,
                        -0.32767346501350403,
                        0.2295931875705719,
                        0.7025287747383118,
                        -0.2803579568862915,
                        0.4104158580303192,
                        -0.5945859551429749,
                        0.26805153489112854,
                        -0.00847269780933857,
                        -0.10705660283565521,
                        0.17114265263080597,
                        0.05954919382929802,
                        0.12111707776784897,
                        -0.2858986258506775,
                        0.13761062920093536,
                        0.03521258011460304,
                        -0.019274428486824036,
                        -0.3469425439834595,
                        0.04659676179289818,
                        0.013180368579924107,
                        0.15019482374191284,
                        0.01041388139128685,
                        0.1808362901210785
                    ],
                    [
                        0.2974776327610016,
                        -0.22699470818042755,
                        0.19214357435703278,
                        -0.11825625598430634,
                        0.046575792133808136,
                        -0.2831803858280182,
                        0.16280944645404816,
                        0.0930488184094429,
                        0.2313646674156189,
                        0.15245641767978668,
                        -0.06435582786798477,
                        0.3533470630645752,
                        -0.3877047598361969,
                        0.24635562300682068,
                        -0.26121485233306885,
                        0.05514607951045036,
                        0.05909785255789757,
                        -0.1529570072889328,
                        -0.4276902377605438,
                        0.022140048444271088,
                        -0.423145592212677,
                        -0.2789665162563324,
                        0.013100174255669117,
                        -0.3525843918323517,
                        0.07759876549243927,
                        0.057737238705158234,
                        -0.03754206746816635,
                        -0.48372194170951843,
                        -0.3513038158416748,
                        0.4521377384662628,
                        -0.3424249589443207,
                        0.0947837382555008,
                        0.35186970233917236,
                        0.12468571960926056,
                        -0.010588616132736206,
                        -0.5965307950973511,
                        -0.4160986542701721,
                        -0.23284612596035004,
                        -0.21152263879776,
                        0.07857049256563187,
                        -0.027260906994342804,
                        -0.2517136037349701,
                        0.08360530436038971,
                        0.2742576599121094,
                        -0.06489697843790054,
                        -0.04785501956939697,
                        -0.01326413918286562,
                        -0.3247515857219696
                    ],
                    [
                        -0.1907234936952591,
                        -0.05030893161892891,
                        -0.3013339638710022,
                        0.03909020498394966,
                        -0.12247371673583984,
                        -0.298324316740036,
                        -0.23604631423950195,
                        -0.07308967411518097,
                        -0.04863561689853668,
                        0.17220111191272736,
                        0.0008441188838332891,
                        -0.24074405431747437,
                        -0.15929803252220154,
                        -0.21649719774723053,
                        -0.2510922849178314,
                        -0.17616449296474457,
                        -0.1632031947374344,
                        -0.28053995966911316,
                        -0.14143745601177216,
                        -0.12163453549146652,
                        0.07622631639242172,
                        0.0806059017777443,
                        -0.07676775753498077,
                        -0.08571179211139679,
                        -0.11370337754487991,
                        -0.1660715490579605,
                        -0.3741963505744934,
                        0.1331062763929367,
                        -0.025714334100484848,
                        0.26131516695022583,
                        -0.10383390635251999,
                        -0.10831190645694733,
                        0.5530977845191956,
                        0.0819150060415268,
                        0.14752140641212463,
                        -0.029852744191884995,
                        -0.07407942414283752,
                        -0.05228542536497116,
                        -0.013412527740001678,
                        0.12724706530570984,
                        -0.1392834633588791,
                        -0.8451201319694519,
                        -0.05971654877066612,
                        -0.07574861496686935,
                        -0.09800505638122559,
                        0.13751883804798126,
                        0.051929913461208344,
                        0.011298328638076782
                    ],
                    [
                        0.043093424290418625,
                        -0.021793117746710777,
                        0.2641703188419342,
                        -0.10996183007955551,
                        -0.03259719908237457,
                        -0.08100435882806778,
                        -0.18577224016189575,
                        -0.0025841270107775927,
                        -0.04797743260860443,
                        0.11270374804735184,
                        -0.12186816334724426,
                        0.2805112600326538,
                        0.16672852635383606,
                        0.04226177930831909,
                        -0.09137123823165894,
                        -0.1683530956506729,
                        -0.028788531199097633,
                        -0.04601040482521057,
                        -0.1925942599773407,
                        -0.15983687341213226,
                        -0.24497613310813904,
                        0.14198502898216248,
                        -0.20547884702682495,
                        0.1448695957660675,
                        0.1450117528438568,
                        0.5132601261138916,
                        -0.05249621719121933,
                        0.0639253556728363,
                        0.065249964594841,
                        -0.6795021891593933,
                        -0.015842875465750694,
                        -0.1456751823425293,
                        0.2447396218776703,
                        0.32587769627571106,
                        0.05704149976372719,
                        0.24425362050533295,
                        -0.16298824548721313,
                        -0.020086638629436493,
                        -0.03606410697102547,
                        -0.14207592606544495,
                        -0.06396996229887009,
                        -0.15747277438640594,
                        0.0904625654220581,
                        -0.008418560028076172,
                        -0.09474379569292068,
                        0.09118970483541489,
                        -0.14743421971797943,
                        0.13248476386070251
                    ],
                    [
                        0.03199070319533348,
                        -0.12687915563583374,
                        0.048537835478782654,
                        0.16075514256954193,
                        -0.03267780691385269,
                        -0.20956136286258698,
                        0.07734505832195282,
                        -0.21407510340213776,
                        0.13302241265773773,
                        0.2640526294708252,
                        0.08510265499353409,
                        0.2725011706352234,
                        -0.06894289702177048,
                        0.0718713030219078,
                        0.43545013666152954,
                        0.10322067886590958,
                        -0.0488976314663887,
                        -0.3105747103691101,
                        0.15094204246997833,
                        -0.0881921797990799,
                        0.057141561061143875,
                        0.28880617022514343,
                        0.2583725154399872,
                        -0.007894471287727356,
                        -0.22438521683216095,
                        0.1729407161474228,
                        0.0640641376376152,
                        -0.5046595931053162,
                        0.07979944348335266,
                        0.16275271773338318,
                        0.1118960753083229,
                        0.4670407772064209,
                        -0.002671058289706707,
                        -0.025562651455402374,
                        0.35926616191864014,
                        0.010627157054841518,
                        -0.11415938287973404,
                        -0.12158911675214767,
                        0.30111220479011536,
                        0.17647750675678253,
                        -0.008182442747056484,
                        -0.2334446907043457,
                        -0.09533223509788513,
                        -0.1903519630432129,
                        0.02018953487277031,
                        0.11539801955223083,
                        0.15242089331150055,
                        -0.1055140271782875
                    ],
                    [
                        -0.06919660419225693,
                        0.06733104586601257,
                        -0.06614843010902405,
                        -0.06680606305599213,
                        0.17253027856349945,
                        0.3745911717414856,
                        -0.21127060055732727,
                        0.16533908247947693,
                        0.26764336228370667,
                        -0.13090647757053375,
                        0.06839050352573395,
                        -0.06411587446928024,
                        -0.07799618691205978,
                        0.2769348621368408,
                        -0.05592044070363045,
                        0.30084308981895447,
                        0.26197555661201477,
                        0.38882914185523987,
                        0.04027131199836731,
                        0.2513573467731476,
                        0.13235430419445038,
                        -0.057456571608781815,
                        0.22780317068099976,
                        -0.014972558245062828,
                        0.1397278755903244,
                        -0.35505592823028564,
                        -0.26814496517181396,
                        -0.0063451360911130905,
                        0.12526582181453705,
                        -0.21569420397281647,
                        0.09242838621139526,
                        -0.004651651717722416,
                        0.11523520201444626,
                        -0.09948961436748505,
                        0.10733003914356232,
                        0.531545877456665,
                        0.18809695541858673,
                        0.07019607722759247,
                        -0.14823345839977264,
                        -0.2358909398317337,
                        0.2656029462814331,
                        1.0916794538497925,
                        -0.14729775488376617,
                        0.15344315767288208,
                        0.11171416193246841,
                        -0.14411544799804688,
                        0.025960011407732964,
                        -0.03867034614086151
                    ]
                ],
                [
                    -0.6739612221717834,
                    1.4198030233383179,
                    -3.1553568840026855,
                    0.7923909425735474,
                    -0.09886263310909271,
                    1.7651548385620117,
                    -1.761368751525879,
                    0.950152575969696,
                    -1.9288051128387451,
                    -0.5295331478118896,
                    0.236491858959198,
                    -1.9909288883209229,
                    1.8436574935913086,
                    -0.2159833014011383,
                    3.8814492225646973,
                    -0.13978096842765808,
                    0.4616240859031677,
                    -0.2793603837490082,
                    3.0318961143493652,
                    -0.19147169589996338,
                    2.884382724761963,
                    1.280444860458374,
                    0.16080647706985474,
                    2.9558756351470947,
                    0.19870388507843018,
                    0.3502417802810669,
                    0.04892679303884506,
                    -0.7680444717407227,
                    -0.21848660707473755,
                    0.060084883123636246,
                    0.24927230179309845,
                    -0.24468263983726501,
                    0.20649245381355286,
                    -0.06327953934669495,
                    -0.029004737734794617,
                    -0.19050884246826172,
                    0.9061893820762634,
                    1.410613775253296,
                    0.13960905373096466,
                    0.6099865436553955,
                    0.04202947020530701,
                    0.5747396945953369,
                    -0.018413491547107697,
                    0.7278302907943726,
                    0.09589139372110367,
                    0.5126824378967285,
                    0.3531884551048279,
                    0.6337742805480957
                ]
            ]
        },
        {
            "type": "dense",
            "activation": "",
            "shape": [
                null,
                null,
                1
            ],
            "weights": [
                [
                    [
                        0.006278213579207659
                    ],
                    [
                        0.09397177398204803
                    ],
                    [
                        0.4627723693847656
                    ],
                    [
                        0.5843057632446289
                    ],
                    [
                        0.07718920707702637
                    ],
                    [
                        0.5954785943031311
                    ],
                    [
                        0.014423796907067299
                    ],
                    [
                        -0.3974979519844055
                    ],
                    [
                        0.04967605322599411
                    ],
                    [
                        0.030123097822070122
                    ],
                    [
                        0.27639344334602356
                    ],
                    [
                        0.16435419023036957
                    ]
                ],
                [
                    0.09086420387029648
                ]
            ]
        }
    ]
}