{
    "in_shape": [
        null,
        null,
        1
    ],
    "layers": [
        {
            "type": "lstm",
            "activation": "",
            "shape": [
                null,
                null,
                16
            ],
            "weights": [
                [
                    [
                        0.02026510052382946,
                        -0.022135548293590546,
                        -0.004266491625458002,
                        -0.023361189290881157,
                        0.1584862768650055,
                        0.012387173250317574,
                        0.20307020843029022,
                        -0.33345407247543335,
                        0.016194915398955345,
                        0.06355853378772736,
                        -0.09075254201889038,
                        0.018909914419054985,
                        -0.004488365259021521,
                        -0.010199024342000484,
                        0.11283151060342789,
                        0.007280042860656977,
                        0.045074429363012314,
                        -0.03863367810845375,
                        0.02818898670375347,
                        -0.011744673363864422,
                        0.014132329262793064,
                        0.009357993490993977,
                        0.022583600133657455,
                        -0.3314637839794159,
                        0.058645106852054596,
                        -0.0006603170186281204,
                        -0.019595105201005936,
                        0.004685416352003813,
                        0.022616375237703323,
                        -0.05308176577091217,
                        -0.10561715066432953,
                        -0.015517303720116615,
                        0.153982013463974,
                        0.11941845715045929,
                        -0.1308182030916214,
                        -0.0333014577627182,
                        0.11336972564458847,
                        -0.028714166954159737,
                        -0.11742489784955978,
                        -0.48284998536109924,
                        -0.20746228098869324,
                        0.2686466872692108,
                        4.045348167419434,
                        -0.14586153626441956,
                        0.05779111757874489,
                        -0.1769009232521057,
                        0.03282441198825836,
                        0.20193301141262054,
                        0.039072632789611816,
                        -0.057729706168174744,
                        -0.0034920810721814632,
                        -0.010521654039621353,
                        0.011121738702058792,
                        -0.005123801063746214,
                        0.021290937438607216,
                        -0.16628879308700562,
                        -0.036982543766498566,
                        0.07363247126340866,
                        0.2681139409542084,
                        -0.02050412818789482,
                        -0.01307395938783884,
                        -0.010613586753606796,
                        0.009264576248824596,
                        0.046451497822999954
                    ]
                ],
                [
                    [
                        -0.060605913400650024,
                        0.4623582065105438,
                        -0.08973678201436996,
                        0.11511750519275665,
                        0.08531370759010315,
                        -0.07239092886447906,
                        0.16015662252902985,
                        -0.02176811546087265,
                        -0.056645531207323074,
                        0.2172001749277115,
                        -0.032913196831941605,
                        -0.08494100719690323,
                        -0.021165747195482254,
                        -0.037153515964746475,
                        -0.09127604961395264,
                        0.15084509551525116,
                        -0.1803250014781952,
                        0.3167714476585388,
                        -0.051004309207201004,
                        0.12915652990341187,
                        -0.0623244047164917,
                        -0.06432180106639862,
                        -0.04843955859541893,
                        0.1510731726884842,
                        0.22793768346309662,
                        -0.2047642171382904,
                        0.023364365100860596,
                        -0.21438391506671906,
                        -0.14572444558143616,
                        0.05379043519496918,
                        0.039255112409591675,
                        0.1988334208726883,
                        0.3234955072402954,
                        1.3451920747756958,
                        0.04156879335641861,
                        -0.22026704251766205,
                        0.09875078499317169,
                        0.1510930359363556,
                        -0.4134591221809387,
                        -0.06090010330080986,
                        -0.5183548927307129,
                        0.05863190069794655,
                        -0.11809185147285461,
                        0.14316979050636292,
                        0.01388033851981163,
                        0.32534492015838623,
                        0.3271734416484833,
                        1.5602978467941284,
                        0.11519301682710648,
                        -0.665347695350647,
                        0.10207332670688629,
                        0.2601279616355896,
                        -0.06718555837869644,
                        -0.01581527478992939,
                        -0.009094287641346455,
                        0.20510657131671906,
                        -0.19279640913009644,
                        -0.009464399889111519,
                        0.3351576030254364,
                        -0.09686244279146194,
                        0.03788241371512413,
                        -0.05923263356089592,
                        -0.08477674424648285,
                        0.06400737911462784
                    ],
                    [
                        -0.03345147892832756,
                        0.2944977581501007,
                        0.17807736992835999,
                        -0.34469303488731384,
                        0.03029835969209671,
                        -0.10887638479471207,
                        -0.20455561578273773,
                        -0.0023934494238346815,
                        -0.02940971404314041,
                        -0.07806260883808136,
                        -0.3122501075267792,
                        -0.03547980636358261,
                        -0.022668382152915,
                        0.015193665400147438,
                        -0.1203860491514206,
                        -0.09620200097560883,
                        -0.04770558699965477,
                        0.01661260798573494,
                        0.08053895831108093,
                        -0.18700608611106873,
                        0.03258807584643364,
                        -0.11413674801588058,
                        -0.06800981611013412,
                        -0.11905103921890259,
                        0.10822789371013641,
                        -0.11146235466003418,
                        0.004698042292147875,
                        -0.17600473761558533,
                        -0.17730097472667694,
                        0.26480820775032043,
                        0.06724327802658081,
                        0.07681718468666077,
                        0.5927426218986511,
                        0.16902749240398407,
                        0.39731281995773315,
                        -0.2254125475883484,
                        -0.25525903701782227,
                        0.1470700055360794,
                        0.031625766307115555,
                        0.04955703392624855,
                        0.06311657279729843,
                        -0.07758057862520218,
                        0.04679456353187561,
                        -0.010822422802448273,
                        -0.0658690556883812,
                        -0.29511839151382446,
                        -0.530164897441864,
                        0.4599195718765259,
                        0.05770328640937805,
                        -0.3052600920200348,
                        0.1674802452325821,
                        0.08735612779855728,
                        0.013200481422245502,
                        -0.06077302247285843,
                        -0.017508726567029953,
                        0.20021121203899384,
                        0.18225282430648804,
                        -0.009830290451645851,
                        0.06617274135351181,
                        0.004533059895038605,
                        -0.10055608302354813,
                        -0.00407429039478302,
                        0.009453119710087776,
                        -0.275799423456192
                    ],
                    [
                        0.03397231549024582,
                        -0.12297897040843964,
                        -0.0643283948302269,
                        0.1499253809452057,
                        -0.1528523564338684,
                        -0.08626145869493484,
                        -0.20195838809013367,
                        -0.06840928643941879,
                        0.04312818497419357,
                        -0.2640253007411957,
                        0.018388381227850914,
                        -0.007953174412250519,
                        -0.023565804585814476,
                        0.07237949222326279,
                        0.2540617287158966,
                        -0.02712296135723591,
                        -0.07585543394088745,
                        -0.13029508292675018,
                        0.08039621263742447,
                        0.24583856761455536,
                        -0.016521653160452843,
                        -0.0931863784790039,
                        0.06376249343156815,
                        0.2713489532470703,
                        0.010107300244271755,
                        -0.029397156089544296,
                        -0.1159772276878357,
                        0.03543210029602051,
                        -0.056641463190317154,
                        0.02485758252441883,
                        0.05986786633729935,
                        0.019274599850177765,
                        0.13119518756866455,
                        0.03987343609333038,
                        0.10873707383871078,
                        -0.23173649609088898,
                        0.051269497722387314,
                        -0.17833870649337769,
                        -0.06555825471878052,
                        -0.20314915478229523,
                        0.0024445734452456236,
                        0.03624850884079933,
                        0.010845663957297802,
                        0.13867685198783875,
                        -0.14525249600410461,
                        -0.008327650837600231,
                        0.4342423677444458,
                        -0.0004996458883397281,
                        0.017414797097444534,
                        -0.19374211132526398,
                        -0.02603905089199543,
                        0.14880596101284027,
                        0.016407860442996025,
                        -0.009041647426784039,
                        -0.1089194193482399,
                        -0.00029238942079246044,
                        -0.08293066173791885,
                        0.0394064262509346,
                        0.024749476462602615,
                        0.09211637079715729,
                        -0.019200045615434647,
                        0.07230809330940247,
                        -0.31469881534576416,
                        0.38169750571250916
                    ],
                    [
                        0.15540559589862823,
                        0.13055425882339478,
                        0.028241274878382683,
                        0.006126536056399345,
                        0.1641520857810974,
                        0.04941921681165695,
                        -0.014869553968310356,
                        0.28926387429237366,
                        0.027932919561862946,
                        0.1569349318742752,
                        0.30301204323768616,
                        0.13241346180438995,
                        -0.023410597816109657,
                        0.1342920958995819,
                        0.15018370747566223,
                        0.3596136271953583,
                        -0.10024327784776688,
                        -0.024964893236756325,
                        -0.030157646164298058,
                        -0.07036539167165756,
                        -0.09623001515865326,
                        0.11731104552745819,
                        0.3972245156764984,
                        0.19168446958065033,
                        -0.03712049871683121,
                        0.2924795150756836,
                        0.0065071615390479565,
                        0.12973205745220184,
                        -0.02726311981678009,
                        -0.14744921028614044,
                        0.11940870434045792,
                        0.16347795724868774,
                        0.19177621603012085,
                        -0.13750599324703217,
                        0.030656471848487854,
                        0.2797216773033142,
                        -0.024689562618732452,
                        -0.0403565838932991,
                        -0.0431525856256485,
                        -0.12090650945901871,
                        0.08558129519224167,
                        -0.27525272965431213,
                        0.002661272883415222,
                        0.10876958072185516,
                        0.003182248445227742,
                        0.005397876258939505,
                        0.0033189367968589067,
                        -0.02628418616950512,
                        0.1992344856262207,
                        -0.09692580252885818,
                        -0.07198639959096909,
                        0.08230537176132202,
                        -0.06020966172218323,
                        0.13575921952724457,
                        0.10126828402280807,
                        0.335775762796402,
                        0.18074825406074524,
                        0.14958131313323975,
                        0.16807332634925842,
                        0.09123343974351883,
                        0.09540257602930069,
                        0.130338653922081,
                        -0.045317165553569794,
                        0.8047909140586853
                    ],
                    [
                        0.015380398370325565,
                        -0.06737061589956284,
                        -0.013146436773240566,
                        0.11951546370983124,
                        0.02643251232802868,
                        0.056318432092666626,
                        0.03741707652807236,
                        -0.11941695213317871,
                        0.03741573542356491,
                        0.0070828585885465145,
                        0.015536095947027206,
                        -0.008205455727875233,
                        0.037625353783369064,
                        -0.006556861102581024,
                        -0.035286664962768555,
                        -0.05085236206650734,
                        0.043066103011369705,
                        -0.21257169544696808,
                        0.24318796396255493,
                        0.29200729727745056,
                        0.03764781355857849,
                        -0.0273402389138937,
                        -0.15792196989059448,
                        0.04820956289768219,
                        0.07954037934541702,
                        -0.0336722694337368,
                        -0.05006907880306244,
                        -0.019826550036668777,
                        0.023372143507003784,
                        -0.028787504881620407,
                        -0.004133069422096014,
                        -0.21487437188625336,
                        0.02769523300230503,
                        -0.2945106327533722,
                        0.2320381999015808,
                        -0.19181066751480103,
                        0.32079431414604187,
                        -0.18087990581989288,
                        0.19109266996383667,
                        0.14768186211585999,
                        -0.2498074322938919,
                        0.03343679755926132,
                        -0.33921268582344055,
                        -0.08834122121334076,
                        -0.08336881548166275,
                        0.7913662791252136,
                        0.2725452780723572,
                        -0.3483375608921051,
                        0.049124933779239655,
                        -0.2720763385295868,
                        0.014629813842475414,
                        0.09574384987354279,
                        0.06843245774507523,
                        0.08471687138080597,
                        -0.026980174705386162,
                        -0.05947114899754524,
                        0.00974180456250906,
                        0.0071140774525702,
                        0.144437775015831,
                        0.01602582447230816,
                        -0.05296958610415459,
                        -0.006915942300111055,
                        0.06238006800413132,
                        0.15324272215366364
                    ],
                    [
                        0.31220534443855286,
                        0.10520332306623459,
                        -0.14443588256835938,
                        0.11376800388097763,
                        -0.2722894847393036,
                        0.07749012857675552,
                        -0.3047446012496948,
                        -0.27298852801322937,
                        0.14757151901721954,
                        -0.11575476080179214,
                        0.20757225155830383,
                        0.034383174031972885,
                        -0.0718604028224945,
                        0.3470897078514099,
                        -0.4195660948753357,
                        0.22023889422416687,
                        -0.02875196561217308,
                        -0.10830802470445633,
                        0.1603693664073944,
                        0.1518084853887558,
                        0.5079032778739929,
                        0.1450181007385254,
                        0.6530990600585938,
                        0.30931493639945984,
                        0.00673710135743022,
                        0.4470204710960388,
                        -0.09220130741596222,
                        0.1353054642677307,
                        0.11759364604949951,
                        -0.0414147675037384,
                        0.5477729439735413,
                        -0.05840659141540527,
                        -0.026618439704179764,
                        -0.0573255717754364,
                        -0.1699364185333252,
                        0.1988343894481659,
                        0.24353523552417755,
                        -0.05389020964503288,
                        0.06747907400131226,
                        0.03278506174683571,
                        -0.18331898748874664,
                        0.12038150429725647,
                        -0.03100978024303913,
                        -0.13632695376873016,
                        0.032219234853982925,
                        0.10153263807296753,
                        0.03873809054493904,
                        -0.1881117820739746,
                        0.2859364449977875,
                        0.1791098415851593,
                        0.04309016838669777,
                        0.17076650261878967,
                        0.005271873902529478,
                        0.15040849149227142,
                        0.21578092873096466,
                        0.15729911625385284,
                        0.14160871505737305,
                        0.28623560070991516,
                        0.2576945126056671,
                        0.1952838897705078,
                        0.19082094728946686,
                        0.35281115770339966,
                        -0.10699939727783203,
                        0.35003164410591125
                    ],
                    [
                        0.009426131844520569,
                        0.11550062894821167,
                        -0.009186098352074623,
                        0.18723616003990173,
                        -0.1725967824459076,
                        -0.09011921286582947,
                        0.009407111443579197,
                        -0.04010697081685066,
                        0.014410293661057949,
                        -0.14591243863105774,
                        0.2834687829017639,
                        -0.12127412855625153,
                        -0.19957101345062256,
                        0.027502285316586494,
                        -0.43312501907348633,
                        0.026026137173175812,
                        -0.051306549459695816,
                        0.02290685847401619,
                        -0.23904603719711304,
                        0.25425562262535095,
                        -0.0474090538918972,
                        -0.12111636251211166,
                        0.2675821781158447,
                        -0.09709537774324417,
                        -0.0648067519068718,
                        0.166599303483963,
                        0.0860523208975792,
                        -0.14790351688861847,
                        -0.368184894323349,
                        -0.062188997864723206,
                        0.0462837889790535,
                        0.17499446868896484,
                        0.6831172704696655,
                        0.0963226705789566,
                        0.36783885955810547,
                        -0.09711069613695145,
                        -0.20425887405872345,
                        -0.3926255404949188,
                        0.2949129045009613,
                        -0.05951898545026779,
                        -0.017033357173204422,
                        0.02227940410375595,
                        0.6673817038536072,
                        0.14389313757419586,
                        -0.42503631114959717,
                        -1.0127031803131104,
                        0.21071341633796692,
                        0.8986002206802368,
                        -0.002216651337221265,
                        0.03845873102545738,
                        0.03114580363035202,
                        0.1471811980009079,
                        -0.025917114689946175,
                        0.052334293723106384,
                        -0.017588431015610695,
                        0.09160489588975906,
                        -0.1719750463962555,
                        0.003324576187878847,
                        -0.27247002720832825,
                        0.03358859568834305,
                        -0.020872928202152252,
                        0.027796147391200066,
                        -0.25528261065483093,
                        -0.020583856850862503
                    ],
                    [
                        -0.05176965519785881,
                        -0.2751106321811676,
                        0.025996511802077293,
                        -0.10582996159791946,
                        -0.10612679272890091,
                        -0.10570161789655685,
                        0.08431212604045868,
                        0.03247005119919777,
                        -0.003584490157663822,
                        0.10831191390752792,
                        -0.27722805738449097,
                        -0.17949502170085907,
                        0.0074491845443844795,
                        -0.041432563215494156,
                        0.005484729539602995,
                        -0.16768233478069305,
                        0.07312235981225967,
                        -0.3426879346370697,
                        0.11381123214960098,
                        -0.10916509479284286,
                        0.29137110710144043,
                        -0.12088838964700699,
                        -0.14240014553070068,
                        0.10614218562841415,
                        0.022885270416736603,
                        0.057368047535419464,
                        -0.2678040862083435,
                        -0.20061133801937103,
                        -0.0564010888338089,
                        -0.041604530066251755,
                        0.1901806741952896,
                        -0.043594639748334885,
                        0.1897604614496231,
                        0.20551246404647827,
                        -0.14757651090621948,
                        -0.06984151899814606,
                        0.3105333149433136,
                        -0.18049617111682892,
                        -0.1308286041021347,
                        0.2384921759366989,
                        0.08810394257307053,
                        0.08431238681077957,
                        0.2808263599872589,
                        -0.14304102957248688,
                        0.08635677397251129,
                        -1.1533935070037842,
                        0.23147468268871307,
                        0.24161405861377716,
                        -0.08377815037965775,
                        -0.10663684457540512,
                        0.03205925598740578,
                        -0.10659422725439072,
                        0.12753015756607056,
                        -0.16685734689235687,
                        -0.0641021728515625,
                        0.22426654398441315,
                        -0.08905521780252457,
                        -0.10791414976119995,
                        -0.5550059676170349,
                        -0.18149419128894806,
                        0.01986420340836048,
                        -0.033001914620399475,
                        0.01240984071046114,
                        -0.0896635353565216
                    ],
                    [
                        -0.4400660991668701,
                        -0.3376048505306244,
                        0.2663818299770355,
                        0.05457931011915207,
                        0.43133506178855896,
                        -0.002744023222476244,
                        0.6645600199699402,
                        0.5839717984199524,
                        -0.16071289777755737,
                        0.4255332052707672,
                        -0.335007905960083,
                        -0.03488116338849068,
                        -0.003029347863048315,
                        -0.40473446249961853,
                        0.6429368257522583,
                        -0.37864649295806885,
                        -0.1690153181552887,
                        -0.01527723204344511,
                        -0.13590151071548462,
                        -0.05800234153866768,
                        -0.44595852494239807,
                        -0.18376126885414124,
                        -0.9132243394851685,
                        -0.2608909010887146,
                        -0.036060407757759094,
                        -0.6777766346931458,
                        0.07950586080551147,
                        -0.19966958463191986,
                        -0.17963004112243652,
                        0.05170707404613495,
                        -1.0806493759155273,
                        -0.1417524665594101,
                        0.4328121244907379,
                        0.06807368993759155,
                        0.12404438108205795,
                        -0.06478872150182724,
                        -0.04709593206644058,
                        -0.48483768105506897,
                        -0.1269579529762268,
                        0.12743255496025085,
                        -0.1506638377904892,
                        0.04646703228354454,
                        0.0020594382658600807,
                        0.09433665871620178,
                        -0.1844310462474823,
                        -0.1754862517118454,
                        0.32404160499572754,
                        0.18391025066375732,
                        -0.49800315499305725,
                        -0.2892363369464874,
                        -0.16093364357948303,
                        -0.12340854853391647,
                        -0.024546019732952118,
                        -0.08659114688634872,
                        -0.3575696647167206,
                        -0.27262067794799805,
                        -0.23395326733589172,
                        -0.3439548909664154,
                        -0.5221607685089111,
                        -0.24627389013767242,
                        -0.4146277904510498,
                        -0.4022514820098877,
                        -0.19537469744682312,
                        -0.004052573814988136
                    ],
                    [
                        -0.0793590098619461,
                        -0.47591373324394226,
                        -0.015498371794819832,
                        -0.13092586398124695,
                        -0.029112741351127625,
                        -0.04535391926765442,
                        -0.04399355873465538,
                        0.12105847895145416,
                        0.10452714562416077,
                        0.05539609119296074,
                        -0.8361238837242126,
                        -0.1090255156159401,
                        -0.11546022444963455,
                        -0.10052567720413208,
                        -0.06018265709280968,
                        -0.45180967450141907,
                        0.1061481162905693,
                        -0.5437093377113342,
                        -0.17100706696510315,
                        0.1714549958705902,
                        0.04910250008106232,
                        -0.10380035638809204,
                        -0.09727359563112259,
                        -0.2613869607448578,
                        -0.0013333054957911372,
                        -0.10386369377374649,
                        -0.6209982633590698,
                        -0.2873413562774658,
                        -0.09325211495161057,
                        -0.42490848898887634,
                        0.11419127881526947,
                        -0.1209724023938179,
                        -0.5798497796058655,
                        0.24389766156673431,
                        0.016607778146862984,
                        -0.22584974765777588,
                        -0.1552562415599823,
                        0.18325789272785187,
                        -0.00801183469593525,
                        0.07480881363153458,
                        0.01256064884364605,
                        0.1333358883857727,
                        -0.15803931653499603,
                        0.03226678818464279,
                        -0.07711054384708405,
                        0.4547288119792938,
                        0.04943124204874039,
                        -0.29725518822669983,
                        -0.10739314556121826,
                        -0.2025323063135147,
                        -0.02322225272655487,
                        -0.11064143478870392,
                        0.09519515186548233,
                        -0.056231748312711716,
                        -0.057195648550987244,
                        0.02690659835934639,
                        -0.10935237258672714,
                        -0.09195762127637863,
                        -0.5013931393623352,
                        -0.2550102770328522,
                        -0.11380457878112793,
                        -0.09397881478071213,
                        0.10275761038064957,
                        -0.3920363485813141
                    ],
                    [
                        0.050488896667957306,
                        0.04184975475072861,
                        -0.0050484370440244675,
                        0.052409473806619644,
                        0.20357759296894073,
                        0.0510980449616909,
                        0.35702329874038696,
                        -0.15097856521606445,
                        0.0492071807384491,
                        0.22821079194545746,
                        -0.2258351892232895,
                        0.051110781729221344,
                        0.05387614294886589,
                        -0.027422068640589714,
                        0.19178679585456848,
                        -0.037989236414432526,
                        0.08489371836185455,
                        0.007682408671826124,
                        0.07952696084976196,
                        0.14659278094768524,
                        -0.12523995339870453,
                        0.052124302834272385,
                        -0.0597931407392025,
                        -0.1472783386707306,
                        0.20205193758010864,
                        -0.038842760026454926,
                        -0.06267723441123962,
                        -0.02360944077372551,
                        0.1515822559595108,
                        -0.220498725771904,
                        -0.0189386997371912,
                        -0.1725555956363678,
                        1.6892271041870117,
                        0.2504728138446808,
                        -0.03475511819124222,
                        0.102675661444664,
                        0.5074182748794556,
                        -0.010413214564323425,
                        -0.48280462622642517,
                        -0.47109246253967285,
                        -0.3812200129032135,
                        0.38317832350730896,
                        0.88711017370224,
                        -0.07395993173122406,
                        0.2377317100763321,
                        -1.9247974157333374,
                        0.40112125873565674,
                        2.169528007507324,
                        0.12082664668560028,
                        -0.2116817682981491,
                        0.020707761868834496,
                        0.05252247676253319,
                        -0.025362959131598473,
                        0.12583252787590027,
                        0.04521486163139343,
                        -0.19880200922489166,
                        -0.09431720525026321,
                        0.2091560661792755,
                        0.4771721065044403,
                        0.048672277480363846,
                        0.14212387800216675,
                        -0.03027922660112381,
                        0.13466787338256836,
                        -0.10887768864631653
                    ],
                    [
                        -0.38718777894973755,
                        -0.32069769501686096,
                        0.09245920926332474,
                        -0.045899465680122375,
                        0.43421804904937744,
                        -0.03968491405248642,
                        0.38778558373451233,
                        0.3058898150920868,
                        -0.07979755103588104,
                        0.315898597240448,
                        -0.24629183113574982,
                        0.0857732892036438,
                        -0.07634624093770981,
                        -0.38230204582214355,
                        -0.00017616176046431065,
                        -0.44850876927375793,
                        -0.012965518049895763,
                        -0.03820878267288208,
                        -0.19627691805362701,
                        0.024622546508908272,
                        -0.05750386416912079,
                        -0.1888355314731598,
                        -0.3858717381954193,
                        -0.18492402136325836,
                        -0.04068795219063759,
                        -0.3237253427505493,
                        0.08611860871315002,
                        0.07808691263198853,
                        -0.18857908248901367,
                        -0.07621344923973083,
                        -0.05821415036916733,
                        0.012998825870454311,
                        -0.11995027214288712,
                        -0.002809529658406973,
                        -0.21594534814357758,
                        -0.1011635959148407,
                        -0.019643466919660568,
                        0.17653490602970123,
                        0.10817671567201614,
                        -0.026246145367622375,
                        0.06105313077569008,
                        0.0434129424393177,
                        0.06698659062385559,
                        0.15596672892570496,
                        -0.15312859416007996,
                        -0.23789513111114502,
                        0.03313857689499855,
                        0.032728154212236404,
                        -0.36826765537261963,
                        -0.2739024758338928,
                        -0.06266696751117706,
                        -0.12730063498020172,
                        -0.1528872549533844,
                        -0.2384137064218521,
                        -0.3807069957256317,
                        -0.043588411062955856,
                        -0.22573840618133545,
                        -0.22676309943199158,
                        -0.7006722688674927,
                        -0.17204484343528748,
                        -0.31420329213142395,
                        -0.38681280612945557,
                        0.20772935450077057,
                        -0.31307336688041687
                    ],
                    [
                        0.497432678937912,
                        0.24040886759757996,
                        -0.3391680419445038,
                        -0.1322203427553177,
                        -0.46419763565063477,
                        -0.019530724734067917,
                        -1.0800055265426636,
                        -0.5110280513763428,
                        0.2692740261554718,
                        -0.5353066921234131,
                        0.46817338466644287,
                        0.08993516862392426,
                        0.045188240706920624,
                        0.5383984446525574,
                        -0.8709046244621277,
                        0.49562302231788635,
                        -0.07843778282403946,
                        -0.14868755638599396,
                        0.36506471037864685,
                        0.0035395638551563025,
                        0.7536059021949768,
                        0.30171096324920654,
                        0.9943070411682129,
                        0.5745206475257874,
                        0.22113136947155,
                        0.8085122108459473,
                        -0.1268458366394043,
                        0.4031676650047302,
                        0.40718600153923035,
                        -0.04830026254057884,
                        1.167569875717163,
                        0.2903507947921753,
                        -0.018131379038095474,
                        0.3746878206729889,
                        -0.37006184458732605,
                        0.4546973407268524,
                        0.0028130526188760996,
                        0.16810813546180725,
                        -0.40026944875717163,
                        -0.1668587476015091,
                        -0.28978055715560913,
                        0.19552668929100037,
                        0.04688053950667381,
                        -0.14148575067520142,
                        0.1443573385477066,
                        0.08503241091966629,
                        0.4438985586166382,
                        0.41110873222351074,
                        0.48648515343666077,
                        0.19765934348106384,
                        0.15089964866638184,
                        0.10592221468687057,
                        0.05185236036777496,
                        -0.012603003531694412,
                        0.35039740800857544,
                        0.22190451622009277,
                        0.3166027069091797,
                        0.3217814564704895,
                        0.5810734033584595,
                        0.360432505607605,
                        0.6156020164489746,
                        0.5491505265235901,
                        0.3632849454879761,
                        0.31366872787475586
                    ],
                    [
                        -0.027166998013854027,
                        0.012066483497619629,
                        -0.03814130276441574,
                        -0.07200560718774796,
                        -0.06322813034057617,
                        0.08828882873058319,
                        -0.07992680370807648,
                        0.2839178740978241,
                        -0.059335336089134216,
                        -0.17606332898139954,
                        0.13196901977062225,
                        0.14806486666202545,
                        0.03924054279923439,
                        0.02198496274650097,
                        -0.09581873565912247,
                        0.11572285741567612,
                        -0.09436116367578506,
                        0.05712245777249336,
                        0.12309997528791428,
                        -0.07455290108919144,
                        -0.10987032949924469,
                        0.1014421135187149,
                        0.022678272798657417,
                        0.25598326325416565,
                        -0.12266463786363602,
                        -0.14346349239349365,
                        0.1489158570766449,
                        0.22422762215137482,
                        0.08112599700689316,
                        0.30758407711982727,
                        -0.1754866987466812,
                        0.10528071224689484,
                        -1.271762728691101,
                        -0.6304693818092346,
                        0.005313260946422815,
                        -0.041266463696956635,
                        -0.13963039219379425,
                        -0.03509360924363136,
                        0.4179145097732544,
                        0.27972882986068726,
                        0.3710944950580597,
                        -0.28947386145591736,
                        0.28414997458457947,
                        -0.27689236402511597,
                        0.04578346386551857,
                        -0.5436538457870483,
                        -0.20800884068012238,
                        -2.4087142944335938,
                        -0.04744165390729904,
                        0.14196355640888214,
                        -0.05382445454597473,
                        -0.00862659327685833,
                        -0.03327518329024315,
                        0.04754002019762993,
                        0.0644722431898117,
                        -0.11891989409923553,
                        -0.044351112097501755,
                        -0.07224683463573456,
                        0.2554975152015686,
                        -0.07442521303892136,
                        -0.18750658631324768,
                        0.02027176506817341,
                        0.007891467772424221,
                        0.24053874611854553
                    ],
                    [
                        0.017789119854569435,
                        0.13843761384487152,
                        0.04573990777134895,
                        -0.05960444360971451,
                        0.1267578899860382,
                        -0.0002980417339131236,
                        0.28514835238456726,
                        0.0805274173617363,
                        -0.015265332534909248,
                        0.18768978118896484,
                        -0.02446294017136097,
                        -0.032274484634399414,
                        0.009037633426487446,
                        0.012350566685199738,
                        0.1511230170726776,
                        0.0584726445376873,
                        -0.02603212185204029,
                        0.01153930090367794,
                        0.2655423581600189,
                        -0.10815099626779556,
                        0.0046217734925448895,
                        0.0867423489689827,
                        0.20185360312461853,
                        -0.03926178067922592,
                        0.0536368153989315,
                        0.030222387984395027,
                        0.2493896633386612,
                        -0.06431213021278381,
                        -0.004049300216138363,
                        0.07928167283535004,
                        0.018219666555523872,
                        0.09743334352970123,
                        -0.2048812359571457,
                        -0.20288817584514618,
                        -0.03472481295466423,
                        0.02927042916417122,
                        -0.6699838638305664,
                        -0.6245073676109314,
                        -0.14976617693901062,
                        0.12778298556804657,
                        0.08714776486158371,
                        -0.035081543028354645,
                        -0.22707214951515198,
                        -0.9423518776893616,
                        0.003460668260231614,
                        0.588144838809967,
                        0.4527719020843506,
                        -0.3344957232475281,
                        0.018771449103951454,
                        0.04029199108481407,
                        0.04623670130968094,
                        -0.03940398246049881,
                        -0.0032043063547462225,
                        0.2436404675245285,
                        0.09546990692615509,
                        -0.024042122066020966,
                        -0.004534435458481312,
                        0.04409892484545708,
                        0.18058472871780396,
                        -0.07053875178098679,
                        -0.1115497574210167,
                        0.011276841163635254,
                        0.11179887503385544,
                        -0.11140614748001099
                    ],
                    [
                        -0.029525864869356155,
                        0.1448952704668045,
                        0.14098379015922546,
                        -0.3923546075820923,
                        -0.15534186363220215,
                        -0.22513028979301453,
                        -0.010970686562359333,
                        -0.009533712640404701,
                        -0.043425302952528,
                        0.06256888806819916,
                        -0.36641016602516174,
                        0.028670886531472206,
                        0.08559516817331314,
                        -0.062088578939437866,
                        0.04605871066451073,
                        -0.08701694011688232,
                        -0.08628739416599274,
                        -0.14079146087169647,
                        0.08272688090801239,
                        -0.047367557883262634,
                        0.09466955810785294,
                        -0.2463763952255249,
                        -0.006060836371034384,
                        -0.01523337047547102,
                        0.23573791980743408,
                        -0.045020412653684616,
                        0.036038972437381744,
                        -0.12257050722837448,
                        -0.02139570377767086,
                        -0.1368512660264969,
                        0.14820121228694916,
                        -0.14625073969364166,
                        -0.3515472710132599,
                        0.2152055948972702,
                        -0.5319415926933289,
                        0.9285570979118347,
                        0.5185627341270447,
                        -0.4624321758747101,
                        -0.0872683897614479,
                        -0.013474064879119396,
                        -0.26266777515411377,
                        0.11243198812007904,
                        -0.03865322098135948,
                        -0.07165882736444473,
                        0.22388631105422974,
                        0.17601530253887177,
                        0.667373776435852,
                        0.14704816043376923,
                        0.057524751871824265,
                        -0.23189572989940643,
                        -0.01697724312543869,
                        0.1526791900396347,
                        -0.010484373196959496,
                        -0.014520449563860893,
                        0.0037425269838422537,
                        0.069815993309021,
                        -0.12266538292169571,
                        0.10995012521743774,
                        0.3927161991596222,
                        0.15216322243213654,
                        0.15422452986240387,
                        -0.09528417885303497,
                        0.03499440848827362,
                        -0.16160964965820312
                    ]
                ],
                [
                    1.086142897605896,
                    0.45627379417419434,
                    -0.38659048080444336,
                    -0.18954265117645264,
                    -2.472987651824951,
                    -0.26719072461128235,
                    -1.9119067192077637,
                    -0.8484666347503662,
                    0.5909056663513184,
                    -1.1984367370605469,
                    1.1220452785491943,
                    -0.05709170550107956,
                    -0.1207091212272644,
                    1.2225368022918701,
                    -2.489473342895508,
                    0.9653729796409607,
                    -0.29498112201690674,
                    -0.20998641848564148,
                    1.1202795505523682,
                    0.6525986194610596,
                    3.300445318222046,
                    1.1366201639175415,
                    2.5864901542663574,
                    1.9170136451721191,
                    0.5347466468811035,
                    1.9896373748779297,
                    -0.5516224503517151,
                    0.7238295078277588,
                    1.391816258430481,
                    -0.0674014762043953,
                    2.823953151702881,
                    -0.16586382687091827,
                    0.042813483625650406,
                    -0.06178729236125946,
                    0.4164118766784668,
                    -0.24628761410713196,
                    -0.15242770314216614,
                    0.23665596544742584,
                    0.2891855835914612,
                    0.2510281503200531,
                    -0.6048411130905151,
                    -0.11262889206409454,
                    -0.028053291141986847,
                    -0.16617141664028168,
                    0.36270052194595337,
                    -0.38804206252098083,
                    -0.15859171748161316,
                    -0.07366006821393967,
                    1.0187972784042358,
                    0.5278812050819397,
                    0.5043205618858337,
                    0.44437819719314575,
                    0.6670981645584106,
                    0.2081027626991272,
                    0.9942604303359985,
                    0.7663573622703552,
                    0.5894116163253784,
                    0.753925085067749,
                    0.6297780275344849,
                    0.5990331172943115,
                    0.9917011857032776,
                    1.2562257051467896,
                    0.33280327916145325,
                    -0.11263560503721237
                ]
            ]
        },
        {
            "type": "dense",
            "activation": "",
            "shape": [
                null,
                null,
                1
            ],
            "weights": [
                [
                    [
                        -0.0006853377562947571
                    ],
                    [
                        0.3429434597492218
                    ],
                    [
                        -0.28926146030426025
                    ],
                    [
                        0.06318385154008865
                    ],
                    [
                        -0.1133413314819336
                    ],
                    [
                        -0.11002654582262039
                    ],
                    [
                        -0.04157010838389397
                    ],
                    [
                        -0.10514884442090988
                    ],
                    [
                        0.09356807172298431
                    ],
                    [
                        -0.0156621765345335
                    ],
                    [
                        -0.06347202509641647
                    ],
                    [
                        -0.06686179339885712
                    ],
                    [
                        0.010329779237508774
                    ],
                    [
                        -0.06811806559562683
                    ],
                    [
                        0.04836457222700119
                    ],
                    [
                        -0.4537864923477173
                    ]
                ],
                [
                    0.07086212933063507
                ]
            ]
        }
    ]
}