{
    "in_shape": [
        null,
        null,
        1
    ],
    "layers": [
        {
            "type": "gru",
            "activation": "",
            "shape": [
                null,
                null,
                12
            ],
            "weights": [
                [
                    [
                        0.05522004887461662,
                        0.008449840359389782,
                        -0.020252717658877373,
                        0.025007959455251694,
                        0.05803050100803375,
                        -0.09089184552431107,
                        0.0376284196972847,
                        -0.012035573832690716,
                        -0.1875663697719574,
                        0.05976730212569237,
                        0.06835038214921951,
                        -0.04624782130122185,
                        0.0033600504975765944,
                        -0.004889567382633686,
                        0.03256218880414963,
                        -0.03975512832403183,
                        -0.00909776333719492,
                        0.005247156601399183,
                        -0.018002837896347046,
                        0.006794049870222807,
                        0.02017940953373909,
                        0.037996694445610046,
                        0.02352645806968212,
                        -0.004556529689580202,
                        1.7188215255737305,
                        0.46434286236763,
                        0.3752001225948334,
                        -0.14678895473480225,
                        -2.1906609535217285,
                        -2.5951342582702637,
                        0.2945355772972107,
                        -2.940351963043213,
                        0.9411003589630127,
                        0.14566266536712646,
                        0.15241341292858124,
                        -0.339042603969574
                    ]
                ],
                [
                    [
                        -0.07767736911773682,
                        -0.16688154637813568,
                        -0.1155058741569519,
                        -0.03890271112322807,
                        -0.013831188902258873,
                        0.18136650323867798,
                        -0.10991696268320084,
                        0.029886623844504356,
                        0.016954079270362854,
                        -0.3724049925804138,
                        0.03864220529794693,
                        -0.006287741474807262,
                        -0.027668224647641182,
                        0.013829453848302364,
                        -0.3747970461845398,
                        0.2248965948820114,
                        -0.033573564141988754,
                        -0.05018741637468338,
                        -0.1578620821237564,
                        -0.1514289677143097,
                        0.011069796979427338,
                        0.1517331749200821,
                        -0.4069279432296753,
                        -0.024381058290600777,
                        0.5569879412651062,
                        -0.005678757559508085,
                        -0.11190991848707199,
                        0.465451180934906,
                        0.18355880677700043,
                        -0.5455140471458435,
                        0.17984071373939514,
                        -1.9145147800445557,
                        -0.39724498987197876,
                        -0.1429782211780548,
                        -0.12455008924007416,
                        -0.2293422669172287
                    ],
                    [
                        -0.2372344434261322,
                        0.42067277431488037,
                        0.0018735775956884027,
                        -0.2169986218214035,
                        -0.015050508081912994,
                        -0.11042957007884979,
                        0.14838232100009918,
                        -0.0660862848162651,
                        -0.050682611763477325,
                        -0.05860088765621185,
                        -0.15291444957256317,
                        -0.06777207553386688,
                        0.14743347465991974,
                        -0.015976959839463234,
                        -1.098752498626709,
                        -0.22836782038211823,
                        0.2431904524564743,
                        0.14682666957378387,
                        0.08033853769302368,
                        -0.12281514704227448,
                        0.2479526549577713,
                        -0.09023105353116989,
                        -0.4504249691963196,
                        0.10133127123117447,
                        -0.39401400089263916,
                        0.6848762631416321,
                        -0.21592746675014496,
                        0.18634037673473358,
                        0.1965360939502716,
                        0.05227377638220787,
                        0.19499585032463074,
                        -0.4338721036911011,
                        -0.003833993338048458,
                        -0.04714853689074516,
                        -0.3624560236930847,
                        -0.010980215854942799
                    ],
                    [
                        -0.02880341000854969,
                        -0.32445335388183594,
                        0.10020796209573746,
                        0.26106008887290955,
                        0.185346782207489,
                        -0.15478315949440002,
                        -0.2849123179912567,
                        0.04260226711630821,
                        -0.08743148297071457,
                        -0.16737893223762512,
                        0.3283008933067322,
                        0.10366258025169373,
                        0.0189322791993618,
                        -0.005287704523652792,
                        0.04898689314723015,
                        -0.2505773603916168,
                        0.038086067885160446,
                        0.04007228836417198,
                        -0.04318147152662277,
                        0.03336368128657341,
                        -0.011385464109480381,
                        0.13243132829666138,
                        0.16326332092285156,
                        0.026378577575087547,
                        0.16915994882583618,
                        0.0287312064319849,
                        0.762373685836792,
                        -0.5109182000160217,
                        -0.12161552906036377,
                        -0.05724765360355377,
                        0.3807331621646881,
                        0.05871467664837837,
                        -0.37856951355934143,
                        -0.8982861042022705,
                        -0.3916679322719574,
                        -1.088330864906311
                    ],
                    [
                        -0.7156834006309509,
                        -0.3964345157146454,
                        0.44040143489837646,
                        -0.0008385342080146074,
                        0.4242587387561798,
                        0.25490137934684753,
                        0.021205248311161995,
                        0.8407296538352966,
                        0.19777381420135498,
                        0.2884249985218048,
                        -0.0958007350564003,
                        0.13866570591926575,
                        -0.2877001464366913,
                        0.025636570528149605,
                        0.7254317402839661,
                        0.9162269234657288,
                        -0.32382962107658386,
                        -0.4587743282318115,
                        0.3997422754764557,
                        -0.8436503410339355,
                        -0.10574892163276672,
                        0.7167260050773621,
                        0.7592028379440308,
                        -0.09569666534662247,
                        0.2816486954689026,
                        0.33133283257484436,
                        0.277216374874115,
                        0.5139328241348267,
                        0.0012702216627076268,
                        -0.08376127481460571,
                        -0.1738341599702835,
                        -0.22838090360164642,
                        -0.6798323392868042,
                        0.03333965688943863,
                        -0.35806700587272644,
                        -0.01076585054397583
                    ],
                    [
                        0.29832154512405396,
                        -0.14995980262756348,
                        -0.12110116332769394,
                        -0.2675629258155823,
                        -0.18503107130527496,
                        0.3837718069553375,
                        0.3264633119106293,
                        -0.19663876295089722,
                        0.33118554949760437,
                        -0.05942171439528465,
                        0.21119734644889832,
                        0.25526872277259827,
                        -0.007001028396189213,
                        0.009250580333173275,
                        -0.2837936282157898,
                        0.27696216106414795,
                        -0.04992319270968437,
                        0.005408062599599361,
                        -0.02230709232389927,
                        0.3284693956375122,
                        -0.17084002494812012,
                        -0.14084714651107788,
                        0.0945737287402153,
                        -0.06204874441027641,
                        0.910896897315979,
                        -0.2643076479434967,
                        0.13785916566848755,
                        0.16429473459720612,
                        -0.13687574863433838,
                        0.2052772045135498,
                        -0.2859804332256317,
                        1.5623960494995117,
                        0.9091507196426392,
                        0.8092105984687805,
                        0.2626205384731293,
                        -0.6170086860656738
                    ],
                    [
                        -0.03083798661828041,
                        -0.15974417328834534,
                        0.0898170992732048,
                        0.03475749492645264,
                        -0.1289214789867401,
                        0.13691218197345734,
                        -0.05426877737045288,
                        0.008609309792518616,
                        0.4495627284049988,
                        -0.06572950631380081,
                        -0.04295093193650246,
                        0.051386941224336624,
                        -0.02439596876502037,
                        0.010124338790774345,
                        -0.21768750250339508,
                        0.08554981648921967,
                        -0.014177639968693256,
                        -0.005597177427262068,
                        0.03639153763651848,
                        -0.030719581991434097,
                        -0.041009727865457535,
                        -0.05630139634013176,
                        -0.3007560968399048,
                        0.002964917803183198,
                        0.8568594455718994,
                        -0.18750326335430145,
                        -0.10601386427879333,
                        0.3334771394729614,
                        0.6310176253318787,
                        0.5064476728439331,
                        -0.2926926612854004,
                        2.1906447410583496,
                        0.5064401030540466,
                        -0.20711612701416016,
                        -0.25608986616134644,
                        0.49161002039909363
                    ],
                    [
                        0.23609226942062378,
                        -0.1302785873413086,
                        0.3489423096179962,
                        0.31377458572387695,
                        0.16787594556808472,
                        -0.010600260458886623,
                        0.15942279994487762,
                        0.15183132886886597,
                        0.138342022895813,
                        0.3157196342945099,
                        0.6806023716926575,
                        -0.0812816247344017,
                        -0.17223185300827026,
                        0.009027959778904915,
                        0.81830894947052,
                        0.43509599566459656,
                        -0.3164736330509186,
                        -0.13131189346313477,
                        0.11225198209285736,
                        0.1424972414970398,
                        -0.22955477237701416,
                        0.639141857624054,
                        0.5834651589393616,
                        -0.1064678207039833,
                        -0.4903646409511566,
                        -0.10535159707069397,
                        0.7948962450027466,
                        -0.312318354845047,
                        0.14081330597400665,
                        0.6477605700492859,
                        0.20747259259223938,
                        0.4427780508995056,
                        0.08080095797777176,
                        0.3316243886947632,
                        0.2603515386581421,
                        0.18128187954425812
                    ],
                    [
                        -0.08791743963956833,
                        0.27271178364753723,
                        0.3249247968196869,
                        -0.2520565986633301,
                        -0.40213239192962646,
                        -0.3425850570201874,
                        -0.09824282675981522,
                        -0.033451467752456665,
                        0.7953822016716003,
                        0.15093468129634857,
                        -0.5221352577209473,
                        -0.28636324405670166,
                        -0.003057899884879589,
                        0.01246233843266964,
                        0.59324711561203,
                        -0.027508549392223358,
                        0.09567811340093613,
                        -0.023631511256098747,
                        0.11703338474035263,
                        0.03306064009666443,
                        -0.05499260127544403,
                        0.0686258003115654,
                        -0.011492202989757061,
                        0.08324480801820755,
                        0.4260515868663788,
                        0.35734573006629944,
                        0.2091488093137741,
                        0.8245434761047363,
                        -1.1257047653198242,
                        0.3685671091079712,
                        -0.9762255549430847,
                        1.3384426832199097,
                        0.9058327674865723,
                        0.4590512216091156,
                        -0.4407544434070587,
                        0.22350892424583435
                    ],
                    [
                        0.5435650944709778,
                        0.3960980772972107,
                        0.2825428545475006,
                        -0.3826221227645874,
                        0.0830548033118248,
                        0.02446647733449936,
                        -0.09905922412872314,
                        -0.2462947815656662,
                        0.03649737313389778,
                        0.2697116434574127,
                        -0.0075107053853571415,
                        0.15223033726215363,
                        0.050829898566007614,
                        0.005874190479516983,
                        0.0686207041144371,
                        0.08233429491519928,
                        0.053381022065877914,
                        0.043757423758506775,
                        -0.09358489513397217,
                        0.47189146280288696,
                        -0.1314087063074112,
                        0.15150302648544312,
                        0.4218583405017853,
                        -0.01735798828303814,
                        -0.47816967964172363,
                        -0.3920091688632965,
                        0.01779630221426487,
                        -0.5582445859909058,
                        1.055509090423584,
                        -0.6164731979370117,
                        -0.1318196952342987,
                        -0.3631260395050049,
                        0.2439527064561844,
                        -0.05479896813631058,
                        -0.31799858808517456,
                        -0.6264803409576416
                    ],
                    [
                        -0.2642301023006439,
                        -0.7459640502929688,
                        0.18216480314731598,
                        -0.09242189675569534,
                        0.07142751663923264,
                        -0.1198682114481926,
                        -0.05495501309633255,
                        -0.006472436245530844,
                        -0.18252821266651154,
                        0.24032877385616302,
                        0.062125690281391144,
                        -0.30126792192459106,
                        0.008813111111521721,
                        0.011443305760622025,
                        -0.43522900342941284,
                        -0.03820953518152237,
                        0.007950237020850182,
                        -0.014553235843777657,
                        0.026929976418614388,
                        -0.05181782320141792,
                        0.030987726524472237,
                        -0.3503488302230835,
                        -0.2725067436695099,
                        -0.014584810473024845,
                        0.01656647026538849,
                        -0.6160301566123962,
                        0.8857214450836182,
                        0.4637453854084015,
                        -0.043704770505428314,
                        0.11941634118556976,
                        -0.012731600552797318,
                        -0.7346959710121155,
                        0.5278787016868591,
                        1.1014832258224487,
                        0.19909897446632385,
                        0.09001478552818298
                    ],
                    [
                        -0.31215256452560425,
                        -0.7818765640258789,
                        0.12345948815345764,
                        0.2099093198776245,
                        -0.09295856952667236,
                        -0.23969197273254395,
                        -0.17824716866016388,
                        -0.0012265235418453813,
                        0.0013408538652583957,
                        -0.027353135868906975,
                        -0.13650140166282654,
                        -0.24903252720832825,
                        0.04464537650346756,
                        -0.008107728324830532,
                        -0.2742624580860138,
                        -0.2265005260705948,
                        0.058080803602933884,
                        0.04951183497905731,
                        -0.23609285056591034,
                        -0.021624598652124405,
                        0.03771808370947838,
                        -0.22490525245666504,
                        -0.34881964325904846,
                        -0.012011563405394554,
                        -0.24042029678821564,
                        -0.9307989478111267,
                        0.7898698449134827,
                        -0.5163909196853638,
                        -0.19450682401657104,
                        -0.005933711305260658,
                        0.3407120704650879,
                        -0.0695081427693367,
                        -0.1451595574617386,
                        0.32812821865081787,
                        0.8546552062034607,
                        0.5275030136108398
                    ],
                    [
                        -0.4641261696815491,
                        -0.043299201875925064,
                        -0.014727434143424034,
                        0.1479446142911911,
                        -0.10912440717220306,
                        -0.2719274163246155,
                        -0.12804916501045227,
                        0.26437804102897644,
                        0.18532618880271912,
                        -0.02867543138563633,
                        -0.32087865471839905,
                        -0.4195422828197479,
                        -0.02190529741346836,
                        0.0044011315330863,
                        -0.07670174539089203,
                        -0.022856738418340683,
                        0.007980521768331528,
                        -0.05391795188188553,
                        -0.2788030207157135,
                        -0.4973771870136261,
                        0.18647369742393494,
                        -0.17675405740737915,
                        -0.5517628788948059,
                        -0.0012408688198775053,
                        0.2166900783777237,
                        -0.018674319609999657,
                        -0.06909362971782684,
                        0.25654008984565735,
                        0.17095765471458435,
                        -0.17986734211444855,
                        -0.18464630842208862,
                        0.38811564445495605,
                        -0.5036709308624268,
                        0.34905028343200684,
                        0.525054395198822,
                        0.18864385783672333
                    ]
                ],
                [
                    [
                        0.008389218710362911,
                        0.010873902589082718,
                        0.1729915291070938,
                        0.23018310964107513,
                        0.2812807857990265,
                        -0.0044731320813298225,
                        -0.012838181108236313,
                        0.864815354347229,
                        0.1510864645242691,
                        0.3590405583381653,
                        0.23317120969295502,
                        0.2251090258359909,
                        -0.6089268326759338,
                        -0.01136233750730753,
                        1.992435097694397,
                        1.5844743251800537,
                        -0.8138884902000427,
                        -0.7507540583610535,
                        0.8372707366943359,
                        -0.6621183753013611,
                        -0.561850368976593,
                        1.7782622575759888,
                        1.7235956192016602,
                        -0.19247888028621674,
                        -0.06685695052146912,
                        -0.1884775161743164,
                        -0.17695637047290802,
                        0.17762379348278046,
                        0.009575090371072292,
                        -0.004385688807815313,
                        0.059285592287778854,
                        0.15817320346832275,
                        0.17988067865371704,
                        -0.043298911303281784,
                        -0.1847553253173828,
                        -0.11904754489660263
                    ],
                    [
                        0.017770862206816673,
                        -0.00549468444660306,
                        0.2105383425951004,
                        0.27632322907447815,
                        0.2681969404220581,
                        -0.024259155616164207,
                        -0.001810989691875875,
                        0.8383513689041138,
                        0.1276099681854248,
                        0.2965582013130188,
                        0.13658414781093597,
                        0.19883392751216888,
                        -0.6089268326759338,
                        -0.01136233750730753,
                        1.992444634437561,
                        1.5844779014587402,
                        -0.8138884902000427,
                        -0.7507540583610535,
                        0.8372880816459656,
                        -0.6621183753013611,
                        -0.561850368976593,
                        1.762420654296875,
                        1.7236649990081787,
                        -0.19247888028621674,
                        0.001706798211671412,
                        -0.20226964354515076,
                        -0.13803867995738983,
                        0.2938113510608673,
                        0.009871638379991055,
                        -0.045330680906772614,
                        0.3237810730934143,
                        -0.25232839584350586,
                        -0.004870153497904539,
                        -0.06377993524074554,
                        0.05016855150461197,
                        0.062063008546829224
                    ]
                ]
            ]
        },
        {
            "type": "dense",
            "activation": "",
            "shape": [
                null,
                null,
                1
            ],
            "weights": [
                [
                    [
                        -0.009760537184774876
                    ],
                    [
                        -0.014185427688062191
                    ],
                    [
                        -0.013943830505013466
                    ],
                    [
                        0.05672590434551239
                    ],
                    [
                        -0.2690217196941376
                    ],
                    [
                        0.4468475580215454
                    ],
                    [
                        -0.21766671538352966
                    ],
                    [
                        -0.542147696018219
                    ],
                    [
                        0.44616571068763733
                    ],
                    [
                        0.07839943468570709
                    ],
                    [
                        0.05717512592673302
                    ],
                    [
                        0.28860342502593994
                    ]
                ],
                [
                    0.0372915156185627
                ]
            ]
        }
    ]
}