{
    "in_shape": [
        null,
        null,
        1
    ],
    "in_skip": 1,
    "layers": [
        {
            "type": "lstm",
            "activation": "",
            "shape": [
                null,
                null,
                12
            ],
            "weights": [
                [
                    [
                        0.2166041135787964,
                        -0.28907421231269836,
                        -0.07858628034591675,
                        -0.258475124835968,
                        0.016650434583425522,
                        0.045325424522161484,
                        -0.10260993987321854,
                        0.14838099479675293,
                        -0.21824751794338226,
                        0.02475016750395298,
                        0.25650525093078613,
                        0.06512560695409775,
                        0.2655489444732666,
                        -0.033979907631874084,
                        -0.42530834674835205,
                        -0.0608556792140007,
                        -0.28491684794425964,
                        0.027017880231142044,
                        -0.02997402288019657,
                        0.2169090062379837,
                        0.06358255445957184,
                        0.07544645667076111,
                        0.0430196151137352,
                        -0.1342257261276245,
                        0.778093695640564,
                        0.7628099918365479,
                        -3.0920684337615967,
                        -0.28334304690361023,
                        -8.061321258544922,
                        0.7337510585784912,
                        0.020700454711914062,
                        -0.046498093754053116,
                        0.12557870149612427,
                        0.889385998249054,
                        1.3071527481079102,
                        0.09439390897750854,
                        -0.06819825619459152,
                        0.06074671819806099,
                        -0.10375633090734482,
                        -0.2014276683330536,
                        0.06334288418292999,
                        -0.12258785218000412,
                        0.10970853269100189,
                        0.14983953535556793,
                        -0.053887948393821716,
                        -0.18944063782691956,
                        -0.4453348219394684,
                        0.10942622274160385
                    ]
                ],
                [
                    [
                        0.012457691133022308,
                        -0.823846697807312,
                        0.44894567131996155,
                        -0.5036497712135315,
                        0.5343549251556396,
                        -0.3952426612377167,
                        -0.6540635228157043,
                        -0.2312670350074768,
                        0.018515698611736298,
                        -0.9383877515792847,
                        -0.7707424163818359,
                        -0.17547833919525146,
                        0.1855599582195282,
                        0.6242366433143616,
                        -0.9603420495986938,
                        0.25878778100013733,
                        -0.024184148758649826,
                        0.05823582410812378,
                        0.5145349502563477,
                        0.13875316083431244,
                        0.89238041639328,
                        0.21040098369121552,
                        0.39848360419273376,
                        -1.014711856842041,
                        0.19383570551872253,
                        -0.18686962127685547,
                        -0.029274826869368553,
                        0.10329927504062653,
                        0.2168511003255844,
                        0.4046645760536194,
                        -0.7945936918258667,
                        0.2574554681777954,
                        0.35805630683898926,
                        0.38203930854797363,
                        0.6068830490112305,
                        -0.48357200622558594,
                        0.43991658091545105,
                        0.05817486345767975,
                        0.38221099972724915,
                        -0.7997655272483826,
                        0.3668477535247803,
                        -0.22756268084049225,
                        -0.3056159019470215,
                        -0.2742636203765869,
                        0.31391751766204834,
                        -0.2869744598865509,
                        1.0243611335754395,
                        0.05583546683192253
                    ],
                    [
                        0.13182730972766876,
                        0.6162024736404419,
                        0.0012041805312037468,
                        -0.13673588633537292,
                        -0.09956707060337067,
                        -0.06001337990164757,
                        1.0167016983032227,
                        0.15370070934295654,
                        0.04144714027643204,
                        0.11719445139169693,
                        -0.0402081161737442,
                        0.8076080083847046,
                        0.3235782980918884,
                        -0.6287475824356079,
                        -0.204176127910614,
                        -0.3529154062271118,
                        -0.4252067804336548,
                        -0.39195334911346436,
                        0.19997423887252808,
                        -0.3742235600948334,
                        0.2698618471622467,
                        -0.14232032001018524,
                        0.13768865168094635,
                        -0.09319917112588882,
                        -0.10669562220573425,
                        0.39531445503234863,
                        0.6723810434341431,
                        -0.010727835819125175,
                        0.19123634696006775,
                        -0.25568750500679016,
                        0.27562403678894043,
                        -0.15299217402935028,
                        0.6225860714912415,
                        -0.12191402912139893,
                        -0.43965744972229004,
                        -0.17430232465267181,
                        -0.45134735107421875,
                        -0.25818097591400146,
                        0.04436522349715233,
                        -0.35706350207328796,
                        -0.1142638772726059,
                        -0.8520832657814026,
                        -0.37171152234077454,
                        -0.5560386776924133,
                        -0.09752170741558075,
                        -0.3713631331920624,
                        -1.1035484075546265,
                        0.29541879892349243
                    ],
                    [
                        -0.2903974950313568,
                        0.3019426465034485,
                        -0.06762256473302841,
                        -0.9967553019523621,
                        0.32142043113708496,
                        -0.100299172103405,
                        -0.032185375690460205,
                        0.23181071877479553,
                        -0.25697070360183716,
                        -0.5070267915725708,
                        0.9542879462242126,
                        0.815342128276825,
                        -0.1548866331577301,
                        0.24300023913383484,
                        -0.4294669032096863,
                        0.8351031541824341,
                        0.6383262872695923,
                        0.37669697403907776,
                        0.6174615621566772,
                        0.6265789866447449,
                        0.11181237548589706,
                        0.7416274547576904,
                        -0.6132805943489075,
                        -0.5592758655548096,
                        -0.2028212994337082,
                        0.05941428616642952,
                        -0.9402227401733398,
                        -0.3652375042438507,
                        1.782832145690918,
                        0.6345585584640503,
                        0.27753946185112,
                        -0.028602002188563347,
                        0.23177997767925262,
                        0.19146791100502014,
                        -1.7855862379074097,
                        0.37945830821990967,
                        -0.7180737257003784,
                        0.44223228096961975,
                        -0.08877131342887878,
                        -0.21599267423152924,
                        0.3056088089942932,
                        -0.21583257615566254,
                        0.6188644170761108,
                        0.3017362058162689,
                        0.21510909497737885,
                        0.15355117619037628,
                        1.2389194965362549,
                        0.3507657051086426
                    ],
                    [
                        -0.7055241465568542,
                        -0.6393101811408997,
                        0.24956832826137543,
                        -0.04390225559473038,
                        0.39717212319374084,
                        -0.7501220703125,
                        -0.7332941293716431,
                        0.11132322251796722,
                        0.07201065868139267,
                        -0.004172801040112972,
                        1.7334786653518677,
                        -1.1237801313400269,
                        -0.3649303913116455,
                        0.406819224357605,
                        -0.21318084001541138,
                        0.14618219435214996,
                        0.34221184253692627,
                        -0.9779965877532959,
                        0.3185209035873413,
                        0.6269071698188782,
                        0.24741195142269135,
                        -0.20212747156620026,
                        0.30255013704299927,
                        -0.5220455527305603,
                        -0.4594306945800781,
                        0.36999186873435974,
                        -0.686895489692688,
                        0.07869993150234222,
                        0.8450562953948975,
                        -0.955315113067627,
                        -0.6267844438552856,
                        -1.4404306411743164,
                        -0.02355092577636242,
                        0.19269487261772156,
                        -0.78114253282547,
                        1.7178289890289307,
                        -0.49870017170906067,
                        0.2666892409324646,
                        0.2626882791519165,
                        1.424047589302063,
                        0.8563448786735535,
                        0.5822736024856567,
                        -0.725281298160553,
                        1.2472432851791382,
                        0.05992397293448448,
                        0.5573396682739258,
                        -2.255669116973877,
                        -0.9781671762466431
                    ],
                    [
                        -0.07692316174507141,
                        0.08752021938562393,
                        -0.16100125014781952,
                        -0.14303290843963623,
                        0.011921904049813747,
                        0.07991502434015274,
                        0.8886703252792358,
                        -0.3114102780818939,
                        0.4376876652240753,
                        0.027292964980006218,
                        -0.26671135425567627,
                        1.0806647539138794,
                        -0.27394193410873413,
                        0.30698490142822266,
                        -0.18680502474308014,
                        0.24835997819900513,
                        -0.3611045181751251,
                        0.0009138943278230727,
                        0.27715322375297546,
                        -1.2676247358322144,
                        -0.0252610482275486,
                        1.0882660150527954,
                        0.27073875069618225,
                        -0.005238175857812166,
                        -0.3950665593147278,
                        -0.5997927188873291,
                        -0.906029999256134,
                        -0.08714538812637329,
                        0.5140290260314941,
                        0.4052024185657501,
                        0.2168072909116745,
                        -0.32920941710472107,
                        -0.32590246200561523,
                        -0.8482099175453186,
                        -8.624612808227539,
                        0.335437148809433,
                        -0.7956981658935547,
                        -0.1972123384475708,
                        -0.20963381230831146,
                        -0.6066507697105408,
                        -0.06467255204916,
                        0.3207031190395355,
                        -0.19072331488132477,
                        1.2042309045791626,
                        -0.0625932589173317,
                        -0.290304034948349,
                        -0.49538329243659973,
                        -0.0465364083647728
                    ],
                    [
                        -0.3516131639480591,
                        -0.8032475113868713,
                        0.21745890378952026,
                        -0.8684454560279846,
                        0.4996240437030792,
                        0.3951282501220703,
                        -1.0391796827316284,
                        0.2247888743877411,
                        -0.27566197514533997,
                        -0.5853328108787537,
                        0.04461106285452843,
                        0.5501512885093689,
                        -0.3529774248600006,
                        0.22252115607261658,
                        0.8753093481063843,
                        2.0587997436523438,
                        0.7102921605110168,
                        0.6585889458656311,
                        0.39781108498573303,
                        0.5596011281013489,
                        0.5311564207077026,
                        0.5038344860076904,
                        -0.5786519050598145,
                        -0.0784461721777916,
                        -0.3832167983055115,
                        0.07127251476049423,
                        0.27547991275787354,
                        -0.4141251742839813,
                        -0.3315823972225189,
                        -0.43594977259635925,
                        -0.15267887711524963,
                        -0.07148150354623795,
                        -0.20440435409545898,
                        -0.0006676719640381634,
                        0.4100643992424011,
                        0.6373443603515625,
                        0.5130014419555664,
                        0.013849383220076561,
                        0.21098165214061737,
                        -0.19103500247001648,
                        -0.009822682477533817,
                        0.26407796144485474,
                        0.6034116148948669,
                        0.08058977127075195,
                        0.553450345993042,
                        0.4418158531188965,
                        1.3375095129013062,
                        0.6971629858016968
                    ],
                    [
                        0.39472612738609314,
                        0.17965976893901825,
                        -0.06993520259857178,
                        0.03616923466324806,
                        -0.5475117564201355,
                        0.2595522105693817,
                        0.12766186892986298,
                        0.10192466527223587,
                        0.30443793535232544,
                        0.47655510902404785,
                        -1.2219773530960083,
                        -0.701294481754303,
                        0.3918856680393219,
                        -0.3113872706890106,
                        -0.11783881485462189,
                        -0.4302441477775574,
                        -1.0977166891098022,
                        -0.10011563450098038,
                        -0.6591556072235107,
                        -0.20224718749523163,
                        0.05111216381192207,
                        -0.39284342527389526,
                        0.42821669578552246,
                        0.370182603597641,
                        -0.10039524734020233,
                        -0.008916369639337063,
                        -0.6449507474899292,
                        -0.402973473072052,
                        0.44867801666259766,
                        0.2757543921470642,
                        0.06057758256793022,
                        -0.2822079062461853,
                        0.2858703136444092,
                        -0.29333192110061646,
                        0.20554211735725403,
                        -0.4424097239971161,
                        0.5428760051727295,
                        -0.48421499133110046,
                        -0.048471372574567795,
                        1.14858877658844,
                        -0.8641815185546875,
                        -0.26363813877105713,
                        -0.4879549741744995,
                        -0.3601788878440857,
                        -0.649339497089386,
                        0.12850235402584076,
                        -1.6518690586090088,
                        -0.6632481217384338
                    ],
                    [
                        0.21385186910629272,
                        0.9236255884170532,
                        -0.6253361701965332,
                        0.3551127314567566,
                        -0.9614508152008057,
                        -0.2875254452228546,
                        0.5038354396820068,
                        0.013614846393465996,
                        0.9256956577301025,
                        0.78724604845047,
                        -2.603475332260132,
                        0.23941412568092346,
                        -0.02089226432144642,
                        -0.59355628490448,
                        0.07392725348472595,
                        -0.9593726396560669,
                        -0.8905814290046692,
                        -0.37962961196899414,
                        -0.5800119638442993,
                        -0.25315824151039124,
                        -1.0513595342636108,
                        -1.2381319999694824,
                        -0.7416738867759705,
                        1.1154190301895142,
                        -0.4060518443584442,
                        0.06626453995704651,
                        -0.5246926546096802,
                        -0.43769755959510803,
                        0.45582839846611023,
                        -0.0694122165441513,
                        0.255959153175354,
                        0.2594240605831146,
                        0.26897352933883667,
                        0.05139892175793648,
                        -0.07376528531312943,
                        -0.3519713878631592,
                        -0.027008134871721268,
                        -0.7326204776763916,
                        -0.6477932929992676,
                        -0.7817308306694031,
                        -1.1819322109222412,
                        -0.8479950428009033,
                        0.26242226362228394,
                        -0.8994659781455994,
                        -0.26576751470565796,
                        -0.41923320293426514,
                        0.4360436797142029,
                        0.5989415049552917
                    ],
                    [
                        0.32028645277023315,
                        0.0002877656079363078,
                        0.13424590229988098,
                        -0.017303435131907463,
                        0.025131408125162125,
                        -0.7816941142082214,
                        0.26014000177383423,
                        -0.4734765887260437,
                        -0.10611610859632492,
                        0.3558822572231293,
                        0.3291865587234497,
                        -0.5199175477027893,
                        0.598459780216217,
                        0.49220722913742065,
                        0.18670086562633514,
                        -0.20188844203948975,
                        0.11744098365306854,
                        -0.39337489008903503,
                        -0.031572695821523666,
                        -0.3149004280567169,
                        -0.25379282236099243,
                        0.0007668584585189819,
                        0.6080146431922913,
                        0.17694950103759766,
                        0.03595096617937088,
                        -0.7475072741508484,
                        0.0263515617698431,
                        -0.07910986989736557,
                        0.2648797929286957,
                        0.10582029819488525,
                        -0.4176313579082489,
                        -0.041470952332019806,
                        0.2491302341222763,
                        -0.015123196877539158,
                        0.18318788707256317,
                        0.3174949586391449,
                        0.1853303611278534,
                        -0.26686179637908936,
                        0.11841151863336563,
                        -0.7010474801063538,
                        0.0787128210067749,
                        0.4310745894908905,
                        0.041702788323163986,
                        0.5628061294555664,
                        0.3497863709926605,
                        0.027454225346446037,
                        -0.6555236577987671,
                        0.3435932397842407
                    ],
                    [
                        0.563282310962677,
                        -0.026993216946721077,
                        -0.34939172863960266,
                        0.5928115248680115,
                        -0.2837979793548584,
                        0.16813711822032928,
                        0.5775717496871948,
                        0.11027173697948456,
                        0.38455909490585327,
                        0.6791503429412842,
                        0.3170450031757355,
                        0.25612378120422363,
                        -0.0171671025454998,
                        -0.9205232262611389,
                        -0.2784251868724823,
                        0.18042124807834625,
                        -0.4298758804798126,
                        -0.4393303394317627,
                        -0.35763874650001526,
                        -0.269658625125885,
                        -0.8970915675163269,
                        -0.3939479887485504,
                        -0.30589327216148376,
                        -0.3585793375968933,
                        0.7479186654090881,
                        0.06517218798398972,
                        1.6641584634780884,
                        -0.21447445452213287,
                        1.6009442806243896,
                        -0.7402751445770264,
                        -0.2503603398799896,
                        -0.0659499317407608,
                        -0.3378749191761017,
                        0.0914357528090477,
                        -0.8914777636528015,
                        -0.7204225063323975,
                        -0.5412786602973938,
                        -0.35951974987983704,
                        -0.3287951946258545,
                        0.5712506771087646,
                        -0.09913842380046844,
                        -0.39941367506980896,
                        -0.17807741463184357,
                        0.29595324397087097,
                        -0.27497807145118713,
                        -0.7566599249839783,
                        -0.7973653674125671,
                        -0.5265424847602844
                    ],
                    [
                        -0.3265969157218933,
                        -0.14498358964920044,
                        -0.7690418362617493,
                        0.27842649817466736,
                        -0.196163609623909,
                        -1.517154335975647,
                        -0.7030091881752014,
                        -0.20406219363212585,
                        0.4521724283695221,
                        -0.02972530759871006,
                        0.2617528736591339,
                        -0.3116188645362854,
                        0.10494718700647354,
                        -0.6823727488517761,
                        -0.4150972068309784,
                        2.2244279384613037,
                        -0.5328353047370911,
                        -0.1527024507522583,
                        0.4191196858882904,
                        0.08094538748264313,
                        -0.2669602036476135,
                        -0.7800132036209106,
                        0.08363126963376999,
                        -0.8984778523445129,
                        -0.021544665098190308,
                        -0.1633659303188324,
                        0.09760858118534088,
                        0.20308922231197357,
                        0.09313389658927917,
                        0.9756649136543274,
                        -0.7053498029708862,
                        0.06401355564594269,
                        0.9820510745048523,
                        0.017519494518637657,
                        1.8908557891845703,
                        -2.077392578125,
                        -0.3278517723083496,
                        0.25429245829582214,
                        -0.8805373907089233,
                        -0.17324987053871155,
                        -0.9438232779502869,
                        0.6835452318191528,
                        0.3273404538631439,
                        0.06087120994925499,
                        -0.4547061026096344,
                        0.29418399930000305,
                        0.8481115698814392,
                        0.048193469643592834
                    ],
                    [
                        0.48285990953445435,
                        -0.46065109968185425,
                        -0.2700084149837494,
                        -1.1089328527450562,
                        0.5968154668807983,
                        -0.5314490795135498,
                        0.03538582846522331,
                        -0.39451807737350464,
                        -0.5048993825912476,
                        -0.17287121713161469,
                        -0.25476059317588806,
                        0.06391969323158264,
                        0.6635546684265137,
                        0.587909996509552,
                        -0.530488908290863,
                        0.9641507863998413,
                        0.20248587429523468,
                        -0.04816374182701111,
                        1.0928056240081787,
                        -0.003395073115825653,
                        0.4242364168167114,
                        0.6797581911087036,
                        -1.4457913637161255,
                        0.13014575839042664,
                        0.29146650433540344,
                        -0.02085035666823387,
                        0.2753732204437256,
                        -0.43650469183921814,
                        -0.17532052099704742,
                        0.8026862740516663,
                        0.08305608481168747,
                        0.31770244240760803,
                        0.8759713768959045,
                        -0.20584820210933685,
                        0.02870115265250206,
                        -0.29094788432121277,
                        -0.572784423828125,
                        0.6221840381622314,
                        -0.29173794388771057,
                        0.4546736478805542,
                        1.2364917993545532,
                        0.5779241323471069,
                        0.5021582245826721,
                        -0.5845486521720886,
                        0.33944499492645264,
                        0.8961965441703796,
                        0.5673490166664124,
                        -0.3660544753074646
                    ]
                ],
                [
                    0.3254614770412445,
                    -2.3676462173461914,
                    1.7144560813903809,
                    -2.206395387649536,
                    2.063565969467163,
                    0.09791339933872223,
                    -1.5732030868530273,
                    -0.5566903948783875,
                    -3.0985312461853027,
                    -2.273923635482788,
                    -0.7169153690338135,
                    0.6146506071090698,
                    1.2258849143981934,
                    3.4654345512390137,
                    -0.4852467179298401,
                    1.7222906351089478,
                    -1.4169249534606934,
                    0.33055418729782104,
                    1.9200778007507324,
                    0.6968799233436584,
                    3.64001727104187,
                    3.205683708190918,
                    0.22912073135375977,
                    -0.7185630798339844,
                    0.6873826384544373,
                    0.05899651721119881,
                    0.3557310104370117,
                    0.06110290437936783,
                    0.5372740030288696,
                    0.17671340703964233,
                    0.23792219161987305,
                    -0.5628709197044373,
                    -0.23403431475162506,
                    -0.4260127544403076,
                    -0.17491784691810608,
                    0.0796639621257782,
                    0.9542146921157837,
                    0.019731123000383377,
                    1.7499282360076904,
                    1.292433261871338,
                    1.3794708251953125,
                    0.4757091999053955,
                    0.590984582901001,
                    0.8526843190193176,
                    0.06993421167135239,
                    1.140971302986145,
                    -1.058149814605713,
                    0.9600064754486084
                ]
            ]
        },
        {
            "type": "dense",
            "activation": "",
            "shape": [
                null,
                null,
                1
            ],
            "weights": [
                [
                    [
                        -0.2035195678472519
                    ],
                    [
                        -0.347993940114975
                    ],
                    [
                        0.40365707874298096
                    ],
                    [
                        0.5504101514816284
                    ],
                    [
                        0.1765410155057907
                    ],
                    [
                        0.15988773107528687
                    ],
                    [
                        0.024311717599630356
                    ],
                    [
                        0.22774308919906616
                    ],
                    [
                        -0.6066465973854065
                    ],
                    [
                        -0.16626890003681183
                    ],
                    [
                        -0.3176588714122772
                    ],
                    [
                        -0.3309248387813568
                    ]
                ],
                [
                    0.019396083429455757
                ]
            ]
        }
    ]
}