{
    "in_shape": [
        null,
        null,
        1
    ],
    "in_skip": 1,
    "layers": [
        {
            "type": "lstm",
            "activation": "",
            "shape": [
                null,
                null,
                16
            ],
            "weights": [
                [
                    [
                        0.03448495268821716,
                        -0.013570042327046394,
                        -0.2377178966999054,
                        0.04493481665849686,
                        0.0021777325309813023,
                        -0.078985296189785,
                        0.010832065716385841,
                        0.021883103996515274,
                        0.07417697459459305,
                        0.013928314670920372,
                        0.009657492861151695,
                        0.009216541424393654,
                        0.21730609238147736,
                        -0.044375453144311905,
                        0.02523723803460598,
                        0.06224534288048744,
                        0.010955430567264557,
                        0.025050977244973183,
                        0.013658692128956318,
                        0.05487048253417015,
                        -0.009946494363248348,
                        -0.06655055284500122,
                        -0.14196504652500153,
                        0.12054046243429184,
                        -0.04704437777400017,
                        0.013052113354206085,
                        0.06655362248420715,
                        -0.08551938086748123,
                        0.09985978156328201,
                        0.012320861220359802,
                        -0.06614071875810623,
                        0.08606326580047607,
                        0.7062914967536926,
                        -0.21336601674556732,
                        0.09297826141119003,
                        -0.045983679592609406,
                        -4.114358425140381,
                        -0.2831171452999115,
                        6.864989280700684,
                        -0.20185627043247223,
                        0.11368639022111893,
                        -0.7752461433410645,
                        0.17488260567188263,
                        -0.007133968640118837,
                        0.8010803461074829,
                        -0.03531968593597412,
                        0.7388094663619995,
                        1.216371774673462,
                        0.08341352641582489,
                        0.08398954570293427,
                        -0.21049779653549194,
                        0.06723551452159882,
                        0.0025478084571659565,
                        -0.05232754349708557,
                        -0.021890748292207718,
                        0.08868526667356491,
                        -0.017773162573575974,
                        -0.07484181225299835,
                        0.07901053130626678,
                        -0.01354033313691616,
                        -0.08207622170448303,
                        0.06707658618688583,
                        -0.020453110337257385,
                        -0.05528509244322777
                    ]
                ],
                [
                    [
                        0.020222220569849014,
                        -0.11505556851625443,
                        -0.1789112687110901,
                        0.3952001929283142,
                        -0.14538878202438354,
                        -0.4642251133918762,
                        -0.7496561408042908,
                        -0.11524695158004761,
                        -0.13194066286087036,
                        -0.05361436679959297,
                        -0.05098690092563629,
                        0.21018825471401215,
                        0.38004815578460693,
                        -0.017793795093894005,
                        0.10588377714157104,
                        -0.8476148843765259,
                        0.5203880071640015,
                        0.14020442962646484,
                        -0.41640105843544006,
                        0.1581532061100006,
                        -0.0322442352771759,
                        -0.6301242709159851,
                        -0.5555147528648376,
                        -0.1915542185306549,
                        -0.7228646874427795,
                        0.1575317233800888,
                        -0.13472603261470795,
                        0.16844435036182404,
                        0.037964850664138794,
                        -0.2698066234588623,
                        -0.3033744990825653,
                        0.5562795996665955,
                        0.0028441178146749735,
                        -0.18782758712768555,
                        -0.3429163992404938,
                        -0.22573097050189972,
                        0.9534906148910522,
                        -1.1623353958129883,
                        -1.1301095485687256,
                        0.07092099636793137,
                        -0.03717498853802681,
                        -0.34788110852241516,
                        -0.17413273453712463,
                        0.06114109605550766,
                        0.2369493991136551,
                        -0.0015711949672549963,
                        0.18287813663482666,
                        -0.11614377796649933,
                        -0.15915419161319733,
                        0.5128225088119507,
                        -0.16376112401485443,
                        0.4245244264602661,
                        -0.14587600529193878,
                        -0.7644484043121338,
                        -0.334781676530838,
                        -0.2837696373462677,
                        -0.15663957595825195,
                        0.0038890750147402287,
                        -0.16647066175937653,
                        -0.31439995765686035,
                        0.009821219369769096,
                        -0.10640044510364532,
                        0.0921708345413208,
                        0.5485672354698181
                    ],
                    [
                        0.05033523216843605,
                        0.1166389063000679,
                        0.37217408418655396,
                        0.5095863342285156,
                        0.15864399075508118,
                        -0.1786470115184784,
                        -0.8973212838172913,
                        0.0029956947546452284,
                        -0.1443323791027069,
                        0.07191047817468643,
                        -0.0038631404750049114,
                        -0.4616539776325226,
                        -0.04830595478415489,
                        -0.45006558299064636,
                        -0.4371727705001831,
                        -1.1130510568618774,
                        0.36298397183418274,
                        -0.18712732195854187,
                        -0.17950047552585602,
                        -0.4245683252811432,
                        0.009370815008878708,
                        -0.04427338019013405,
                        -0.4849955439567566,
                        -0.2525358498096466,
                        -0.38752034306526184,
                        0.17726008594036102,
                        -0.09283886849880219,
                        -0.4081520438194275,
                        0.2271893322467804,
                        -0.3016120493412018,
                        -0.009222458116710186,
                        0.21501831710338593,
                        -0.29728689789772034,
                        -0.015545733273029327,
                        -0.2761217951774597,
                        -0.035499051213264465,
                        -0.17317719757556915,
                        -0.13509652018547058,
                        -0.19891861081123352,
                        -0.432299941778183,
                        0.02948072925209999,
                        -0.43639034032821655,
                        -0.018629152327775955,
                        0.008821597322821617,
                        -0.499309241771698,
                        -0.2850823700428009,
                        0.36770108342170715,
                        -0.25366494059562683,
                        0.09376224130392075,
                        0.4365866482257843,
                        0.6584227681159973,
                        0.6053177714347839,
                        0.15594641864299774,
                        -0.22518962621688843,
                        0.0836840569972992,
                        -0.6885079145431519,
                        -0.16784188151359558,
                        -0.15204863250255585,
                        -0.3572500944137573,
                        0.1076451987028122,
                        0.46168652176856995,
                        0.04089425504207611,
                        0.277393102645874,
                        1.2692683935165405
                    ],
                    [
                        0.334690660238266,
                        0.2403312772512436,
                        0.3065797686576843,
                        -0.1987449675798416,
                        0.09009208530187607,
                        -0.5202656984329224,
                        -0.5332181453704834,
                        -0.14684180915355682,
                        -0.1528467833995819,
                        0.028855452314019203,
                        0.012505304999649525,
                        -0.004484873730689287,
                        0.2364664226770401,
                        -0.6326531767845154,
                        0.3315187692642212,
                        -0.6005173921585083,
                        -0.5235695838928223,
                        0.0438939668238163,
                        -0.3231768310070038,
                        -0.011278542689979076,
                        -0.001490173046477139,
                        -0.6128485798835754,
                        -0.5346129536628723,
                        -0.030001427978277206,
                        -0.038940735161304474,
                        0.2494848370552063,
                        -0.0147854033857584,
                        -0.004581504035741091,
                        0.19069841504096985,
                        -0.27703678607940674,
                        -0.13611505925655365,
                        -0.20187899470329285,
                        -0.013010022230446339,
                        -0.023153498768806458,
                        0.1018083393573761,
                        -0.031113019213080406,
                        0.14703848958015442,
                        0.015425830148160458,
                        0.8424628973007202,
                        0.20483139157295227,
                        -0.536532461643219,
                        -0.008173909038305283,
                        0.19170831143856049,
                        0.40267038345336914,
                        0.06664019823074341,
                        0.32316023111343384,
                        0.32815051078796387,
                        0.7218334078788757,
                        0.4850148558616638,
                        0.4263817369937897,
                        0.5849963426589966,
                        -0.27660244703292847,
                        0.08566158264875412,
                        -0.6343243718147278,
                        -0.0362904816865921,
                        -0.13719303905963898,
                        -0.20007985830307007,
                        -0.1128905639052391,
                        -0.46928244829177856,
                        -0.23198339343070984,
                        0.48451900482177734,
                        -0.16144618391990662,
                        0.061785828322172165,
                        -0.436703085899353
                    ],
                    [
                        0.4331933259963989,
                        0.29885461926460266,
                        0.21135550737380981,
                        -0.20473612844944,
                        -0.19098851084709167,
                        0.1824045330286026,
                        0.025244051590561867,
                        0.036965370178222656,
                        0.04542525112628937,
                        -0.18416659533977509,
                        0.04314826428890228,
                        0.189414843916893,
                        0.37195029854774475,
                        0.221116304397583,
                        0.3053334653377533,
                        0.372733473777771,
                        0.10311716049909592,
                        -0.13329027593135834,
                        0.1330147236585617,
                        -0.08085565268993378,
                        -0.20418354868888855,
                        -0.08066988736391068,
                        0.17107857763767242,
                        -0.4063066244125366,
                        0.18338844180107117,
                        -0.2972753047943115,
                        0.0998578816652298,
                        0.011206197552382946,
                        -0.23783352971076965,
                        0.07338108867406845,
                        -0.021004008129239082,
                        0.24508237838745117,
                        0.03264455124735832,
                        0.11772879213094711,
                        0.010019117034971714,
                        -0.7571640014648438,
                        -0.2727120518684387,
                        0.05534955859184265,
                        -0.3831592798233032,
                        -0.0492100864648819,
                        0.05670115351676941,
                        -0.8786041736602783,
                        -0.1572689414024353,
                        -0.3130412995815277,
                        -0.17818523943424225,
                        -0.3010334074497223,
                        0.7119824886322021,
                        -0.10509136319160461,
                        -0.207025945186615,
                        -0.9321054816246033,
                        -0.15606646239757538,
                        0.036293212324380875,
                        -0.1852719634771347,
                        0.17522618174552917,
                        -0.021032260730862617,
                        0.6473196148872375,
                        -0.0018662007059901953,
                        -0.06259730458259583,
                        -0.20301146805286407,
                        -0.31186479330062866,
                        -0.014149773865938187,
                        -0.0879969522356987,
                        0.07871495187282562,
                        0.3385053277015686
                    ],
                    [
                        0.11161128431558609,
                        0.07517531514167786,
                        -0.6161106824874878,
                        0.01636606454849243,
                        -0.003258056938648224,
                        -0.12033520638942719,
                        -0.2015112042427063,
                        -0.093754343688488,
                        -0.08017866313457489,
                        0.009417329914867878,
                        -0.03139813616871834,
                        0.11784713715314865,
                        -0.4236072301864624,
                        -0.24533914029598236,
                        0.19579902291297913,
                        -0.17224036157131195,
                        -0.18588592112064362,
                        -0.03579841926693916,
                        -0.11729758977890015,
                        -0.03271675854921341,
                        -0.10143322497606277,
                        -0.17538462579250336,
                        -0.000771639053709805,
                        0.21749365329742432,
                        -0.21945154666900635,
                        -0.011305431835353374,
                        0.03173220157623291,
                        -0.019180603325366974,
                        0.011126691475510597,
                        -0.118280328810215,
                        -0.29378315806388855,
                        -0.1774296760559082,
                        0.12059693783521652,
                        0.37030938267707825,
                        0.39656123518943787,
                        0.2588914930820465,
                        -1.6821577548980713,
                        -0.2711922526359558,
                        -2.3801591396331787,
                        -0.2682015597820282,
                        -0.14413294196128845,
                        1.5680181980133057,
                        0.11186778545379639,
                        0.1957818567752838,
                        -0.036435049027204514,
                        0.30611419677734375,
                        -0.30478721857070923,
                        -1.3468668460845947,
                        0.30298566818237305,
                        0.5788699984550476,
                        0.2641262710094452,
                        -0.04570676013827324,
                        -0.005433317739516497,
                        0.15419961512088776,
                        0.002525043673813343,
                        -0.8881504535675049,
                        -0.2845210134983063,
                        -0.46258607506752014,
                        -0.10729654133319855,
                        0.062117964029312134,
                        0.06954888999462128,
                        -0.0013514350866898894,
                        -0.08877849578857422,
                        0.6990941166877747
                    ],
                    [
                        0.799795389175415,
                        0.029242200776934624,
                        -0.03651072457432747,
                        0.38152822852134705,
                        -0.13360458612442017,
                        0.3519827127456665,
                        -0.10338591039180756,
                        -0.11260990798473358,
                        -0.21197520196437836,
                        -0.04047989472746849,
                        -0.04874700307846069,
                        -0.07568230479955673,
                        -0.06447868794202805,
                        -0.02548966370522976,
                        -0.05323042348027229,
                        -0.07239968329668045,
                        -0.27522972226142883,
                        0.14113518595695496,
                        -0.24865777790546417,
                        0.4451877474784851,
                        0.16642749309539795,
                        0.42827844619750977,
                        -0.17402368783950806,
                        0.0004544166731648147,
                        -0.18847322463989258,
                        0.179412841796875,
                        -0.0442400723695755,
                        -0.01595759019255638,
                        -0.44956517219543457,
                        -0.518898606300354,
                        -0.33087319135665894,
                        0.10756520926952362,
                        -0.07359534502029419,
                        -0.16165445744991302,
                        0.06765231490135193,
                        -0.28392037749290466,
                        0.1558585911989212,
                        0.045840222388505936,
                        -0.1384483277797699,
                        0.266503244638443,
                        -0.010415474884212017,
                        0.10751854628324509,
                        -0.017688633874058723,
                        0.08562390506267548,
                        -0.05267591029405594,
                        0.09238740801811218,
                        0.4071577191352844,
                        0.2862098217010498,
                        0.7178817391395569,
                        -0.4158259630203247,
                        -0.1368243247270584,
                        -0.3141758143901825,
                        -0.13566486537456512,
                        0.2954334318637848,
                        -0.1546504646539688,
                        -0.09753765165805817,
                        -0.12342864274978638,
                        0.17722609639167786,
                        -0.11492634564638138,
                        0.21072454750537872,
                        0.6515377759933472,
                        -0.18377193808555603,
                        -0.06609193980693817,
                        -0.4415416717529297
                    ],
                    [
                        0.11796070635318756,
                        0.29682695865631104,
                        -0.6035401225090027,
                        0.42720362544059753,
                        -0.053853075951337814,
                        -0.15081830322742462,
                        -0.22636546194553375,
                        -0.07482690364122391,
                        0.2807784974575043,
                        -0.04726528748869896,
                        -0.08422233164310455,
                        0.02542620711028576,
                        0.3047897219657898,
                        -0.09350991994142532,
                        0.37759971618652344,
                        0.10317617654800415,
                        -0.44702550768852234,
                        -0.23625890910625458,
                        -0.39085066318511963,
                        0.35997915267944336,
                        -0.09209036082029343,
                        -0.08751789480447769,
                        -0.2677711248397827,
                        1.0270826816558838,
                        0.017011158168315887,
                        -0.07922424376010895,
                        0.19152484834194183,
                        -0.20409761369228363,
                        0.18142470717430115,
                        -0.02133890800178051,
                        -0.45121026039123535,
                        0.10391059517860413,
                        1.178087830543518,
                        0.19980865716934204,
                        -0.7358167171478271,
                        -0.30152127146720886,
                        1.4520267248153687,
                        0.31445908546447754,
                        1.2317686080932617,
                        -1.301714539527893,
                        0.16810667514801025,
                        0.40371376276016235,
                        0.7654921412467957,
                        0.5222504734992981,
                        0.5754719376564026,
                        0.16802725195884705,
                        0.4445870518684387,
                        6.987138748168945,
                        -0.13660547137260437,
                        0.8191494941711426,
                        -0.3748731315135956,
                        -0.16934971511363983,
                        -0.05553584545850754,
                        0.029781555756926537,
                        -0.08373735100030899,
                        -1.1430127620697021,
                        -0.165838360786438,
                        -1.196475625038147,
                        -0.023579513654112816,
                        -0.061062291264534,
                        0.10172285884618759,
                        0.2272135317325592,
                        -0.10904064029455185,
                        1.300156593322754
                    ],
                    [
                        0.5712578296661377,
                        0.6891355514526367,
                        0.12493092566728592,
                        0.26425278186798096,
                        -0.17960689961910248,
                        0.08845232427120209,
                        -1.2655845880508423,
                        -0.6291499137878418,
                        0.18666450679302216,
                        -0.3654620945453644,
                        0.052943192422389984,
                        0.7022845149040222,
                        0.6083996295928955,
                        0.07772943377494812,
                        0.9539010524749756,
                        -0.7205736041069031,
                        -0.8725280165672302,
                        -0.6029678583145142,
                        -0.35464268922805786,
                        -0.24064210057258606,
                        -0.05085809528827667,
                        -0.054968107491731644,
                        -0.9395115971565247,
                        -0.3167443573474884,
                        0.13694891333580017,
                        -0.44038066267967224,
                        -0.135072261095047,
                        -0.2831050753593445,
                        -0.5371353030204773,
                        -0.7734065055847168,
                        -0.8050095438957214,
                        0.7974898815155029,
                        -0.05672510713338852,
                        0.2197411209344864,
                        -0.09614627808332443,
                        -0.20064596831798553,
                        -0.17754000425338745,
                        0.10560131818056107,
                        -0.1652756929397583,
                        0.1885010302066803,
                        -0.02837728150188923,
                        -1.1227667331695557,
                        -0.2401726245880127,
                        0.19611144065856934,
                        -0.17910490930080414,
                        0.04870986565947533,
                        -0.3373527228832245,
                        -0.9582169055938721,
                        -0.2860764265060425,
                        -0.006542255636304617,
                        -0.33134976029396057,
                        0.7637820243835449,
                        -0.18803423643112183,
                        -0.19340457022190094,
                        -0.505077600479126,
                        -0.33212149143218994,
                        -0.20755158364772797,
                        -0.6562150120735168,
                        -0.7167320847511292,
                        -0.31150439381599426,
                        -0.008049222640693188,
                        -0.6745789051055908,
                        -0.49048325419425964,
                        0.0673689991235733
                    ],
                    [
                        -0.7257224321365356,
                        -0.45761820673942566,
                        -0.908037543296814,
                        -0.4704878628253937,
                        0.6606940627098083,
                        0.005638349801301956,
                        0.6216998100280762,
                        0.3513202369213104,
                        0.16435198485851288,
                        0.38715729117393494,
                        0.19189831614494324,
                        -0.412830114364624,
                        -0.611183762550354,
                        -0.23898199200630188,
                        -0.6644860506057739,
                        1.0876197814941406,
                        1.1576544046401978,
                        0.9025283455848694,
                        0.8321160674095154,
                        -0.049046218395233154,
                        -0.2280276119709015,
                        0.11532572656869888,
                        -0.03228769451379776,
                        -0.0870480090379715,
                        0.5003817677497864,
                        -0.33387961983680725,
                        0.21918265521526337,
                        0.6558445692062378,
                        1.2019414901733398,
                        0.8211560845375061,
                        1.1117620468139648,
                        0.23882398009300232,
                        0.09631925821304321,
                        0.3558708131313324,
                        -0.49777886271476746,
                        0.034544575959444046,
                        -0.023123594000935555,
                        -0.2916984260082245,
                        -0.4555789530277252,
                        -0.019827980548143387,
                        0.5773805975914001,
                        0.035562146455049515,
                        0.18039554357528687,
                        0.3603648245334625,
                        -0.02466502971947193,
                        -0.1715986430644989,
                        0.2504981458187103,
                        -0.3236925005912781,
                        0.22648940980434418,
                        0.06458677351474762,
                        -0.36955446004867554,
                        -0.17300891876220703,
                        0.6623165011405945,
                        0.05749710276722908,
                        0.7721034288406372,
                        0.5095855593681335,
                        0.6663072109222412,
                        0.15879371762275696,
                        0.4549858570098877,
                        0.34084445238113403,
                        0.20299628376960754,
                        0.4364170730113983,
                        0.39333274960517883,
                        0.14070887863636017
                    ],
                    [
                        0.438432514667511,
                        0.27919164299964905,
                        0.38448891043663025,
                        0.22328980267047882,
                        -0.16286912560462952,
                        -0.2354964017868042,
                        -0.14709483087062836,
                        0.16612102091312408,
                        0.3062962591648102,
                        -0.01368009578436613,
                        -0.24512742459774017,
                        0.1761937141418457,
                        0.4982050359249115,
                        -0.044490475207567215,
                        0.21402688324451447,
                        1.9523301124572754,
                        -0.49990084767341614,
                        -0.9876123666763306,
                        0.00812220387160778,
                        -0.06347222626209259,
                        0.4580651819705963,
                        0.28004929423332214,
                        0.753828227519989,
                        1.133853793144226,
                        0.22598178684711456,
                        0.8204538822174072,
                        -0.17082536220550537,
                        -0.1393490582704544,
                        -0.24804988503456116,
                        0.7539649605751038,
                        -0.48530757427215576,
                        -0.6056397557258606,
                        -0.30182287096977234,
                        -0.1703168749809265,
                        -0.2020481526851654,
                        -0.6128860712051392,
                        -0.44094735383987427,
                        0.1368693709373474,
                        -0.4043896496295929,
                        0.2435975968837738,
                        0.030011063441634178,
                        -0.17994019389152527,
                        -0.04814234748482704,
                        0.07585292309522629,
                        -0.044711120426654816,
                        0.3693987727165222,
                        0.5834040641784668,
                        -0.4816477298736572,
                        -0.3853323757648468,
                        -0.239403635263443,
                        -0.20039989054203033,
                        -0.3874809741973877,
                        -0.17761775851249695,
                        -0.4830000698566437,
                        -0.06772271543741226,
                        0.3828796148300171,
                        0.08983884751796722,
                        -0.2250843495130539,
                        0.20852522552013397,
                        -0.4392215311527252,
                        -0.146143838763237,
                        0.14028409123420715,
                        -0.21574971079826355,
                        -0.34898507595062256
                    ],
                    [
                        -0.8294743299484253,
                        -0.7912530303001404,
                        -0.7679581046104431,
                        -0.014659835956990719,
                        0.6350932121276855,
                        -0.08396182954311371,
                        0.6007251739501953,
                        0.3320407271385193,
                        -0.12985485792160034,
                        0.4751330018043518,
                        0.174272358417511,
                        -0.4974433183670044,
                        -0.7945258617401123,
                        -0.45635613799095154,
                        -0.8759281635284424,
                        0.22098392248153687,
                        1.1621084213256836,
                        0.9659492373466492,
                        0.8403598666191101,
                        0.28940755128860474,
                        -0.29419541358947754,
                        0.005633651278913021,
                        0.11092738062143326,
                        0.07575222849845886,
                        0.2727077603340149,
                        -0.16930651664733887,
                        0.2561958134174347,
                        0.7000536322593689,
                        1.182137370109558,
                        0.40181460976600647,
                        1.2327228784561157,
                        -0.00705602765083313,
                        0.11078592389822006,
                        0.08954548090696335,
                        -0.03715941682457924,
                        0.08668427914381027,
                        0.40291568636894226,
                        0.17904117703437805,
                        0.1534588783979416,
                        -0.2548183500766754,
                        0.3642062246799469,
                        -0.20770275592803955,
                        0.12593944370746613,
                        0.4095058739185333,
                        0.04617028683423996,
                        -0.1005048081278801,
                        -0.11815915256738663,
                        -0.00025579024804756045,
                        0.3453226685523987,
                        0.22145842015743256,
                        -0.05049508437514305,
                        0.1655588448047638,
                        0.6369630694389343,
                        -0.0785190686583519,
                        0.7273531556129456,
                        0.2411460131406784,
                        0.5958846807479858,
                        0.18563292920589447,
                        0.5148537755012512,
                        0.30459773540496826,
                        0.16981643438339233,
                        0.4376913905143738,
                        0.4232039153575897,
                        0.026315949857234955
                    ],
                    [
                        -0.5956131815910339,
                        -0.6609585881233215,
                        -0.6175317764282227,
                        -0.13199912011623383,
                        0.5802941918373108,
                        -0.04375946894288063,
                        0.3649590313434601,
                        0.253833532333374,
                        0.034749772399663925,
                        0.4501087963581085,
                        0.17244544625282288,
                        -0.27343910932540894,
                        -1.0523481369018555,
                        -0.4656268060207367,
                        -0.6556975245475769,
                        0.44925907254219055,
                        1.245017170906067,
                        0.8178258538246155,
                        0.8042780756950378,
                        0.10779424011707306,
                        -0.27882957458496094,
                        0.07528222352266312,
                        0.11407098919153214,
                        0.004704000428318977,
                        0.4475395381450653,
                        0.12197616696357727,
                        0.19364804029464722,
                        0.7258465886116028,
                        0.8887146711349487,
                        0.5964582562446594,
                        1.0237411260604858,
                        0.14077690243721008,
                        -0.14970307052135468,
                        -0.4052289128303528,
                        -0.004273754544556141,
                        -0.3870629370212555,
                        -0.37407341599464417,
                        -0.2677639126777649,
                        0.03213021159172058,
                        -0.10690052807331085,
                        0.28902468085289,
                        -0.37437304854393005,
                        0.1750250905752182,
                        0.04893216863274574,
                        -0.15916013717651367,
                        0.1880403608083725,
                        -0.09995415806770325,
                        -0.5097646713256836,
                        0.4439519941806793,
                        0.034396857023239136,
                        0.07829082012176514,
                        -0.0037468555383384228,
                        0.5808192491531372,
                        0.16179771721363068,
                        0.662446916103363,
                        0.13477464020252228,
                        0.5768345594406128,
                        0.3107038140296936,
                        0.5374329090118408,
                        0.4227672815322876,
                        0.045288629829883575,
                        0.3322305679321289,
                        0.37695786356925964,
                        0.03340582549571991
                    ],
                    [
                        0.043870046734809875,
                        0.441115140914917,
                        -0.4128279983997345,
                        -0.34199053049087524,
                        -0.08244515210390091,
                        -0.12008700519800186,
                        0.39132460951805115,
                        -0.02443130686879158,
                        -0.01714850403368473,
                        -0.07726021856069565,
                        0.013595687225461006,
                        0.019194221124053,
                        -0.04087212309241295,
                        -0.49782514572143555,
                        0.14093376696109772,
                        0.4910040497779846,
                        0.03570716828107834,
                        -0.1759447157382965,
                        -0.1512008160352707,
                        -0.2610025107860565,
                        0.11166375130414963,
                        0.01922398805618286,
                        -0.1394246220588684,
                        0.059702884405851364,
                        0.2944578528404236,
                        -0.5012477040290833,
                        0.04506788030266762,
                        -0.04861420392990112,
                        -0.13636448979377747,
                        -0.05825021490454674,
                        0.46269655227661133,
                        -0.2724740207195282,
                        -0.32271477580070496,
                        0.048863478004932404,
                        -0.38406962156295776,
                        0.4096235930919647,
                        0.6671449542045593,
                        -0.12908220291137695,
                        0.04612979665398598,
                        0.17076566815376282,
                        0.14354951679706573,
                        0.1605854630470276,
                        -0.015313533134758472,
                        -0.23630370199680328,
                        0.25437334179878235,
                        0.15199625492095947,
                        0.5363507866859436,
                        0.010958359576761723,
                        0.12532909214496613,
                        -0.3173087537288666,
                        -0.48206913471221924,
                        -0.18011797964572906,
                        -0.0819612592458725,
                        0.08320912718772888,
                        -0.09935624152421951,
                        0.09719782322645187,
                        0.03280261531472206,
                        -0.1120065376162529,
                        0.15927571058273315,
                        -0.02842000126838684,
                        0.0940466821193695,
                        -0.12430085986852646,
                        -0.47022610902786255,
                        -0.6784830093383789
                    ],
                    [
                        0.07768160849809647,
                        0.08378145098686218,
                        0.6130580902099609,
                        -0.3668135106563568,
                        -0.23922280967235565,
                        -0.8129018545150757,
                        -0.2913771867752075,
                        0.09357533603906631,
                        0.36850008368492126,
                        -0.1293131560087204,
                        0.0041973465122282505,
                        0.24918879568576813,
                        0.1281140297651291,
                        0.3735733926296234,
                        0.10067369788885117,
                        -0.6633068323135376,
                        -0.35725656151771545,
                        -0.26927459239959717,
                        -0.4130857586860657,
                        0.418426513671875,
                        -0.33701005578041077,
                        -0.44474732875823975,
                        -1.103427529335022,
                        0.27453041076660156,
                        0.009092641994357109,
                        -0.12930342555046082,
                        -0.045883677899837494,
                        -0.4004118740558624,
                        0.019124150276184082,
                        -0.48780766129493713,
                        0.07563465088605881,
                        0.6495718359947205,
                        -0.15540556609630585,
                        -0.024657320231199265,
                        -0.0010212399065494537,
                        -0.17831161618232727,
                        -0.42722955346107483,
                        0.21163475513458252,
                        -0.4065425395965576,
                        0.20624017715454102,
                        0.03827090188860893,
                        -0.6405368447303772,
                        -0.1383427083492279,
                        0.1101609319448471,
                        -0.011512640863656998,
                        0.16044767200946808,
                        0.09195008128881454,
                        -0.6173242330551147,
                        0.03514625132083893,
                        -0.16310371458530426,
                        -0.3238450884819031,
                        -1.306606411933899,
                        -0.24108000099658966,
                        -0.31004422903060913,
                        -0.46356141567230225,
                        0.9592912197113037,
                        0.013183722272515297,
                        0.08464900404214859,
                        0.1846674233675003,
                        -0.28864508867263794,
                        0.2832605838775635,
                        -0.1558561474084854,
                        -0.08410688489675522,
                        -1.4511194229125977
                    ],
                    [
                        0.20811109244823456,
                        -0.18989302217960358,
                        -0.1317615807056427,
                        -0.49216607213020325,
                        -0.10517743229866028,
                        -0.3494744896888733,
                        0.2641921639442444,
                        -0.15364158153533936,
                        0.6435238718986511,
                        -0.14264969527721405,
                        0.024377286434173584,
                        -0.16659636795520782,
                        0.03159802779555321,
                        -0.010222219862043858,
                        -0.34632229804992676,
                        1.0062694549560547,
                        -0.2885787785053253,
                        -0.12975415587425232,
                        0.6075893640518188,
                        0.06261284649372101,
                        -0.03142256662249565,
                        -0.36171239614486694,
                        0.05624784901738167,
                        0.01640286296606064,
                        0.5470212697982788,
                        -0.34071651101112366,
                        0.09897473454475403,
                        -0.5598440170288086,
                        0.13565850257873535,
                        -0.028891531750559807,
                        -0.5146669745445251,
                        -0.16238202154636383,
                        0.34830185770988464,
                        -0.12156496942043304,
                        0.15271732211112976,
                        0.16586656868457794,
                        0.5038859248161316,
                        -0.7422016263008118,
                        -0.5527803301811218,
                        0.6324790120124817,
                        0.21224378049373627,
                        0.7398496270179749,
                        0.15905971825122833,
                        0.42814210057258606,
                        -0.8446328043937683,
                        0.5659381151199341,
                        0.19508303701877594,
                        -0.8920897841453552,
                        0.22731444239616394,
                        -0.19508472084999084,
                        -0.7737045288085938,
                        -0.42910510301589966,
                        -0.10466606914997101,
                        -0.3556218445301056,
                        -0.10726949572563171,
                        0.4040622115135193,
                        0.12111200392246246,
                        -0.3574335277080536,
                        0.19973555207252502,
                        -0.19939948618412018,
                        -0.32649731636047363,
                        -0.03948553651571274,
                        -0.37111911177635193,
                        -0.8550125956535339
                    ],
                    [
                        0.13620369136333466,
                        0.15988993644714355,
                        -0.21650564670562744,
                        1.328904628753662,
                        -0.1812814623117447,
                        -0.33474671840667725,
                        -1.5549243688583374,
                        -0.009338642470538616,
                        0.17905229330062866,
                        -0.38530808687210083,
                        0.03723704069852829,
                        0.5509030222892761,
                        0.13687361776828766,
                        0.5423291325569153,
                        0.3359588384628296,
                        0.15551210939884186,
                        0.7773057818412781,
                        -0.29608938097953796,
                        0.6357755064964294,
                        -0.13204418122768402,
                        -0.37157416343688965,
                        -0.009930984117090702,
                        -0.34238576889038086,
                        0.2813311219215393,
                        -0.24727998673915863,
                        0.016938472166657448,
                        0.14768140017986298,
                        -0.08360721170902252,
                        -0.0325193852186203,
                        0.15435175597667694,
                        0.7385739684104919,
                        0.8898206353187561,
                        -0.3113280236721039,
                        -0.7303807139396667,
                        -0.571869432926178,
                        0.8877373933792114,
                        0.16955190896987915,
                        0.018753966316580772,
                        0.10739779472351074,
                        -1.3868129253387451,
                        0.4053491950035095,
                        0.26987576484680176,
                        -0.1839933544397354,
                        -0.23020203411579132,
                        0.4525836706161499,
                        0.7197676301002502,
                        0.585459291934967,
                        1.6096271276474,
                        0.20904690027236938,
                        -0.3023723363876343,
                        -0.07091373205184937,
                        -0.04237695410847664,
                        -0.185880646109581,
                        0.19868998229503632,
                        0.026406578719615936,
                        -1.990346074104309,
                        -0.0698431208729744,
                        -2.1833584308624268,
                        -0.519162118434906,
                        0.573110044002533,
                        0.06684152781963348,
                        0.13192300498485565,
                        0.19042976200580597,
                        1.1118760108947754
                    ]
                ],
                [
                    -1.338918685913086,
                    -1.2620561122894287,
                    -1.2037041187286377,
                    0.06699222326278687,
                    1.4388518333435059,
                    -0.21202561259269714,
                    0.9791809320449829,
                    0.8797523379325867,
                    0.11804673075675964,
                    0.9397916793823242,
                    0.5241190195083618,
                    -1.117875099182129,
                    -1.129743218421936,
                    -0.9272006750106812,
                    -2.102562665939331,
                    0.04675803333520889,
                    1.975071668624878,
                    1.9935650825500488,
                    1.975283145904541,
                    0.6526083946228027,
                    -0.6566349864006042,
                    -0.01588965207338333,
                    -0.26322126388549805,
                    0.049579791724681854,
                    0.7460470199584961,
                    -0.12894003093242645,
                    0.6234813928604126,
                    1.3633270263671875,
                    2.186509609222412,
                    0.9777886271476746,
                    1.9389971494674683,
                    -0.16455671191215515,
                    -0.13171418011188507,
                    0.05674142390489578,
                    0.3649555444717407,
                    -0.3911725878715515,
                    0.16200654208660126,
                    -0.1893826276063919,
                    -0.44454240798950195,
                    -0.0979408547282219,
                    0.5170612335205078,
                    -0.5237278342247009,
                    0.3473742604255676,
                    0.3186500370502472,
                    -0.019097432494163513,
                    0.001055324450135231,
                    -0.03954961523413658,
                    -0.006650909781455994,
                    0.6755614280700684,
                    0.7082071900367737,
                    0.1231323629617691,
                    0.4441956579685211,
                    1.4389593601226807,
                    -0.14654195308685303,
                    1.6668719053268433,
                    0.38310107588768005,
                    1.071631908416748,
                    0.3982834815979004,
                    0.7935178279876709,
                    0.928703248500824,
                    0.18618479371070862,
                    0.6884968280792236,
                    0.7793940305709839,
                    0.06635912507772446
                ]
            ]
        },
        {
            "type": "dense",
            "activation": "",
            "shape": [
                null,
                null,
                1
            ],
            "weights": [
                [
                    [
                        -0.34680911898612976
                    ],
                    [
                        0.39833104610443115
                    ],
                    [
                        0.07953920215368271
                    ],
                    [
                        0.7048069834709167
                    ],
                    [
                        0.27473562955856323
                    ],
                    [
                        0.030749572440981865
                    ],
                    [
                        -0.17555862665176392
                    ],
                    [
                        0.13010258972644806
                    ],
                    [
                        0.15505757927894592
                    ],
                    [
                        0.3517856001853943
                    ],
                    [
                        -0.07570599764585495
                    ],
                    [
                        -0.039210956543684006
                    ],
                    [
                        -0.17682047188282013
                    ],
                    [
                        0.14989668130874634
                    ],
                    [
                        0.33868303894996643
                    ],
                    [
                        -0.4029199779033661
                    ]
                ],
                [
                    0.0702173262834549
                ]
            ]
        }
    ]
}