{
    "in_shape": [
        null,
        null,
        1
    ],
    "out_gain": -4.2,
    "layers": [
        {
            "type": "lstm",
            "activation": "",
            "shape": [
                null,
                null,
                16
            ],
            "weights": [
                [
                    [
                        -0.09617091715335846,
                        -0.04617825523018837,
                        0.03275923430919647,
                        -0.010313829407095909,
                        0.02298150025308132,
                        -0.010827532038092613,
                        -0.05267928168177605,
                        -0.005551178473979235,
                        0.03394090011715889,
                        0.18191149830818176,
                        -0.10038628429174423,
                        -0.02202095277607441,
                        -0.009329905733466148,
                        -0.06223208084702492,
                        -0.060543328523635864,
                        0.03358792886137962,
                        -0.1571281999349594,
                        -0.06138583645224571,
                        -0.0013902089558541775,
                        -0.18534575402736664,
                        0.11284738034009933,
                        0.07582314312458038,
                        -0.08913523703813553,
                        -0.007010411471128464,
                        0.07249042391777039,
                        0.09983370453119278,
                        -0.09188086539506912,
                        -0.0778704285621643,
                        -0.07538601011037827,
                        0.11865551024675369,
                        -0.050938382744789124,
                        0.18385230004787445,
                        1.0972061157226562,
                        0.4198509156703949,
                        -0.3793746829032898,
                        0.6207583546638489,
                        1.928218960762024,
                        -2.8912193775177,
                        -0.5003703832626343,
                        -0.8262393474578857,
                        -0.08018749952316284,
                        -0.00015463741146959364,
                        0.6784329414367676,
                        -0.31536391377449036,
                        -3.6711716651916504,
                        1.2951502799987793,
                        -0.026644589379429817,
                        -0.3497177064418793,
                        -0.1398288607597351,
                        0.07661986351013184,
                        0.04162885993719101,
                        -0.20280125737190247,
                        -0.0006422660662792623,
                        0.1403920203447342,
                        0.04906509071588516,
                        -0.013469426892697811,
                        0.27570340037345886,
                        -0.17323970794677734,
                        -0.11812037974596024,
                        -0.1647263616323471,
                        0.0010956217302009463,
                        -0.01325806975364685,
                        0.01128765381872654,
                        0.11361970752477646
                    ]
                ],
                [
                    [
                        0.16552242636680603,
                        0.18747106194496155,
                        -0.10748860239982605,
                        -0.13975688815116882,
                        -0.3074275255203247,
                        -0.025419723242521286,
                        -0.25319814682006836,
                        -0.09000520408153534,
                        -0.10139777511358261,
                        0.08366924524307251,
                        0.06717228144407272,
                        0.14905205368995667,
                        -0.10175074636936188,
                        -0.34138187766075134,
                        -0.20227819681167603,
                        -0.1204388439655304,
                        0.16143667697906494,
                        0.11145471781492233,
                        -0.07683182507753372,
                        -0.26643243432044983,
                        -0.15039420127868652,
                        -0.04074640944600105,
                        -0.09870347380638123,
                        0.08562792837619781,
                        -0.21336033940315247,
                        -0.02266346476972103,
                        0.05639613792300224,
                        -0.27329927682876587,
                        -0.11781536042690277,
                        0.09512824565172195,
                        0.26145103573799133,
                        -0.26364877820014954,
                        -0.02039397694170475,
                        -0.11254198849201202,
                        0.15723833441734314,
                        0.3330998420715332,
                        0.018700452521443367,
                        -0.21562664210796356,
                        0.07770386338233948,
                        0.07603006064891815,
                        -0.1658421754837036,
                        0.24650928378105164,
                        0.22087711095809937,
                        -0.3349010944366455,
                        0.0034289532341063023,
                        0.11912643909454346,
                        0.01809791661798954,
                        0.11739551275968552,
                        -0.03813161700963974,
                        0.3555300235748291,
                        -0.04587497562170029,
                        -0.27804848551750183,
                        -0.16414235532283783,
                        0.2632564306259155,
                        -0.0012848539045080543,
                        -0.05722881108522415,
                        -0.3600734770298004,
                        -0.07933254539966583,
                        -0.3989943563938141,
                        -0.2548540532588959,
                        -0.03366851061582565,
                        0.050884369760751724,
                        0.05058972164988518,
                        0.004223132040351629
                    ],
                    [
                        0.10622582584619522,
                        -0.2819683253765106,
                        0.03237060457468033,
                        0.24123041331768036,
                        -0.029422344639897346,
                        0.011046871542930603,
                        0.018284160643815994,
                        -0.07915186136960983,
                        -0.03117084689438343,
                        0.2473754733800888,
                        0.05616099014878273,
                        0.1552048772573471,
                        0.18749479949474335,
                        0.5575337409973145,
                        0.21243654191493988,
                        -0.03971034660935402,
                        0.05051503702998161,
                        -0.015482793562114239,
                        -0.13694941997528076,
                        -0.11681880056858063,
                        0.02317165583372116,
                        0.03593296557664871,
                        -0.3413141667842865,
                        -0.028278769925236702,
                        -0.11283636838197708,
                        -0.07204290479421616,
                        0.019530586898326874,
                        -0.2451583445072174,
                        -0.040049634873867035,
                        -0.14900892972946167,
                        0.0015990721294656396,
                        -0.08263776451349258,
                        -0.03801915422081947,
                        0.1465039998292923,
                        -0.04047591611742973,
                        -0.014894295483827591,
                        -0.01950700581073761,
                        -0.36056268215179443,
                        -0.28414928913116455,
                        0.35812821984291077,
                        -0.08134670555591583,
                        0.21413618326187134,
                        0.07308849692344666,
                        -0.10135272890329361,
                        -0.04721653088927269,
                        0.03783931955695152,
                        -0.21247677505016327,
                        0.059084452688694,
                        0.0773632824420929,
                        0.033417075872421265,
                        0.03592464327812195,
                        -0.238066166639328,
                        0.05156097933650017,
                        -0.33559954166412354,
                        0.07168576866388321,
                        -0.1633412390947342,
                        -0.2306338995695114,
                        -0.5307268500328064,
                        -0.17544442415237427,
                        -0.18429803848266602,
                        -0.00842305552214384,
                        0.1542421579360962,
                        0.11901513487100601,
                        -0.021988803520798683
                    ],
                    [
                        -0.0025907407980412245,
                        0.14785848557949066,
                        0.06849969178438187,
                        -0.14440138638019562,
                        0.012103963643312454,
                        0.3097354769706726,
                        0.17321105301380157,
                        0.2085077166557312,
                        -0.01244631502777338,
                        -0.06704378873109818,
                        -0.14881426095962524,
                        -0.37292754650115967,
                        0.23103120923042297,
                        -0.4837384819984436,
                        -0.13017581403255463,
                        0.055682986974716187,
                        0.18810509145259857,
                        -0.04546574875712395,
                        0.0688454806804657,
                        0.3168691396713257,
                        -0.21553480625152588,
                        0.08440253883600235,
                        -0.03935326263308525,
                        -0.05009584501385689,
                        0.01812089793384075,
                        -0.06925195455551147,
                        0.32610005140304565,
                        0.5015215873718262,
                        0.14988912642002106,
                        0.3294476568698883,
                        0.2825916111469269,
                        0.042193762958049774,
                        0.10797499865293503,
                        -0.07355132699012756,
                        0.16943788528442383,
                        -0.1610911637544632,
                        0.2110167294740677,
                        0.09414240717887878,
                        0.25072962045669556,
                        0.26992523670196533,
                        0.22922565042972565,
                        0.16250887513160706,
                        0.18129591643810272,
                        -0.020975323393940926,
                        -0.04755590856075287,
                        -0.10883908718824387,
                        0.16951675713062286,
                        0.044864606112241745,
                        0.11061416566371918,
                        0.1259666234254837,
                        0.20215076208114624,
                        0.10564564913511276,
                        0.0225830115377903,
                        0.2823215126991272,
                        0.0774335190653801,
                        0.22539518773555756,
                        0.09794938564300537,
                        0.10698115080595016,
                        0.060541797429323196,
                        0.017568301409482956,
                        0.25433436036109924,
                        0.031841859221458435,
                        0.2120090276002884,
                        0.24219439923763275
                    ],
                    [
                        0.0850476399064064,
                        -0.4644451439380646,
                        -0.09564682096242905,
                        0.10691089183092117,
                        -0.4986268877983093,
                        -0.5500780940055847,
                        -0.6833669543266296,
                        -0.44818583130836487,
                        -0.17068776488304138,
                        -0.04162880405783653,
                        0.30244481563568115,
                        0.23062677681446075,
                        -0.5330268740653992,
                        0.30392637848854065,
                        0.15142372250556946,
                        0.11560291051864624,
                        -0.38823503255844116,
                        -0.25518882274627686,
                        -0.04519040882587433,
                        -0.13797733187675476,
                        0.1590481549501419,
                        0.09171304106712341,
                        0.1467551440000534,
                        -0.09303069859743118,
                        -0.23935990035533905,
                        0.12049463391304016,
                        -0.37680569291114807,
                        -0.4716273844242096,
                        -0.3988513946533203,
                        -0.19588658213615417,
                        -0.007241426967084408,
                        -0.04124095290899277,
                        0.1011907309293747,
                        0.09695716947317123,
                        -0.09545768797397614,
                        0.2331189513206482,
                        -0.3191997706890106,
                        -0.21895118057727814,
                        -0.35954099893569946,
                        0.36917781829833984,
                        -0.3031546473503113,
                        0.11176137626171112,
                        0.2189856618642807,
                        -0.3519541025161743,
                        0.15746963024139404,
                        0.09803753346204758,
                        -0.052006904035806656,
                        0.21805083751678467,
                        -0.2005472332239151,
                        -0.142731174826622,
                        -0.1462775617837906,
                        -0.3480801582336426,
                        -0.4025731086730957,
                        -0.6223664283752441,
                        -0.20839761197566986,
                        -0.46131837368011475,
                        -0.19778330624103546,
                        -0.08873656392097473,
                        -0.34478560090065,
                        -0.009354136884212494,
                        -0.5269455909729004,
                        -0.20109103620052338,
                        0.11931411176919937,
                        -0.17516028881072998
                    ],
                    [
                        -0.03890366479754448,
                        0.094072625041008,
                        -0.14048191905021667,
                        -0.02182670496404171,
                        -0.03506750240921974,
                        0.012648387812077999,
                        0.03133958950638771,
                        0.19102385640144348,
                        0.09597627818584442,
                        -0.0724608451128006,
                        0.22526241838932037,
                        -0.15555934607982635,
                        -0.18767356872558594,
                        -0.13902634382247925,
                        -0.2768406569957733,
                        -0.05350487306714058,
                        0.019003160297870636,
                        -0.026962099596858025,
                        0.018092352896928787,
                        -0.013997725211083889,
                        -0.14547652006149292,
                        0.12980005145072937,
                        -0.8179023861885071,
                        0.39345458149909973,
                        -0.0652361512184143,
                        0.02536318637430668,
                        -0.022271761670708656,
                        -0.21821922063827515,
                        -0.34070518612861633,
                        0.2547672688961029,
                        -0.05846656858921051,
                        -0.10126958042383194,
                        -0.2095256745815277,
                        0.2934272587299347,
                        -0.34172502160072327,
                        0.1353793740272522,
                        0.006062509957700968,
                        -0.7733180522918701,
                        -0.535973310470581,
                        1.0775765180587769,
                        0.08974485099315643,
                        0.22664952278137207,
                        -0.09729227423667908,
                        -0.01845119334757328,
                        -0.43431028723716736,
                        0.2922326624393463,
                        -0.3292649984359741,
                        -0.1586127132177353,
                        0.03524589166045189,
                        -0.35903364419937134,
                        -0.2078787088394165,
                        -0.12079425156116486,
                        -0.12084051966667175,
                        0.2917322814464569,
                        -0.042986173182725906,
                        0.25350722670555115,
                        0.10555405914783478,
                        0.18162479996681213,
                        0.11617493629455566,
                        -0.2506108283996582,
                        -0.03324684128165245,
                        0.25777384638786316,
                        0.14014571905136108,
                        -0.33824265003204346
                    ],
                    [
                        0.079440176486969,
                        0.01414572261273861,
                        -0.2867235839366913,
                        -0.1503356546163559,
                        0.15228168666362762,
                        -0.098860003054142,
                        0.4975946545600891,
                        0.1500978171825409,
                        0.07028321921825409,
                        -0.5188963413238525,
                        0.1656532883644104,
                        0.0938204750418663,
                        -0.5411187410354614,
                        0.41045933961868286,
                        0.19026689231395721,
                        -0.1355336755514145,
                        0.016353586688637733,
                        0.1047169491648674,
                        -0.07118665426969528,
                        0.04101372882723808,
                        0.01529721636325121,
                        -0.1393408477306366,
                        0.3320179581642151,
                        0.20436033606529236,
                        -0.044540807604789734,
                        -0.04998137429356575,
                        0.017057988792657852,
                        0.06861885637044907,
                        -0.5153198838233948,
                        -0.2395564168691635,
                        -0.03900114819407463,
                        -0.08836162835359573,
                        -0.1121392473578453,
                        -0.6594189405441284,
                        0.10868031531572342,
                        -0.23264320194721222,
                        0.24706733226776123,
                        0.536475419998169,
                        2.5732266902923584,
                        -0.9725555181503296,
                        -0.05673125386238098,
                        -0.04979023337364197,
                        -0.20288921892642975,
                        0.16344498097896576,
                        0.6079649329185486,
                        0.19053740799427032,
                        0.13201862573623657,
                        -0.12134522944688797,
                        -0.11895667761564255,
                        -0.03365089371800423,
                        -0.14686205983161926,
                        0.01824052631855011,
                        -0.14188088476657867,
                        0.461471825838089,
                        -0.3926602602005005,
                        0.22003862261772156,
                        0.047817163169384,
                        0.002572761382907629,
                        0.3978366553783417,
                        0.09134214371442795,
                        -0.18783526122570038,
                        0.1342005580663681,
                        0.017709866166114807,
                        -0.2994072139263153
                    ],
                    [
                        -0.05060260742902756,
                        0.29858359694480896,
                        0.01960567757487297,
                        -0.028009070083498955,
                        -0.1287676841020584,
                        -0.13021865487098694,
                        -0.3218710720539093,
                        0.016543779522180557,
                        0.06793347746133804,
                        -0.3284781277179718,
                        0.08940880745649338,
                        0.005900802556425333,
                        -0.2798258066177368,
                        0.18917615711688995,
                        0.22511814534664154,
                        0.06326136738061905,
                        0.03198842331767082,
                        0.1122586578130722,
                        0.27355054020881653,
                        0.12218139320611954,
                        0.11462564766407013,
                        0.11931212991476059,
                        -0.17317761480808258,
                        0.3052668273448944,
                        -0.003983313217759132,
                        -0.12830546498298645,
                        -0.15390931069850922,
                        -0.1604543924331665,
                        0.1353103369474411,
                        -0.024780668318271637,
                        -0.02624056302011013,
                        0.01953994669020176,
                        0.004254160914570093,
                        -0.3539097011089325,
                        0.14571048319339752,
                        0.005182785913348198,
                        0.043719738721847534,
                        -0.10380518436431885,
                        0.9769564270973206,
                        0.10656412690877914,
                        -0.007157737389206886,
                        0.17278635501861572,
                        -0.05114215239882469,
                        -0.032922837883234024,
                        -0.020043794065713882,
                        -0.01319520827382803,
                        0.05714496970176697,
                        -0.013462786562740803,
                        0.07106982171535492,
                        0.36398348212242126,
                        -0.012179306708276272,
                        0.07781912386417389,
                        -0.13513611257076263,
                        0.27219411730766296,
                        0.002399095334112644,
                        0.09500232338905334,
                        -0.07929901033639908,
                        -0.7486448287963867,
                        -0.005551241338253021,
                        -0.00590963801369071,
                        -0.05452663451433182,
                        -0.04805154725909233,
                        -0.05877496302127838,
                        0.1589999943971634
                    ],
                    [
                        0.08003662526607513,
                        -0.15594711899757385,
                        0.32252857089042664,
                        0.2704266309738159,
                        0.2560538053512573,
                        0.12792609632015228,
                        -0.19139736890792847,
                        0.0001770045782905072,
                        -0.02048233523964882,
                        0.22139163315296173,
                        0.14799025654792786,
                        -0.17624829709529877,
                        0.5240440368652344,
                        -0.16248171031475067,
                        -0.09722205251455307,
                        0.00528798857703805,
                        0.05157842859625816,
                        -0.14324510097503662,
                        0.1521466225385666,
                        0.07637296617031097,
                        0.37266266345977783,
                        -0.07526159286499023,
                        -0.8150030970573425,
                        0.04489441588521004,
                        0.03133727237582207,
                        -0.06743498891592026,
                        0.12855616211891174,
                        0.17011751234531403,
                        0.33698946237564087,
                        0.24293875694274902,
                        -0.125113844871521,
                        0.23648172616958618,
                        0.0938287079334259,
                        0.7174328565597534,
                        -0.15694142878055573,
                        -0.10969328135251999,
                        -0.6889677047729492,
                        -0.13979381322860718,
                        -1.9252252578735352,
                        -0.4862162470817566,
                        -0.09692741930484772,
                        0.2539185583591461,
                        -0.2727341651916504,
                        0.012263907119631767,
                        0.8871960639953613,
                        0.24196167290210724,
                        0.05628887936472893,
                        -0.12893228232860565,
                        0.2885388433933258,
                        -0.2035629153251648,
                        0.16563093662261963,
                        0.20742754638195038,
                        0.3341826796531677,
                        -0.3778389096260071,
                        -0.08950309455394745,
                        -0.09584401547908783,
                        0.46364763379096985,
                        -0.1339898705482483,
                        -0.0764126405119896,
                        0.09832306951284409,
                        0.20194411277770996,
                        0.11551359295845032,
                        0.12338452786207199,
                        0.22985993325710297
                    ],
                    [
                        0.10460544377565384,
                        0.2642490863800049,
                        0.04862639680504799,
                        -0.06116655096411705,
                        0.42273908853530884,
                        0.5889836549758911,
                        0.5679964423179626,
                        0.37670981884002686,
                        -0.07763808220624924,
                        0.12283732742071152,
                        -0.27878203988075256,
                        -0.43046829104423523,
                        0.5322840809822083,
                        -0.6891504526138306,
                        -0.4566309452056885,
                        0.019890034571290016,
                        0.5785943865776062,
                        -0.016826828941702843,
                        0.08241798728704453,
                        0.24714438617229462,
                        -0.09082252532243729,
                        -0.1774846911430359,
                        0.09216657280921936,
                        -0.3744226098060608,
                        0.03602394834160805,
                        0.27197206020355225,
                        0.5046360492706299,
                        0.40243974328041077,
                        0.09189697355031967,
                        0.5161824822425842,
                        0.725411593914032,
                        0.30751311779022217,
                        -0.21365119516849518,
                        0.05877041071653366,
                        -0.01817626692354679,
                        -0.30375221371650696,
                        0.16079175472259521,
                        -0.367095947265625,
                        -0.4006105363368988,
                        -0.1548556536436081,
                        0.5341570973396301,
                        0.018860740587115288,
                        0.04670305177569389,
                        0.276946097612381,
                        -0.6667565703392029,
                        -0.04542070999741554,
                        0.05600208789110184,
                        -0.2938569188117981,
                        0.2468317598104477,
                        -0.055439457297325134,
                        0.209771066904068,
                        0.14268669486045837,
                        0.41634199023246765,
                        0.35623595118522644,
                        0.06760340929031372,
                        0.4302879273891449,
                        0.25425925850868225,
                        0.07769768685102463,
                        0.212278813123703,
                        0.013640603050589561,
                        0.6149585247039795,
                        0.2652857303619385,
                        0.15739835798740387,
                        0.37324973940849304
                    ],
                    [
                        -0.01992035284638405,
                        -0.1581353396177292,
                        0.08483178168535233,
                        -0.04577330872416496,
                        -0.14601998031139374,
                        -0.29872527718544006,
                        -0.27784964442253113,
                        -0.19161292910575867,
                        0.009352323599159718,
                        -0.1277988851070404,
                        0.10831186175346375,
                        0.1622481644153595,
                        -0.26336804032325745,
                        0.2520714998245239,
                        -0.019084282219409943,
                        0.12453904747962952,
                        -0.272026002407074,
                        0.08282359689474106,
                        0.0920700654387474,
                        -0.2920975387096405,
                        0.018757358193397522,
                        -0.20628157258033752,
                        -0.004343400243669748,
                        0.05957270786166191,
                        -0.11226170510053635,
                        -0.20720092952251434,
                        -0.4606682360172272,
                        -0.4625227451324463,
                        0.004707022104412317,
                        -0.15611374378204346,
                        -0.2504139542579651,
                        -0.004546715412288904,
                        -0.1092437282204628,
                        -0.052258700132369995,
                        -0.016120541840791702,
                        0.18722949922084808,
                        -0.20367588102817535,
                        0.03947785869240761,
                        -0.45232269167900085,
                        -0.03724862262606621,
                        -0.1407340168952942,
                        0.054138507694005966,
                        0.03171906992793083,
                        -0.09392879158258438,
                        -0.07686653733253479,
                        -0.10858162492513657,
                        0.0032999934628605843,
                        0.07614898681640625,
                        -0.1495583951473236,
                        -0.021940337494015694,
                        0.05314439535140991,
                        -0.11450665444135666,
                        -0.1694895327091217,
                        -0.38735032081604004,
                        -0.20021598041057587,
                        -0.19028420746326447,
                        -0.05493134260177612,
                        -0.15551722049713135,
                        -0.0028501804918050766,
                        -0.02022838220000267,
                        -0.3044808804988861,
                        -0.14113980531692505,
                        -0.044389285147190094,
                        -0.053885407745838165
                    ],
                    [
                        -0.008798346854746342,
                        0.1799529492855072,
                        -0.019171293824911118,
                        -0.035623397678136826,
                        -0.0412086620926857,
                        0.1014191135764122,
                        0.11166779696941376,
                        0.13824468851089478,
                        0.04520566016435623,
                        0.1712525635957718,
                        -0.6577218770980835,
                        -0.2151421755552292,
                        0.1062546819448471,
                        -0.17364364862442017,
                        -0.2811238169670105,
                        -0.23346470296382904,
                        -0.09142175316810608,
                        0.020892247557640076,
                        -0.017426859587430954,
                        0.10263137519359589,
                        -0.1359897255897522,
                        -0.18509946763515472,
                        0.38686880469322205,
                        0.09598997980356216,
                        -0.010895688086748123,
                        -0.039955802261829376,
                        -0.194447860121727,
                        -0.09428580850362778,
                        -0.041324082762002945,
                        0.0929885283112526,
                        -0.05550749972462654,
                        -0.27777308225631714,
                        0.4283722937107086,
                        0.3410038948059082,
                        -0.03349747508764267,
                        -0.03438354283571243,
                        -0.5438157916069031,
                        -0.682637631893158,
                        0.4100225269794464,
                        0.1991553157567978,
                        0.1517728567123413,
                        -0.05337440222501755,
                        0.278757780790329,
                        -0.04812378063797951,
                        0.8927080631256104,
                        0.1796756535768509,
                        -0.12552405893802643,
                        0.18680442869663239,
                        -0.13070936501026154,
                        0.3136453330516815,
                        0.014454597607254982,
                        -0.018908947706222534,
                        -0.03837970644235611,
                        0.31762808561325073,
                        0.5673952698707581,
                        0.20071271061897278,
                        -0.17708633840084076,
                        0.06324520707130432,
                        -0.35810133814811707,
                        -0.3773236572742462,
                        0.14230132102966309,
                        -0.10774440318346024,
                        -0.015153922140598297,
                        -0.1373157799243927
                    ],
                    [
                        -0.06755214929580688,
                        0.018318558111786842,
                        0.1162814348936081,
                        0.049863141030073166,
                        0.05887371674180031,
                        -0.023366520181298256,
                        0.029120882973074913,
                        -0.026452666148543358,
                        0.09801903367042542,
                        -0.10792680829763412,
                        0.35779017210006714,
                        -0.006843260955065489,
                        -0.02590007893741131,
                        -0.0035506191197782755,
                        0.128062903881073,
                        0.0052284435369074345,
                        -0.05666125938296318,
                        -0.03104224056005478,
                        0.123804971575737,
                        -0.006499399896711111,
                        0.02580852247774601,
                        -0.03445335477590561,
                        0.2772410213947296,
                        -0.2432447224855423,
                        0.14606107771396637,
                        -0.10048241913318634,
                        0.059045955538749695,
                        0.14745190739631653,
                        -0.0024925393518060446,
                        0.026631198823451996,
                        0.006943078245967627,
                        0.028262902051210403,
                        -0.4042585790157318,
                        -0.27404192090034485,
                        0.21859301626682281,
                        -0.3095591068267822,
                        0.5209646821022034,
                        -0.534373939037323,
                        -0.1932898461818695,
                        0.07937133312225342,
                        0.4024212658405304,
                        0.33748123049736023,
                        -0.11334599554538727,
                        0.0917801484465599,
                        -0.7384076118469238,
                        0.06509940326213837,
                        0.038187067955732346,
                        -0.10840965062379837,
                        0.10638173669576645,
                        -0.003678423585370183,
                        0.05715186521410942,
                        0.0070575508289039135,
                        0.01508578471839428,
                        -0.3160375654697418,
                        -0.34605857729911804,
                        -0.03490440547466278,
                        0.1870574802160263,
                        -0.05681315436959267,
                        0.30726438760757446,
                        0.17896448075771332,
                        -0.04349813610315323,
                        0.01398866344243288,
                        -0.027751458808779716,
                        -0.07380624115467072
                    ],
                    [
                        0.029032697901129723,
                        0.130413219332695,
                        -0.1668373942375183,
                        0.0867355465888977,
                        -0.25739315152168274,
                        0.07183188945055008,
                        0.017826585099101067,
                        0.10068830102682114,
                        -0.06029856577515602,
                        -0.1476665884256363,
                        0.25601503252983093,
                        0.22889569401741028,
                        -0.035870712250471115,
                        -0.16997778415679932,
                        0.005971077363938093,
                        0.07778147608041763,
                        0.0975445806980133,
                        0.1967305839061737,
                        0.08627954125404358,
                        0.5420708656311035,
                        -0.404874324798584,
                        0.06755992770195007,
                        -0.4634423553943634,
                        0.08352595567703247,
                        0.006533609703183174,
                        -0.04551488533616066,
                        0.24523623287677765,
                        -0.037388041615486145,
                        0.24611343443393707,
                        0.30124175548553467,
                        0.16162824630737305,
                        -0.2640645205974579,
                        0.13248759508132935,
                        -0.5526410937309265,
                        0.39819711446762085,
                        -0.0035157783422619104,
                        0.2209361046552658,
                        1.219704508781433,
                        3.0984184741973877,
                        -1.507356882095337,
                        -0.025746973231434822,
                        -0.1613335907459259,
                        -0.07228641957044601,
                        0.19166721403598785,
                        0.4499668478965759,
                        -0.1515091359615326,
                        0.2603302597999573,
                        0.13239409029483795,
                        -0.12389321625232697,
                        -0.14072400331497192,
                        -0.05292346328496933,
                        0.4508436620235443,
                        -0.1324237585067749,
                        0.7783769965171814,
                        -0.20469875633716583,
                        0.1789427101612091,
                        0.07884460687637329,
                        0.28553012013435364,
                        -0.37859392166137695,
                        -0.28374460339546204,
                        0.05576685816049576,
                        -0.09581589698791504,
                        0.08261250704526901,
                        0.012488185428082943
                    ],
                    [
                        0.07951468974351883,
                        -0.0712839737534523,
                        0.09808988869190216,
                        0.10077610611915588,
                        0.2749645411968231,
                        0.10179528594017029,
                        0.13236166536808014,
                        0.13151271641254425,
                        -0.022112177684903145,
                        -0.03192639350891113,
                        0.18091285228729248,
                        -0.003202754771336913,
                        0.09768710285425186,
                        0.19849547743797302,
                        -0.05323352664709091,
                        -0.04179924353957176,
                        -0.1423799842596054,
                        -0.05593889579176903,
                        0.17468586564064026,
                        0.2048223614692688,
                        0.23291781544685364,
                        0.019361747428774834,
                        -0.06672771275043488,
                        0.055723246186971664,
                        0.002487591002136469,
                        0.00845413189381361,
                        -0.08309303969144821,
                        0.10334714502096176,
                        0.27002865076065063,
                        -0.12218877673149109,
                        0.017424151301383972,
                        0.11156389862298965,
                        -0.3273468315601349,
                        -0.2251073271036148,
                        -0.08841221034526825,
                        -0.04486970975995064,
                        -0.28948774933815,
                        1.0306121110916138,
                        -0.13918720185756683,
                        0.7213879823684692,
                        -0.31240391731262207,
                        0.08049388974905014,
                        -0.17618997395038605,
                        -0.06579523533582687,
                        0.509975254535675,
                        -0.15244731307029724,
                        -0.044919755309820175,
                        -0.31109270453453064,
                        -0.08519678562879562,
                        -0.20397421717643738,
                        0.1227613240480423,
                        0.06623578071594238,
                        0.17385999858379364,
                        0.17808930575847626,
                        -0.03273211419582367,
                        0.11734920740127563,
                        -0.06419198215007782,
                        -0.09233461320400238,
                        0.05607450008392334,
                        -0.2120351642370224,
                        0.11373425275087357,
                        0.20156727731227875,
                        0.09450367093086243,
                        0.02295631729066372
                    ],
                    [
                        0.24355770647525787,
                        -0.0465417355298996,
                        0.10675682872533798,
                        -0.14776422083377838,
                        -0.06880965828895569,
                        0.022786689922213554,
                        0.025823745876550674,
                        0.012150272727012634,
                        -0.06784676760435104,
                        0.12667648494243622,
                        0.2726798355579376,
                        0.17736147344112396,
                        0.0432267002761364,
                        0.04321930184960365,
                        0.027042768895626068,
                        -0.1724732220172882,
                        -0.0002549799391999841,
                        -0.18613725900650024,
                        0.15900744497776031,
                        -0.2410213053226471,
                        0.12135078012943268,
                        -0.08505921065807343,
                        -0.02411874383687973,
                        -0.021969137713313103,
                        -0.23274213075637817,
                        0.2045608013868332,
                        0.24321989715099335,
                        0.09956886619329453,
                        -0.06986556202173233,
                        -0.05872204527258873,
                        -0.16406592726707458,
                        -0.3169674575328827,
                        -0.4539826214313507,
                        0.02061307802796364,
                        -0.22193656861782074,
                        -0.18856826424598694,
                        0.00450691906735301,
                        0.06358687579631805,
                        -0.32085397839546204,
                        0.47172030806541443,
                        0.07829532027244568,
                        -0.16941137611865997,
                        0.028647437691688538,
                        -0.13230974972248077,
                        -0.2627386450767517,
                        0.04974420368671417,
                        0.5175573825836182,
                        -0.11753926426172256,
                        -0.03657965734601021,
                        -0.026197414845228195,
                        0.08895789086818695,
                        -0.14880000054836273,
                        -0.20653404295444489,
                        -0.1959824115037918,
                        0.03122495673596859,
                        0.04191063344478607,
                        -0.18214987218379974,
                        0.21826821565628052,
                        0.2687886655330658,
                        0.2544716000556946,
                        0.018827935680747032,
                        0.07585592567920685,
                        0.026519086211919785,
                        -0.17698056995868683
                    ],
                    [
                        0.24620948731899261,
                        -0.18009217083454132,
                        -0.019506609067320824,
                        0.1396508812904358,
                        -0.5676057934761047,
                        -0.567879855632782,
                        -0.581788182258606,
                        -0.40780144929885864,
                        -0.1286572515964508,
                        -0.15360410511493683,
                        0.5718989372253418,
                        0.3054584264755249,
                        -0.5691907405853271,
                        0.5100269317626953,
                        0.3889140486717224,
                        0.04481656476855278,
                        -0.2979958951473236,
                        -0.06088397651910782,
                        0.08168024569749832,
                        -0.33010050654411316,
                        -0.17602857947349548,
                        0.020614078268408775,
                        0.18986573815345764,
                        0.0597979836165905,
                        -0.3981589674949646,
                        -0.11290089786052704,
                        -0.18985824286937714,
                        -0.4175189733505249,
                        0.03349055349826813,
                        -0.7371330261230469,
                        -0.3225492537021637,
                        -0.24468183517456055,
                        0.19706816971302032,
                        -0.1693257987499237,
                        0.044550105929374695,
                        0.015904420986771584,
                        -0.06103391572833061,
                        -0.24619024991989136,
                        0.31613919138908386,
                        -0.29744336009025574,
                        -0.3583756983280182,
                        0.004399786703288555,
                        0.11694736033678055,
                        0.3954954147338867,
                        0.30783945322036743,
                        -0.04057314619421959,
                        0.011772608384490013,
                        0.2322920858860016,
                        -0.2221166491508484,
                        0.02171492390334606,
                        -0.21811836957931519,
                        0.06426147371530533,
                        -0.5540346503257751,
                        -0.3536968231201172,
                        -0.1651626080274582,
                        -0.4003894329071045,
                        -0.3952467441558838,
                        0.04292447492480278,
                        0.037067960947752,
                        -0.13407020270824432,
                        -0.573228657245636,
                        -0.35735249519348145,
                        -0.13609401881694794,
                        -0.4164704382419586
                    ]
                ],
                [
                    -0.5556803941726685,
                    0.3648211359977722,
                    0.2817722260951996,
                    -0.3176124393939972,
                    0.4910282492637634,
                    1.4322283267974854,
                    1.0818796157836914,
                    1.2363030910491943,
                    0.4474998712539673,
                    -0.20902928709983826,
                    -0.8579816818237305,
                    -0.9428960084915161,
                    1.2720205783843994,
                    -1.0532771348953247,
                    -1.4012432098388672,
                    0.07595852017402649,
                    0.6678075194358826,
                    -0.0836927592754364,
                    0.48819267749786377,
                    1.068876028060913,
                    -0.15397803485393524,
                    0.44054079055786133,
                    0.8028531074523926,
                    -0.8770085573196411,
                    0.6986228823661804,
                    0.8402993083000183,
                    0.9787443280220032,
                    1.1825706958770752,
                    0.030777767300605774,
                    2.1902904510498047,
                    1.9955158233642578,
                    0.7912311553955078,
                    0.18544700741767883,
                    -0.40337395668029785,
                    0.3684723377227783,
                    0.043070174753665924,
                    -0.2637653052806854,
                    -0.09688055515289307,
                    0.20509672164916992,
                    -0.017141243442893028,
                    0.2805945575237274,
                    -0.3508457839488983,
                    0.4378189146518707,
                    -0.24341566860675812,
                    0.5409369468688965,
                    0.12245006859302521,
                    -0.12377726286649704,
                    -0.13554903864860535,
                    0.0036005526781082153,
                    0.16967804729938507,
                    0.6919454336166382,
                    0.6886905431747437,
                    0.7771551609039307,
                    0.874782919883728,
                    -0.34678202867507935,
                    1.2597825527191162,
                    0.750292181968689,
                    0.16180436313152313,
                    0.20075777173042297,
                    0.334431916475296,
                    1.5095272064208984,
                    0.9582598209381104,
                    0.2688419818878174,
                    0.5986068248748779
                ]
            ]
        },
        {
            "type": "dense",
            "activation": "",
            "shape": [
                null,
                null,
                1
            ],
            "weights": [
                [
                    [
                        0.07207399606704712
                    ],
                    [
                        -0.6253382563591003
                    ],
                    [
                        0.12535499036312103
                    ],
                    [
                        -0.006357530131936073
                    ],
                    [
                        0.01733984611928463
                    ],
                    [
                        -0.15643653273582458
                    ],
                    [
                        -0.8671181201934814
                    ],
                    [
                        -0.11692506819963455
                    ],
                    [
                        0.053499042987823486
                    ],
                    [
                        1.0385619401931763
                    ],
                    [
                        0.22072935104370117
                    ],
                    [
                        0.18128906190395355
                    ],
                    [
                        0.015634268522262573
                    ],
                    [
                        -0.090946726500988
                    ],
                    [
                        -0.41553783416748047
                    ],
                    [
                        -0.13691087067127228
                    ]
                ],
                [
                    0.062263794243335724
                ]
            ]
        }
    ],
    "samplerate": "48000",
    "author": "Aida DSP",
    "esr": 0.05817070230841637
}
