{
    "in_shape": [
        null,
        null,
        1
    ],
    "out_gain": 10.1,
    "layers": [
        {
            "type": "lstm",
            "activation": "",
            "shape": [
                null,
                null,
                16
            ],
            "weights": [
                [
                    [
                        0.07697371393442154,
                        -0.11652535945177078,
                        -0.07160256803035736,
                        -0.09925075620412827,
                        -0.1326524168252945,
                        -0.026366496458649635,
                        0.01898546889424324,
                        0.3821067810058594,
                        -0.6255643963813782,
                        -0.05554657801985741,
                        -0.03628646954894066,
                        -0.10550433397293091,
                        0.019942333921790123,
                        0.03634535148739815,
                        -0.28462865948677063,
                        -0.021888982504606247,
                        0.12225234508514404,
                        0.03378012031316757,
                        -0.09439821541309357,
                        -0.0325172021985054,
                        -0.14983315765857697,
                        -0.0012382714776322246,
                        0.1569463461637497,
                        -0.06573480367660522,
                        -0.2292313128709793,
                        -0.058565326035022736,
                        -0.13214877247810364,
                        -0.25194403529167175,
                        -0.17067541182041168,
                        0.142933651804924,
                        -0.27728113532066345,
                        0.2261858731508255,
                        -0.0077111199498176575,
                        0.5705074071884155,
                        -0.3652530312538147,
                        0.14533953368663788,
                        -0.34797415137290955,
                        -4.468891143798828,
                        1.3997602462768555,
                        5.174989223480225,
                        -0.8382251858711243,
                        -0.11588697135448456,
                        -0.5865035057067871,
                        -0.5508340001106262,
                        -4.223211765289307,
                        2.3440752029418945,
                        0.4432315230369568,
                        1.961362361907959,
                        0.09252145141363144,
                        0.2771263122558594,
                        -0.08688890188932419,
                        -0.09467440843582153,
                        -0.17202721536159515,
                        -0.02487090788781643,
                        -0.0015917937271296978,
                        0.46642085909843445,
                        -0.847407341003418,
                        -0.0799640491604805,
                        -0.7116846442222595,
                        -0.3657045066356659,
                        0.011147412471473217,
                        0.010909315198659897,
                        -0.4040394425392151,
                        0.27903419733047485
                    ]
                ],
                [
                    [
                        -0.1724499613046646,
                        -0.00898567121475935,
                        0.06586641818284988,
                        -0.016023248434066772,
                        0.0026087842416018248,
                        -0.31652259826660156,
                        -0.13216747343540192,
                        -0.40550336241722107,
                        -0.14275166392326355,
                        -0.14161747694015503,
                        0.0062108468264341354,
                        -0.08813077956438065,
                        -0.429964542388916,
                        -0.2117300182580948,
                        0.005296299234032631,
                        0.0651279017329216,
                        -0.24077853560447693,
                        -0.13509775698184967,
                        -0.0883118212223053,
                        0.035344198346138,
                        0.034140802919864655,
                        -0.4817383587360382,
                        -0.08962903171777725,
                        -0.13476215302944183,
                        -0.13866065442562103,
                        -0.0375349335372448,
                        0.007365441415458918,
                        -0.42762574553489685,
                        -0.07778578251600266,
                        -0.05101644620299339,
                        -0.0008632710669189692,
                        0.14737071096897125,
                        0.15393368899822235,
                        0.018089719116687775,
                        0.11438174545764923,
                        0.2727653980255127,
                        0.19905990362167358,
                        -0.32264235615730286,
                        0.14129464328289032,
                        -0.24090130627155304,
                        0.23778311908245087,
                        0.22955024242401123,
                        0.09642834216356277,
                        0.11723946034908295,
                        0.07464666664600372,
                        -0.17143650352954865,
                        0.12377122789621353,
                        0.13192768394947052,
                        -0.18508295714855194,
                        -0.033746521919965744,
                        0.07466977089643478,
                        -0.021944954991340637,
                        -0.05305901914834976,
                        -0.3302588164806366,
                        -0.03960416093468666,
                        -0.5810757279396057,
                        -0.14320921897888184,
                        -0.1608787328004837,
                        -0.06978543102741241,
                        -0.12128181755542755,
                        -0.395338773727417,
                        -0.265402227640152,
                        -0.12414655834436417,
                        0.0467974878847599
                    ],
                    [
                        0.14582234621047974,
                        0.11359676718711853,
                        0.17855055630207062,
                        -0.10729177296161652,
                        0.20388023555278778,
                        0.29721665382385254,
                        -0.6871187686920166,
                        1.4511902332305908,
                        0.2626073658466339,
                        -0.19866928458213806,
                        0.0020328862592577934,
                        0.35980290174484253,
                        0.6477341055870056,
                        -0.08659238368272781,
                        0.0691668912768364,
                        -0.35143351554870605,
                        0.24991993606090546,
                        -0.036710817366838455,
                        0.628674328327179,
                        -0.07810463756322861,
                        0.4672244191169739,
                        1.0137765407562256,
                        -0.2653733193874359,
                        0.313332200050354,
                        0.04951062798500061,
                        0.1313936412334442,
                        0.19293536245822906,
                        -0.14646027982234955,
                        0.6591678857803345,
                        -0.13277456164360046,
                        -0.012273930944502354,
                        -0.08810089528560638,
                        -0.04631149023771286,
                        0.40088126063346863,
                        0.17811937630176544,
                        0.07930055260658264,
                        -0.13551443815231323,
                        -0.4270395338535309,
                        -0.13230864703655243,
                        0.7301186323165894,
                        -0.11214908957481384,
                        -0.2681155502796173,
                        0.08503543585538864,
                        -0.13833864033222198,
                        -0.10997606068849564,
                        -0.08751619607210159,
                        0.1486169546842575,
                        -0.10641125589609146,
                        0.22114160656929016,
                        -0.043372321873903275,
                        0.11028794199228287,
                        -0.08907520025968552,
                        0.10291840136051178,
                        0.314987450838089,
                        -0.5495852828025818,
                        1.546237587928772,
                        0.11849481612443924,
                        -0.2872261703014374,
                        0.2860611379146576,
                        -0.47991248965263367,
                        0.6028609275817871,
                        0.07964079082012177,
                        -0.29446738958358765,
                        -0.5055007934570312
                    ],
                    [
                        -0.09215381741523743,
                        0.040678028017282486,
                        0.11935387551784515,
                        0.021225934848189354,
                        0.07964777946472168,
                        0.06843589246273041,
                        0.24764154851436615,
                        0.12147415429353714,
                        0.0209015104919672,
                        0.08637150377035141,
                        0.04695076867938042,
                        -0.3520079255104065,
                        0.13719739019870758,
                        0.030979646369814873,
                        -0.07518777996301651,
                        0.24126039445400238,
                        -0.1063653826713562,
                        -0.01113557256758213,
                        0.23385018110275269,
                        0.013855055905878544,
                        0.05692397058010101,
                        0.02815255895256996,
                        -0.058523938059806824,
                        -0.27804067730903625,
                        0.05388985574245453,
                        -0.003795154392719269,
                        0.10340914875268936,
                        0.17482826113700867,
                        0.20780007541179657,
                        -0.005055639427155256,
                        0.20142723619937897,
                        0.08864191174507141,
                        0.2872031331062317,
                        0.05916968360543251,
                        0.062240228056907654,
                        -0.07816151529550552,
                        -0.055453166365623474,
                        0.12355295568704605,
                        0.5952305793762207,
                        0.01658385805785656,
                        0.13566842675209045,
                        -0.09540200233459473,
                        0.19438712298870087,
                        -0.21605387330055237,
                        0.0001460604544263333,
                        -0.010454497300088406,
                        0.06279990822076797,
                        -0.11553981900215149,
                        -0.014787508174777031,
                        -0.1805098056793213,
                        0.12436173856258392,
                        0.004131718073040247,
                        0.13186663389205933,
                        0.06394248455762863,
                        0.1649237722158432,
                        0.03329809382557869,
                        0.137795552611351,
                        0.12982478737831116,
                        -0.06953366845846176,
                        -0.103511743247509,
                        0.14594973623752594,
                        0.011642693541944027,
                        -0.03639233112335205,
                        0.34288540482521057
                    ],
                    [
                        -0.07249472290277481,
                        -0.10231497883796692,
                        0.015029830858111382,
                        0.03311030566692352,
                        0.10759224742650986,
                        0.009375832974910736,
                        -0.023801008239388466,
                        0.03193748742341995,
                        0.10674621909856796,
                        -0.01914343051612377,
                        0.06730867177248001,
                        -0.03674541786313057,
                        0.0399375855922699,
                        0.03916962444782257,
                        -0.05961167812347412,
                        -0.06709913909435272,
                        -0.080425925552845,
                        0.1084609106183052,
                        0.002548701362684369,
                        0.03671150654554367,
                        0.09174531698226929,
                        0.07965711504220963,
                        0.04957171157002449,
                        0.0662803053855896,
                        0.08914518356323242,
                        -0.0035121068358421326,
                        0.11961743980646133,
                        -0.10068242996931076,
                        0.010417405515909195,
                        0.04448125511407852,
                        -0.026871219277381897,
                        -0.07775655388832092,
                        0.19462017714977264,
                        0.23217181861400604,
                        0.026969054713845253,
                        0.04736190289258957,
                        -0.31814566254615784,
                        -0.5951924920082092,
                        -0.4738181531429291,
                        -0.11328442394733429,
                        -0.0367695614695549,
                        0.078749880194664,
                        0.13317085802555084,
                        0.05429569631814957,
                        0.11234590411186218,
                        0.053226593881845474,
                        0.0626203715801239,
                        -0.03467090055346489,
                        -0.03547484800219536,
                        0.09231884032487869,
                        -0.03453358635306358,
                        0.02408423088490963,
                        0.051860611885786057,
                        0.011539136990904808,
                        -0.009747913107275963,
                        0.05292493477463722,
                        0.0532865971326828,
                        -0.0264914408326149,
                        0.13901594281196594,
                        0.06561089307069778,
                        0.03357180207967758,
                        0.013894831761717796,
                        0.05823463201522827,
                        -0.034760624170303345
                    ],
                    [
                        -0.022430982440710068,
                        0.2186553180217743,
                        -0.10524570196866989,
                        -0.05668862164020538,
                        0.008206457830965519,
                        -0.045755784958601,
                        0.07420006394386292,
                        -0.4240269064903259,
                        0.44358953833580017,
                        0.0052832067012786865,
                        -0.009216342121362686,
                        0.1485075056552887,
                        -0.16831718385219574,
                        -0.019985565915703773,
                        -0.009895503520965576,
                        -0.17996764183044434,
                        -0.041417114436626434,
                        -0.5215010643005371,
                        -0.04448378086090088,
                        -0.020816359668970108,
                        -0.09298424422740936,
                        -0.2632818818092346,
                        0.21921397745609283,
                        -0.054564543068408966,
                        -0.0722561702132225,
                        0.029004156589508057,
                        -0.08749542385339737,
                        -0.0934227779507637,
                        -0.3662067949771881,
                        0.03041030652821064,
                        -0.2240373194217682,
                        -0.20935703814029694,
                        -0.055814605206251144,
                        -0.08665234595537186,
                        -0.019648602232336998,
                        -0.1866176575422287,
                        -0.20234856009483337,
                        -0.2878587245941162,
                        -0.2133430689573288,
                        0.28789621591567993,
                        -0.027474021539092064,
                        0.09832698851823807,
                        -0.1607249677181244,
                        0.12422309070825577,
                        -0.3702048063278198,
                        -0.16694210469722748,
                        -0.08291453868150711,
                        0.3940255343914032,
                        -0.06370674818754196,
                        0.04599272459745407,
                        -0.07765982300043106,
                        -0.0259830541908741,
                        -0.06227831915020943,
                        -0.03533132001757622,
                        0.1309083104133606,
                        -0.36249643564224243,
                        0.27322012186050415,
                        -0.01426871120929718,
                        -0.16989079117774963,
                        0.11953982710838318,
                        -0.16969852149486542,
                        -0.07086478173732758,
                        -0.5188225507736206,
                        -0.42522117495536804
                    ],
                    [
                        0.2038572132587433,
                        -0.19516746699810028,
                        -0.19808366894721985,
                        0.09988681226968765,
                        -0.2664187252521515,
                        0.0627845898270607,
                        -0.3372519016265869,
                        -0.13199399411678314,
                        0.8995734453201294,
                        -0.07000864297151566,
                        0.07379722595214844,
                        0.005418891087174416,
                        -0.02150944620370865,
                        0.0330132357776165,
                        0.3568829894065857,
                        0.2550048828125,
                        0.23190389573574066,
                        -0.202900230884552,
                        -0.18666885793209076,
                        -0.013754202052950859,
                        -0.09007496386766434,
                        0.38556066155433655,
                        0.23824122548103333,
                        0.2650943994522095,
                        0.28017839789390564,
                        0.1598464995622635,
                        0.2984374463558197,
                        -0.05766404792666435,
                        -0.1477380096912384,
                        -0.1486673206090927,
                        -0.19621898233890533,
                        0.17522594332695007,
                        -0.5069823265075684,
                        0.24979445338249207,
                        -0.5949891209602356,
                        -0.04643094539642334,
                        0.5314205288887024,
                        -0.9604431390762329,
                        -0.22018252313137054,
                        0.40883588790893555,
                        0.2842707335948944,
                        0.276962012052536,
                        0.10401636362075806,
                        0.050236769020557404,
                        -1.0456830263137817,
                        0.10840009152889252,
                        -0.24036186933517456,
                        0.41781002283096313,
                        0.20572446286678314,
                        -0.411112904548645,
                        -0.20081321895122528,
                        0.0707911029458046,
                        -0.21943651139736176,
                        0.07820990681648254,
                        -0.09139267355203629,
                        -0.09380927681922913,
                        0.8533644676208496,
                        -0.012627949938178062,
                        0.44422978162765503,
                        -0.2057771235704422,
                        -0.04288305342197418,
                        -0.05792075768113136,
                        0.00527969840914011,
                        -0.1565539836883545
                    ],
                    [
                        0.0019085487583652139,
                        0.31844350695610046,
                        -0.05235197767615318,
                        -0.22707147896289825,
                        -0.14985553920269012,
                        -0.10159750282764435,
                        -0.24000680446624756,
                        0.31923559308052063,
                        -0.8453276753425598,
                        0.02650596760213375,
                        -0.014403045177459717,
                        0.20430205762386322,
                        -0.13153012096881866,
                        -0.05212146043777466,
                        0.14847621321678162,
                        0.2614741027355194,
                        -0.025023343041539192,
                        -0.14621089398860931,
                        0.06411769241094589,
                        -0.11097278445959091,
                        -0.20044033229351044,
                        -0.30552196502685547,
                        0.1652112603187561,
                        0.023863721638917923,
                        -0.06725797802209854,
                        -0.04387848079204559,
                        0.05266326293349266,
                        0.19948384165763855,
                        -0.2208280712366104,
                        0.341087281703949,
                        0.013492584228515625,
                        0.29116106033325195,
                        0.12143462896347046,
                        0.09283964335918427,
                        -0.7054545283317566,
                        0.16846492886543274,
                        -0.013594912365078926,
                        0.3307821452617645,
                        -0.2782481610774994,
                        -0.6469115614891052,
                        -0.3717605769634247,
                        -0.3230958878993988,
                        -0.0409831665456295,
                        0.19948089122772217,
                        1.2057322263717651,
                        0.05054441839456558,
                        -0.1628263145685196,
                        0.1793288141489029,
                        -0.04313848540186882,
                        -0.07171924412250519,
                        0.05308959260582924,
                        -0.18545757234096527,
                        -0.14400143921375275,
                        -0.1166989654302597,
                        -0.21506480872631073,
                        0.17370980978012085,
                        -0.873865008354187,
                        0.011000314727425575,
                        0.3014313876628876,
                        -0.3255741000175476,
                        -0.12132852524518967,
                        0.00860646553337574,
                        0.29170849919319153,
                        0.2771168351173401
                    ],
                    [
                        -0.025045612826943398,
                        1.6395044326782227,
                        0.1580853909254074,
                        0.2294459044933319,
                        0.10504298657178879,
                        -0.04671730473637581,
                        -0.25078821182250977,
                        0.3315432369709015,
                        -0.0740731880068779,
                        -0.03290815278887749,
                        -0.41251781582832336,
                        -0.16703209280967712,
                        0.03376387432217598,
                        -0.04372180625796318,
                        -0.04440269619226456,
                        -0.11297189444303513,
                        -0.07852540910243988,
                        0.772571325302124,
                        0.15048757195472717,
                        0.05076884478330612,
                        0.3025801479816437,
                        0.4138108491897583,
                        -0.32657697796821594,
                        0.31383001804351807,
                        0.46751418709754944,
                        0.1483609825372696,
                        -0.4815022051334381,
                        -0.6947333812713623,
                        0.7381119728088379,
                        -0.10810615122318268,
                        -0.14516006410121918,
                        -0.5306758880615234,
                        -0.01973346434533596,
                        -0.7247978448867798,
                        0.36692818999290466,
                        -0.570122480392456,
                        -0.7997441291809082,
                        -0.44007408618927,
                        0.5831051468849182,
                        -0.04761321097612381,
                        -0.5189334750175476,
                        -0.7682132720947266,
                        -0.6361547708511353,
                        -0.3061123788356781,
                        0.2724589705467224,
                        0.16866974532604218,
                        0.05085832253098488,
                        0.03957999870181084,
                        0.023045821115374565,
                        0.3020602762699127,
                        0.3716895580291748,
                        0.17619742453098297,
                        0.29649263620376587,
                        -0.012305582873523235,
                        0.07253462821245193,
                        0.22203128039836884,
                        -0.028960686177015305,
                        -0.021853873506188393,
                        -0.7694857716560364,
                        -0.5309575796127319,
                        0.02055736817419529,
                        -0.04581849277019501,
                        -0.6825863718986511,
                        0.09011289477348328
                    ],
                    [
                        -0.1279740035533905,
                        0.36998435854911804,
                        0.34668394923210144,
                        0.014824727550148964,
                        0.22619719803333282,
                        -0.00887585524469614,
                        0.6900871992111206,
                        -0.5410104393959045,
                        0.26797959208488464,
                        0.0876016691327095,
                        -0.06419949233531952,
                        -0.07859731465578079,
                        -0.03753441199660301,
                        -0.18218787014484406,
                        -0.1111932322382927,
                        0.5281693339347839,
                        -0.19140438735485077,
                        0.25104013085365295,
                        0.18473674356937408,
                        -0.02449503354728222,
                        0.15375806391239166,
                        -0.4740796983242035,
                        0.14078578352928162,
                        -0.41249948740005493,
                        0.36791515350341797,
                        -0.1167447492480278,
                        -0.2973439693450928,
                        0.46742796897888184,
                        -0.03469954431056976,
                        -0.2974098026752472,
                        -0.22235246002674103,
                        -0.42065057158470154,
                        0.3397230803966522,
                        -0.5794652104377747,
                        0.007966362871229649,
                        -0.2514231204986572,
                        -0.18223892152309418,
                        -0.5838363170623779,
                        0.2129288762807846,
                        0.23141150176525116,
                        0.43687987327575684,
                        -0.03262517228722572,
                        -0.02356039732694626,
                        0.4793853163719177,
                        -0.4056400954723358,
                        -0.21140462160110474,
                        0.14509673416614532,
                        0.44131386280059814,
                        -0.056948963552713394,
                        0.5205326080322266,
                        0.31680089235305786,
                        0.04972672462463379,
                        0.16093327105045319,
                        -0.015819314867258072,
                        0.598013699054718,
                        -0.6157383918762207,
                        0.5936571955680847,
                        0.1150454431772232,
                        -0.24154037237167358,
                        0.14903894066810608,
                        -0.017128925770521164,
                        -0.06174713745713234,
                        -0.08545493334531784,
                        0.6327915191650391
                    ],
                    [
                        -0.09344712644815445,
                        -0.4052877724170685,
                        0.07000835984945297,
                        0.10650354623794556,
                        0.18038034439086914,
                        0.0504409596323967,
                        0.17523060739040375,
                        -0.23181915283203125,
                        0.21729275584220886,
                        -0.016353724524378777,
                        0.08365166932344437,
                        -0.17693588137626648,
                        -0.06724833697080612,
                        -0.007637921255081892,
                        -0.010253733955323696,
                        -0.5820158123970032,
                        -0.13696648180484772,
                        0.3737667500972748,
                        -0.03763967007398605,
                        0.06661909073591232,
                        0.08794950693845749,
                        -0.15685786306858063,
                        0.06312736868858337,
                        -0.05757039040327072,
                        0.13284912705421448,
                        -0.12581609189510345,
                        0.045790985226631165,
                        0.20101158320903778,
                        -0.05035385489463806,
                        -0.09297216683626175,
                        0.29182279109954834,
                        -0.4459451735019684,
                        0.1533781737089157,
                        -0.22159011662006378,
                        -0.16772054135799408,
                        0.07789670675992966,
                        -0.2324548065662384,
                        -1.165737509727478,
                        -0.32339224219322205,
                        0.27743372321128845,
                        -0.211678147315979,
                        -0.7541043758392334,
                        0.2727517783641815,
                        -0.1024075299501419,
                        -0.3353387415409088,
                        -0.15504859387874603,
                        -0.007989803329110146,
                        -0.054162610322237015,
                        -0.10509932041168213,
                        0.1389303058385849,
                        0.018775854259729385,
                        0.09945452958345413,
                        0.13922521471977234,
                        0.04758700728416443,
                        0.162547305226326,
                        -0.055693965405225754,
                        0.3148774206638336,
                        -0.08556750416755676,
                        -0.27269846200942993,
                        0.15153463184833527,
                        -0.05491631105542183,
                        -0.011733436957001686,
                        0.15983474254608154,
                        -0.7371987700462341
                    ],
                    [
                        0.13254022598266602,
                        -0.7120742201805115,
                        0.04004465416073799,
                        -0.17134664952754974,
                        0.02211568132042885,
                        0.6058331727981567,
                        -0.04911698028445244,
                        0.47442135214805603,
                        0.018119199201464653,
                        0.3189345598220825,
                        0.35137802362442017,
                        -0.20413821935653687,
                        0.5377424955368042,
                        0.31610575318336487,
                        0.09196612238883972,
                        0.15573258697986603,
                        0.21572032570838928,
                        0.8599002957344055,
                        0.259581059217453,
                        -0.03648115694522858,
                        -0.00028343158192001283,
                        0.11893318593502045,
                        0.316039502620697,
                        0.07337971031665802,
                        0.29704052209854126,
                        -0.259590744972229,
                        0.3568853437900543,
                        0.8264211416244507,
                        -0.09177638590335846,
                        0.127894788980484,
                        1.0417630672454834,
                        0.10576144605875015,
                        -0.11389827728271484,
                        0.5915083289146423,
                        0.02120075933635235,
                        0.19165079295635223,
                        0.4396709203720093,
                        -0.0695708692073822,
                        -0.06740108877420425,
                        0.14347724616527557,
                        0.5242894291877747,
                        0.08519905060529709,
                        0.16529501974582672,
                        0.17245009541511536,
                        -0.29257917404174805,
                        -0.06326263397932053,
                        -0.22726653516292572,
                        0.2218671590089798,
                        0.10403723269701004,
                        0.19915293157100677,
                        -0.12917594611644745,
                        -0.11565002799034119,
                        -0.0012607445241883397,
                        0.6056522130966187,
                        0.24883532524108887,
                        0.6126232743263245,
                        -0.05893494933843613,
                        0.39314761757850647,
                        0.29914793372154236,
                        0.17428959906101227,
                        0.563206672668457,
                        0.46649229526519775,
                        0.6734151840209961,
                        0.4636773467063904
                    ],
                    [
                        -0.11874011904001236,
                        -0.40395668148994446,
                        0.17399561405181885,
                        -0.13479547202587128,
                        0.15494267642498016,
                        -0.06610926240682602,
                        0.7451203465461731,
                        -1.0525904893875122,
                        0.09424660354852676,
                        0.2690947353839874,
                        0.00210476852953434,
                        0.05870576947927475,
                        -0.45037421584129333,
                        -0.20445489883422852,
                        -0.4100112318992615,
                        0.19684019684791565,
                        -0.20392894744873047,
                        0.266977995634079,
                        0.19129467010498047,
                        -0.04523509740829468,
                        -0.2635177969932556,
                        -0.798539400100708,
                        -0.2592047154903412,
                        -0.45820537209510803,
                        0.31467363238334656,
                        -0.2829987406730652,
                        -0.022141942754387856,
                        0.6869882345199585,
                        -0.595611035823822,
                        -0.21859873831272125,
                        -0.0395243875682354,
                        0.12273455411195755,
                        0.5891482830047607,
                        -0.21825158596038818,
                        -0.03247630596160889,
                        -0.11620179563760757,
                        0.2854471206665039,
                        -0.48329055309295654,
                        -0.06901606917381287,
                        -0.09204040467739105,
                        0.685685396194458,
                        0.2179734706878662,
                        0.14188987016677856,
                        -0.07658210396766663,
                        -0.31833207607269287,
                        0.25319868326187134,
                        0.12681622803211212,
                        0.36117464303970337,
                        -0.1963287591934204,
                        -0.04404319077730179,
                        0.1057964339852333,
                        -0.10712923854589462,
                        0.11314788460731506,
                        -0.07111436128616333,
                        0.6758378744125366,
                        -1.1937813758850098,
                        0.3620409071445465,
                        0.2859857380390167,
                        0.2715817987918854,
                        0.6894002556800842,
                        -0.379517525434494,
                        -0.15709245204925537,
                        -0.42561545968055725,
                        0.26011672616004944
                    ],
                    [
                        -0.036391861736774445,
                        -0.23181864619255066,
                        0.22514167428016663,
                        0.12224849313497543,
                        0.05500036105513573,
                        0.05975564941763878,
                        -0.24472574889659882,
                        0.3088318407535553,
                        -0.28184252977371216,
                        -0.04885246604681015,
                        0.3754848539829254,
                        0.3650549054145813,
                        0.02781483717262745,
                        -0.10913527011871338,
                        0.3220406174659729,
                        -0.0573020838201046,
                        -0.044238653033971786,
                        -0.07578694075345993,
                        0.01720782183110714,
                        0.07301367819309235,
                        0.12817083299160004,
                        0.386468768119812,
                        -0.24107444286346436,
                        0.009892047382891178,
                        0.0327032208442688,
                        -0.05030994117259979,
                        0.7869643568992615,
                        0.14646919071674347,
                        0.3577791750431061,
                        -0.13047261536121368,
                        0.9405421018600464,
                        0.3849695324897766,
                        0.17059530317783356,
                        0.7233155369758606,
                        -1.040709376335144,
                        0.5496029853820801,
                        0.5890911817550659,
                        0.21544377505779266,
                        -0.8547654747962952,
                        -0.61553955078125,
                        -0.12607945501804352,
                        0.9944000840187073,
                        0.20301520824432373,
                        0.5464292168617249,
                        -0.49691957235336304,
                        0.37913793325424194,
                        -0.40449070930480957,
                        -0.07599512487649918,
                        -0.07451929897069931,
                        -0.10212793201208115,
                        0.2122107893228531,
                        0.060783255845308304,
                        0.060815658420324326,
                        0.04022661969065666,
                        -0.27599653601646423,
                        -0.031212640926241875,
                        -0.225412517786026,
                        0.07030569761991501,
                        0.8271418809890747,
                        0.10410046577453613,
                        0.06858479231595993,
                        0.046850189566612244,
                        0.811809241771698,
                        0.20850010216236115
                    ],
                    [
                        0.20183047652244568,
                        -0.32811620831489563,
                        0.13560788333415985,
                        -0.0869574025273323,
                        0.10846798866987228,
                        -0.0935387834906578,
                        0.49145281314849854,
                        0.6628679037094116,
                        -0.6954529881477356,
                        -0.18116618692874908,
                        -0.11223207414150238,
                        0.6588179469108582,
                        -0.07457266747951508,
                        0.21380092203617096,
                        0.04300203546881676,
                        0.08966071903705597,
                        0.2521095275878906,
                        0.10746952146291733,
                        -0.025617919862270355,
                        0.006399169564247131,
                        0.08327706903219223,
                        0.230556920170784,
                        0.470112144947052,
                        0.5758034586906433,
                        -0.7960913181304932,
                        -0.03855845332145691,
                        -0.09056930989027023,
                        0.023773694410920143,
                        0.04959249123930931,
                        0.3326657712459564,
                        -0.15026013553142548,
                        0.2957979738712311,
                        -0.1441747546195984,
                        -0.3162502348423004,
                        0.2965969145298004,
                        -0.0217286366969347,
                        -0.287301629781723,
                        -0.11574678868055344,
                        -0.058757711201906204,
                        -0.5377708673477173,
                        -0.8486284017562866,
                        -0.5089589953422546,
                        -0.38328567147254944,
                        0.07065930962562561,
                        0.6833295226097107,
                        -0.02716105990111828,
                        0.09546855092048645,
                        0.1598636507987976,
                        0.17958186566829681,
                        0.7841389775276184,
                        0.04525958374142647,
                        -0.08987457305192947,
                        -0.03485026955604553,
                        -0.11104656755924225,
                        0.20878005027770996,
                        0.6037334203720093,
                        -0.9604012966156006,
                        -0.2710212767124176,
                        -0.1681784987449646,
                        0.19831542670726776,
                        -0.06014631316065788,
                        0.3188527524471283,
                        0.09124621748924255,
                        0.6871771812438965
                    ],
                    [
                        -0.1615290492773056,
                        0.39340415596961975,
                        -0.02835574746131897,
                        0.29675763845443726,
                        -0.10533871501684189,
                        -0.7174267768859863,
                        0.12734775245189667,
                        -0.9346953630447388,
                        0.41019099950790405,
                        -0.541281521320343,
                        -0.44174519181251526,
                        0.2866724729537964,
                        -0.6783733367919922,
                        -0.33396515250205994,
                        -0.07068616151809692,
                        -0.45531293749809265,
                        -0.2523653507232666,
                        -0.9691978693008423,
                        -0.3033985495567322,
                        0.1117466613650322,
                        -0.06795337796211243,
                        -0.019348233938217163,
                        -0.42403584718704224,
                        0.0007257990073412657,
                        -0.187194362282753,
                        0.16671708226203918,
                        -0.6400802731513977,
                        -1.0204051733016968,
                        0.3377924859523773,
                        -0.021011818200349808,
                        -0.6912050843238831,
                        -0.750289797782898,
                        0.13727907836437225,
                        -0.2969686686992645,
                        0.14479482173919678,
                        0.19289283454418182,
                        -0.2514069080352783,
                        -0.42103201150894165,
                        0.10639748722314835,
                        0.08033055812120438,
                        -0.14887143671512604,
                        0.1676921844482422,
                        -0.46465638279914856,
                        -0.27883896231651306,
                        0.28939029574394226,
                        0.06703068315982819,
                        0.1356164515018463,
                        -0.190969318151474,
                        -0.11869830638170242,
                        -0.2915465235710144,
                        0.02368077263236046,
                        0.14350394904613495,
                        -0.06090405210852623,
                        -0.7128936648368835,
                        -0.24880363047122955,
                        -0.9453220963478088,
                        0.059415340423583984,
                        -0.5168202519416809,
                        -0.4727374017238617,
                        -0.17833027243614197,
                        -0.7235128879547119,
                        -0.4946475028991699,
                        -0.7039355635643005,
                        -0.7639962434768677
                    ],
                    [
                        0.1842721849679947,
                        -0.1996392011642456,
                        0.1392645239830017,
                        -0.2432938814163208,
                        0.06921793520450592,
                        0.28616654872894287,
                        0.1797703355550766,
                        0.1174769178032875,
                        -0.6303089261054993,
                        0.2225227802991867,
                        0.15057681500911713,
                        -0.3303561806678772,
                        0.08607016503810883,
                        0.24271124601364136,
                        0.3100360631942749,
                        0.011876288801431656,
                        0.258566290140152,
                        1.0489857196807861,
                        0.09310942888259888,
                        -0.11136019229888916,
                        -0.01846051774919033,
                        -0.4161067008972168,
                        -0.11521407961845398,
                        -0.17875494062900543,
                        -0.5137072801589966,
                        -0.31111711263656616,
                        0.294180303812027,
                        0.6456007361412048,
                        -0.4920797049999237,
                        0.41542038321495056,
                        1.2107350826263428,
                        0.18568480014801025,
                        -0.12127121537923813,
                        -0.39865705370903015,
                        0.19730491936206818,
                        -0.11682133376598358,
                        -0.380001425743103,
                        -0.15462148189544678,
                        0.19690264761447906,
                        -0.8034667372703552,
                        -0.4704412519931793,
                        -0.22299161553382874,
                        0.41126400232315063,
                        0.2848905026912689,
                        0.2954808473587036,
                        -0.00708848936483264,
                        -0.02808375097811222,
                        0.08821170032024384,
                        0.19826118648052216,
                        0.7909201383590698,
                        0.18271449208259583,
                        -0.22097277641296387,
                        0.22987379133701324,
                        0.2769957184791565,
                        0.37115201354026794,
                        0.09272878617048264,
                        -0.6906290650367737,
                        0.1573100984096527,
                        0.18681463599205017,
                        -0.14660553634166718,
                        0.13354931771755219,
                        0.3399393856525421,
                        1.0974299907684326,
                        -5.465580034069717e-05
                    ]
                ],
                [
                    0.1583566516637802,
                    -1.1698070764541626,
                    -0.090157151222229,
                    -0.4214506447315216,
                    -0.24348697066307068,
                    1.947563648223877,
                    -0.1784602552652359,
                    1.1052296161651611,
                    -0.4469223916530609,
                    0.12203781306743622,
                    0.3691047430038452,
                    -1.3814477920532227,
                    1.9733166694641113,
                    0.4761674404144287,
                    -0.9784584045410156,
                    0.08941435813903809,
                    0.3373275399208069,
                    1.5856969356536865,
                    0.2909129858016968,
                    0.01579543575644493,
                    0.12651652097702026,
                    0.012131962925195694,
                    0.7558075189590454,
                    -0.26227664947509766,
                    0.1311032474040985,
                    -0.4669630825519562,
                    -0.17273519933223724,
                    0.9295213222503662,
                    -0.19954174757003784,
                    -0.13302050530910492,
                    0.6173008680343628,
                    0.03996315598487854,
                    0.04697049409151077,
                    -0.5054152011871338,
                    0.12409619241952896,
                    0.01941257156431675,
                    -0.41192251443862915,
                    -0.3081634044647217,
                    0.11566418409347534,
                    -0.07247522473335266,
                    -0.3506361246109009,
                    0.1869703084230423,
                    0.14100897312164307,
                    -0.39692163467407227,
                    0.3991393744945526,
                    0.06141115352511406,
                    -0.17937785387039185,
                    0.186323344707489,
                    0.09975244104862213,
                    0.3407209515571594,
                    -0.1519344002008438,
                    -0.023926453664898872,
                    0.18777623772621155,
                    1.9555273056030273,
                    0.4056432843208313,
                    1.1893837451934814,
                    -0.2031896412372589,
                    -0.036559928208589554,
                    -0.03788130730390549,
                    0.08970098197460175,
                    2.0300424098968506,
                    0.6962587833404541,
                    -0.035873010754585266,
                    0.22094905376434326
                ]
            ]
        },
        {
            "type": "dense",
            "activation": "",
            "shape": [
                null,
                null,
                1
            ],
            "weights": [
                [
                    [
                        -0.10113351047039032
                    ],
                    [
                        0.33926883339881897
                    ],
                    [
                        -0.2759804427623749
                    ],
                    [
                        0.14817720651626587
                    ],
                    [
                        0.22479195892810822
                    ],
                    [
                        -1.042201042175293
                    ],
                    [
                        -0.3780251741409302
                    ],
                    [
                        1.1391563415527344
                    ],
                    [
                        0.16123412549495697
                    ],
                    [
                        0.23699617385864258
                    ],
                    [
                        -0.08542191982269287
                    ],
                    [
                        0.07622819393873215
                    ],
                    [
                        -1.738135576248169
                    ],
                    [
                        0.4323553144931793
                    ],
                    [
                        0.17506137490272522
                    ],
                    [
                        0.43609941005706787
                    ]
                ],
                [
                    0.10931625217199326
                ]
            ]
        }
    ],
    "samplerate": "48000",
    "author": "Aida DSP",
    "esr": 0.13410243391990662
}
