{
    "in_shape": [
        null,
        null,
        1
    ],
    "in_skip": 1,
    "layers": [
        {
            "type": "lstm",
            "activation": "",
            "shape": [
                null,
                null,
                16
            ],
            "weights": [
                [
                    [
                        -0.08700007945299149,
                        -0.0054454137571156025,
                        0.02340134046971798,
                        -0.06699417531490326,
                        -0.039115823805332184,
                        0.021663671359419823,
                        -0.01239568367600441,
                        0.01815750263631344,
                        0.048754628747701645,
                        0.10400726646184921,
                        -0.002571582095697522,
                        0.017491275444626808,
                        0.02770967222750187,
                        0.11031465977430344,
                        0.01010968815535307,
                        -0.03945004940032959,
                        0.020659422501921654,
                        -0.03804580122232437,
                        0.014184296131134033,
                        -0.01019200962036848,
                        -0.1415027230978012,
                        0.06083940342068672,
                        -0.008517044596374035,
                        0.030201135203242302,
                        0.2153560370206833,
                        -0.013821834698319435,
                        -0.03965900093317032,
                        0.12547269463539124,
                        0.029469270259141922,
                        0.1155206486582756,
                        -0.001052914303727448,
                        -0.15945152938365936,
                        -4.452996253967285,
                        -0.6143027544021606,
                        -0.1852632761001587,
                        -0.2554722726345062,
                        1.155862808227539,
                        0.294381320476532,
                        -0.13697785139083862,
                        0.33454033732414246,
                        -0.9389245510101318,
                        -0.6457810997962952,
                        -0.49639132618904114,
                        3.3745038509368896,
                        -0.13478337228298187,
                        -0.3565594553947449,
                        0.2128305584192276,
                        0.42321211099624634,
                        0.03081105835735798,
                        -0.019649019464850426,
                        -0.025467460975050926,
                        0.049945034086704254,
                        -0.04944080486893654,
                        0.09037826955318451,
                        0.34765756130218506,
                        -0.03591649606823921,
                        0.07223128527402878,
                        -0.209485724568367,
                        -0.0769074559211731,
                        0.051802173256874084,
                        -0.0055861081928014755,
                        0.16421672701835632,
                        -0.02314375527203083,
                        0.31415149569511414
                    ]
                ],
                [
                    [
                        0.9539844989776611,
                        0.025455083698034286,
                        -0.05528036504983902,
                        0.11040672659873962,
                        0.36442306637763977,
                        -0.3965342342853546,
                        -0.29572808742523193,
                        -0.07693067193031311,
                        -0.08291511237621307,
                        0.27645716071128845,
                        -0.00581691088154912,
                        0.035638391971588135,
                        -0.06287335604429245,
                        -0.2605052590370178,
                        -0.09490656852722168,
                        -0.19443577527999878,
                        0.6980162858963013,
                        0.2438153773546219,
                        0.010458794422447681,
                        0.3348355293273926,
                        -0.06139444187283516,
                        -0.2694942355155945,
                        0.007346442900598049,
                        0.012058690190315247,
                        0.08255493640899658,
                        0.013821003958582878,
                        0.20575673878192902,
                        0.12984468042850494,
                        0.32061418890953064,
                        0.03146526589989662,
                        0.10104919970035553,
                        0.3204955458641052,
                        2.0212297439575195,
                        0.12134359776973724,
                        3.8822665214538574,
                        0.0233779214322567,
                        1.7642788887023926,
                        0.6912853717803955,
                        -0.05827108025550842,
                        -0.44709447026252747,
                        -1.209222435951233,
                        0.08418570458889008,
                        0.4418151080608368,
                        -0.04258705675601959,
                        0.07401785254478455,
                        -0.33192014694213867,
                        0.6305081248283386,
                        -0.4209289252758026,
                        -0.9818605780601501,
                        0.006538813933730125,
                        0.15558432042598724,
                        -0.02581111714243889,
                        -0.17785082757472992,
                        -0.06870600581169128,
                        -0.2777090072631836,
                        0.10248332470655441,
                        -0.1634141504764557,
                        0.34357571601867676,
                        0.36414197087287903,
                        0.11483773589134216,
                        0.3870413303375244,
                        -0.18859712779521942,
                        0.3026284873485565,
                        0.5230788588523865
                    ],
                    [
                        -0.15383747220039368,
                        0.20586282014846802,
                        -0.06207118555903435,
                        0.10466697812080383,
                        -0.045789267867803574,
                        0.05883448198437691,
                        0.03561873361468315,
                        -0.01649053767323494,
                        -0.0035104057751595974,
                        -0.3623262941837311,
                        0.07586213946342468,
                        -0.06469547003507614,
                        0.01056324876844883,
                        0.2558659017086029,
                        0.005840209312736988,
                        -0.010855428874492645,
                        0.30462709069252014,
                        -0.15521498024463654,
                        -0.008870690129697323,
                        -0.09855310618877411,
                        -0.018728775903582573,
                        -0.280042439699173,
                        -0.06349137425422668,
                        -0.035013701766729355,
                        0.12125126272439957,
                        0.052083820104599,
                        0.049949876964092255,
                        0.013092396780848503,
                        0.01787519082427025,
                        -0.04740959405899048,
                        0.03294036537408829,
                        -0.28218328952789307,
                        -0.5551847219467163,
                        0.2584070563316345,
                        0.45395028591156006,
                        0.3466755449771881,
                        0.5972788333892822,
                        -0.2768801152706146,
                        0.11202476173639297,
                        0.14165332913398743,
                        -0.40421295166015625,
                        -0.01077627670019865,
                        0.4891572594642639,
                        0.28071337938308716,
                        -0.3178926110267639,
                        -0.11875731498003006,
                        -0.22957086563110352,
                        -0.08384640514850616,
                        0.10296592861413956,
                        -0.0010649784235283732,
                        -0.06754402816295624,
                        -0.11217439919710159,
                        -0.043313585221767426,
                        -0.2140769213438034,
                        0.23098811507225037,
                        -0.03913689777255058,
                        -0.033660512417554855,
                        0.20460818707942963,
                        -0.028722738847136497,
                        -0.0622003972530365,
                        0.06403958797454834,
                        0.27608418464660645,
                        0.027222122997045517,
                        0.04704393073916435
                    ],
                    [
                        -0.007985226809978485,
                        0.0008921123808249831,
                        0.00765830185264349,
                        -0.02272184193134308,
                        -0.1646299660205841,
                        -0.049021728336811066,
                        -0.21839700639247894,
                        0.04764338210225105,
                        -0.03053980879485607,
                        -0.08902586251497269,
                        -0.016331173479557037,
                        0.05495490878820419,
                        0.013350335881114006,
                        -0.146884948015213,
                        -0.08970912545919418,
                        -0.149570494890213,
                        0.0022450475953519344,
                        0.04780048504471779,
                        -0.3553680181503296,
                        0.022880207747220993,
                        0.08646166324615479,
                        -0.06897388398647308,
                        -0.07422024011611938,
                        -0.12469561398029327,
                        -0.021196596324443817,
                        -0.27063238620758057,
                        -0.16759297251701355,
                        0.0769503191113472,
                        0.3052798807621002,
                        0.03736785054206848,
                        0.11906278878450394,
                        0.31927233934402466,
                        -0.08126625418663025,
                        -0.16627949476242065,
                        0.8635392785072327,
                        -0.2925470769405365,
                        -0.13615266978740692,
                        -0.08928532153367996,
                        -0.014398938976228237,
                        0.41379979252815247,
                        0.03771131858229637,
                        0.2031947374343872,
                        0.07417356222867966,
                        -0.04514368250966072,
                        -0.28093618154525757,
                        0.06298002600669861,
                        -0.2899627089500427,
                        0.010486730374395847,
                        -0.17321008443832397,
                        -0.04992486909031868,
                        0.06966345757246017,
                        -0.06215488538146019,
                        -0.11390796303749084,
                        -0.15495826303958893,
                        0.018135162070393562,
                        -0.044077999889850616,
                        -0.0932396948337555,
                        -0.08136744052171707,
                        -0.2835187017917633,
                        0.002913830103352666,
                        0.08136480301618576,
                        0.22746111452579498,
                        0.13026486337184906,
                        0.0857856422662735
                    ],
                    [
                        -0.1968279480934143,
                        0.1916549950838089,
                        -0.05708284303545952,
                        -0.18359331786632538,
                        -0.03919699788093567,
                        0.10404792428016663,
                        -0.030033187940716743,
                        0.011822838336229324,
                        -0.005910695530474186,
                        -0.44598403573036194,
                        0.009890955872833729,
                        -0.017882712185382843,
                        -0.07145198434591293,
                        -0.024105820804834366,
                        -0.03668598085641861,
                        0.1724582314491272,
                        0.0969008356332779,
                        0.0576641708612442,
                        -0.055254124104976654,
                        0.12445621937513351,
                        -0.29525843262672424,
                        -0.04780101776123047,
                        -0.3400706946849823,
                        0.14795902371406555,
                        0.1597464382648468,
                        -0.16123135387897491,
                        0.014469960704445839,
                        0.059826165437698364,
                        -0.1184350997209549,
                        0.13835512101650238,
                        -0.030343525111675262,
                        -0.20599964261054993,
                        -0.5155768990516663,
                        -0.5561777949333191,
                        0.31757035851478577,
                        0.4298131763935089,
                        0.033014267683029175,
                        -0.3088633120059967,
                        0.1423790454864502,
                        -0.3032855689525604,
                        -0.04430763050913811,
                        -0.22863030433654785,
                        0.390422523021698,
                        -0.08596187829971313,
                        0.23125402629375458,
                        -0.12113051116466522,
                        0.1934688687324524,
                        -0.15780802071094513,
                        0.01935577392578125,
                        -0.005065527278929949,
                        -0.07820279896259308,
                        -0.1721605360507965,
                        -0.0361962616443634,
                        -0.3066287636756897,
                        -0.17873764038085938,
                        0.016839997842907906,
                        -0.0006084900815039873,
                        0.1326243132352829,
                        -0.02583988569676876,
                        -0.005892292596399784,
                        -0.04494684189558029,
                        0.3545561134815216,
                        -0.006866456009447575,
                        -0.3308447599411011
                    ],
                    [
                        -0.7370627522468567,
                        0.10526447743177414,
                        -0.4164085388183594,
                        0.0266221072524786,
                        -0.3054438829421997,
                        -0.3342088460922241,
                        0.3091675043106079,
                        0.2821045219898224,
                        -0.07147272676229477,
                        0.4586338996887207,
                        0.12169268727302551,
                        -0.47459694743156433,
                        -0.2802293598651886,
                        0.2016795575618744,
                        -0.62230384349823,
                        0.24747440218925476,
                        0.2527581453323364,
                        -0.1249551922082901,
                        0.4275238811969757,
                        0.182684987783432,
                        -0.10519827157258987,
                        -0.8010096549987793,
                        -0.18801382184028625,
                        0.37272462248802185,
                        0.09748585522174835,
                        -0.5324212312698364,
                        0.13015075027942657,
                        -0.1693652719259262,
                        -0.019436338916420937,
                        -0.565351128578186,
                        -0.3242330253124237,
                        -0.1978103369474411,
                        -1.0769470930099487,
                        -0.136586531996727,
                        0.6221148371696472,
                        -0.002012578770518303,
                        -0.6150384545326233,
                        0.05312857776880264,
                        0.09395220875740051,
                        0.11070502549409866,
                        0.6940028071403503,
                        -0.18118447065353394,
                        -0.38229021430015564,
                        -0.029634714126586914,
                        0.06326209008693695,
                        0.17407026886940002,
                        -0.6786894202232361,
                        0.2742234468460083,
                        -1.7841405868530273,
                        -0.06713372468948364,
                        -0.22803092002868652,
                        -0.22987525165081024,
                        -0.47999241948127747,
                        -0.13826459646224976,
                        -0.20940542221069336,
                        0.17705771327018738,
                        -0.12607456743717194,
                        -0.33134156465530396,
                        -0.07538262009620667,
                        -0.2725192904472351,
                        0.13353919982910156,
                        -0.38316482305526733,
                        -0.2534945011138916,
                        -0.12691494822502136
                    ],
                    [
                        -0.25320300459861755,
                        0.7151055335998535,
                        -0.5818571448326111,
                        0.4454270601272583,
                        -0.46732017397880554,
                        0.4580487310886383,
                        0.5559473037719727,
                        0.10588066279888153,
                        -0.3561483323574066,
                        0.5571579337120056,
                        0.10705377906560898,
                        -0.48406514525413513,
                        0.1776762455701828,
                        -0.27785155177116394,
                        -0.1666429489850998,
                        0.376607745885849,
                        -0.08693265169858932,
                        -0.7324633002281189,
                        -0.36183544993400574,
                        -0.8871840238571167,
                        -0.3791464865207672,
                        -0.4390178322792053,
                        -0.5266996026039124,
                        -0.06006369739770889,
                        -0.2821638286113739,
                        -0.662588894367218,
                        -0.08705450594425201,
                        0.027606766670942307,
                        -0.10364282131195068,
                        -1.447380542755127,
                        0.04539058730006218,
                        -0.9020243287086487,
                        -0.2938985526561737,
                        -0.18490222096443176,
                        -0.3099845051765442,
                        -0.04555686563253403,
                        0.4857458174228668,
                        0.6464760899543762,
                        0.1409870833158493,
                        0.32521170377731323,
                        -0.13913938403129578,
                        0.0807817280292511,
                        0.10186680406332016,
                        -0.13614818453788757,
                        0.2876187860965729,
                        0.7839157581329346,
                        -0.041029106825590134,
                        0.012262859381735325,
                        -0.8676906228065491,
                        -0.2910119593143463,
                        0.028381649404764175,
                        -0.13007812201976776,
                        -0.4803124666213989,
                        -0.4216405153274536,
                        0.0030609595123678446,
                        -0.1687922179698944,
                        -0.4518465995788574,
                        -0.20446309447288513,
                        0.08482915163040161,
                        -0.5416718125343323,
                        0.0033791058231145144,
                        -0.7037724852561951,
                        -0.13779954612255096,
                        -0.23790287971496582
                    ],
                    [
                        -0.14282694458961487,
                        0.1809636801481247,
                        -0.242063969373703,
                        0.30463242530822754,
                        -0.010681811720132828,
                        -0.1507626324892044,
                        -0.023741140961647034,
                        0.04472091794013977,
                        -0.25266557931900024,
                        0.03445013239979744,
                        0.2876042127609253,
                        -0.23482964932918549,
                        -0.006978601682931185,
                        -0.11310572922229767,
                        0.022480852901935577,
                        0.4422244429588318,
                        0.3207053542137146,
                        -0.16130012273788452,
                        -0.022183826193213463,
                        -0.3246428668498993,
                        0.14185641705989838,
                        -0.2353777140378952,
                        0.08277612179517746,
                        -0.034364890307188034,
                        -0.24411089718341827,
                        -0.002185883466154337,
                        0.27703016996383667,
                        0.26714155077934265,
                        -0.1333012878894806,
                        -0.5296532511711121,
                        0.17468518018722534,
                        0.2095959633588791,
                        0.9298834204673767,
                        0.1369132101535797,
                        0.4643218517303467,
                        0.20902691781520844,
                        -0.24655663967132568,
                        0.05641135573387146,
                        -0.08481338620185852,
                        -0.1573382318019867,
                        0.3365168273448944,
                        0.05936868488788605,
                        0.23519103229045868,
                        -0.2128874808549881,
                        0.1541191190481186,
                        0.04354667663574219,
                        -0.3911921977996826,
                        0.20979587733745575,
                        -0.07439770549535751,
                        -0.03226727992296219,
                        -0.008550886064767838,
                        -0.01137099601328373,
                        -0.2786431908607483,
                        0.0688394233584404,
                        -0.3687683641910553,
                        -0.2533309757709503,
                        -0.2936638593673706,
                        0.23175165057182312,
                        0.20759084820747375,
                        -0.21366076171398163,
                        -0.21882431209087372,
                        -0.37725624442100525,
                        0.050124239176511765,
                        -0.4832986891269684
                    ],
                    [
                        -0.08783754706382751,
                        -0.06657861918210983,
                        -0.08248776942491531,
                        -0.04416952654719353,
                        -0.4716644883155823,
                        0.013685370795428753,
                        0.36312320828437805,
                        0.05848764255642891,
                        0.05660650134086609,
                        0.6814478039741516,
                        -0.04551698639988899,
                        -0.10816953331232071,
                        0.07511384040117264,
                        0.08220676332712173,
                        0.07890135049819946,
                        0.12122825533151627,
                        -0.640484631061554,
                        0.07269766181707382,
                        0.41546502709388733,
                        -0.08901026099920273,
                        -0.8261017799377441,
                        0.07426401227712631,
                        0.07939589023590088,
                        0.3386137783527374,
                        -0.17264370620250702,
                        -0.03176521509885788,
                        -0.04833579808473587,
                        -0.10803897678852081,
                        0.12526381015777588,
                        -0.2626658082008362,
                        0.016767533496022224,
                        -0.08330182731151581,
                        -0.3165116012096405,
                        -0.09139275550842285,
                        -0.5664094090461731,
                        -0.07046440243721008,
                        -0.02603117935359478,
                        -0.1073492169380188,
                        0.04658908396959305,
                        -0.008388481102883816,
                        -0.08465255051851273,
                        -0.4060859978199005,
                        0.010095245204865932,
                        -0.08274361491203308,
                        0.40084463357925415,
                        -0.3336763381958008,
                        -0.2543303966522217,
                        0.01301039382815361,
                        -0.15649934113025665,
                        0.02853764034807682,
                        -0.021201690658926964,
                        -0.052302513271570206,
                        -0.06685876846313477,
                        -0.3326517939567566,
                        0.09765221923589706,
                        0.1537923663854599,
                        0.010286811739206314,
                        0.22707504034042358,
                        0.07720938324928284,
                        -0.14098791778087616,
                        0.016759172081947327,
                        0.12214748561382294,
                        -0.10518437623977661,
                        -0.12838980555534363
                    ],
                    [
                        -1.9708126783370972,
                        0.04120056703686714,
                        -0.23639315366744995,
                        -0.11790881305932999,
                        -0.4203333854675293,
                        -0.1026478186249733,
                        0.3418564796447754,
                        0.2654614746570587,
                        -0.060573745518922806,
                        0.23902589082717896,
                        0.1275680661201477,
                        -0.2960728108882904,
                        -0.04283003881573677,
                        -0.037437114864587784,
                        -0.24355311691761017,
                        0.17446109652519226,
                        0.04176653176546097,
                        -0.04979630559682846,
                        0.1298874169588089,
                        -0.04877819865942001,
                        -0.23522064089775085,
                        -0.0875387042760849,
                        0.07386231422424316,
                        0.21806009113788605,
                        -0.07574921101331711,
                        0.02923964336514473,
                        -0.12474189698696136,
                        0.15820039808750153,
                        -0.20880714058876038,
                        0.022594772279262543,
                        -0.3113979697227478,
                        -0.3693084418773651,
                        1.0607521533966064,
                        0.24241912364959717,
                        0.4936256408691406,
                        -0.005255545489490032,
                        0.8743518590927124,
                        -0.07919576019048691,
                        -0.1311555802822113,
                        0.09158452600240707,
                        -0.5480924248695374,
                        0.09467973560094833,
                        0.1328607052564621,
                        -0.036305464804172516,
                        -0.12503394484519958,
                        -0.19851088523864746,
                        0.23404599726200104,
                        -0.041620902717113495,
                        -0.08058875799179077,
                        -0.019160758703947067,
                        -0.21598634123802185,
                        0.042835671454668045,
                        -0.14067970216274261,
                        -0.09709158539772034,
                        0.20140621066093445,
                        -0.06568899005651474,
                        -0.052233532071113586,
                        -0.10392462462186813,
                        -0.3716086447238922,
                        -0.21990081667900085,
                        -0.18809430301189423,
                        0.45967012643814087,
                        -0.5653359293937683,
                        0.030503949150443077
                    ],
                    [
                        -0.27391359210014343,
                        0.6010438799858093,
                        -0.4486336410045624,
                        0.36721542477607727,
                        -0.21974927186965942,
                        0.3347179591655731,
                        0.17289847135543823,
                        0.06250694394111633,
                        -0.37229248881340027,
                        0.20208653807640076,
                        -0.13316191732883453,
                        -0.3916568458080292,
                        0.043824080377817154,
                        0.5925875306129456,
                        -0.1671643853187561,
                        0.48806020617485046,
                        0.03843327611684799,
                        -0.43915674090385437,
                        -0.3944229483604431,
                        -0.6410744190216064,
                        0.23599080741405487,
                        -0.4043354094028473,
                        -0.5927323698997498,
                        -0.10578030347824097,
                        -0.4406284987926483,
                        -0.4076750874519348,
                        -0.2337391972541809,
                        -0.2030421644449234,
                        -0.17503508925437927,
                        -0.2593540847301483,
                        -0.015632882714271545,
                        -0.33414900302886963,
                        -0.5752729773521423,
                        -0.09139271080493927,
                        -0.1511678695678711,
                        -0.06305210292339325,
                        0.019680829718708992,
                        -0.17214784026145935,
                        -0.5972133874893188,
                        0.38163021206855774,
                        -0.06897430121898651,
                        0.23200228810310364,
                        -0.3335610628128052,
                        0.19246961176395416,
                        -0.012374996207654476,
                        -0.05716409534215927,
                        0.31957530975341797,
                        -0.478628933429718,
                        -0.2989180088043213,
                        -0.16667477786540985,
                        0.06751803308725357,
                        -0.03910806030035019,
                        -0.30722883343696594,
                        -0.26987123489379883,
                        0.11096622049808502,
                        -0.09539014101028442,
                        -0.39350569248199463,
                        -0.4472655653953552,
                        -0.31656038761138916,
                        -0.4449284076690674,
                        -0.07364472001791,
                        0.07438862323760986,
                        -0.15794166922569275,
                        0.4567171335220337
                    ],
                    [
                        0.38793087005615234,
                        -0.4431079924106598,
                        0.4135285019874573,
                        -0.5290158987045288,
                        0.3556481897830963,
                        -0.6523202061653137,
                        -0.22643841803073883,
                        -0.01688903383910656,
                        0.23920099437236786,
                        -0.494255006313324,
                        -0.026572322472929955,
                        0.3705817461013794,
                        -0.13926228880882263,
                        -0.3643166720867157,
                        0.19807657599449158,
                        -0.27904459834098816,
                        0.19936603307724,
                        0.524321973323822,
                        0.12984971702098846,
                        0.4285927712917328,
                        0.24013760685920715,
                        0.3503175377845764,
                        0.4962199330329895,
                        0.08850278705358505,
                        0.31033769249916077,
                        0.4822009801864624,
                        0.10349339991807938,
                        -0.020697742700576782,
                        0.29531773924827576,
                        0.1768174022436142,
                        0.08117116987705231,
                        0.6862733960151672,
                        0.38558337092399597,
                        0.2528529763221741,
                        0.6458529233932495,
                        0.2850264608860016,
                        -0.13369102776050568,
                        0.22926664352416992,
                        -0.18227103352546692,
                        0.10607940703630447,
                        -0.026051850989460945,
                        -0.039749469608068466,
                        0.25434258580207825,
                        0.16551700234413147,
                        -0.13243234157562256,
                        0.05354093387722969,
                        -0.30770066380500793,
                        -0.02703392133116722,
                        0.5181007981300354,
                        0.3976903259754181,
                        0.14751364290714264,
                        -0.25822630524635315,
                        0.2913297116756439,
                        -0.11986508220434189,
                        -0.07375285029411316,
                        0.1119081974029541,
                        0.2725904583930969,
                        0.18774202466011047,
                        0.33668291568756104,
                        0.3737637996673584,
                        0.0871199294924736,
                        -0.04393699765205383,
                        0.2965553402900696,
                        -0.1157238781452179
                    ],
                    [
                        -0.25409647822380066,
                        -0.15947449207305908,
                        0.22466343641281128,
                        -0.2634539306163788,
                        -0.030322592705488205,
                        -0.31490522623062134,
                        -0.05114913359284401,
                        -0.04540032148361206,
                        0.23451532423496246,
                        0.3033521771430969,
                        0.15860922634601593,
                        0.15242135524749756,
                        0.18596647679805756,
                        -0.1523674875497818,
                        0.23867930471897125,
                        -0.2164042592048645,
                        0.045276492834091187,
                        0.2052144557237625,
                        -0.11414332687854767,
                        0.08888622373342514,
                        -0.13152647018432617,
                        0.19999244809150696,
                        0.1284227967262268,
                        -0.1379091739654541,
                        0.6588665246963501,
                        0.6958295702934265,
                        0.07252687960863113,
                        0.061731789261102676,
                        0.23747076094150543,
                        0.5246405601501465,
                        0.13366644084453583,
                        0.11196029186248779,
                        -1.6341615915298462,
                        -0.26198649406433105,
                        -0.0037660414818674326,
                        -0.31405651569366455,
                        -0.28637051582336426,
                        0.039077240973711014,
                        0.4762571156024933,
                        -0.013252570293843746,
                        0.049919966608285904,
                        -0.4234043061733246,
                        -0.4477301239967346,
                        -0.1649133414030075,
                        -0.30226239562034607,
                        0.24650788307189941,
                        -0.46946388483047485,
                        0.4112139940261841,
                        0.39844951033592224,
                        0.066830113530159,
                        0.08315540850162506,
                        0.17549841105937958,
                        0.012558463029563427,
                        0.30795976519584656,
                        0.003969894256442785,
                        -0.11745811998844147,
                        0.3171585202217102,
                        0.7853596806526184,
                        0.1773611456155777,
                        0.22330699861049652,
                        0.0835648626089096,
                        0.2164723426103592,
                        0.137748584151268,
                        -0.1636226624250412
                    ],
                    [
                        0.05372495949268341,
                        -0.06619830429553986,
                        -0.30269360542297363,
                        -0.1106879860162735,
                        -0.29439646005630493,
                        -0.036758240312337875,
                        -0.050726696848869324,
                        0.08595415204763412,
                        -0.018299797549843788,
                        -0.19021086394786835,
                        -0.24839074909687042,
                        -0.2737804651260376,
                        0.13770179450511932,
                        0.3824075758457184,
                        -0.18422633409500122,
                        -0.14597369730472565,
                        -0.4287707805633545,
                        0.2635752260684967,
                        0.3249189853668213,
                        0.21697142720222473,
                        -0.3227883577346802,
                        0.24361684918403625,
                        -0.02685345709323883,
                        0.19406315684318542,
                        -0.24980781972408295,
                        0.052229076623916626,
                        -0.2615868151187897,
                        -0.27755317091941833,
                        0.3026089668273926,
                        -0.23266443610191345,
                        -0.18297980725765228,
                        0.36929962038993835,
                        0.3838525116443634,
                        0.17893798649311066,
                        -0.6109827756881714,
                        0.08662384748458862,
                        0.06747753918170929,
                        -0.1313103586435318,
                        -0.004918468650430441,
                        0.07753817737102509,
                        -0.011844197288155556,
                        0.17575252056121826,
                        -0.011769664473831654,
                        0.07955607771873474,
                        0.09842430055141449,
                        -0.014855789951980114,
                        -0.04947619140148163,
                        -0.06863574683666229,
                        -0.8464438915252686,
                        -0.1655777543783188,
                        -0.29243040084838867,
                        -0.25132763385772705,
                        -0.08653334528207779,
                        -0.11943291872739792,
                        0.2563834488391876,
                        0.22994141280651093,
                        -0.06971710175275803,
                        0.281234472990036,
                        -0.29850417375564575,
                        -0.26139211654663086,
                        0.14542792737483978,
                        -4.0825394535204396e-05,
                        -0.14597786962985992,
                        0.13207018375396729
                    ],
                    [
                        0.7462683916091919,
                        -0.07562878727912903,
                        -0.15938672423362732,
                        -0.04011110961437225,
                        -0.10564296692609787,
                        0.25702306628227234,
                        0.06953675299882889,
                        -0.09406773746013641,
                        -0.10430379211902618,
                        -0.2721260190010071,
                        0.011533270590007305,
                        -0.15259860455989838,
                        -0.07995454967021942,
                        -0.13218098878860474,
                        -0.02355310693383217,
                        0.4543890953063965,
                        -0.2979573905467987,
                        -0.2773226201534271,
                        0.011608877219259739,
                        -0.40301382541656494,
                        -0.11440321803092957,
                        -0.3787195682525635,
                        -0.14243540167808533,
                        -0.05938887223601341,
                        -0.3649407625198364,
                        -0.5117467641830444,
                        -0.12183244526386261,
                        -0.18118472397327423,
                        -0.25628024339675903,
                        -0.751225471496582,
                        0.0893177017569542,
                        0.18221168220043182,
                        0.3773040473461151,
                        0.3517424166202545,
                        -1.1436907052993774,
                        -0.020603613927960396,
                        -0.15624558925628662,
                        0.04293794929981232,
                        -0.29465705156326294,
                        0.4964098632335663,
                        -0.5560773015022278,
                        0.06565631181001663,
                        -0.32249000668525696,
                        -0.09917968511581421,
                        -0.20986706018447876,
                        0.216730535030365,
                        -0.3536047041416168,
                        0.2997373938560486,
                        -0.4422866106033325,
                        -0.20843330025672913,
                        -0.05046059191226959,
                        -0.20729711651802063,
                        -0.07429047673940659,
                        -0.8191521167755127,
                        0.30051636695861816,
                        0.01856282353401184,
                        -0.1733442097902298,
                        -0.29530543088912964,
                        0.061708834022283554,
                        -0.20746028423309326,
                        -0.18096932768821716,
                        -0.9266003370285034,
                        0.062427230179309845,
                        0.2011236548423767
                    ],
                    [
                        0.12522554397583008,
                        0.03495155647397041,
                        -0.10061729699373245,
                        0.13241559267044067,
                        0.26904940605163574,
                        0.2503295838832855,
                        0.01395511906594038,
                        -0.03139207884669304,
                        -0.11046512424945831,
                        -0.100568488240242,
                        -0.20336993038654327,
                        -0.05256376042962074,
                        -0.05496111139655113,
                        0.1631692796945572,
                        -0.01129694189876318,
                        0.0420689657330513,
                        0.2897096872329712,
                        0.03454867750406265,
                        0.011063212528824806,
                        -0.003092065453529358,
                        0.1562114655971527,
                        0.021231986582279205,
                        -0.2833044230937958,
                        -0.10817372053861618,
                        -0.07832164317369461,
                        -0.1541725993156433,
                        -0.1772952377796173,
                        -0.16349397599697113,
                        -0.15228864550590515,
                        0.010951418429613113,
                        -0.0598604641854763,
                        0.01624763384461403,
                        -0.40222957730293274,
                        -0.009038901887834072,
                        0.5208902359008789,
                        -0.3842865526676178,
                        0.11561687290668488,
                        0.12311894446611404,
                        0.13116732239723206,
                        -0.09470947831869125,
                        -0.09063462167978287,
                        -0.05884069204330444,
                        0.36210379004478455,
                        -0.15325084328651428,
                        -0.3082212805747986,
                        0.037709638476371765,
                        0.026772012934088707,
                        0.08736690133810043,
                        0.02412651851773262,
                        -0.1099875345826149,
                        0.15759657323360443,
                        0.04083840548992157,
                        0.002910434268414974,
                        0.10960153490304947,
                        -0.01974615268409252,
                        0.003263121237978339,
                        -0.06028694659471512,
                        -0.1734839379787445,
                        -0.25571516156196594,
                        -0.04567282274365425,
                        -0.06856038421392441,
                        0.019291026517748833,
                        0.01638767682015896,
                        -0.28515905141830444
                    ],
                    [
                        -0.43403491377830505,
                        0.4646216332912445,
                        -0.19347159564495087,
                        0.3879743218421936,
                        -0.20187023282051086,
                        0.3104395866394043,
                        0.09587408602237701,
                        0.19348499178886414,
                        -0.1644025593996048,
                        -0.029212744906544685,
                        0.057978782802820206,
                        -0.27747589349746704,
                        -0.05787869542837143,
                        0.3617166578769684,
                        -0.018099380657076836,
                        0.24729368090629578,
                        0.3954840302467346,
                        -0.667900800704956,
                        0.10170316696166992,
                        -0.624349057674408,
                        -0.19312161207199097,
                        -0.525180995464325,
                        -0.35359448194503784,
                        0.24106141924858093,
                        -0.05854155123233795,
                        -0.8258464336395264,
                        -0.08145783841609955,
                        -0.289561003446579,
                        -0.27985823154449463,
                        -0.3026973009109497,
                        0.11103485524654388,
                        -0.44480758905410767,
                        0.994658350944519,
                        -0.04227085039019585,
                        0.5450128316879272,
                        0.25972607731819153,
                        -0.1672741174697876,
                        -0.1222047284245491,
                        0.42859941720962524,
                        0.14521494507789612,
                        0.06939554959535599,
                        -0.2542947232723236,
                        -0.12155161798000336,
                        -0.4215894043445587,
                        0.02279844880104065,
                        -0.1446351706981659,
                        -0.2281930148601532,
                        0.06835846602916718,
                        0.127205491065979,
                        -0.1556655615568161,
                        -0.08334528654813766,
                        0.01006368175148964,
                        -0.25360774993896484,
                        -0.2494240701198578,
                        -0.33816787600517273,
                        -0.12877176702022552,
                        -0.21759282052516937,
                        -0.17206160724163055,
                        -0.11802790313959122,
                        -0.24913561344146729,
                        -0.27964118123054504,
                        0.03771955519914627,
                        -0.07321354746818542,
                        -0.6855903267860413
                    ]
                ],
                [
                    1.2588481903076172,
                    -1.844728946685791,
                    1.3651925325393677,
                    -2.347517251968384,
                    0.5262454748153687,
                    -1.7698709964752197,
                    -0.9420075416564941,
                    0.059293098747730255,
                    0.900805652141571,
                    -1.1299612522125244,
                    -0.16433614492416382,
                    1.0019042491912842,
                    -0.18257442116737366,
                    -1.4188425540924072,
                    0.1271297037601471,
                    -1.283762812614441,
                    -0.7638490200042725,
                    2.5530996322631836,
                    0.38509249687194824,
                    3.0825576782226562,
                    0.18745499849319458,
                    2.9048638343811035,
                    1.7262966632843018,
                    1.070901870727539,
                    0.05223305895924568,
                    2.149401903152466,
                    1.108121395111084,
                    0.38076478242874146,
                    1.0942249298095703,
                    0.6337968111038208,
                    -0.39065152406692505,
                    1.8946880102157593,
                    0.3004535734653473,
                    -0.14834558963775635,
                    -0.3225553631782532,
                    0.0030641797930002213,
                    0.25999927520751953,
                    -0.2206120491027832,
                    -0.4426065683364868,
                    0.5097435712814331,
                    -0.153594508767128,
                    -0.12436050921678543,
                    0.2986540198326111,
                    -0.24508799612522125,
                    0.23083221912384033,
                    0.2860357463359833,
                    -0.24229875206947327,
                    -0.380544513463974,
                    0.6655373573303223,
                    0.9559043645858765,
                    -0.8282445669174194,
                    -0.07619114965200424,
                    1.3072619438171387,
                    0.5924385190010071,
                    0.6348546147346497,
                    0.8826960325241089,
                    1.1732161045074463,
                    -0.2647537291049957,
                    0.5371137857437134,
                    1.1544137001037598,
                    0.526453971862793,
                    -0.47250592708587646,
                    0.15792635083198547,
                    0.5530165433883667
                ]
            ]
        },
        {
            "type": "dense",
            "activation": "",
            "shape": [
                null,
                null,
                1
            ],
            "weights": [
                [
                    [
                        -0.10150928795337677
                    ],
                    [
                        1.3038324117660522
                    ],
                    [
                        -0.9977685809135437
                    ],
                    [
                        -0.08814198523759842
                    ],
                    [
                        0.08487129956483841
                    ],
                    [
                        0.13430385291576385
                    ],
                    [
                        0.29790306091308594
                    ],
                    [
                        0.33253660798072815
                    ],
                    [
                        -0.2324853241443634
                    ],
                    [
                        -0.20658710598945618
                    ],
                    [
                        0.10204916447401047
                    ],
                    [
                        -0.5001637935638428
                    ],
                    [
                        -0.23080654442310333
                    ],
                    [
                        -0.44928398728370667
                    ],
                    [
                        -0.8525619506835938
                    ],
                    [
                        0.14625993371009827
                    ]
                ],
                [
                    0.03519918769598007
                ]
            ]
        }
    ]
}