{
    "in_shape": [
        null,
        null,
        1
    ],
    "layers": [
        {
            "type": "lstm",
            "activation": "",
            "shape": [
                null,
                null,
                16
            ],
            "weights": [
                [
                    [
                        0.010234542191028595,
                        0.0005230939132161438,
                        -0.03557022288441658,
                        -0.02093159779906273,
                        -0.023400766775012016,
                        -0.0070333052426576614,
                        -0.05033973231911659,
                        -0.0033120603766292334,
                        -0.03412828594446182,
                        0.11484882235527039,
                        -0.0028153029270470142,
                        -0.017002172768115997,
                        0.02561134286224842,
                        0.018788985908031464,
                        0.03513843193650246,
                        -0.010228863917291164,
                        0.008850634098052979,
                        0.0019973311573266983,
                        -0.08081275224685669,
                        -0.028230899944901466,
                        -0.020345918834209442,
                        -0.0033459432888776064,
                        -0.19357134401798248,
                        0.0038726134225726128,
                        0.014341754838824272,
                        0.10126520693302155,
                        0.002563967602327466,
                        -0.015385596081614494,
                        0.0399310365319252,
                        0.030887428671121597,
                        0.15358664095401764,
                        0.0459381565451622,
                        0.09220384806394577,
                        -0.0036171521060168743,
                        -0.07733023166656494,
                        -0.10290230065584183,
                        0.12789981067180634,
                        0.0004078575875610113,
                        -0.5412970185279846,
                        5.019095420837402,
                        -0.25418516993522644,
                        -0.1347431093454361,
                        -0.0003323139389976859,
                        -0.1937880963087082,
                        -0.47521987557411194,
                        0.7841350436210632,
                        -0.4382735788822174,
                        -1.5943492650985718,
                        0.014733634889125824,
                        0.01412702165544033,
                        -0.04256655275821686,
                        -0.0332646481692791,
                        -0.02695782110095024,
                        -0.009163717739284039,
                        -0.18292608857154846,
                        -0.00507374107837677,
                        0.03336905688047409,
                        0.14429296553134918,
                        -0.014494587667286396,
                        0.022267229855060577,
                        0.049742523580789566,
                        0.037497881799936295,
                        0.11758355051279068,
                        -0.02548031695187092
                    ]
                ],
                [
                    [
                        0.13343149423599243,
                        0.017330292612314224,
                        0.05384276807308197,
                        -0.0429939404129982,
                        -0.09913632273674011,
                        0.03408482298254967,
                        -0.33895933628082275,
                        0.016997620463371277,
                        0.04965585097670555,
                        0.06485987454652786,
                        -0.05907492712140083,
                        -0.15765778720378876,
                        -0.07645300030708313,
                        0.05207947641611099,
                        -0.1767580509185791,
                        -0.08128689229488373,
                        0.19699712097644806,
                        0.041849374771118164,
                        0.07319632172584534,
                        -0.03167424350976944,
                        0.05386132001876831,
                        0.05627470090985298,
                        0.025765737518668175,
                        0.7569015622138977,
                        0.15936216711997986,
                        -0.036638811230659485,
                        -0.12867942452430725,
                        -0.23403184115886688,
                        -0.046827532351017,
                        0.002869850490242243,
                        0.021927759051322937,
                        -0.12733615934848785,
                        0.3792131245136261,
                        -0.031023720279335976,
                        -0.07088620960712433,
                        -0.03866523876786232,
                        -0.14759214222431183,
                        -0.00888563971966505,
                        -0.014642585068941116,
                        0.008687067776918411,
                        -0.05989136919379234,
                        0.04156746715307236,
                        -0.3374646306037903,
                        -0.06789792329072952,
                        -0.04872477054595947,
                        0.03246458247303963,
                        0.264774888753891,
                        -0.028737761080265045,
                        -0.08525077253580093,
                        0.012549193575978279,
                        0.0816924050450325,
                        -0.04378815367817879,
                        -0.10061998665332794,
                        0.03649907186627388,
                        -0.33654746413230896,
                        0.015551382675766945,
                        -0.05199221521615982,
                        -0.053900882601737976,
                        -0.15047793090343475,
                        -0.2144576907157898,
                        -0.04581792280077934,
                        0.06148512661457062,
                        -0.16510097682476044,
                        -0.0630616620182991
                    ],
                    [
                        0.07370691746473312,
                        -0.14888755977153778,
                        -0.13533318042755127,
                        -0.08040168881416321,
                        -0.2637782096862793,
                        -0.14935100078582764,
                        -0.28238388895988464,
                        -0.758638322353363,
                        0.8976312279701233,
                        0.056551918387413025,
                        0.04349236190319061,
                        0.490943968296051,
                        0.10042639076709747,
                        -0.2755298912525177,
                        -0.17697210609912872,
                        0.9882049560546875,
                        -0.3737446665763855,
                        -0.3416748344898224,
                        -0.22476842999458313,
                        -0.07092858105897903,
                        0.2195749282836914,
                        -0.32555654644966125,
                        -0.38135647773742676,
                        0.024150632321834564,
                        -1.259820580482483,
                        -0.24236619472503662,
                        -0.14723098278045654,
                        -0.8591822981834412,
                        -0.00993436574935913,
                        -0.07554344087839127,
                        -0.1805884689092636,
                        -1.198532223701477,
                        0.026993360370397568,
                        0.2204720824956894,
                        0.05597132071852684,
                        0.03468703478574753,
                        -0.034817107021808624,
                        -0.034754615277051926,
                        0.07602319866418839,
                        0.08142520487308502,
                        -0.04709791764616966,
                        0.029237352311611176,
                        0.03264627605676651,
                        0.029589133337140083,
                        0.11370016634464264,
                        0.06399170309305191,
                        -0.007350361440330744,
                        -0.08915229141712189,
                        -0.027047978714108467,
                        -0.28696516156196594,
                        -0.29362398386001587,
                        -0.07911593466997147,
                        -0.264137327671051,
                        -0.14584922790527344,
                        -0.3669102191925049,
                        -0.759087324142456,
                        -0.031779490411281586,
                        -0.02074677124619484,
                        0.003299953183159232,
                        0.1790371984243393,
                        0.06613638252019882,
                        0.14924867451190948,
                        -0.3592909872531891,
                        -0.04354929178953171
                    ],
                    [
                        -0.08345431089401245,
                        0.12813115119934082,
                        0.08109582215547562,
                        0.06130862608551979,
                        0.19306200742721558,
                        0.13847039639949799,
                        0.07428058981895447,
                        0.6269233822822571,
                        -1.0087060928344727,
                        -0.1727222502231598,
                        -0.033353015780448914,
                        -0.40295350551605225,
                        -0.2810945212841034,
                        0.3199775815010071,
                        0.062258705496788025,
                        -0.5377882719039917,
                        0.34899628162384033,
                        0.2778189778327942,
                        0.30987533926963806,
                        0.05743483453989029,
                        -0.16279108822345734,
                        0.2920798361301422,
                        0.12649668753147125,
                        0.10247822105884552,
                        1.0514848232269287,
                        0.024594387039542198,
                        0.14086218178272247,
                        0.8731305599212646,
                        -0.23297715187072754,
                        0.29839691519737244,
                        0.1574499011039734,
                        1.2155134677886963,
                        0.01820814609527588,
                        -0.21030855178833008,
                        0.3060993552207947,
                        0.003066080389544368,
                        0.15215909481048584,
                        0.02662721648812294,
                        0.0368502251803875,
                        0.19750390946865082,
                        -0.0941409170627594,
                        0.1652030646800995,
                        -0.0392630435526371,
                        0.013071723282337189,
                        -0.2862565517425537,
                        -0.01448888424783945,
                        0.19689518213272095,
                        0.12869516015052795,
                        0.014325209893286228,
                        0.10359042882919312,
                        0.15874411165714264,
                        0.05959637463092804,
                        0.19353528320789337,
                        0.13464103639125824,
                        0.1676323264837265,
                        0.6266350746154785,
                        -0.18540334701538086,
                        -0.1090274527668953,
                        0.007647393736988306,
                        -0.0628419890999794,
                        -0.359102725982666,
                        0.18823933601379395,
                        0.22926779091358185,
                        0.21273675560951233
                    ],
                    [
                        0.0008711417904123664,
                        -0.0015730264130979776,
                        0.004024810157716274,
                        0.01612229272723198,
                        0.031107258051633835,
                        0.014505620114505291,
                        0.10397972911596298,
                        -0.016136225312948227,
                        0.028037015348672867,
                        -0.03614480420947075,
                        0.008469960652291775,
                        0.0372350737452507,
                        -0.0035881525836884975,
                        -0.018324509263038635,
                        0.08076080679893494,
                        -0.01832130365073681,
                        -0.0027277087792754173,
                        -0.0015859351260587573,
                        0.017741508781909943,
                        0.014511608518660069,
                        -0.004825619049370289,
                        0.006316042970865965,
                        0.037455298006534576,
                        -0.1765994280576706,
                        -0.07364597916603088,
                        -0.018099775537848473,
                        0.02706054225564003,
                        -0.0029355715960264206,
                        -0.012195196934044361,
                        -0.013764864765107632,
                        0.05627412721514702,
                        -0.01575980894267559,
                        0.031396813690662384,
                        0.003865061327815056,
                        0.006879744585603476,
                        0.08833200484514236,
                        0.14153967797756195,
                        0.05677063763141632,
                        -0.07038643956184387,
                        0.19482308626174927,
                        0.09384965151548386,
                        0.029859550297260284,
                        0.027386561036109924,
                        -0.007175299804657698,
                        0.11005517840385437,
                        -0.10872863233089447,
                        -0.05878639221191406,
                        0.0005977812688797712,
                        0.034038495272397995,
                        0.004703238140791655,
                        -0.023144887760281563,
                        0.01697843335568905,
                        0.03279963135719299,
                        0.00792540144175291,
                        0.08534801751375198,
                        -0.01499929092824459,
                        -0.022947236895561218,
                        -0.017917053773999214,
                        0.03280984237790108,
                        0.056492846459150314,
                        -0.008144478313624859,
                        -0.04822046309709549,
                        0.06908587366342545,
                        0.005491734482347965
                    ],
                    [
                        -0.014169263653457165,
                        0.003318211529403925,
                        0.019807826727628708,
                        0.013064760714769363,
                        0.006360876373946667,
                        -0.0013626562431454659,
                        0.028840243816375732,
                        -0.010355202481150627,
                        -0.0092011122033,
                        -0.04580530524253845,
                        0.01270188856869936,
                        -0.02212141640484333,
                        0.0014458013465628028,
                        -0.01870322786271572,
                        0.05042681843042374,
                        -0.03053104318678379,
                        -0.025268178433179855,
                        0.007174218073487282,
                        0.0349445678293705,
                        0.013419984839856625,
                        -0.021450990810990334,
                        -0.008131464943289757,
                        -0.0336623340845108,
                        -0.12349081039428711,
                        -0.05263788253068924,
                        -0.08734273165464401,
                        0.03073960542678833,
                        0.09819239377975464,
                        -0.0014762799255549908,
                        -0.03012065216898918,
                        0.014571868814527988,
                        0.001403137925080955,
                        0.07533623278141022,
                        -0.005357661750167608,
                        -0.009166503325104713,
                        -0.07109040021896362,
                        -0.8286866545677185,
                        0.08283305913209915,
                        -0.04157446697354317,
                        0.5887620449066162,
                        0.1615315079689026,
                        -0.042065493762493134,
                        0.0063568418845534325,
                        0.045803170651197433,
                        -0.017577704042196274,
                        -0.15495628118515015,
                        -0.3935450613498688,
                        -0.1300634741783142,
                        -0.01108767744153738,
                        0.02558148466050625,
                        -0.06001925468444824,
                        0.005058250855654478,
                        0.0025095536839216948,
                        -0.002481237519532442,
                        -0.009085248224437237,
                        -0.009712867438793182,
                        -0.020108990371227264,
                        -0.06682129204273224,
                        0.03057176247239113,
                        0.025938276201486588,
                        -0.015532849356532097,
                        -0.07149200141429901,
                        0.10472772270441055,
                        -0.015726877376437187
                    ],
                    [
                        0.048835113644599915,
                        0.0015234947204589844,
                        0.019045082852244377,
                        0.03141859546303749,
                        -0.0037775691598653793,
                        -0.006221615709364414,
                        0.1808011680841446,
                        -0.004352230578660965,
                        -0.04672752320766449,
                        -0.005329234525561333,
                        -0.02384870871901512,
                        0.09798531234264374,
                        0.04272305965423584,
                        -0.04514310136437416,
                        0.1471097469329834,
                        0.09190408885478973,
                        0.045731447637081146,
                        0.007495810277760029,
                        0.06310036033391953,
                        0.028394414111971855,
                        -0.021128511056303978,
                        -0.012859066016972065,
                        -0.08178562670946121,
                        -0.002894958248361945,
                        -0.028815321624279022,
                        -0.19691193103790283,
                        -0.005760182160884142,
                        0.3203340470790863,
                        0.037053123116493225,
                        -0.10035933554172516,
                        0.05313417688012123,
                        0.08174818009138107,
                        0.08936819434165955,
                        -0.0015113286208361387,
                        -0.01393915805965662,
                        0.1501125544309616,
                        0.04160846769809723,
                        0.5063080191612244,
                        -0.009130751714110374,
                        0.05999810993671417,
                        -0.014492964372038841,
                        0.012311858125030994,
                        0.021615201607346535,
                        0.00213442649692297,
                        -0.030793877318501472,
                        -0.01669929549098015,
                        0.08684909343719482,
                        -0.019606679677963257,
                        0.033863820135593414,
                        0.06058477982878685,
                        0.10114111751317978,
                        0.03222167119383812,
                        -0.005314277950674295,
                        -0.011612935923039913,
                        0.1483168601989746,
                        -0.004851833917200565,
                        0.1395590901374817,
                        -0.061555881053209305,
                        -0.014998780563473701,
                        0.07690846920013428,
                        0.045548561960458755,
                        -0.13067615032196045,
                        0.11893580853939056,
                        0.14894062280654907
                    ],
                    [
                        0.0785268098115921,
                        -0.022982893511652946,
                        0.01821232959628105,
                        0.05017821490764618,
                        0.10752077400684357,
                        -0.06722163408994675,
                        0.26012951135635376,
                        -0.08142843097448349,
                        0.046270452439785004,
                        -0.20014069974422455,
                        0.20438575744628906,
                        -0.07298646122217178,
                        -0.04474221542477608,
                        -0.11419084668159485,
                        0.22729526460170746,
                        -0.15908439457416534,
                        0.08330788463354111,
                        -0.047595832496881485,
                        0.17230495810508728,
                        0.05410085991024971,
                        -0.015246500261127949,
                        -0.10914149135351181,
                        -0.09713710099458694,
                        -0.7824627757072449,
                        -0.24765314161777496,
                        -0.13059373199939728,
                        0.2642366886138916,
                        0.058789707720279694,
                        -0.09467156231403351,
                        -0.16434656083583832,
                        0.03426139056682587,
                        -0.14949025213718414,
                        -0.26373153924942017,
                        0.044175710529088974,
                        0.05042912811040878,
                        0.2651790678501129,
                        -0.1211266815662384,
                        -0.07176488637924194,
                        0.23536816239356995,
                        0.9819470643997192,
                        0.20000764727592468,
                        0.5903392434120178,
                        0.30728471279144287,
                        -0.33270013332366943,
                        0.25563687086105347,
                        -1.0793054103851318,
                        0.6906676292419434,
                        -0.07451459765434265,
                        0.18971699476242065,
                        -0.1314009130001068,
                        -0.17729051411151886,
                        0.05998019874095917,
                        0.09732268005609512,
                        -0.05936093255877495,
                        0.24318528175354004,
                        -0.07365874946117401,
                        0.06817356497049332,
                        -0.23674513399600983,
                        0.2797590494155884,
                        0.15125839412212372,
                        -0.1153547465801239,
                        -0.332166463136673,
                        0.12813352048397064,
                        0.01613842509686947
                    ],
                    [
                        -0.001562572317197919,
                        0.0038060732185840607,
                        -0.0012570461258292198,
                        -0.015156823210418224,
                        -0.004747443366795778,
                        0.0027068599592894316,
                        0.00692040054127574,
                        0.0009489228250458837,
                        0.11421223729848862,
                        0.007619814481586218,
                        -0.01256744284182787,
                        0.029805580154061317,
                        0.045195650309324265,
                        -0.004669716581702232,
                        0.047497112303972244,
                        -0.022715970873832703,
                        -0.004603744018822908,
                        0.004149286542087793,
                        0.0005054536741226912,
                        -0.01975434459745884,
                        -0.011906450614333153,
                        -0.0014564583543688059,
                        -0.13468924164772034,
                        -0.08052454888820648,
                        -0.0563269779086113,
                        0.0799890011548996,
                        -0.009459690190851688,
                        -0.03436947986483574,
                        0.04918600246310234,
                        0.03269080072641373,
                        0.11227677762508392,
                        0.009045133367180824,
                        0.17070050537586212,
                        -0.008190992288291454,
                        0.08415210247039795,
                        0.013252406381070614,
                        -0.8490791916847229,
                        -0.09578011929988861,
                        -2.1683881282806396,
                        -1.0362576246261597,
                        0.972689688205719,
                        0.1167294904589653,
                        -0.061339836567640305,
                        -0.03212283179163933,
                        0.34497949481010437,
                        0.17080840468406677,
                        -0.421774297952652,
                        -0.5010566711425781,
                        0.02319527417421341,
                        0.015187110751867294,
                        0.011725738644599915,
                        -0.02347746677696705,
                        -0.01640360988676548,
                        -0.009976900182664394,
                        -0.12831035256385803,
                        0.0008205819176509976,
                        -0.02498457580804825,
                        0.021207567304372787,
                        -0.009461784735321999,
                        0.10799891501665115,
                        0.0981895923614502,
                        0.016108939424157143,
                        0.12155631184577942,
                        0.005485587287694216
                    ],
                    [
                        -0.006230170838534832,
                        0.02566646784543991,
                        -0.03597071394324303,
                        0.025615915656089783,
                        0.06032988429069519,
                        0.004436989314854145,
                        0.12913954257965088,
                        -0.002043941058218479,
                        -0.050404440611600876,
                        0.01591595634818077,
                        0.019311103969812393,
                        -0.13221631944179535,
                        0.14081953465938568,
                        -0.07642202824354172,
                        0.1472351998090744,
                        -0.36810213327407837,
                        -0.022366059944033623,
                        0.05420231446623802,
                        -0.1045975536108017,
                        0.023402925580739975,
                        -0.035647813230752945,
                        0.011820904910564423,
                        -0.02060152031481266,
                        -0.3978556990623474,
                        0.16554933786392212,
                        -0.01847965270280838,
                        0.029049305245280266,
                        0.01459990069270134,
                        0.12777525186538696,
                        -0.16832387447357178,
                        0.0821862444281578,
                        0.1804371178150177,
                        -0.08676905930042267,
                        -0.03381484001874924,
                        -0.6115423440933228,
                        0.03619154170155525,
                        -0.11044429242610931,
                        0.02519199252128601,
                        -0.350750207901001,
                        0.3135840594768524,
                        0.5090292692184448,
                        0.023275112733244896,
                        0.06227501481771469,
                        -0.042028363794088364,
                        0.6717007756233215,
                        -0.3308136761188507,
                        0.2296549379825592,
                        0.40662500262260437,
                        -0.01574532501399517,
                        0.2289162576198578,
                        0.18045617640018463,
                        0.026046747341752052,
                        0.06051592528820038,
                        0.0037951390258967876,
                        0.12587057054042816,
                        -0.0021625796798616648,
                        -0.03449179232120514,
                        0.01857350394129753,
                        0.035850562155246735,
                        0.028428010642528534,
                        0.14535555243492126,
                        -0.2535676658153534,
                        0.11139964312314987,
                        -0.13997401297092438
                    ],
                    [
                        -0.11734017729759216,
                        0.002337472978979349,
                        0.13393497467041016,
                        0.008969729766249657,
                        0.02662614732980728,
                        -0.027904123067855835,
                        -0.1769000142812729,
                        0.025633597746491432,
                        0.039324164390563965,
                        -0.3710230588912964,
                        -0.031385187059640884,
                        -0.33396100997924805,
                        0.05503322556614876,
                        -0.032461922615766525,
                        -0.05090721696615219,
                        0.13498573005199432,
                        -0.13230474293231964,
                        0.007245833519846201,
                        0.2803029716014862,
                        0.02531573548913002,
                        -0.003477394348010421,
                        -0.011277692392468452,
                        -0.025052480399608612,
                        -0.053654782474040985,
                        0.4739762842655182,
                        -0.42116373777389526,
                        -0.04269319027662277,
                        0.18355540931224823,
                        0.05603545159101486,
                        -0.13866382837295532,
                        0.02455473132431507,
                        -0.07973069697618484,
                        0.16540899872779846,
                        0.0012781311525031924,
                        -0.16962943971157074,
                        -0.10487067699432373,
                        0.1177288293838501,
                        0.27737829089164734,
                        -0.276998370885849,
                        0.3042498826980591,
                        -0.006000922992825508,
                        0.68442302942276,
                        0.018973808735609055,
                        0.20921160280704498,
                        0.04913032054901123,
                        -0.3572409152984619,
                        -0.23183995485305786,
                        -0.09754979610443115,
                        -0.17010252177715302,
                        0.03768816590309143,
                        0.15674777328968048,
                        0.004145415499806404,
                        0.02801448293030262,
                        -0.051629599183797836,
                        -0.20490382611751556,
                        0.023399317637085915,
                        -0.007663218304514885,
                        -0.460582971572876,
                        -0.044884562492370605,
                        -0.007964959368109703,
                        0.05854031443595886,
                        -0.21819975972175598,
                        -0.035508785396814346,
                        0.21948060393333435
                    ],
                    [
                        0.04032816365361214,
                        0.0016899447655305266,
                        0.016510339453816414,
                        0.04566941782832146,
                        0.08855390548706055,
                        -0.03831896930932999,
                        0.41750049591064453,
                        -0.03801938518881798,
                        0.013835851103067398,
                        -0.00957761611789465,
                        0.16748733818531036,
                        0.1270591914653778,
                        0.04733199253678322,
                        -0.06477857381105423,
                        0.22348378598690033,
                        0.046840421855449677,
                        0.034902460873126984,
                        6.346798181766644e-05,
                        0.09535955637693405,
                        0.036011938005685806,
                        -0.03442252054810524,
                        -0.06960402429103851,
                        0.07583139836788177,
                        -0.6587343811988831,
                        -0.17193354666233063,
                        -0.008461800403892994,
                        0.2495623528957367,
                        0.29882651567459106,
                        0.024978702887892723,
                        -0.01224509533494711,
                        0.07906413823366165,
                        0.08665864169597626,
                        -0.421615332365036,
                        0.0025674288626760244,
                        0.07755937427282333,
                        0.08629776537418365,
                        0.11439666897058487,
                        0.2133290022611618,
                        -0.02291586436331272,
                        0.032333631068468094,
                        0.04430704936385155,
                        -0.014985809102654457,
                        0.20684859156608582,
                        -0.06594815105199814,
                        0.0330418162047863,
                        -0.03556475043296814,
                        -0.02974366582930088,
                        -0.06380670517683029,
                        0.20833009481430054,
                        0.015202133916318417,
                        0.012588918209075928,
                        0.04657164216041565,
                        0.08992428332567215,
                        -0.04308757930994034,
                        0.3684487044811249,
                        -0.0376819483935833,
                        0.08741448819637299,
                        0.06436503678560257,
                        0.2534846365451813,
                        0.21275612711906433,
                        0.02328542433679104,
                        -0.11218243092298508,
                        0.1833929866552353,
                        0.11601220816373825
                    ],
                    [
                        -0.16529184579849243,
                        -0.015963003039360046,
                        0.018342547118663788,
                        -0.04820176959037781,
                        -0.16165323555469513,
                        0.057601023465394974,
                        -0.1930791139602661,
                        0.046404965221881866,
                        0.054908547550439835,
                        0.09291838854551315,
                        -0.29118457436561584,
                        0.17285236716270447,
                        0.0786907747387886,
                        0.2707498371601105,
                        -0.11952343583106995,
                        0.4189939796924591,
                        -0.24395714700222015,
                        -0.05006033927202225,
                        0.003694829996675253,
                        -0.04513237997889519,
                        0.0668555498123169,
                        0.06077028438448906,
                        0.2627802789211273,
                        1.075364351272583,
                        0.24322861433029175,
                        0.12743514776229858,
                        -0.36894211173057556,
                        -0.061715587973594666,
                        0.08429580926895142,
                        0.432824045419693,
                        0.08870526403188705,
                        0.03795731067657471,
                        -0.01718742959201336,
                        0.03024999611079693,
                        0.15498033165931702,
                        0.011279916390776634,
                        -0.2547752857208252,
                        0.17491547763347626,
                        -0.05013249069452286,
                        0.07564450055360794,
                        -0.03252878785133362,
                        0.054998304694890976,
                        -0.14409764111042023,
                        0.746482789516449,
                        -0.17451965808868408,
                        -0.02321523241698742,
                        0.6117613911628723,
                        0.04384481534361839,
                        -0.26584234833717346,
                        -0.0711601972579956,
                        0.19382768869400024,
                        -0.04808811470866203,
                        -0.1623130589723587,
                        0.057348284870386124,
                        -0.18562203645706177,
                        0.046666037291288376,
                        0.07150137424468994,
                        0.03709558770060539,
                        -0.34499257802963257,
                        0.02028251625597477,
                        0.09614645689725876,
                        0.694355845451355,
                        -0.12077953666448593,
                        0.051490116864442825
                    ],
                    [
                        0.02842949703335762,
                        0.0070703839883208275,
                        -0.008947278372943401,
                        0.020455049350857735,
                        0.05145031958818436,
                        -0.01384358387440443,
                        0.16283899545669556,
                        -0.03174298629164696,
                        0.0551106333732605,
                        -0.12552368640899658,
                        0.040846772491931915,
                        -0.193034827709198,
                        0.03729913383722305,
                        -0.02770092524588108,
                        0.11329089850187302,
                        -0.2209656685590744,
                        -0.003426960436627269,
                        0.013373976573348045,
                        0.008271911181509495,
                        0.019921598955988884,
                        -0.01413852721452713,
                        -0.020170852541923523,
                        0.18368564546108246,
                        -0.350318044424057,
                        0.11042799800634384,
                        -0.18182426691055298,
                        0.056681059300899506,
                        0.00083014095434919,
                        0.01839265413582325,
                        -0.07406913489103317,
                        0.05932185798883438,
                        0.0897168442606926,
                        -0.004505349323153496,
                        -0.004228255245834589,
                        -0.3260834515094757,
                        0.030135544016957283,
                        0.18847066164016724,
                        -0.09172480553388596,
                        0.04927912726998329,
                        0.09948831051588058,
                        0.35519546270370483,
                        0.2498466819524765,
                        0.031273968517780304,
                        -0.08073097467422485,
                        0.260091632604599,
                        0.10822945088148117,
                        -0.15262480080127716,
                        0.35261884331703186,
                        0.04376973211765289,
                        0.0933522880077362,
                        0.005698887165635824,
                        0.020865540951490402,
                        0.05319773033261299,
                        -0.021138839423656464,
                        0.12226927280426025,
                        -0.031442396342754364,
                        0.0054131862707436085,
                        -0.11998256295919418,
                        0.06455911695957184,
                        0.0183421541005373,
                        0.026119062677025795,
                        -0.16098228096961975,
                        0.08795898407697678,
                        -0.11123824864625931
                    ],
                    [
                        0.005041136872023344,
                        -0.007842937484383583,
                        -0.23306992650032043,
                        -0.014673965983092785,
                        -0.015072175301611423,
                        -0.056704480201005936,
                        -0.09999092668294907,
                        0.0034601257648319006,
                        -0.3856925368309021,
                        0.4803889989852905,
                        0.06120115518569946,
                        0.18575070798397064,
                        -0.08355432003736496,
                        0.014235849492251873,
                        -0.188045933842659,
                        -0.15277066826820374,
                        0.05346844717860222,
                        -0.022326946258544922,
                        -0.3952861726284027,
                        -0.011378058232367039,
                        -0.018845604732632637,
                        -0.09717818349599838,
                        -0.09672554582357407,
                        0.018143290653824806,
                        0.16207736730575562,
                        0.5056349039077759,
                        0.08017732203006744,
                        -0.16944386065006256,
                        -0.05028024688363075,
                        0.12318574637174606,
                        -0.1449168473482132,
                        0.028627369552850723,
                        -0.2288215011358261,
                        0.008639617823064327,
                        -0.24434468150138855,
                        -0.08786112070083618,
                        -0.17648392915725708,
                        0.0005832781316712499,
                        -0.23631581664085388,
                        -0.08778396248817444,
                        0.019898811355233192,
                        -0.27995389699935913,
                        0.07266039401292801,
                        -0.088978111743927,
                        -0.3390304148197174,
                        1.0635273456573486,
                        0.03366824612021446,
                        -0.20075029134750366,
                        0.012395121157169342,
                        0.08130288124084473,
                        0.09810563921928406,
                        -0.02329169027507305,
                        -0.016798080876469612,
                        -0.04935111477971077,
                        -0.15757346153259277,
                        -0.0006740711978636682,
                        0.260929673910141,
                        0.4640856087207794,
                        0.06257430464029312,
                        -0.17989890277385712,
                        -0.12507906556129456,
                        0.1161910891532898,
                        -0.1264360398054123,
                        -0.24961358308792114
                    ],
                    [
                        -0.0318305529654026,
                        -0.01870475336909294,
                        0.028311187401413918,
                        -0.04134107753634453,
                        -0.11283261328935623,
                        0.07628245651721954,
                        -0.13592950999736786,
                        0.08120575547218323,
                        0.07238541543483734,
                        -0.22301208972930908,
                        -0.22617793083190918,
                        0.1634785532951355,
                        0.034320540726184845,
                        0.17033657431602478,
                        0.002038315637037158,
                        0.4818786382675171,
                        -0.028960008174180984,
                        -0.051030971109867096,
                        0.012461883947253227,
                        -0.03429736569523811,
                        0.08923500776290894,
                        0.06444165855646133,
                        0.17863330245018005,
                        1.0338270664215088,
                        -0.3139148950576782,
                        -0.022076483815908432,
                        -0.3044494390487671,
                        -0.13905619084835052,
                        -0.008336642757058144,
                        0.3424507677555084,
                        0.05286969989538193,
                        0.007777884602546692,
                        -0.1295723170042038,
                        0.030763976275920868,
                        0.060526590794324875,
                        0.06769847124814987,
                        0.04976409673690796,
                        -0.15771587193012238,
                        -0.23463274538516998,
                        0.7956227660179138,
                        0.20528841018676758,
                        0.33934274315834045,
                        -0.16081805527210236,
                        -0.29269611835479736,
                        0.053515173494815826,
                        -1.1117271184921265,
                        0.2739163339138031,
                        0.04990437999367714,
                        -0.14999064803123474,
                        -0.1953762322664261,
                        -0.11086734384298325,
                        -0.03563457727432251,
                        -0.10854656249284744,
                        0.07702498137950897,
                        -0.11250662803649902,
                        0.08750224858522415,
                        -0.6655784845352173,
                        -0.23644912242889404,
                        -0.29513078927993774,
                        0.11422552913427353,
                        0.032242558896541595,
                        0.5347265005111694,
                        -0.018664639443159103,
                        -0.09653045982122421
                    ],
                    [
                        0.08167518675327301,
                        0.004438892472535372,
                        0.13202440738677979,
                        0.008375363424420357,
                        0.03228740021586418,
                        0.020290153101086617,
                        -0.008066289126873016,
                        -0.02438763901591301,
                        0.1134343221783638,
                        0.07545234262943268,
                        0.04469391331076622,
                        -0.12253580242395401,
                        -0.09669849276542664,
                        -0.12188950926065445,
                        0.039279963821172714,
                        -0.29240861535072327,
                        0.14934219419956207,
                        0.011682352051138878,
                        0.268686980009079,
                        0.009131706319749355,
                        -0.0015504596522077918,
                        0.022859415039420128,
                        -0.13407574594020844,
                        -0.22835540771484375,
                        -0.10439178347587585,
                        0.03469708934426308,
                        0.07878378033638,
                        -0.1776835173368454,
                        -0.09394237399101257,
                        -0.312940388917923,
                        0.0839276984333992,
                        -0.14455687999725342,
                        -0.0773901641368866,
                        -0.007053658831864595,
                        0.6274663805961609,
                        0.007766236085444689,
                        -0.18807439506053925,
                        0.0029951308388262987,
                        -0.18342217803001404,
                        0.1571555882692337,
                        -0.6744256019592285,
                        -0.2606772482395172,
                        -0.007743282709270716,
                        -0.07038679718971252,
                        -0.13326609134674072,
                        -0.08940788358449936,
                        -0.12033261358737946,
                        0.38242870569229126,
                        0.15171842277050018,
                        -0.01060550194233656,
                        -0.042167916893959045,
                        0.008661034516990185,
                        0.032174400985240936,
                        0.02145027369260788,
                        0.005757845006883144,
                        -0.024480575695633888,
                        -0.2723894715309143,
                        0.05895683541893959,
                        0.07269729673862457,
                        -0.042341552674770355,
                        -0.10595288872718811,
                        -0.267621248960495,
                        0.042775049805641174,
                        0.30203109979629517
                    ]
                ],
                [
                    -0.15942691266536713,
                    0.4404497444629669,
                    0.38124793767929077,
                    0.1854051649570465,
                    0.6828415393829346,
                    0.35568928718566895,
                    0.769512951374054,
                    2.018615245819092,
                    -1.9357073307037354,
                    -0.16980603337287903,
                    -0.08516320586204529,
                    -1.1004509925842285,
                    0.11414147913455963,
                    0.6178308129310608,
                    0.49291136860847473,
                    -2.0615181922912598,
                    0.8007826805114746,
                    0.9095970988273621,
                    0.9123353362083435,
                    0.1573604941368103,
                    -0.581057608127594,
                    0.7696067690849304,
                    0.943020224571228,
                    -0.13359591364860535,
                    2.7318568229675293,
                    0.5891609191894531,
                    0.36681461334228516,
                    2.0338916778564453,
                    0.38714873790740967,
                    -0.18869034945964813,
                    0.5437123775482178,
                    3.02822208404541,
                    -0.01600586622953415,
                    -0.6843674182891846,
                    0.4258217513561249,
                    0.03383763134479523,
                    -0.13892073929309845,
                    -0.05406976118683815,
                    0.04524645581841469,
                    -0.015517016872763634,
                    0.032896388322114944,
                    0.0016562789678573608,
                    0.015563827008008957,
                    -0.01332264207303524,
                    0.2408391535282135,
                    0.03903418779373169,
                    -0.07237958908081055,
                    -0.15442189574241638,
                    0.0486912876367569,
                    0.962037980556488,
                    0.5611709356307983,
                    0.18362562358379364,
                    0.6842073202133179,
                    0.3502366840839386,
                    1.0316276550292969,
                    2.020052433013916,
                    -0.0524759367108345,
                    0.01327364332973957,
                    -0.00434962147846818,
                    -0.47007712721824646,
                    -0.08527307212352753,
                    -0.514093816280365,
                    0.9825750589370728,
                    -0.5761385560035706
                ]
            ]
        },
        {
            "type": "dense",
            "activation": "",
            "shape": [
                null,
                null,
                1
            ],
            "weights": [
                [
                    [
                        -0.02998124249279499
                    ],
                    [
                        0.051268383860588074
                    ],
                    [
                        -0.1596895009279251
                    ],
                    [
                        0.04448464885354042
                    ],
                    [
                        0.025006189942359924
                    ],
                    [
                        0.02859635464847088
                    ],
                    [
                        0.14044789969921112
                    ],
                    [
                        3.0907974243164062
                    ],
                    [
                        -0.14459267258644104
                    ],
                    [
                        0.2197360098361969
                    ],
                    [
                        0.019532203674316406
                    ],
                    [
                        0.008440198376774788
                    ],
                    [
                        -0.2715156376361847
                    ],
                    [
                        0.3536921739578247
                    ],
                    [
                        0.05303376540541649
                    ],
                    [
                        -0.1940053552389145
                    ]
                ],
                [
                    0.13187870383262634
                ]
            ]
        }
    ]
}