{
    "in_shape": [
        null,
        null,
        1
    ],
    "in_skip": 1,
    "layers": [
        {
            "type": "lstm",
            "activation": "",
            "shape": [
                null,
                null,
                16
            ],
            "weights": [
                [
                    [
                        -0.01001205574721098,
                        -0.0024078090209513903,
                        0.009427455253899097,
                        -0.014580409042537212,
                        0.0022545766551047564,
                        0.06271257251501083,
                        -0.006134284194558859,
                        0.022654902189970016,
                        0.22300270199775696,
                        -0.059252940118312836,
                        -0.03006896935403347,
                        0.022218234837055206,
                        -0.012474951334297657,
                        0.023965418338775635,
                        -0.008505143225193024,
                        -0.07571999728679657,
                        -0.014969410374760628,
                        -0.014407585375010967,
                        0.00613377382978797,
                        -0.015531511045992374,
                        -0.0002308864932274446,
                        0.03066680207848549,
                        -0.01209415402263403,
                        0.011697590351104736,
                        0.17740139365196228,
                        -0.07662782818078995,
                        -0.043260570615530014,
                        0.021087173372507095,
                        -0.002043032320216298,
                        0.016242964193224907,
                        -0.0021209619008004665,
                        0.047061625868082047,
                        -0.013617424294352531,
                        0.0035825890954583883,
                        0.04684453085064888,
                        0.19242672622203827,
                        1.3476132154464722,
                        0.18206824362277985,
                        0.08172588050365448,
                        0.4682290554046631,
                        0.7173529863357544,
                        -0.2576502561569214,
                        -0.029693974182009697,
                        -0.013919747434556484,
                        -4.218044757843018,
                        -0.06334315985441208,
                        0.1495884209871292,
                        0.017780061811208725,
                        -0.029541298747062683,
                        -0.04666861519217491,
                        -0.019462088122963905,
                        -0.025151444599032402,
                        0.0020999021362513304,
                        0.04677620902657509,
                        -0.0163114070892334,
                        0.030222749337553978,
                        0.2179345041513443,
                        -0.08169302344322205,
                        -0.01570509374141693,
                        0.011281578801572323,
                        -0.06232789531350136,
                        0.12222811579704285,
                        0.005587813910096884,
                        -0.042055562138557434
                    ]
                ],
                [
                    [
                        0.031549498438835144,
                        0.03532888740301132,
                        0.03718970715999603,
                        0.03714542090892792,
                        0.12913072109222412,
                        -0.12632399797439575,
                        0.043398354202508926,
                        0.047718923538923264,
                        0.05777483806014061,
                        0.09434102475643158,
                        0.034027550369501114,
                        -0.14378170669078827,
                        0.15755695104599,
                        0.04360022023320198,
                        -0.3075408637523651,
                        -0.2879839539527893,
                        0.032210301607847214,
                        0.07394000142812729,
                        0.08256832510232925,
                        0.08151017874479294,
                        -0.05670825019478798,
                        -0.02013046108186245,
                        0.09144984930753708,
                        0.12424533814191818,
                        0.10221559554338455,
                        -0.006762801669538021,
                        0.0753580778837204,
                        0.41012242436408997,
                        -0.05027853697538376,
                        0.02302638068795204,
                        0.4142751097679138,
                        0.1929987668991089,
                        0.04860176518559456,
                        -0.013262172229588032,
                        0.046723492443561554,
                        0.029566850513219833,
                        0.2488657385110855,
                        -0.24616482853889465,
                        0.061646927148103714,
                        -0.06817799806594849,
                        -0.02207060717046261,
                        0.06814973801374435,
                        0.005220144987106323,
                        -0.0097289327532053,
                        -0.03774168714880943,
                        0.04127247631549835,
                        -0.0234359260648489,
                        -0.1227777749300003,
                        0.03819163888692856,
                        0.09955946356058121,
                        0.14903117716312408,
                        0.09388725459575653,
                        0.13120049238204956,
                        0.0191358495503664,
                        0.1652488261461258,
                        0.07774636894464493,
                        0.0868287906050682,
                        0.1295890063047409,
                        0.08584091812372208,
                        0.13871833682060242,
                        0.05317091569304466,
                        0.11413735896348953,
                        0.13529807329177856,
                        0.0823032334446907
                    ],
                    [
                        -0.055536288768053055,
                        -0.0809980258345604,
                        -0.07644515484571457,
                        -0.02065771445631981,
                        -0.27361059188842773,
                        0.2483857125043869,
                        -0.08332162350416183,
                        -0.03475172817707062,
                        0.0665045976638794,
                        -0.23001553118228912,
                        -0.0771985575556755,
                        0.43417346477508545,
                        -0.36925628781318665,
                        -0.11118844151496887,
                        0.3945881128311157,
                        0.6431095004081726,
                        -0.04874574393033981,
                        -0.17317607998847961,
                        -0.17615225911140442,
                        -0.11387445777654648,
                        0.10621337592601776,
                        -0.03680744394659996,
                        -0.1860613226890564,
                        -0.18954843282699585,
                        -0.05375021696090698,
                        -0.193299800157547,
                        -0.17327819764614105,
                        -0.42368775606155396,
                        -0.026835547760128975,
                        -0.12737664580345154,
                        -0.7803075313568115,
                        -0.4411037266254425,
                        -0.11809657514095306,
                        0.0025016337167471647,
                        -0.10383838415145874,
                        -0.03953639417886734,
                        -0.04588877037167549,
                        -0.07243980467319489,
                        -0.11910907179117203,
                        0.10382746160030365,
                        -0.2562183737754822,
                        0.08563307672739029,
                        -0.10582314431667328,
                        -0.10469798743724823,
                        -0.16276004910469055,
                        -0.1325257271528244,
                        -0.042132891714572906,
                        0.008950096555054188,
                        -0.04614245891571045,
                        -0.1559617966413498,
                        -0.25972118973731995,
                        -0.1664184033870697,
                        -0.27784740924835205,
                        -0.06499504297971725,
                        -0.25776156783103943,
                        -0.16234523057937622,
                        -0.06395696103572845,
                        -0.262869656085968,
                        -0.15030597150325775,
                        -0.25024473667144775,
                        -0.24120758473873138,
                        -0.23539388179779053,
                        -0.2519601285457611,
                        -0.27594149112701416
                    ],
                    [
                        0.07087116688489914,
                        0.10666168481111526,
                        0.10521791130304337,
                        0.038113661110401154,
                        0.3516083359718323,
                        -0.11841166764497757,
                        0.11582529544830322,
                        -0.031612228602170944,
                        -0.175881028175354,
                        0.24195338785648346,
                        0.03643755614757538,
                        -0.7439159750938416,
                        0.49395549297332764,
                        0.15879680216312408,
                        -0.6852681040763855,
                        -0.9432439208030701,
                        0.06077802926301956,
                        0.22879114747047424,
                        0.24790795147418976,
                        0.23280282318592072,
                        -0.14790157973766327,
                        0.2803907096385956,
                        0.2657586932182312,
                        0.4424963593482971,
                        0.09569675475358963,
                        0.2572802007198334,
                        0.1473570019006729,
                        1.0751770734786987,
                        -0.046593982726335526,
                        0.1944289356470108,
                        0.7354997992515564,
                        0.8018231391906738,
                        0.12340974807739258,
                        -0.1633438915014267,
                        0.1562570482492447,
                        -0.18795031309127808,
                        0.05412076413631439,
                        0.09293034672737122,
                        0.2394401580095291,
                        -0.07073868811130524,
                        0.1891443431377411,
                        0.17865730822086334,
                        -0.06997571140527725,
                        0.2399747520685196,
                        -0.04706734046339989,
                        0.16201040148735046,
                        0.17485512793064117,
                        -0.06505363434553146,
                        0.04665272682905197,
                        0.13541685044765472,
                        0.44067126512527466,
                        0.2205406129360199,
                        0.356937050819397,
                        0.2115338146686554,
                        0.2778475880622864,
                        0.223191037774086,
                        0.0485425665974617,
                        0.3382473289966583,
                        0.09405839443206787,
                        0.20669721066951752,
                        0.3293062746524811,
                        0.3206113576889038,
                        0.24665649235248566,
                        0.3178503215312958
                    ],
                    [
                        0.06027400866150856,
                        0.02979167178273201,
                        0.00659796642139554,
                        0.008459897711873055,
                        0.03526988998055458,
                        -0.5946939587593079,
                        0.02900693193078041,
                        0.03215401992201805,
                        0.19026687741279602,
                        0.015044272877275944,
                        0.039552852511405945,
                        0.22758933901786804,
                        -0.22594939172267914,
                        -0.025106068700551987,
                        -0.33239051699638367,
                        0.06972481310367584,
                        0.08010802417993546,
                        0.09225351363420486,
                        0.030039651319384575,
                        0.04139380529522896,
                        -0.09739311039447784,
                        -0.45713749527931213,
                        0.0640363022685051,
                        0.05288054049015045,
                        0.07296745479106903,
                        0.03138425946235657,
                        0.13542744517326355,
                        0.11424323916435242,
                        -0.5262311100959778,
                        0.056518834084272385,
                        -0.06632217019796371,
                        0.09739400446414948,
                        0.12161161005496979,
                        -0.14519236981868744,
                        -0.004956807475537062,
                        0.11792397499084473,
                        0.0029758813325315714,
                        -0.44096213579177856,
                        -0.0011092638596892357,
                        0.1715499460697174,
                        -0.2965140640735626,
                        -0.11385107040405273,
                        -0.07947889715433121,
                        -0.19743168354034424,
                        -0.13470634818077087,
                        0.23495718836784363,
                        0.034004610031843185,
                        0.1989559531211853,
                        0.11020825803279877,
                        0.0355612151324749,
                        0.05163809657096863,
                        -0.031292274594306946,
                        0.03750129044055939,
                        -0.33329465985298157,
                        0.13119171559810638,
                        0.03942108154296875,
                        0.056169383227825165,
                        0.10880711674690247,
                        0.11236556619405746,
                        0.09321378171443939,
                        -0.6296595931053162,
                        0.0785445049405098,
                        0.06197402998805046,
                        0.07727494835853577
                    ],
                    [
                        -0.025485245510935783,
                        -0.02394544892013073,
                        -0.004915738478302956,
                        0.0272307638078928,
                        -0.007616744376718998,
                        -0.0808221623301506,
                        0.010989333502948284,
                        -0.08693787455558777,
                        -0.051462214440107346,
                        0.0508408397436142,
                        0.09126710146665573,
                        0.1520313322544098,
                        0.026640532538294792,
                        -0.005310396663844585,
                        0.060400135815143585,
                        0.1592390090227127,
                        -0.027065753936767578,
                        -0.0574166364967823,
                        -0.009469936601817608,
                        1.2379884992697043e-06,
                        0.018903404474258423,
                        -0.025248004123568535,
                        0.018026666715741158,
                        -0.09166422486305237,
                        0.037946660071611404,
                        0.041429053992033005,
                        0.13732866942882538,
                        -0.040559183806180954,
                        0.13746698200702667,
                        0.03437001258134842,
                        0.013761525973677635,
                        0.2898462116718292,
                        -0.06532254815101624,
                        0.14017760753631592,
                        -0.009913172572851181,
                        0.002680844394490123,
                        -0.8356785774230957,
                        -0.42990145087242126,
                        0.019912859424948692,
                        0.7797025442123413,
                        0.01151885837316513,
                        0.2248084545135498,
                        -0.20919503271579742,
                        0.021545015275478363,
                        -1.2862684726715088,
                        0.11857163906097412,
                        0.07203798741102219,
                        0.6609413623809814,
                        -0.14047938585281372,
                        0.05032702907919884,
                        -0.05768951401114464,
                        -0.025903750211000443,
                        -0.005918895360082388,
                        -0.057121045887470245,
                        0.003548304783180356,
                        -0.005075498484075069,
                        0.03473750129342079,
                        0.009454007260501385,
                        -0.03545379266142845,
                        -0.03973741829395294,
                        0.16000279784202576,
                        0.14607569575309753,
                        -0.035078663378953934,
                        -0.05213944986462593
                    ],
                    [
                        -0.012464824132621288,
                        0.001946526812389493,
                        0.007732951547950506,
                        -0.20906829833984375,
                        0.0091642951592803,
                        0.06780429184436798,
                        0.007025941740721464,
                        0.15182487666606903,
                        0.006644868291914463,
                        -0.010579954832792282,
                        -0.09125057607889175,
                        -0.23085860908031464,
                        -0.029267512261867523,
                        0.04904179647564888,
                        0.5654768943786621,
                        -0.9037964940071106,
                        -0.023531340062618256,
                        -0.008338033221662045,
                        0.012287795543670654,
                        -0.2963389456272125,
                        -0.06503291428089142,
                        0.22248631715774536,
                        0.026701318100094795,
                        0.26221734285354614,
                        0.1248428001999855,
                        -0.10400418937206268,
                        -0.1556679904460907,
                        0.06202561780810356,
                        -0.2502973675727844,
                        0.018041709437966347,
                        -0.03471234068274498,
                        -0.023314381018280983,
                        -0.010329182259738445,
                        0.0669851005077362,
                        0.015806570649147034,
                        0.09957706928253174,
                        -0.2591170370578766,
                        0.25319626927375793,
                        0.014043750241398811,
                        0.09469775855541229,
                        -0.030277296900749207,
                        -0.10949625074863434,
                        -0.08776771277189255,
                        -0.13399556279182434,
                        -0.08505217730998993,
                        -0.13632182776927948,
                        0.7474822998046875,
                        -0.26698821783065796,
                        -0.05548080801963806,
                        0.05494584143161774,
                        0.039002686738967896,
                        -0.0349302664399147,
                        0.01016258541494608,
                        0.19009579718112946,
                        0.1424422413110733,
                        0.1089896634221077,
                        0.06660355627536774,
                        -0.2193038910627365,
                        -0.14444296061992645,
                        0.06204364821314812,
                        -0.1719449907541275,
                        -0.054547350853681564,
                        -0.031516626477241516,
                        -0.07239910960197449
                    ],
                    [
                        0.07145082950592041,
                        0.11074614524841309,
                        0.10840395838022232,
                        0.027376320213079453,
                        0.32522326707839966,
                        -0.26608893275260925,
                        0.104466013610363,
                        -0.08212438970804214,
                        -0.2939370572566986,
                        0.13078953325748444,
                        0.029367057606577873,
                        -0.6283444166183472,
                        0.4393012821674347,
                        0.15116821229457855,
                        -0.475024551153183,
                        -0.7768551707267761,
                        0.061368610709905624,
                        0.2150685340166092,
                        0.23972176015377045,
                        0.1745261698961258,
                        -0.1424582451581955,
                        0.11526841670274734,
                        0.24231204390525818,
                        0.2739211618900299,
                        0.08686434477567673,
                        0.13898873329162598,
                        0.12475098669528961,
                        0.9059656858444214,
                        -0.14113226532936096,
                        0.1853206902742386,
                        0.9560030102729797,
                        0.8256378173828125,
                        0.22439612448215485,
                        -0.11006680876016617,
                        0.1767057478427887,
                        0.12549355626106262,
                        0.009467334486544132,
                        0.06405728310346603,
                        0.26573455333709717,
                        -0.2968711853027344,
                        0.15645919740200043,
                        -0.11709253489971161,
                        0.2579348087310791,
                        -0.16771699488162994,
                        0.060858532786369324,
                        0.21709808707237244,
                        0.2805592715740204,
                        -0.055356211960315704,
                        0.039709318429231644,
                        0.18155589699745178,
                        0.3377676010131836,
                        0.2035624384880066,
                        0.33040469884872437,
                        0.10775375366210938,
                        0.3264971971511841,
                        0.18866057693958282,
                        -0.00862689595669508,
                        0.246452197432518,
                        0.09269479662179947,
                        0.2795450985431671,
                        0.2100677192211151,
                        0.26070326566696167,
                        0.354532927274704,
                        0.2512710392475128
                    ],
                    [
                        -0.047281939536333084,
                        -0.017424633726477623,
                        -0.0027124732732772827,
                        -0.06545094400644302,
                        -0.009862001985311508,
                        0.20482137799263,
                        -0.0226224884390831,
                        0.024726344272494316,
                        0.080195851624012,
                        -0.09138290584087372,
                        -0.05167820677161217,
                        -0.039383068680763245,
                        -0.03970981761813164,
                        -0.02145005576312542,
                        -0.015153517946600914,
                        -0.08194839209318161,
                        -0.06681961566209793,
                        -0.04709354788064957,
                        -0.019086696207523346,
                        -0.11208412796258926,
                        -0.02699856087565422,
                        0.06909352540969849,
                        -0.04448852688074112,
                        -0.03579916059970856,
                        0.024791622534394264,
                        -0.11618860065937042,
                        -0.13963641226291656,
                        -0.23995031416416168,
                        -0.08904615789651871,
                        -0.1422206461429596,
                        -0.005532215349376202,
                        -0.17012837529182434,
                        -0.08947624266147614,
                        0.01176944188773632,
                        0.03025628998875618,
                        -0.43873438239097595,
                        -0.11066542565822601,
                        0.48528340458869934,
                        0.07530883699655533,
                        -0.15944628417491913,
                        -0.23154252767562866,
                        -0.4631369411945343,
                        -0.12533578276634216,
                        0.291436105966568,
                        0.3607545793056488,
                        -0.30873242020606995,
                        -0.21627068519592285,
                        0.14676956832408905,
                        -0.050055816769599915,
                        -0.04940929263830185,
                        -0.0071452003903687,
                        -0.05283017456531525,
                        -0.012521060183644295,
                        0.11242880672216415,
                        -0.13415391743183136,
                        0.032509803771972656,
                        0.0483756959438324,
                        -0.1182888001203537,
                        -0.04398718103766441,
                        -0.10106633603572845,
                        -0.11966895312070847,
                        -0.17068547010421753,
                        -0.021641993895173073,
                        0.0823899433016777
                    ],
                    [
                        0.03264417499303818,
                        0.02258898876607418,
                        0.01262545958161354,
                        -0.0988069400191307,
                        0.0659603700041771,
                        -0.06472651660442352,
                        0.025180652737617493,
                        -0.11359921842813492,
                        -0.2537950873374939,
                        0.10742238163948059,
                        0.0999264121055603,
                        -0.18380418419837952,
                        0.22970381379127502,
                        0.0355227068066597,
                        -0.1838088184595108,
                        -0.010612521320581436,
                        0.04280500113964081,
                        0.05660438910126686,
                        0.030674826353788376,
                        -0.06826367229223251,
                        0.02615799941122532,
                        0.018176190555095673,
                        0.04320581629872322,
                        0.04939780756831169,
                        -0.2308739274740219,
                        0.06588392704725266,
                        0.17454175651073456,
                        -0.18740661442279816,
                        0.38309213519096375,
                        0.11049505323171616,
                        0.14226491749286652,
                        0.24809223413467407,
                        0.04931680113077164,
                        -0.03814288601279259,
                        0.011257491074502468,
                        0.10065843164920807,
                        -0.35078635811805725,
                        -0.4114517271518707,
                        0.023546986281871796,
                        0.31922173500061035,
                        0.09847378730773926,
                        -0.27957338094711304,
                        0.1848601996898651,
                        -0.08500088006258011,
                        -0.5321128964424133,
                        0.31589341163635254,
                        -0.018833553418517113,
                        0.34910374879837036,
                        0.04084494337439537,
                        0.07730385661125183,
                        0.04579591378569603,
                        0.02084258571267128,
                        0.06807257235050201,
                        -0.02037091739475727,
                        0.15057678520679474,
                        -0.08280359208583832,
                        -0.18096931278705597,
                        0.11861484497785568,
                        0.12745004892349243,
                        -0.03787656128406525,
                        0.5144708752632141,
                        0.189066544175148,
                        -0.026815664023160934,
                        0.12026150524616241
                    ],
                    [
                        0.01520214881747961,
                        -0.06676393747329712,
                        -0.07580908387899399,
                        -0.08630495518445969,
                        -0.2593347430229187,
                        -0.3102940022945404,
                        -0.02741200104355812,
                        0.30280232429504395,
                        0.017668412998318672,
                        -0.008623872883617878,
                        0.11848927289247513,
                        0.05155709758400917,
                        -0.45371559262275696,
                        -0.1383969634771347,
                        1.5464180707931519,
                        0.2205495834350586,
                        0.04159224405884743,
                        -0.1512901484966278,
                        -0.15529899299144745,
                        -0.35783857107162476,
                        0.13952146470546722,
                        -0.3204154968261719,
                        -0.08273328840732574,
                        -0.18216855823993683,
                        -0.06142086908221245,
                        0.19829662144184113,
                        0.07541827112436295,
                        -0.4845618009567261,
                        -0.5183443427085876,
                        -0.10707030445337296,
                        -0.654960572719574,
                        -0.19829368591308594,
                        -0.07204349339008331,
                        0.015319320373237133,
                        -0.17488974332809448,
                        0.13149575889110565,
                        0.04631161317229271,
                        -0.13212475180625916,
                        -0.3453883230686188,
                        0.08796552568674088,
                        -0.10365501046180725,
                        -0.13138408958911896,
                        0.12470982223749161,
                        -0.039136432111263275,
                        0.065860316157341,
                        -0.08252213895320892,
                        0.30959552526474,
                        0.37312182784080505,
                        0.07915931940078735,
                        -0.06252826005220413,
                        -0.41356217861175537,
                        -0.159110426902771,
                        -0.2505658268928528,
                        -0.3824155330657959,
                        -0.14746907353401184,
                        0.1532025784254074,
                        -0.09466128051280975,
                        -0.048073332756757736,
                        0.0733431726694107,
                        -0.23879297077655792,
                        -0.42022475600242615,
                        -0.05301143229007721,
                        -0.19522985816001892,
                        -0.1711186319589615
                    ],
                    [
                        0.00180886872112751,
                        0.059528741985559464,
                        0.03521101921796799,
                        -0.08153152465820312,
                        0.1448397934436798,
                        -0.07148905843496323,
                        0.02467356249690056,
                        -0.022298762574791908,
                        0.14713770151138306,
                        0.13836321234703064,
                        -0.006879908964037895,
                        0.10684710741043091,
                        0.3134140074253082,
                        0.013703837059438229,
                        -0.19435279071331024,
                        -0.675916314125061,
                        -0.0015241886721923947,
                        0.15119510889053345,
                        0.07703111320734024,
                        -0.07531111687421799,
                        -0.01907986029982567,
                        -0.042465437203645706,
                        0.05588824301958084,
                        0.07447484880685806,
                        0.12510152161121368,
                        -0.07609101384878159,
                        -0.04507890343666077,
                        0.31618839502334595,
                        0.22037583589553833,
                        -0.06258174777030945,
                        0.5057854652404785,
                        -0.07368145883083344,
                        -0.011820687912404537,
                        -0.2273946851491928,
                        0.06044755503535271,
                        0.012543488293886185,
                        0.33573490381240845,
                        -0.3908483684062958,
                        0.055325206369161606,
                        0.1657227873802185,
                        0.22756029665470123,
                        0.01593627594411373,
                        0.3551628887653351,
                        -0.13262784481048584,
                        -0.07929613441228867,
                        -0.019250880926847458,
                        -0.10717452317476273,
                        -0.06657660007476807,
                        0.014261106960475445,
                        0.12790897488594055,
                        0.15664587914943695,
                        0.06035046651959419,
                        0.14786690473556519,
                        -0.006471509113907814,
                        0.06900054216384888,
                        0.06783917546272278,
                        0.12098608911037445,
                        0.18954791128635406,
                        0.07891014963388443,
                        -0.006888282019644976,
                        0.45178914070129395,
                        0.043764129281044006,
                        0.07966543734073639,
                        0.18695883452892303
                    ],
                    [
                        -0.023237474262714386,
                        0.062158726155757904,
                        0.00027599476743489504,
                        0.01994244195520878,
                        0.0888168215751648,
                        0.024867361411452293,
                        0.0022991292644292116,
                        0.30737289786338806,
                        -0.10706517845392227,
                        -0.003998924978077412,
                        -0.14051014184951782,
                        0.04058539494872093,
                        0.03895224630832672,
                        -0.01325196586549282,
                        -0.36220604181289673,
                        -0.10286109894514084,
                        -0.033231738954782486,
                        0.16241221129894257,
                        0.010110074654221535,
                        0.0277139563113451,
                        0.06319146603345871,
                        0.07013978064060211,
                        0.003953976556658745,
                        0.22906282544136047,
                        -0.3025660812854767,
                        -0.09207332134246826,
                        -0.22095350921154022,
                        0.3517792522907257,
                        -0.3191632330417633,
                        -0.10948199033737183,
                        0.2818743586540222,
                        -0.9921008348464966,
                        -0.055939145386219025,
                        -0.35451358556747437,
                        -0.010652066208422184,
                        -0.06676603108644485,
                        -0.6820433139801025,
                        -0.2738664448261261,
                        -0.03086431697010994,
                        0.11991298943758011,
                        0.18454837799072266,
                        0.1798715889453888,
                        0.532633900642395,
                        0.23904794454574585,
                        -0.4001953601837158,
                        0.009733789600431919,
                        -0.031092071905732155,
                        -0.37716642022132874,
                        -0.04188745468854904,
                        -0.13565979897975922,
                        -0.033349912613630295,
                        0.03997069597244263,
                        0.08964770287275314,
                        0.08121798932552338,
                        -0.021514179185032845,
                        0.13943548500537872,
                        -0.04191628098487854,
                        0.08812980353832245,
                        -0.1974179595708847,
                        0.22343331575393677,
                        -0.05311087146401405,
                        -0.17701955139636993,
                        0.14122948050498962,
                        0.20147404074668884
                    ],
                    [
                        -0.022953476756811142,
                        -0.004798217676579952,
                        -0.02641848847270012,
                        0.01817779615521431,
                        0.009549429640173912,
                        -0.40386542677879333,
                        0.03079819492995739,
                        0.021278271451592445,
                        -0.5090939998626709,
                        0.1310659945011139,
                        0.06610346585512161,
                        0.13155950605869293,
                        -0.020976630970835686,
                        0.003845945466309786,
                        0.10438447445631027,
                        -0.05220244452357292,
                        -0.020970158278942108,
                        0.00970422476530075,
                        -0.03191928192973137,
                        -0.05438852682709694,
                        0.009627344086766243,
                        -0.12234026193618774,
                        0.04675660282373428,
                        0.0177136342972517,
                        -0.22623330354690552,
                        -0.026841923594474792,
                        0.09899811446666718,
                        0.016158951446413994,
                        -0.1750377118587494,
                        0.1399841457605362,
                        -0.004923481494188309,
                        -0.42865127325057983,
                        -0.06089574843645096,
                        0.03399983420968056,
                        -0.1011582687497139,
                        0.44129058718681335,
                        0.963880717754364,
                        -0.5574938654899597,
                        -0.2174788862466812,
                        -0.9772996306419373,
                        1.1860994100570679,
                        1.312265396118164,
                        -0.22166107594966888,
                        0.8174025416374207,
                        0.5615740418434143,
                        0.3848661780357361,
                        0.4037274718284607,
                        -0.346630722284317,
                        -0.06721670925617218,
                        -0.02831476554274559,
                        -0.06539367139339447,
                        0.022583821788430214,
                        0.003889779793098569,
                        -0.17070837318897247,
                        0.04497376084327698,
                        0.0029595671221613884,
                        -0.35024020075798035,
                        0.13636130094528198,
                        -0.05650009959936142,
                        0.07197990268468857,
                        0.09164030849933624,
                        0.07873500883579254,
                        0.05918760597705841,
                        -0.07140491902828217
                    ],
                    [
                        0.06463240087032318,
                        0.08320960402488708,
                        0.07538680732250214,
                        0.007510071620345116,
                        0.29840588569641113,
                        -0.34895381331443787,
                        0.0969017818570137,
                        0.01876283437013626,
                        -0.08864403516054153,
                        0.22602777183055878,
                        0.08608473837375641,
                        -0.6985580325126648,
                        0.4384366571903229,
                        0.12966571748256683,
                        -1.1949917078018188,
                        -0.5683540105819702,
                        0.05622650310397148,
                        0.1734340339899063,
                        0.1930733323097229,
                        0.15125715732574463,
                        -0.14716273546218872,
                        -0.04624757915735245,
                        0.22829017043113708,
                        0.35408851504325867,
                        0.353885293006897,
                        0.2167011797428131,
                        0.2107996791601181,
                        0.7848914265632629,
                        -0.18910470604896545,
                        0.19714714586734772,
                        0.3963710367679596,
                        0.8022681474685669,
                        0.17461979389190674,
                        0.10990941524505615,
                        0.09212526679039001,
                        0.1328807771205902,
                        -0.23797687888145447,
                        0.21009795367717743,
                        0.13322724401950836,
                        0.15041422843933105,
                        -0.403184175491333,
                        -0.4114779233932495,
                        0.23272716999053955,
                        -0.3231858015060425,
                        -0.22279930114746094,
                        0.22387614846229553,
                        -0.17803269624710083,
                        0.2176520675420761,
                        0.03210098296403885,
                        0.15001307427883148,
                        0.26166659593582153,
                        0.1689443588256836,
                        0.3025338053703308,
                        -0.01623883657157421,
                        0.2732354700565338,
                        0.18307173252105713,
                        0.12750676274299622,
                        0.33532533049583435,
                        0.15507663786411285,
                        0.287372350692749,
                        0.2736290991306305,
                        0.30160313844680786,
                        0.14983241260051727,
                        0.3031866252422333
                    ],
                    [
                        0.026520689949393272,
                        0.07235365360975266,
                        0.02893148735165596,
                        -0.013834935612976551,
                        0.15669351816177368,
                        -0.5318968296051025,
                        0.033731572329998016,
                        0.3560613691806793,
                        0.09179884195327759,
                        -0.01615208387374878,
                        -0.12649954855442047,
                        -0.18675239384174347,
                        -0.22330178320407867,
                        0.02086249180138111,
                        -0.015340745449066162,
                        -0.20138299465179443,
                        0.021986596286296844,
                        0.18856573104858398,
                        0.08162990212440491,
                        -0.018781209364533424,
                        -0.13087289035320282,
                        -0.28904926776885986,
                        0.08637917041778564,
                        0.1781320720911026,
                        -0.07003980875015259,
                        -0.014002739451825619,
                        -0.14987440407276154,
                        0.21374985575675964,
                        -1.297485589981079,
                        0.040851738303899765,
                        0.731036365032196,
                        0.09013794362545013,
                        0.059031855314970016,
                        -0.14293988049030304,
                        0.028727279976010323,
                        0.3776254951953888,
                        -0.21567289531230927,
                        0.37062567472457886,
                        0.031169475987553596,
                        0.23003609478473663,
                        -0.3310561180114746,
                        0.12030856311321259,
                        -0.17275357246398926,
                        -0.05542870983481407,
                        -0.23776847124099731,
                        0.2210260033607483,
                        0.40038591623306274,
                        0.18680763244628906,
                        0.006903570145368576,
                        0.011225881986320019,
                        0.07391733676195145,
                        0.024459492415189743,
                        0.15538181364536285,
                        -0.10202272236347198,
                        0.2233029007911682,
                        0.20850978791713715,
                        0.10838555544614792,
                        -0.011468129232525826,
                        -0.12326952069997787,
                        0.22997599840164185,
                        -1.055106282234192,
                        0.12821735441684723,
                        0.46104612946510315,
                        0.1577543169260025
                    ],
                    [
                        -0.009530019015073776,
                        0.020218584686517715,
                        0.020425952970981598,
                        -0.027022242546081543,
                        0.14453987777233124,
                        -0.0032413809094578028,
                        0.040245670825242996,
                        0.1727045476436615,
                        -0.0934981182217598,
                        0.18129941821098328,
                        0.16014604270458221,
                        -0.2671649158000946,
                        0.16995783150196075,
                        0.008319691754877567,
                        -0.8468202948570251,
                        -0.10803231596946716,
                        -0.01736055128276348,
                        0.04932243376970291,
                        0.05411088839173317,
                        -0.02508166991174221,
                        -0.058739978820085526,
                        0.11408309638500214,
                        0.09741581231355667,
                        0.16605699062347412,
                        -0.16170446574687958,
                        0.37889406085014343,
                        0.24958039820194244,
                        0.44924935698509216,
                        -0.2582288980484009,
                        -0.03599226474761963,
                        0.39391976594924927,
                        0.18055017292499542,
                        -0.040498171001672745,
                        0.09529423713684082,
                        0.030324695631861687,
                        -0.27500593662261963,
                        0.47450557351112366,
                        -0.07694966346025467,
                        0.11544748395681381,
                        0.38841336965560913,
                        -0.04736495390534401,
                        -0.29910755157470703,
                        -0.011796766892075539,
                        0.643260657787323,
                        -0.04859551414847374,
                        -0.0525163859128952,
                        -0.18049314618110657,
                        0.5303142070770264,
                        -0.024003783240914345,
                        -0.03816744685173035,
                        0.17225895822048187,
                        0.06056392937898636,
                        0.14622101187705994,
                        0.10085409879684448,
                        -0.2399376779794693,
                        0.14408744871616364,
                        -0.01437576487660408,
                        0.24109628796577454,
                        0.16957581043243408,
                        0.1300193965435028,
                        0.05759372189640999,
                        0.06484919786453247,
                        0.11184500902891159,
                        0.4894755780696869
                    ]
                ],
                [
                    0.10393247753381729,
                    0.2366323173046112,
                    0.24319642782211304,
                    0.04350372776389122,
                    0.7830071449279785,
                    -0.5942996740341187,
                    0.28986331820487976,
                    -0.22469562292099,
                    0.004789337515830994,
                    0.4267255365848541,
                    0.10346153378486633,
                    -1.7431886196136475,
                    1.0758073329925537,
                    0.3489685654640198,
                    -1.2601743936538696,
                    -1.2453129291534424,
                    0.11096303910017014,
                    0.518670380115509,
                    0.5716274380683899,
                    0.4637066125869751,
                    -0.29478874802589417,
                    0.551069974899292,
                    0.638570249080658,
                    0.5100827217102051,
                    0.42278438806533813,
                    0.42776381969451904,
                    0.2894391417503357,
                    1.9581680297851562,
                    0.04302684962749481,
                    0.4789653420448303,
                    2.1674892902374268,
                    2.179499864578247,
                    0.1899350881576538,
                    -0.2816341817378998,
                    0.43327397108078003,
                    -0.013184309005737305,
                    -0.06429855525493622,
                    -0.10986705869436264,
                    0.12821891903877258,
                    -0.018578138202428818,
                    0.04111258685588837,
                    -0.12684500217437744,
                    -0.10182313621044159,
                    -0.02289176732301712,
                    0.4053471088409424,
                    0.007604513317346573,
                    0.10155218094587326,
                    0.30303654074668884,
                    -0.013236233033239841,
                    0.514883279800415,
                    0.7546260952949524,
                    0.4931511878967285,
                    0.7969685792922974,
                    0.1943713128566742,
                    0.6754882335662842,
                    0.4642223119735718,
                    0.47998857498168945,
                    0.7007802724838257,
                    0.17677916586399078,
                    0.4849609434604645,
                    0.8027773499488831,
                    0.517880916595459,
                    0.6769707202911377,
                    0.33763134479522705
                ]
            ]
        },
        {
            "type": "dense",
            "activation": "",
            "shape": [
                null,
                null,
                1
            ],
            "weights": [
                [
                    [
                        -0.08070804923772812
                    ],
                    [
                        0.11485818028450012
                    ],
                    [
                        -0.27931466698646545
                    ],
                    [
                        0.28319206833839417
                    ],
                    [
                        0.4581289291381836
                    ],
                    [
                        0.05502958595752716
                    ],
                    [
                        -0.05471060052514076
                    ],
                    [
                        -0.34810125827789307
                    ],
                    [
                        0.5686124563217163
                    ],
                    [
                        0.24154438078403473
                    ],
                    [
                        0.02145340107381344
                    ],
                    [
                        0.33333322405815125
                    ],
                    [
                        -1.5819451808929443
                    ],
                    [
                        0.3785150647163391
                    ],
                    [
                        0.20277443528175354
                    ],
                    [
                        -0.2952561378479004
                    ]
                ],
                [
                    0.12918782234191895
                ]
            ]
        }
    ]
}