{
    "in_shape": [
        null,
        null,
        1
    ],
    "in_skip": 1,
    "layers": [
        {
            "type": "lstm",
            "activation": "",
            "shape": [
                null,
                null,
                12
            ],
            "weights": [
                [
                    [
                        0.1078881323337555,
                        0.10955376923084259,
                        0.11528812348842621,
                        0.006996403448283672,
                        0.2024962455034256,
                        0.009901788085699081,
                        0.0061486284248530865,
                        0.013178291730582714,
                        0.10409396886825562,
                        -0.03897029906511307,
                        0.08525436371564865,
                        -0.1598285585641861,
                        0.2119530439376831,
                        0.05064448341727257,
                        -0.16254982352256775,
                        -0.02939355932176113,
                        0.06898487359285355,
                        0.06907381117343903,
                        0.034138936549425125,
                        0.178144171833992,
                        -0.12637344002723694,
                        -0.12230030447244644,
                        0.061212651431560516,
                        -0.0618254579603672,
                        0.8017988801002502,
                        3.5754642486572266,
                        0.06717435270547867,
                        -1.3456672430038452,
                        -1.419191598892212,
                        -0.19571004807949066,
                        0.0008222258184105158,
                        -2.6966733932495117,
                        0.5599273443222046,
                        0.025924092158675194,
                        0.07419244945049286,
                        -0.2090654969215393,
                        -0.32032063603401184,
                        -0.015653006732463837,
                        0.017883991822600365,
                        -0.027495399117469788,
                        0.12106768786907196,
                        0.006005202420055866,
                        0.06633640825748444,
                        0.02044643647968769,
                        0.009192273952066898,
                        -0.19367440044879913,
                        0.07173573225736618,
                        -0.00639334274455905
                    ]
                ],
                [
                    [
                        -0.0921647846698761,
                        0.33950552344322205,
                        -0.24356533586978912,
                        0.04638423025608063,
                        0.10621634125709534,
                        0.44187477231025696,
                        0.18784883618354797,
                        0.3897351920604706,
                        -0.3190217912197113,
                        -0.07709077000617981,
                        0.07472929358482361,
                        -0.48730629682540894,
                        -0.016335753723978996,
                        0.07302941381931305,
                        0.27762356400489807,
                        0.09943065047264099,
                        1.1116375923156738,
                        0.35467931628227234,
                        0.3688107132911682,
                        -0.07529888302087784,
                        0.08693314343690872,
                        0.03252466022968292,
                        0.3522150218486786,
                        0.18493838608264923,
                        -0.09199006855487823,
                        -1.4818974733352661,
                        0.010373182594776154,
                        0.261171817779541,
                        -0.7860944271087646,
                        -0.04695822298526764,
                        -0.07930078357458115,
                        0.576978862285614,
                        -0.1500607579946518,
                        -0.04264628514647484,
                        0.1468316912651062,
                        0.004457382019609213,
                        -0.2693723142147064,
                        0.37993937730789185,
                        0.3091612458229065,
                        0.32947245240211487,
                        0.6160048842430115,
                        0.20379386842250824,
                        0.23275142908096313,
                        0.3424556255340576,
                        0.3084815442562103,
                        0.034149955958127975,
                        0.29694151878356934,
                        0.14464068412780762
                    ],
                    [
                        0.20002059638500214,
                        1.2345240116119385,
                        0.2599659562110901,
                        -0.580618679523468,
                        0.10504483431577682,
                        0.23291288316249847,
                        -0.3869791030883789,
                        -0.018270784988999367,
                        -0.012360875494778156,
                        0.1387845277786255,
                        0.3313698172569275,
                        0.36285072565078735,
                        0.6076172590255737,
                        0.1905595064163208,
                        0.11412820965051651,
                        0.017016218975186348,
                        0.14469891786575317,
                        -0.016930125653743744,
                        -0.12958237528800964,
                        -0.17273889482021332,
                        -0.013714796863496304,
                        0.07196428626775742,
                        0.10453001409769058,
                        0.47300422191619873,
                        0.2757813334465027,
                        1.4602165222167969,
                        -0.25929734110832214,
                        0.9035148024559021,
                        0.0033573806285858154,
                        3.3531486988067627,
                        0.3840722143650055,
                        0.5024619698524475,
                        0.029512474313378334,
                        -0.054122719913721085,
                        -0.8647704124450684,
                        0.38694608211517334,
                        0.30765238404273987,
                        -0.32100343704223633,
                        -0.08306633681058884,
                        -0.18406330049037933,
                        -0.09852779656648636,
                        0.012748357839882374,
                        -0.4503961503505707,
                        -0.18991276621818542,
                        -0.025662876665592194,
                        0.29742440581321716,
                        0.5485327243804932,
                        0.17874056100845337
                    ],
                    [
                        -0.6280364990234375,
                        -0.04566999524831772,
                        -0.46240705251693726,
                        -0.233247771859169,
                        -0.21612820029258728,
                        -0.08425851911306381,
                        0.3107053339481354,
                        -0.08955031633377075,
                        0.03925110027194023,
                        -0.1021956205368042,
                        0.11043968051671982,
                        -0.07874065637588501,
                        0.4352918863296509,
                        0.3784897029399872,
                        -0.56216961145401,
                        -0.05112922936677933,
                        0.24246858060359955,
                        -0.13899655640125275,
                        -0.08438672870397568,
                        0.25421857833862305,
                        -0.32681703567504883,
                        -0.28506821393966675,
                        0.2093745321035385,
                        -0.02813379466533661,
                        0.09637932479381561,
                        0.3217554986476898,
                        0.4228633642196655,
                        0.1449318528175354,
                        0.06679655611515045,
                        1.7302954196929932,
                        -0.9367545247077942,
                        -0.13824217021465302,
                        -0.38086405396461487,
                        -0.2255706787109375,
                        -0.4532524049282074,
                        0.13952606916427612,
                        0.3831644356250763,
                        0.4371495842933655,
                        -0.5405815839767456,
                        0.051543984562158585,
                        -0.3874439597129822,
                        0.1360509842634201,
                        0.1350955367088318,
                        -0.16900835931301117,
                        -0.013943556696176529,
                        0.26830345392227173,
                        0.28333961963653564,
                        -0.3095686137676239
                    ],
                    [
                        -0.6531999111175537,
                        0.7151156663894653,
                        -0.00027872167993336916,
                        0.21304507553577423,
                        -0.17397551238536835,
                        0.15244226157665253,
                        -0.21510715782642365,
                        -0.03513595461845398,
                        0.17023080587387085,
                        0.11098845303058624,
                        0.1924477070569992,
                        -0.055247921496629715,
                        -0.40764063596725464,
                        -0.09693117439746857,
                        -0.18414045870304108,
                        0.16068319976329803,
                        -0.17121894657611847,
                        -0.5913079380989075,
                        0.12074030190706253,
                        0.023227911442518234,
                        -0.192366361618042,
                        -0.01801661215722561,
                        0.23567037284374237,
                        -0.3352862596511841,
                        -0.16491802036762238,
                        -1.0651583671569824,
                        -0.29876211285591125,
                        -0.32678353786468506,
                        -0.022152168676257133,
                        0.6380136609077454,
                        -0.16449208557605743,
                        -0.5103415846824646,
                        -0.006372999399900436,
                        0.05422603338956833,
                        0.30018898844718933,
                        0.39864885807037354,
                        -0.30428099632263184,
                        -0.23962387442588806,
                        -0.4456772804260254,
                        0.007387152407318354,
                        0.07574272155761719,
                        -0.14704836905002594,
                        -0.3422621786594391,
                        -0.06825275719165802,
                        -0.08121349662542343,
                        0.6526414752006531,
                        0.41656625270843506,
                        -0.27180108428001404
                    ],
                    [
                        0.25323325395584106,
                        -0.05188637599349022,
                        0.0812365934252739,
                        -0.08294963836669922,
                        -0.18832838535308838,
                        -0.07295696437358856,
                        -0.11826417595148087,
                        -0.03175078332424164,
                        -0.15585388243198395,
                        -0.007421019487082958,
                        -0.055231790989637375,
                        -0.1057148352265358,
                        -0.007823517546057701,
                        0.32118895649909973,
                        0.05687831714749336,
                        0.06542716920375824,
                        -0.14704042673110962,
                        -0.23861730098724365,
                        -0.18481621146202087,
                        0.00928984023630619,
                        -0.024770036339759827,
                        -0.021603945642709732,
                        -0.09187434613704681,
                        0.06940849870443344,
                        -0.31446579098701477,
                        0.9326837062835693,
                        0.013318082317709923,
                        -0.40976080298423767,
                        -0.18175159394741058,
                        0.2835351824760437,
                        0.038770247250795364,
                        -1.0709559917449951,
                        0.24524115025997162,
                        0.03670996055006981,
                        -0.06000196561217308,
                        0.027223777025938034,
                        -0.9471584558486938,
                        -0.007342251017689705,
                        -0.10307181626558304,
                        -0.07503405958414078,
                        -0.6318427920341492,
                        0.220628023147583,
                        -0.13439536094665527,
                        -0.015600095503032207,
                        -0.09824330359697342,
                        0.12563544511795044,
                        -0.017370805144309998,
                        -0.041730161756277084
                    ],
                    [
                        -0.03248312324285507,
                        0.11262358725070953,
                        0.17914777994155884,
                        0.23965466022491455,
                        0.05231740325689316,
                        0.004818879533559084,
                        0.1297382265329361,
                        0.03703507408499718,
                        -0.07914648950099945,
                        -0.36121469736099243,
                        0.20778894424438477,
                        -0.07170811295509338,
                        0.21301895380020142,
                        -0.008392847143113613,
                        0.37320035696029663,
                        0.028752071782946587,
                        -0.005384495947510004,
                        0.15923137962818146,
                        0.2081224024295807,
                        0.22721733152866364,
                        0.32807573676109314,
                        -0.5161803960800171,
                        0.3526480793952942,
                        0.3085916340351105,
                        -0.04437129572033882,
                        -0.06134963408112526,
                        -0.17329348623752594,
                        -0.038774389773607254,
                        0.06783394515514374,
                        0.8075111508369446,
                        0.46922314167022705,
                        -0.10386151820421219,
                        0.04361872747540474,
                        0.07825002819299698,
                        -0.39925417304039,
                        -0.08788876980543137,
                        0.1601809561252594,
                        -0.15574243664741516,
                        -0.2845432162284851,
                        -0.07124551385641098,
                        -0.08526675403118134,
                        -0.14921143651008606,
                        -0.23596377670764923,
                        0.10019036382436752,
                        -0.09571360051631927,
                        0.129671111702919,
                        0.45315641164779663,
                        0.14142437279224396
                    ],
                    [
                        0.11781352013349533,
                        0.36519286036491394,
                        -0.5529714226722717,
                        0.10146789252758026,
                        -0.42984819412231445,
                        0.1672854721546173,
                        0.004091523587703705,
                        0.22539488971233368,
                        -0.4733557403087616,
                        -0.11244398355484009,
                        -0.13694138824939728,
                        -0.1554332822561264,
                        0.34736037254333496,
                        0.2945612967014313,
                        -0.7968177795410156,
                        -0.4353240430355072,
                        0.5180181860923767,
                        0.7491046190261841,
                        0.04701820760965347,
                        -0.2766163647174835,
                        0.0941464751958847,
                        -0.1527225226163864,
                        -0.017010897397994995,
                        -0.2259976714849472,
                        -0.042512692511081696,
                        0.09459809958934784,
                        -0.1227676197886467,
                        0.25435933470726013,
                        0.08618670701980591,
                        -0.6571531295776367,
                        -0.25568443536758423,
                        -0.0542612224817276,
                        -0.11074522137641907,
                        0.12016361951828003,
                        0.5140008330345154,
                        -0.29851198196411133,
                        -0.01969762332737446,
                        -0.2553569972515106,
                        -0.21784691512584686,
                        0.14853329956531525,
                        0.03879975900053978,
                        -0.20843243598937988,
                        0.29354217648506165,
                        0.23938977718353271,
                        0.11140213161706924,
                        -0.25400492548942566,
                        0.02610868401825428,
                        -0.03887736797332764
                    ],
                    [
                        0.1905636340379715,
                        -0.28266698122024536,
                        0.2895059883594513,
                        -0.4501228332519531,
                        0.023689940571784973,
                        -0.1317179650068283,
                        0.1602144092321396,
                        -0.09969211369752884,
                        -0.011565976776182652,
                        0.18792088329792023,
                        -0.17193855345249176,
                        0.46806102991104126,
                        -0.20944850146770477,
                        0.03517036512494087,
                        -0.2394488900899887,
                        0.1523444950580597,
                        0.06372358649969101,
                        0.18761155009269714,
                        -0.0042076450772583485,
                        0.23161379992961884,
                        -0.03452974557876587,
                        0.49209922552108765,
                        -0.3513321578502655,
                        0.2745407521724701,
                        -0.3904438018798828,
                        -1.1392593383789062,
                        0.17436149716377258,
                        0.07319403439760208,
                        0.3500892221927643,
                        1.3126391172409058,
                        0.049113936722278595,
                        -0.4365338981151581,
                        0.22877292335033417,
                        -0.3115895688533783,
                        -0.5662235617637634,
                        -0.12040168046951294,
                        -0.3042059540748596,
                        -0.23090879619121552,
                        0.049774061888456345,
                        -0.01692410558462143,
                        -0.02135288529098034,
                        -0.07188332825899124,
                        0.07411300390958786,
                        -0.23233641684055328,
                        -0.21440890431404114,
                        -0.3783479332923889,
                        -0.30789148807525635,
                        0.23784533143043518
                    ],
                    [
                        -0.05971565097570419,
                        0.22912895679473877,
                        0.02129977196455002,
                        0.11147834360599518,
                        -0.2883947491645813,
                        0.10002453625202179,
                        0.19703075289726257,
                        0.13909484446048737,
                        0.12360942363739014,
                        -0.04431375861167908,
                        0.006558618508279324,
                        -0.3099996745586395,
                        0.11774961650371552,
                        -0.04486933723092079,
                        0.02112799882888794,
                        0.37451890110969543,
                        0.2014114409685135,
                        -0.005910616368055344,
                        0.339153915643692,
                        0.2815212607383728,
                        0.30126243829727173,
                        -0.15749332308769226,
                        -0.00340411439538002,
                        0.0818459689617157,
                        -0.024806110188364983,
                        -0.28558456897735596,
                        0.21057935059070587,
                        0.12208546698093414,
                        0.07190828770399094,
                        -0.33708736300468445,
                        0.20259195566177368,
                        0.5842381119728088,
                        0.3971306085586548,
                        -0.029461054131388664,
                        0.12939296662807465,
                        0.32431045174598694,
                        0.12253840267658234,
                        -0.1964477300643921,
                        0.29936230182647705,
                        0.15730540454387665,
                        0.15753716230392456,
                        0.01113730575889349,
                        0.22962595522403717,
                        0.15772727131843567,
                        0.1966225504875183,
                        -0.24675816297531128,
                        0.11806397140026093,
                        0.045339033007621765
                    ],
                    [
                        0.5709903836250305,
                        -0.5275812149047852,
                        0.6433656811714172,
                        -0.04118659719824791,
                        0.47314321994781494,
                        -0.5083701014518738,
                        0.12549808621406555,
                        -0.46159645915031433,
                        0.4772929549217224,
                        -0.11025846749544144,
                        -0.009929713793098927,
                        0.8588945269584656,
                        -1.0883084535598755,
                        -0.12387076765298843,
                        -0.8363528251647949,
                        -0.13321393728256226,
                        -0.7339135408401489,
                        -0.06516902893781662,
                        -0.16667743027210236,
                        0.05790882930159569,
                        -1.2687560319900513,
                        -0.290661484003067,
                        -0.1604909896850586,
                        -1.0601708889007568,
                        -0.0551612414419651,
                        -0.08790601789951324,
                        0.13615763187408447,
                        0.02138858288526535,
                        -0.06086554378271103,
                        -0.6053902506828308,
                        -0.2800755500793457,
                        0.011062277480959892,
                        -0.19683364033699036,
                        0.1645464152097702,
                        0.12632843852043152,
                        -0.14784054458141327,
                        -0.20440493524074554,
                        -0.7789945006370544,
                        -0.31781935691833496,
                        -0.4869251847267151,
                        0.004345598164945841,
                        0.06873355060815811,
                        -0.04439637437462807,
                        -0.3811614215373993,
                        -0.2608267366886139,
                        -1.1693836450576782,
                        -0.029957199469208717,
                        -0.18673524260520935
                    ],
                    [
                        -0.783608078956604,
                        1.3038673400878906,
                        -0.7730278968811035,
                        0.7910717129707336,
                        -0.43479764461517334,
                        0.6085345149040222,
                        -0.794128954410553,
                        0.4796781539916992,
                        -0.1881554126739502,
                        0.04288998618721962,
                        0.3391072452068329,
                        -0.4173556864261627,
                        0.8540231585502625,
                        0.20909129083156586,
                        0.384335994720459,
                        -0.1692793071269989,
                        0.5497585535049438,
                        -0.2678110599517822,
                        -0.20140156149864197,
                        0.06631841510534286,
                        0.08078005164861679,
                        0.022254137322306633,
                        0.12924395501613617,
                        0.1123865619301796,
                        -0.03541352227330208,
                        0.10010562837123871,
                        0.07761877775192261,
                        0.31422069668769836,
                        0.1686062514781952,
                        -0.26745152473449707,
                        -0.20628175139427185,
                        -0.1426154524087906,
                        0.01268097385764122,
                        -0.15789099037647247,
                        -0.04471703991293907,
                        -0.19190996885299683,
                        0.20224112272262573,
                        0.6439246535301208,
                        0.2934820055961609,
                        0.19326011836528778,
                        -0.03934340551495552,
                        0.8355615735054016,
                        -0.2102390080690384,
                        0.7461125254631042,
                        0.23968039453029633,
                        0.20477734506130219,
                        0.8411543965339661,
                        0.16292645037174225
                    ],
                    [
                        0.4613790810108185,
                        0.4862913191318512,
                        0.16969244182109833,
                        -0.05210354924201965,
                        0.35117924213409424,
                        0.1634819060564041,
                        0.05138051137328148,
                        0.07241504639387131,
                        -0.17893747985363007,
                        -0.15075784921646118,
                        -0.043769821524620056,
                        0.46628454327583313,
                        0.16157540678977966,
                        -0.26075682044029236,
                        0.17635349929332733,
                        -0.24333703517913818,
                        -0.18753743171691895,
                        0.2607388198375702,
                        0.2804170548915863,
                        -0.2475881576538086,
                        0.08273639529943466,
                        -0.2682781517505646,
                        -0.10896649956703186,
                        0.13286817073822021,
                        0.0666656419634819,
                        -0.1431698054075241,
                        0.14092916250228882,
                        -0.23612907528877258,
                        -0.07933124154806137,
                        -1.3084890842437744,
                        0.25881731510162354,
                        -0.35760369896888733,
                        -0.15741460025310516,
                        0.26771438121795654,
                        0.45240163803100586,
                        0.3541404902935028,
                        -0.16088904440402985,
                        -0.3779159188270569,
                        0.47987669706344604,
                        -0.07523882389068604,
                        0.469555139541626,
                        -0.07259348779916763,
                        -0.015527648851275444,
                        0.07551401853561401,
                        0.1727209985256195,
                        -0.28862592577934265,
                        -0.14032424986362457,
                        0.5327543616294861
                    ]
                ],
                [
                    -1.4000043869018555,
                    0.6998728513717651,
                    -2.0003302097320557,
                    0.6852489709854126,
                    -1.6516257524490356,
                    1.555572509765625,
                    -0.04683772474527359,
                    1.517329454421997,
                    -2.702239513397217,
                    0.021762747317552567,
                    0.12559881806373596,
                    -2.0787529945373535,
                    2.5544450283050537,
                    0.2783171236515045,
                    2.548917531967163,
                    0.9513987302780151,
                    1.56010901927948,
                    0.8538503646850586,
                    0.8129760026931763,
                    0.03940620273351669,
                    3.131657123565674,
                    0.602144718170166,
                    0.9129821062088013,
                    3.0252082347869873,
                    0.3051737844944,
                    0.5749637484550476,
                    0.037970926612615585,
                    -0.43215999007225037,
                    0.2534913122653961,
                    0.2742307186126709,
                    0.13876375555992126,
                    -0.4846186637878418,
                    0.02218875288963318,
                    -0.6737953424453735,
                    0.2188325822353363,
                    0.061471253633499146,
                    0.05519145354628563,
                    1.5446429252624512,
                    1.0485038757324219,
                    1.483067512512207,
                    0.284173846244812,
                    -1.0202418565750122,
                    0.7800617218017578,
                    1.3152003288269043,
                    1.1364872455596924,
                    1.0632764101028442,
                    0.726588249206543,
                    0.7537167072296143
                ]
            ]
        },
        {
            "type": "dense",
            "activation": "",
            "shape": [
                null,
                null,
                1
            ],
            "weights": [
                [
                    [
                        -0.3330363631248474
                    ],
                    [
                        -0.06516050547361374
                    ],
                    [
                        -0.9879045486450195
                    ],
                    [
                        -0.16210998594760895
                    ],
                    [
                        0.4011780321598053
                    ],
                    [
                        0.8734315633773804
                    ],
                    [
                        -0.046665649861097336
                    ],
                    [
                        0.36933594942092896
                    ],
                    [
                        -1.684919834136963
                    ],
                    [
                        -0.9514569044113159
                    ],
                    [
                        -0.04296845570206642
                    ],
                    [
                        -0.1918109804391861
                    ]
                ],
                [
                    -0.1992701143026352
                ]
            ]
        }
    ]
}