{
    "in_shape": [
        null,
        null,
        1
    ],
    "layers": [
        {
            "type": "lstm",
            "activation": "",
            "shape": [
                null,
                null,
                16
            ],
            "weights": [
                [
                    [
                        -0.031138461083173752,
                        -0.029624244198203087,
                        0.07102083414793015,
                        -0.05635037645697594,
                        0.0111088203266263,
                        -0.0006871976656839252,
                        0.017645040526986122,
                        -0.05067916959524155,
                        0.08711489289999008,
                        -0.018717555329203606,
                        0.04856978356838226,
                        0.006205892190337181,
                        -0.027473222464323044,
                        0.028644397854804993,
                        0.0039143748581409454,
                        -0.006664755288511515,
                        -0.12799088656902313,
                        -0.00303501239977777,
                        -0.07282664626836777,
                        0.0031408281065523624,
                        0.01261079777032137,
                        -0.016879137605428696,
                        0.024371478706598282,
                        -0.10213003307580948,
                        0.00992597360163927,
                        -0.0631709173321724,
                        0.06763235479593277,
                        0.004607980139553547,
                        0.0487566702067852,
                        0.05986684188246727,
                        -0.07258099317550659,
                        -0.014666023664176464,
                        -4.482964515686035,
                        -0.027976367622613907,
                        0.08757676184177399,
                        -0.08368111401796341,
                        0.5265708565711975,
                        -2.6213600635528564,
                        0.05766519159078598,
                        -0.12714366614818573,
                        0.851859450340271,
                        -0.16629478335380554,
                        0.03998721390962601,
                        0.10819553583860397,
                        0.09569427371025085,
                        -0.12273754179477692,
                        -0.1328180730342865,
                        -0.28336527943611145,
                        0.12971706688404083,
                        -0.013492695055902004,
                        -0.048433903604745865,
                        0.008332591503858566,
                        0.03181949257850647,
                        -0.0030828453600406647,
                        -0.019341202452778816,
                        0.07958618551492691,
                        0.0049338992685079575,
                        -0.08005043119192123,
                        0.023633336648344994,
                        0.10654284060001373,
                        -0.10760679095983505,
                        -0.04730255901813507,
                        -0.1399943232536316,
                        -0.055790793150663376
                    ]
                ],
                [
                    [
                        0.35703569650650024,
                        -0.19484379887580872,
                        0.15506449341773987,
                        -0.11080877482891083,
                        -0.053524114191532135,
                        0.08316909521818161,
                        0.11113566905260086,
                        0.10226357728242874,
                        -0.07425527274608612,
                        0.11111216992139816,
                        0.032676853239536285,
                        -0.07762175798416138,
                        0.14814455807209015,
                        -0.021441329270601273,
                        -0.05801573768258095,
                        -0.10690570622682571,
                        -0.7130241990089417,
                        0.07914719730615616,
                        -0.21235638856887817,
                        0.13497455418109894,
                        -0.23362618684768677,
                        0.43780991435050964,
                        0.036408986896276474,
                        -0.06384570151567459,
                        0.08461476117372513,
                        0.07227339595556259,
                        -0.1783629208803177,
                        0.08080753684043884,
                        0.09255359321832657,
                        -0.001431924756616354,
                        -0.03777043893933296,
                        0.10226895660161972,
                        0.6162564754486084,
                        0.23399123549461365,
                        -0.3867979049682617,
                        0.10374148190021515,
                        1.6664141416549683,
                        0.9716634750366211,
                        0.44040828943252563,
                        -0.0908311977982521,
                        -0.06342441588640213,
                        0.46536925435066223,
                        0.1750568300485611,
                        -0.8035050630569458,
                        0.38712844252586365,
                        -0.024951457977294922,
                        -0.5453395843505859,
                        2.797281265258789,
                        -0.08935820311307907,
                        -0.10912295430898666,
                        -0.2939881980419159,
                        -0.02281084842979908,
                        -0.6321936845779419,
                        0.06928180903196335,
                        0.41502636671066284,
                        0.09577329456806183,
                        -0.10760154575109482,
                        0.20612458884716034,
                        -0.1346629410982132,
                        -0.4410414695739746,
                        0.9899455308914185,
                        -0.05659946799278259,
                        -0.037666596472263336,
                        0.11480016261339188
                    ],
                    [
                        0.07209739089012146,
                        -0.07255352288484573,
                        -0.08159122616052628,
                        0.30362582206726074,
                        -0.032564081251621246,
                        -0.014637677930295467,
                        0.024537524208426476,
                        -0.016275545582175255,
                        -0.045478176325559616,
                        -0.029709119349718094,
                        0.06922776997089386,
                        -0.04496100917458534,
                        -0.13709598779678345,
                        0.014243307523429394,
                        -0.018870433792471886,
                        -0.019486019387841225,
                        0.11076951771974564,
                        -0.03581160679459572,
                        0.11790744960308075,
                        -0.1322030872106552,
                        0.14676038920879364,
                        -0.029826166108250618,
                        -0.009492821991443634,
                        -0.285440593957901,
                        -0.09976309537887573,
                        -0.02129415236413479,
                        0.16447949409484863,
                        -0.25458234548568726,
                        -0.037546053528785706,
                        0.03230288252234459,
                        -0.04560776799917221,
                        -0.11083399504423141,
                        0.06333904713392258,
                        0.24366751313209534,
                        -0.040800247341394424,
                        -0.5741222500801086,
                        -0.018063895404338837,
                        0.042976364493370056,
                        0.11699917912483215,
                        0.05537070333957672,
                        0.003492026822641492,
                        0.00916234590113163,
                        -0.2704615592956543,
                        -0.07691683620214462,
                        0.045966777950525284,
                        -0.0965505912899971,
                        -0.16164672374725342,
                        -0.16254524886608124,
                        0.032398760318756104,
                        -0.030154908075928688,
                        -0.026001013815402985,
                        0.025378545746207237,
                        -0.10043341666460037,
                        -0.015632780268788338,
                        0.03506563603878021,
                        -0.027203315868973732,
                        0.16257375478744507,
                        0.04932277277112007,
                        0.012700643390417099,
                        0.06432099640369415,
                        -0.20467548072338104,
                        -0.0425560437142849,
                        -0.04598483815789223,
                        0.15139229595661163
                    ],
                    [
                        -0.16382504999637604,
                        -0.03348200395703316,
                        0.2764131426811218,
                        -0.18954794108867645,
                        0.1432083249092102,
                        0.1342361569404602,
                        -0.019951192662119865,
                        0.28600677847862244,
                        0.05780719593167305,
                        0.13026417791843414,
                        0.0834973156452179,
                        0.10441569238901138,
                        -0.053687866777181625,
                        0.03305711969733238,
                        0.23756594955921173,
                        0.045584894716739655,
                        -0.24037642776966095,
                        0.12453458458185196,
                        0.2830996811389923,
                        0.3196882903575897,
                        -0.02623016946017742,
                        -0.18068251013755798,
                        -0.0626777708530426,
                        0.22587080299854279,
                        -0.09550216794013977,
                        -0.006676807533949614,
                        0.02162792906165123,
                        -0.13649329543113708,
                        -0.10913100838661194,
                        0.1651657372713089,
                        0.1971467286348343,
                        -0.25108155608177185,
                        0.25828009843826294,
                        0.06167730689048767,
                        0.5778912305831909,
                        -0.04694550856947899,
                        0.39894017577171326,
                        0.06628169864416122,
                        -0.06925410032272339,
                        -0.09281706064939499,
                        0.07386509329080582,
                        -0.09854574501514435,
                        0.03469187021255493,
                        0.0393444299697876,
                        -0.6033946871757507,
                        -0.05222311243414879,
                        0.31923678517341614,
                        0.3765527606010437,
                        0.5948849320411682,
                        0.10351023077964783,
                        0.5018584132194519,
                        0.08740545064210892,
                        0.24641300737857819,
                        0.1279359608888626,
                        -0.1921420395374298,
                        -0.1304255574941635,
                        0.1425313502550125,
                        0.014374526217579842,
                        0.09365713596343994,
                        0.17599792778491974,
                        0.1673285961151123,
                        0.16747841238975525,
                        -0.2176022082567215,
                        -0.3636227250099182
                    ],
                    [
                        0.0015253977617248893,
                        0.022130919620394707,
                        0.0827321782708168,
                        -0.05422757938504219,
                        -0.002043110551312566,
                        0.02449527569115162,
                        0.01770646497607231,
                        -0.0965840071439743,
                        0.02272912859916687,
                        0.023984774947166443,
                        0.03334864228963852,
                        0.017109975218772888,
                        -0.06038728356361389,
                        -0.03677138313651085,
                        0.026817774400115013,
                        0.03619680181145668,
                        -0.08596495538949966,
                        0.04513818025588989,
                        -0.10111517459154129,
                        0.11098390072584152,
                        -0.18220053613185883,
                        -0.13759654760360718,
                        -0.03825855627655983,
                        -0.018754275515675545,
                        0.0516577884554863,
                        0.015468437224626541,
                        0.06355878710746765,
                        0.00759124755859375,
                        -0.13512809574604034,
                        -0.047266244888305664,
                        0.03209421783685684,
                        -0.09201570600271225,
                        0.09640941023826599,
                        0.34464073181152344,
                        0.12571381032466888,
                        0.4167313873767853,
                        -0.07029541581869125,
                        0.12856929004192352,
                        0.06819827854633331,
                        0.03677370026707649,
                        -0.0680885761976242,
                        -0.17427490651607513,
                        0.05576874688267708,
                        -0.04681994393467903,
                        0.046547580510377884,
                        0.09096065908670425,
                        0.036109037697315216,
                        -0.011856699362397194,
                        0.014253043569624424,
                        0.009081536903977394,
                        0.070207379758358,
                        0.027268895879387856,
                        -0.0445246696472168,
                        0.022116512060165405,
                        0.04387114569544792,
                        -0.051988404244184494,
                        -0.10682441294193268,
                        0.04907450079917908,
                        -0.007680119015276432,
                        0.03750324249267578,
                        -0.15342071652412415,
                        -0.015928026288747787,
                        -0.0200702715665102,
                        -0.053736623376607895
                    ],
                    [
                        0.5271368622779846,
                        0.21601277589797974,
                        -0.12706468999385834,
                        0.16284196078777313,
                        0.07829437404870987,
                        0.1400507539510727,
                        0.17813006043434143,
                        0.1170981302857399,
                        -0.3938819169998169,
                        0.002055277582257986,
                        0.05942276492714882,
                        -0.10882483422756195,
                        -0.04643432796001434,
                        -0.03726263344287872,
                        -0.07186371088027954,
                        -0.022668158635497093,
                        -0.20603923499584198,
                        -0.10513628274202347,
                        0.1236206591129303,
                        -0.06006059795618057,
                        -0.13288958370685577,
                        0.4440377652645111,
                        -0.0043184892274439335,
                        0.27666154503822327,
                        0.07643047720193863,
                        -0.16177070140838623,
                        -0.17625845968723297,
                        0.0026053478941321373,
                        -0.1373206228017807,
                        -0.022660834714770317,
                        0.05993815138936043,
                        0.1662140041589737,
                        0.10248111188411713,
                        -0.33989784121513367,
                        -0.23053617775440216,
                        0.08115262538194656,
                        -0.13940836489200592,
                        -1.0132864713668823,
                        0.11077924817800522,
                        0.23206596076488495,
                        0.023468323051929474,
                        0.363243043422699,
                        0.08475449681282043,
                        -1.120660662651062,
                        -0.2223273664712906,
                        -0.015142993070185184,
                        -0.12590140104293823,
                        1.6895321607589722,
                        0.13769195973873138,
                        -0.11493822932243347,
                        0.09124746173620224,
                        -0.06198267638683319,
                        -0.0214416291564703,
                        0.13424421846866608,
                        0.4175339639186859,
                        -0.051804281771183014,
                        0.09673777967691422,
                        -0.2231142371892929,
                        -0.12082789093255997,
                        -0.01060616597533226,
                        0.3424515128135681,
                        0.1356673389673233,
                        -0.39163899421691895,
                        0.28653576970100403
                    ],
                    [
                        0.059372562915086746,
                        -0.037612248212099075,
                        -0.08655021339654922,
                        0.1612255722284317,
                        -0.04028163105249405,
                        -0.00749808456748724,
                        -0.14592616260051727,
                        -0.09635096043348312,
                        -0.4290984869003296,
                        -0.012995261698961258,
                        -0.10606972873210907,
                        0.09395502507686615,
                        0.047428421676158905,
                        0.033838581293821335,
                        0.10371260344982147,
                        0.09932038933038712,
                        0.11023993790149689,
                        -0.17886018753051758,
                        -0.13182216882705688,
                        -0.158273383975029,
                        0.600464940071106,
                        0.0642150491476059,
                        -0.07025305181741714,
                        0.08979930728673935,
                        -0.15856631100177765,
                        -0.018442614004015923,
                        -0.05032818391919136,
                        0.2745460271835327,
                        -0.05222894251346588,
                        0.01284703891724348,
                        -0.35293295979499817,
                        -0.024725429713726044,
                        0.4946219325065613,
                        -0.05301351472735405,
                        -0.3005831837654114,
                        0.18112733960151672,
                        1.104071855545044,
                        -0.1371230185031891,
                        0.5425993204116821,
                        -0.022527294233441353,
                        -0.45046645402908325,
                        0.60955411195755,
                        0.2592025399208069,
                        -1.1575604677200317,
                        0.09282492846250534,
                        0.09336472302675247,
                        -0.310870498418808,
                        3.2169415950775146,
                        -0.44122129678726196,
                        0.06505999714136124,
                        -0.23410287499427795,
                        -0.04064873605966568,
                        0.21744385361671448,
                        -0.001946012955158949,
                        -0.08537570387125015,
                        -0.006367598194628954,
                        -0.12437208741903305,
                        -0.10594217479228973,
                        -0.14610882103443146,
                        0.2386838048696518,
                        -0.08552476018667221,
                        -0.026737121865153313,
                        -0.19799469411373138,
                        0.33036985993385315
                    ],
                    [
                        -0.05635790899395943,
                        0.17080903053283691,
                        -0.10256358236074448,
                        0.007977386005222797,
                        0.1802985668182373,
                        0.06247798353433609,
                        -0.034012794494628906,
                        -0.1632285714149475,
                        0.4757534861564636,
                        0.20761485397815704,
                        -0.08344938606023788,
                        0.0017720054602250457,
                        0.1026114895939827,
                        0.028175458312034607,
                        -0.0060859667137265205,
                        0.08268346637487411,
                        0.11813433468341827,
                        -0.002086145104840398,
                        -0.3872890770435333,
                        -0.06965947896242142,
                        0.1762794554233551,
                        -0.025425517931580544,
                        -0.07323591411113739,
                        0.022015387192368507,
                        -0.23331575095653534,
                        0.1804163008928299,
                        -0.164327472448349,
                        0.03510253131389618,
                        0.08072411268949509,
                        0.12574946880340576,
                        -0.03067408874630928,
                        -0.15187613666057587,
                        0.058373067528009415,
                        -0.025069085881114006,
                        -0.12228300422430038,
                        -0.18267762660980225,
                        0.06321704387664795,
                        -0.12867338955402374,
                        -0.016934983432292938,
                        -0.1957845240831375,
                        -0.1014665886759758,
                        -0.060588810592889786,
                        0.2993081510066986,
                        -0.46278759837150574,
                        0.19253860414028168,
                        -0.05560906231403351,
                        0.2852402627468109,
                        0.233251690864563,
                        0.08942791819572449,
                        -0.0343378446996212,
                        -0.07121666520833969,
                        -0.09190203249454498,
                        0.17875134944915771,
                        0.06475529074668884,
                        -0.04317362979054451,
                        -0.14618559181690216,
                        0.042495351284742355,
                        0.11221752315759659,
                        -0.012495358474552631,
                        -0.2437540739774704,
                        0.19591978192329407,
                        0.16586679220199585,
                        0.08341865986585617,
                        0.32240498065948486
                    ],
                    [
                        0.3334684371948242,
                        -0.3580712378025055,
                        -0.6278246641159058,
                        -0.0858309268951416,
                        0.14315584301948547,
                        0.25787684321403503,
                        -0.08274439722299576,
                        -0.07034587860107422,
                        -0.1261458843946457,
                        0.07257628440856934,
                        -0.21349261701107025,
                        0.18263982236385345,
                        -0.301372766494751,
                        0.015152561478316784,
                        -0.32774361968040466,
                        0.27792927622795105,
                        0.03388525918126106,
                        0.35384896397590637,
                        0.24111026525497437,
                        0.48202911019325256,
                        -0.19891557097434998,
                        0.06551334261894226,
                        0.07833171635866165,
                        0.8137633800506592,
                        0.43179288506507874,
                        0.03619646653532982,
                        -0.3701493740081787,
                        0.1259876787662506,
                        0.14421215653419495,
                        0.078583262860775,
                        0.10745035856962204,
                        0.09573041647672653,
                        -0.17550547420978546,
                        -0.042589668184518814,
                        -0.12649519741535187,
                        -0.16376180946826935,
                        -0.024377640336751938,
                        -0.23751921951770782,
                        -0.11490681767463684,
                        0.10523542016744614,
                        0.06965379416942596,
                        -0.3260478079319,
                        0.12802153825759888,
                        0.06677823513746262,
                        0.18592441082000732,
                        -0.0037954419385641813,
                        -0.13134600222110748,
                        -0.23333880305290222,
                        0.04406652972102165,
                        0.0959550142288208,
                        0.0752544179558754,
                        0.2123008668422699,
                        -0.13513034582138062,
                        0.26085108518600464,
                        0.10844928026199341,
                        0.46816182136535645,
                        0.08835019916296005,
                        0.10064153373241425,
                        -0.045482806861400604,
                        -0.00505157420411706,
                        -0.03129572793841362,
                        0.25868305563926697,
                        0.43323633074760437,
                        0.13589653372764587
                    ],
                    [
                        -0.02089628204703331,
                        -0.07861489057540894,
                        -0.011598292738199234,
                        0.05576280504465103,
                        -0.05223795026540756,
                        -0.004325632005929947,
                        -0.004877862986177206,
                        0.0020524857100099325,
                        -0.038036804646253586,
                        0.06431838124990463,
                        0.09048192948102951,
                        0.018761595711112022,
                        -0.07433991879224777,
                        0.11163133382797241,
                        0.31581079959869385,
                        -0.021836573258042336,
                        -0.12131915986537933,
                        -0.05268998444080353,
                        -0.0015131238615140319,
                        0.017207661643624306,
                        -0.14758874475955963,
                        -0.04737802967429161,
                        -0.03046358749270439,
                        -0.061819013208150864,
                        0.10448016971349716,
                        0.023047033697366714,
                        0.055442653596401215,
                        0.06369934231042862,
                        0.027023211121559143,
                        0.23274798691272736,
                        -0.042708273977041245,
                        0.03712744265794754,
                        1.4195305109024048,
                        0.01500257384032011,
                        -0.0608353316783905,
                        0.039583366364240646,
                        -0.16456027328968048,
                        0.9217839241027832,
                        0.006209747865796089,
                        0.012219559401273727,
                        0.006769794039428234,
                        0.03706381097435951,
                        0.15532493591308594,
                        -0.17193590104579926,
                        0.012374729849398136,
                        -0.38061144948005676,
                        -0.04037129133939743,
                        0.046340931206941605,
                        0.11135683208703995,
                        -0.012436939403414726,
                        -0.05675175413489342,
                        0.06529732793569565,
                        -0.04575889930129051,
                        -0.006605225149542093,
                        -0.024306930601596832,
                        -0.06760280579328537,
                        0.01674342155456543,
                        0.04479074478149414,
                        0.033572278916835785,
                        0.024467479437589645,
                        -0.20728226006031036,
                        0.006684493273496628,
                        0.025313058868050575,
                        0.12285228818655014
                    ],
                    [
                        -0.14831532537937164,
                        0.024423379451036453,
                        -0.08122042566537857,
                        0.0902605652809143,
                        -0.2466239333152771,
                        -0.28157368302345276,
                        -0.08836065977811813,
                        0.29172712564468384,
                        0.7798165082931519,
                        0.047643352299928665,
                        0.04265061020851135,
                        -0.15798644721508026,
                        0.10806102305650711,
                        -0.045971281826496124,
                        0.17854340374469757,
                        -0.34433868527412415,
                        0.16972234845161438,
                        -0.005499572493135929,
                        -0.0767345204949379,
                        0.06473250687122345,
                        -0.18882004916667938,
                        0.010847935453057289,
                        -0.0030907071195542812,
                        -0.02892877720296383,
                        -0.39605507254600525,
                        0.21908187866210938,
                        0.10127279907464981,
                        -0.016069086268544197,
                        -0.06012892723083496,
                        -0.10763660818338394,
                        0.21822763979434967,
                        0.2843383848667145,
                        0.025271203368902206,
                        -0.0580742210149765,
                        -0.11532630026340485,
                        0.017451347783207893,
                        -0.2240886390209198,
                        -0.36087343096733093,
                        -0.03654707968235016,
                        0.15198436379432678,
                        -0.10392119735479355,
                        0.36819490790367126,
                        -0.20350085198879242,
                        0.13659155368804932,
                        0.08013851940631866,
                        0.07452961802482605,
                        0.018423086032271385,
                        0.11841851472854614,
                        -0.31959283351898193,
                        -0.04733489826321602,
                        -0.28430235385894775,
                        0.0428176186978817,
                        -0.3472568988800049,
                        -0.31516504287719727,
                        -0.15290474891662598,
                        0.031682875007390976,
                        0.13436010479927063,
                        0.1090163066983223,
                        -0.11846849322319031,
                        -0.26903530955314636,
                        0.00921656284481287,
                        -0.11256574839353561,
                        0.24548377096652985,
                        -0.07402011007070541
                    ],
                    [
                        -0.17984209954738617,
                        0.7179993391036987,
                        0.5330607891082764,
                        0.8323714137077332,
                        -0.38888639211654663,
                        -0.4773835241794586,
                        -0.06141090393066406,
                        0.19702403247356415,
                        0.6303191781044006,
                        -0.14179740846157074,
                        -0.20893071591854095,
                        -0.35117021203041077,
                        0.29317423701286316,
                        -0.1460866928100586,
                        -0.05827368423342705,
                        -0.40017399191856384,
                        0.04246952757239342,
                        -0.8992902040481567,
                        -0.7522444128990173,
                        -1.017391324043274,
                        -0.18280115723609924,
                        0.3713097870349884,
                        -0.37109026312828064,
                        -0.6180136203765869,
                        -0.9794281125068665,
                        -0.031119830906391144,
                        -0.43556010723114014,
                        -0.1358029842376709,
                        -0.46833986043930054,
                        -0.42421361804008484,
                        -0.587883710861206,
                        0.13554264605045319,
                        0.18136020004749298,
                        0.030061719939112663,
                        0.06673088669776917,
                        0.42408108711242676,
                        0.30937671661376953,
                        -0.21885259449481964,
                        -0.17927274107933044,
                        0.13582444190979004,
                        0.06291776150465012,
                        0.1712748110294342,
                        0.47730395197868347,
                        -0.020934991538524628,
                        -0.13608263432979584,
                        0.18854697048664093,
                        -0.31254684925079346,
                        0.34083274006843567,
                        -0.18719765543937683,
                        -0.29546186327934265,
                        -0.47294625639915466,
                        -0.10424541682004929,
                        -0.5712469220161438,
                        -0.47659212350845337,
                        -0.15154463052749634,
                        -0.24139757454395294,
                        -0.24410516023635864,
                        -0.17528203129768372,
                        -0.7076689600944519,
                        -0.29563117027282715,
                        0.1183830052614212,
                        -0.6133871078491211,
                        -0.1090422049164772,
                        0.38093236088752747
                    ],
                    [
                        -0.7156658172607422,
                        -0.10779362171888351,
                        0.17338897287845612,
                        -0.17829479277133942,
                        -0.3700966238975525,
                        -0.4740082621574402,
                        -0.3313232660293579,
                        0.2660544216632843,
                        0.6349939107894897,
                        -0.12594333291053772,
                        0.001961277099326253,
                        -0.1463581919670105,
                        0.13793087005615234,
                        0.0809016302227974,
                        -0.39017701148986816,
                        -0.39549070596694946,
                        -0.26731252670288086,
                        0.09028064459562302,
                        -0.5721599459648132,
                        -0.020606614649295807,
                        0.03978225961327553,
                        0.12132932245731354,
                        -0.3621140420436859,
                        -0.12185455113649368,
                        -0.5266949534416199,
                        0.0511150099337101,
                        -0.0768442302942276,
                        -0.11729226261377335,
                        0.01758531481027603,
                        0.13194340467453003,
                        -0.14702525734901428,
                        0.12619663774967194,
                        0.00507025420665741,
                        -0.09075552225112915,
                        0.17238140106201172,
                        0.09393337368965149,
                        0.29676616191864014,
                        0.24597376585006714,
                        0.28312888741493225,
                        0.05671107396483421,
                        0.05371500551700592,
                        0.2707093358039856,
                        0.007938525639474392,
                        -0.4884289503097534,
                        0.0631454586982727,
                        -0.14217542111873627,
                        -0.022279275581240654,
                        -0.004760194104164839,
                        -0.055549390614032745,
                        -0.07621318846940994,
                        -0.29143205285072327,
                        0.03606095537543297,
                        -0.30781179666519165,
                        -0.4628511071205139,
                        -0.3235774040222168,
                        -0.01730266958475113,
                        0.0914556235074997,
                        -0.11597753316164017,
                        -0.13084156811237335,
                        0.08041039854288101,
                        -0.3024319112300873,
                        -0.2566845417022705,
                        -0.18150576949119568,
                        -0.27356231212615967
                    ],
                    [
                        0.699897825717926,
                        -0.2712565064430237,
                        -0.5483697056770325,
                        -0.37981659173965454,
                        0.325895756483078,
                        0.4250543713569641,
                        -0.026061516255140305,
                        -0.104449063539505,
                        -0.6154941320419312,
                        0.1946924477815628,
                        0.01651991717517376,
                        0.2525225877761841,
                        0.1434953361749649,
                        0.017534058541059494,
                        0.058303289115428925,
                        0.5110058188438416,
                        0.23382844030857086,
                        0.4142632484436035,
                        0.18702919781208038,
                        0.5158615112304688,
                        -0.04483334720134735,
                        -0.004403889179229736,
                        0.20990699529647827,
                        0.9011964797973633,
                        0.5877113342285156,
                        0.1120830625295639,
                        0.36995601654052734,
                        0.17695856094360352,
                        0.5771522521972656,
                        0.15004080533981323,
                        0.8973789811134338,
                        0.20818202197551727,
                        -0.2965998649597168,
                        0.03921214118599892,
                        -0.5694894194602966,
                        0.21003995835781097,
                        0.1965995877981186,
                        0.11081243306398392,
                        -0.015724118798971176,
                        0.010840251110494137,
                        -0.2145967334508896,
                        0.29062506556510925,
                        -0.04314471408724785,
                        -0.3647324740886688,
                        0.18310584127902985,
                        0.017045270651578903,
                        -0.10186972469091415,
                        0.5177969336509705,
                        0.4750646948814392,
                        0.213846355676651,
                        -0.14385268092155457,
                        0.031575124710798264,
                        0.14548011124134064,
                        0.4202595353126526,
                        0.15434901416301727,
                        0.4687305688858032,
                        0.08416162431240082,
                        0.21023830771446228,
                        0.229295551776886,
                        -0.022481288760900497,
                        0.5317553281784058,
                        0.31851232051849365,
                        0.6087388396263123,
                        1.0545647144317627
                    ],
                    [
                        -0.4972750246524811,
                        0.5585489869117737,
                        0.5672029852867126,
                        0.8616174459457397,
                        -0.37566065788269043,
                        -0.5015915036201477,
                        0.12703891098499298,
                        0.049592599272727966,
                        0.6664683222770691,
                        -0.18918359279632568,
                        -0.061578039079904556,
                        -0.35866591334342957,
                        0.08251909166574478,
                        -0.12679074704647064,
                        0.2598177492618561,
                        -0.4326767921447754,
                        0.09267525374889374,
                        -0.8477594256401062,
                        -0.49547672271728516,
                        -0.935032308101654,
                        0.0924905315041542,
                        -0.14310495555400848,
                        -0.20668213069438934,
                        -0.9672253727912903,
                        -0.8243435621261597,
                        -0.03810832276940346,
                        -0.31389251351356506,
                        -0.17103372514247894,
                        -0.3955545425415039,
                        -0.3322504758834839,
                        -0.4157160520553589,
                        0.10902859270572662,
                        -0.37565746903419495,
                        -0.08603943139314651,
                        -0.16309113800525665,
                        -0.08886121213436127,
                        -0.07059226930141449,
                        -0.10779266804456711,
                        -0.006154246628284454,
                        -0.2637331485748291,
                        -0.19685889780521393,
                        -0.025472665205597878,
                        0.1583975851535797,
                        0.041048578917980194,
                        -0.383729487657547,
                        0.1213667094707489,
                        -0.12198609113693237,
                        -0.3753643035888672,
                        -0.4390098750591278,
                        -0.3159177303314209,
                        -0.06733782589435577,
                        -0.0685923770070076,
                        -0.30320337414741516,
                        -0.5057917237281799,
                        -0.037692539393901825,
                        -0.4570152461528778,
                        -0.3805520534515381,
                        -0.18466341495513916,
                        -0.42552730441093445,
                        -0.19197431206703186,
                        -0.105290487408638,
                        -0.6147624850273132,
                        -0.24900071322917938,
                        0.1317310929298401
                    ],
                    [
                        0.3835487961769104,
                        -0.21384570002555847,
                        -0.3738778233528137,
                        -0.09547466784715652,
                        0.3449636697769165,
                        0.3411688208580017,
                        0.03902936354279518,
                        -0.019707905128598213,
                        0.10879294574260712,
                        0.08338586241006851,
                        -0.06091894954442978,
                        0.1742687076330185,
                        -0.23373258113861084,
                        -0.038065582513809204,
                        -0.29513195157051086,
                        0.5132125020027161,
                        -0.17230792343616486,
                        -0.08594726771116257,
                        -0.034809667617082596,
                        0.08982657641172409,
                        0.37157702445983887,
                        0.23598001897335052,
                        0.1257496327161789,
                        0.47515079379081726,
                        0.04429958760738373,
                        -0.22324779629707336,
                        -0.061341479420661926,
                        0.24718330800533295,
                        -0.11808224022388458,
                        0.009409348480403423,
                        -0.28725120425224304,
                        -0.22595062851905823,
                        -0.08661647886037827,
                        0.010804641991853714,
                        0.31668078899383545,
                        0.05683407559990883,
                        -0.05048689618706703,
                        0.5639998912811279,
                        0.44663286209106445,
                        -0.11659856885671616,
                        0.26153212785720825,
                        -0.29926562309265137,
                        0.08132914453744888,
                        -0.03858700022101402,
                        0.037655506283044815,
                        0.011147820390760899,
                        -0.003351188963279128,
                        0.05546022951602936,
                        1.162596583366394,
                        -0.01619209535419941,
                        -0.002948248526081443,
                        -0.006972309667617083,
                        0.6580083966255188,
                        0.3529338538646698,
                        -0.1881486177444458,
                        0.09966932982206345,
                        0.04977349936962128,
                        -0.04647926986217499,
                        0.022545751184225082,
                        0.04146624356508255,
                        0.17340676486492157,
                        0.411111444234848,
                        0.1374271959066391,
                        0.8274181485176086
                    ],
                    [
                        0.1928071826696396,
                        -0.01868469826877117,
                        0.27466022968292236,
                        -0.05066673085093498,
                        0.047959133982658386,
                        0.038173992186784744,
                        0.3204047977924347,
                        0.13912226259708405,
                        -0.016244137659668922,
                        0.11684231460094452,
                        -0.03200221806764603,
                        -0.17441412806510925,
                        -0.02620854414999485,
                        -0.052078209817409515,
                        0.15779270231723785,
                        0.0011829737341031432,
                        0.13878431916236877,
                        -0.008156533353030682,
                        -0.3235715329647064,
                        -0.12739713490009308,
                        -0.20949698984622955,
                        0.2009885162115097,
                        -0.05050249770283699,
                        -0.16177231073379517,
                        -0.042376745492219925,
                        0.11868385225534439,
                        -0.37259963154792786,
                        -0.06487830728292465,
                        0.013701378367841244,
                        -0.014921327121555805,
                        0.07923572510480881,
                        -0.030941253527998924,
                        0.19238680601119995,
                        0.19405290484428406,
                        -0.14834485948085785,
                        -0.17579768598079681,
                        0.0935131311416626,
                        -0.5209391117095947,
                        -0.26008108258247375,
                        -0.12186300754547119,
                        -0.2528974115848541,
                        0.05119599774479866,
                        -0.002937805838882923,
                        -0.16348183155059814,
                        0.03296612948179245,
                        -0.025327209383249283,
                        0.19752034544944763,
                        1.6293914318084717,
                        0.7233277559280396,
                        -0.09208676218986511,
                        0.023489294573664665,
                        0.011191729456186295,
                        -0.26718050241470337,
                        0.023938650265336037,
                        0.13441097736358643,
                        -0.26687780022621155,
                        0.0007673880318179727,
                        0.42474910616874695,
                        -0.09707704931497574,
                        -0.7702245712280273,
                        0.5091525912284851,
                        -0.40356916189193726,
                        0.35509708523750305,
                        0.10812576115131378
                    ]
                ],
                [
                    1.1389553546905518,
                    -1.3802307844161987,
                    -0.7721152901649475,
                    -1.873279333114624,
                    0.8915635347366333,
                    1.159454107284546,
                    -0.19097653031349182,
                    -1.3150827884674072,
                    -1.2129216194152832,
                    0.4773028492927551,
                    0.40777555108070374,
                    0.8244361877441406,
                    0.20696057379245758,
                    0.2796191871166229,
                    -0.9643326997756958,
                    0.9068567752838135,
                    0.6076226234436035,
                    2.1130318641662598,
                    1.5464246273040771,
                    2.554694652557373,
                    -0.053655337542295456,
                    0.09761355072259903,
                    0.621437668800354,
                    0.4469582140445709,
                    2.049074172973633,
                    0.297895610332489,
                    0.7105270028114319,
                    0.4620792269706726,
                    1.1823652982711792,
                    0.8047293424606323,
                    1.0738298892974854,
                    -0.28762489557266235,
                    0.20013758540153503,
                    -0.17084667086601257,
                    0.3182212710380554,
                    0.23789691925048828,
                    0.12920615077018738,
                    -0.5355117321014404,
                    -0.15056483447551727,
                    0.2159324288368225,
                    -0.19393369555473328,
                    -0.02605784684419632,
                    -0.27627328038215637,
                    -0.34486889839172363,
                    0.046383246779441833,
                    -0.4232051968574524,
                    0.02750171720981598,
                    -0.5359176397323608,
                    0.7345948219299316,
                    0.7207828760147095,
                    0.3467230796813965,
                    0.2534807026386261,
                    0.822121262550354,
                    1.1858763694763184,
                    0.2287192940711975,
                    0.1751631796360016,
                    0.7110710144042969,
                    0.5459363460540771,
                    1.1467278003692627,
                    0.4138476252555847,
                    0.45357418060302734,
                    0.7421925067901611,
                    0.4092977046966553,
                    -0.5134693384170532
                ]
            ]
        },
        {
            "type": "dense",
            "activation": "",
            "shape": [
                null,
                null,
                1
            ],
            "weights": [
                [
                    [
                        -0.13788406550884247
                    ],
                    [
                        -1.2009068727493286
                    ],
                    [
                        -0.3398105502128601
                    ],
                    [
                        -0.6075568199157715
                    ],
                    [
                        0.5651053190231323
                    ],
                    [
                        -0.01257451344281435
                    ],
                    [
                        -0.5285215377807617
                    ],
                    [
                        -0.32263392210006714
                    ],
                    [
                        0.018305370584130287
                    ],
                    [
                        0.22038064897060394
                    ],
                    [
                        0.17373089492321014
                    ],
                    [
                        0.35210612416267395
                    ],
                    [
                        0.18105782568454742
                    ],
                    [
                        -0.05596240237355232
                    ],
                    [
                        0.510601818561554
                    ],
                    [
                        -0.8361376523971558
                    ]
                ],
                [
                    0.2124805599451065
                ]
            ]
        }
    ]
}